{"learner":{"attributes":{"scikit_learn":"{\"_estimator_type\": \"regressor\"}"},"feature_names":["surface_numeric","pieces","chambres","sallesdebain","meuble","neuf","parking","ascenseur","balcon_terrasse","climatisation","chauffage","jardin","piscine"],"feature_types":["float","float","float","float","float","float","float","float","float","float","float","float","float"],"gradient_booster":{"model":{"cats":{"enc":[],"feature_segments":[],"sorted_idx":[]},"gbtree_model_param":{"num_parallel_tree":"1","num_trees":"459"},"iteration_indptr":[0,1,2,3,4,5,6,7,8,9,10,11,12,13,14,15,16,17,18,19,20,21,22,23,24,25,26,27,28,29,30,31,32,33,34,35,36,37,38,39,40,41,42,43,44,45,46,47,48,49,50,51,52,53,54,55,56,57,58,59,60,61,62,63,64,65,66,67,68,69,70,71,72,73,74,75,76,77,78,79,80,81,82,83,84,85,86,87,88,89,90,91,92,93,94,95,96,97,98,99,100,101,102,103,104,105,106,107,108,109,110,111,112,113,114,115,116,117,118,119,120,121,122,123,124,125,126,127,128,129,130,131,132,133,134,135,136,137,138,139,140,141,142,143,144,145,146,147,148,149,150,151,152,153,154,155,156,157,158,159,160,161,162,163,164,165,166,167,168,169,170,171,172,173,174,175,176,177,178,179,180,181,182,183,184,185,186,187,188,189,190,191,192,193,194,195,196,197,198,199,200,201,202,203,204,205,206,207,208,209,210,211,212,213,214,215,216,217,218,219,220,221,222,223,224,225,226,227,228,229,230,231,232,233,234,235,236,237,238,239,240,241,242,243,244,245,246,247,248,249,250,251,252,253,254,255,256,257,258,259,260,261,262,263,264,265,266,267,268,269,270,271,272,273,274,275,276,277,278,279,280,281,282,283,284,285,286,287,288,289,290,291,292,293,294,295,296,297,298,299,300,301,302,303,304,305,306,307,308,309,310,311,312,313,314,315,316,317,318,319,320,321,322,323,324,325,326,327,328,329,330,331,332,333,334,335,336,337,338,339,340,341,342,343,344,345,346,347,348,349,350,351,352,353,354,355,356,357,358,359,360,361,362,363,364,365,366,367,368,369,370,371,372,373,374,375,376,377,378,379,380,381,382,383,384,385,386,387,388,389,390,391,392,393,394,395,396,397,398,399,400,401,402,403,404,405,406,407,408,409,410,411,412,413,414,415,416,417,418,419,420,421,422,423,424,425,426,427,428,429,430,431,432,433,434,435,436,437,438,439,440,441,442,443,444,445,446,447,448,449,450,451,452,453,454,455,456,457,458,459],"tree_info":[0,0,0,0,0,0,0,0,0,0,0,0,0,0,0,0,0,0,0,0,0,0,0,0,0,0,0,0,0,0,0,0,0,0,0,0,0,0,0,0,0,0,0,0,0,0,0,0,0,0,0,0,0,0,0,0,0,0,0,0,0,0,0,0,0,0,0,0,0,0,0,0,0,0,0,0,0,0,0,0,0,0,0,0,0,0,0,0,0,0,0,0,0,0,0,0,0,0,0,0,0,0,0,0,0,0,0,0,0,0,0,0,0,0,0,0,0,0,0,0,0,0,0,0,0,0,0,0,0,0,0,0,0,0,0,0,0,0,0,0,0,0,0,0,0,0,0,0,0,0,0,0,0,0,0,0,0,0,0,0,0,0,0,0,0,0,0,0,0,0,0,0,0,0,0,0,0,0,0,0,0,0,0,0,0,0,0,0,0,0,0,0,0,0,0,0,0,0,0,0,0,0,0,0,0,0,0,0,0,0,0,0,0,0,0,0,0,0,0,0,0,0,0,0,0,0,0,0,0,0,0,0,0,0,0,0,0,0,0,0,0,0,0,0,0,0,0,0,0,0,0,0,0,0,0,0,0,0,0,0,0,0,0,0,0,0,0,0,0,0,0,0,0,0,0,0,0,0,0,0,0,0,0,0,0,0,0,0,0,0,0,0,0,0,0,0,0,0,0,0,0,0,0,0,0,0,0,0,0,0,0,0,0,0,0,0,0,0,0,0,0,0,0,0,0,0,0,0,0,0,0,0,0,0,0,0,0,0,0,0,0,0,0,0,0,0,0,0,0,0,0,0,0,0,0,0,0,0,0,0,0,0,0,0,0,0,0,0,0,0,0,0,0,0,0,0,0,0,0,0,0,0,0,0,0,0,0,0,0,0,0,0,0,0,0,0,0,0,0,0,0,0,0,0,0,0,0,0,0,0,0,0,0,0,0,0,0,0,0,0,0,0,0,0,0,0,0,0,0,0,0,0,0,0,0,0,0,0,0,0,0,0,0,0,0,0,0,0,0,0,0,0,0,0,0,0,0,0,0],"trees":[{"base_weights":[7.150543E3,-5.0098545E6,2.0829878E7,-8.890197E4,-3.369141E6,5.136752E8,-1.9688061E6,5.0148325E6,-8.45517E4,1.1140898E7,-4.6152996E4,-3.811607E6,-1.5666222E5,-7.417724E4,4.4593775E5,-7.145078E4,-1.7784458E6,-5.683415E5,2.8062842E6,3.0379057E4,-4.2237664E4,-8.423973E5,6.936365E4,-2.5028766E4,3.755832E6,-2.1691004E4,2.3650025E4,1.1332618E4,7.3505375E4],"categories":[],"categories_nodes":[],"categories_segments":[],"categories_sizes":[],"default_left":[0,0,0,0,0,0,0,0,0,0,0,0,0,0,0,0,0,0,0,0,0,0,0,0,0,0,0,0,0],"id":0,"left_children":[1,3,5,-1,7,9,11,13,-1,-1,-1,15,17,-1,-1,-1,19,21,23,-1,-1,25,-1,-1,27,-1,-1,-1,-1],"loss_changes":[6.0800103E16,7.854529E13,1.2707048E18,0E0,4.8145516E14,3.3669506E17,3.633997E14,1.2674607E15,0E0,0E0,0E0,2.7237743E13,6.990281E13,0E0,0E0,0E0,2.5295162E13,6.6055876E13,3.3689967E13,0E0,0E0,4.5205445E13,0E0,0E0,6.327653E12,0E0,0E0,0E0,0E0],"parents":[2147483647,0,0,1,1,2,2,4,4,5,5,6,6,7,7,11,11,12,12,16,16,17,17,18,18,21,21,24,24],"right_children":[2,4,6,-1,8,10,12,14,-1,-1,-1,16,18,-1,-1,-1,20,22,24,-1,-1,26,-1,-1,28,-1,-1,-1,-1],"split_conditions":[3.5E2,1E0,3.7E2,-8.890197E4,1E0,1E0,1.4E3,5.9E1,-8.45517E4,1.1140898E7,-4.6152996E4,1E0,1E0,-7.417724E4,4.4593775E5,-7.145078E4,6.9E2,1E0,2.368E3,3.0379057E4,-4.2237664E4,1E0,6.936365E4,-2.5028766E4,1E0,-2.1691004E4,2.3650025E4,1.1332618E4,7.3505375E4],"split_indices":[0,10,0,0,9,4,0,0,0,0,0,5,8,0,0,0,0,10,0,0,0,7,0,0,6,0,0,0,0],"split_type":[0,0,0,0,0,0,0,0,0,0,0,0,0,0,0,0,0,0,0,0,0,0,0,0,0,0,0,0,0],"sum_hessian":[5.8E2,4.68E2,1.12E2,4.33E2,3.5E1,4E0,1.08E2,5E0,3E1,3E0,1E0,5.3E1,5.5E1,4E0,1E0,4.5E1,8E0,4.9E1,6E0,1E0,7E0,4.7E1,2E0,1E0,5E0,4E1,7E0,1E0,4E0],"tree_param":{"num_deleted":"0","num_feature":"13","num_nodes":"29","size_leaf_vector":"1"}},{"base_weights":[1.4927446E4,-4.923781E6,2.0468916E7,-8.73916E4,-3.3028268E6,1.3707965E7,6.514459E6,4.9899605E6,-8.313493E4,1.8726722E8,-1.9140435E6,-7.314974E4,4.4207703E5,-9.25801E6,8.426908E6,-3.7401255E6,-1.5160795E5,-1.8323361E5,-4.575343E4,-4.0552428E6,-1.7489699E6,-1.7745051E6,8.728305E5,-7.561768E4,-5.1103867E4,3.011605E4,-4.1597742E4,-4.0917574E4,2.5368457E4,-1.7330748E4,3.756746E4],"categories":[],"categories_nodes":[],"categories_segments":[],"categories_sizes":[],"default_left":[0,0,0,0,0,0,0,0,0,0,0,0,0,0,0,0,0,0,0,0,0,0,0,0,0,0,0,0,0,0,0],"id":1,"left_children":[1,3,5,-1,7,-1,9,11,-1,13,15,-1,-1,17,-1,19,21,-1,-1,23,25,27,29,-1,-1,-1,-1,-1,-1,-1,-1],"loss_changes":[5.869023E16,7.69379E13,1.210936E18,0E0,4.7132505E14,0E0,1.7098766E17,1.2435584E15,0E0,2.9872054E17,3.4701494E14,0E0,0E0,7.0832064E12,0E0,2.6162256E13,9.465211E13,0E0,0E0,2.6054345E12,2.4693252E13,4.541503E13,8.7218715E13,0E0,0E0,0E0,0E0,0E0,0E0,0E0,0E0],"parents":[2147483647,0,0,1,1,2,2,4,4,6,6,7,7,9,9,10,10,13,13,15,15,16,16,19,19,20,20,21,21,22,22],"right_children":[2,4,6,-1,8,-1,10,12,-1,14,16,-1,-1,18,-1,20,22,-1,-1,24,26,28,30,-1,-1,-1,-1,-1,-1,-1,-1],"split_conditions":[3.5E2,1E0,3.51E2,-8.73916E4,1E0,1.3707965E7,3.7E2,5.9E1,-8.313493E4,2E0,1.4E3,-7.314974E4,4.4207703E5,1E0,8.426908E6,1E0,2E0,-1.8323361E5,-4.575343E4,4E0,6.9E2,1E0,2.5E3,-7.561768E4,-5.1103867E4,3.011605E4,-4.1597742E4,-4.0917574E4,2.5368457E4,-1.7330748E4,3.756746E4],"split_indices":[0,10,0,0,9,0,0,0,0,3,0,0,0,4,0,5,3,0,0,3,0,9,0,0,0,0,0,0,0,0,0],"split_type":[0,0,0,0,0,0,0,0,0,0,0,0,0,0,0,0,0,0,0,0,0,0,0,0,0,0,0,0,0,0,0],"sum_hessian":[5.79E2,4.67E2,1.12E2,4.32E2,3.5E1,1E0,1.11E2,5E0,3E1,4E0,1.07E2,4E0,1E0,3E0,1E0,5.2E1,5.5E1,2E0,1E0,4.4E1,8E0,2.1E1,3.4E1,3.2E1,1.2E1,1E0,7E0,1.8E1,3E0,1.4E1,2E1],"tree_param":{"num_deleted":"0","num_feature":"13","num_nodes":"31","size_leaf_vector":"1"}},{"base_weights":[5.4433324E4,-4.837463E6,2.0093568E7,-8.5874836E4,-3.2376998E6,1.3589289E7,6.3805885E6,4.9650475E6,-8.1741875E4,1.8566427E8,-1.9019712E6,-7.2136484E4,4.3824975E5,-9.154955E6,8.3539515E6,-3.6847502E6,-1.4889925E5,-1.8111848E5,-4.535732E4,-3.989062E6,-1.7199625E6,-1.7444865E6,8.5829556E5,-7.422076E4,-5.028707E4,2.9855322E4,-4.096752E4,-4.0246375E4,2.5039016E4,-1.7050678E4,3.6947953E4],"categories":[],"categories_nodes":[],"categories_segments":[],"categories_sizes":[],"default_left":[0,0,0,0,0,0,0,0,0,0,0,0,0,0,0,0,0,0,0,0,0,0,0,0,0,0,0,0,0,0,0],"id":2,"left_children":[1,3,5,-1,7,-1,9,11,-1,13,15,-1,-1,17,-1,19,21,-1,-1,23,25,27,29,-1,-1,-1,-1,-1,-1,-1,-1],"loss_changes":[5.695424E16,7.517374E13,1.1904893E18,0E0,4.6142277E14,0E0,1.6814998E17,1.2201154E15,0E0,2.9353487E17,3.4011343E14,0E0,0E0,6.721221E12,0E0,2.5425938E13,9.1493054E13,0E0,0E0,2.3940416E12,2.410608E13,4.4065035E13,8.4384145E13,0E0,0E0,0E0,0E0,0E0,0E0,0E0,0E0],"parents":[2147483647,0,0,1,1,2,2,4,4,6,6,7,7,9,9,10,10,13,13,15,15,16,16,19,19,20,20,21,21,22,22],"right_children":[2,4,6,-1,8,-1,10,12,-1,14,16,-1,-1,18,-1,20,22,-1,-1,24,26,28,30,-1,-1,-1,-1,-1,-1,-1,-1],"split_conditions":[3.5E2,1E0,3.51E2,-8.5874836E4,1E0,1.3589289E7,3.7E2,5.9E1,-8.1741875E4,2E0,1.4E3,-7.2136484E4,4.3824975E5,1E0,8.3539515E6,1E0,2E0,-1.8111848E5,-4.535732E4,4E0,6.9E2,1E0,2.5E3,-7.422076E4,-5.028707E4,2.9855322E4,-4.096752E4,-4.0246375E4,2.5039016E4,-1.7050678E4,3.6947953E4],"split_indices":[0,10,0,0,9,0,0,0,0,3,0,0,0,6,0,5,3,0,0,3,0,9,0,0,0,0,0,0,0,0,0],"split_type":[0,0,0,0,0,0,0,0,0,0,0,0,0,0,0,0,0,0,0,0,0,0,0,0,0,0,0,0,0,0,0],"sum_hessian":[5.79E2,4.66E2,1.13E2,4.31E2,3.5E1,1E0,1.12E2,5E0,3E1,4E0,1.08E2,4E0,1E0,3E0,1E0,5.3E1,5.5E1,2E0,1E0,4.5E1,8E0,2.1E1,3.4E1,3.3E1,1.2E1,1E0,7E0,1.8E1,3E0,1.4E1,2E1],"tree_param":{"num_deleted":"0","num_feature":"13","num_nodes":"31","size_leaf_vector":"1"}},{"base_weights":[9.23951E4,-4.7516075E6,1.9934998E7,-8.436009E4,-3.1737398E6,1.3471641E7,6.340875E6,4.940097E6,-8.037218E4,1.84075E8,-1.8702399E6,-7.113725E4,4.3445566E5,-9.053056E6,8.2816275E6,-3.6234602E6,-1.4623734E5,-1.790278E5,-4.4964637E4,-3.922698E6,-1.6914161E6,-1.714972E6,8.440026E5,-7.297343E4,-4.9483332E4,2.959685E4,-4.0346832E4,-3.9586188E4,2.4713854E4,-1.677513E4,3.6338668E4],"categories":[],"categories_nodes":[],"categories_segments":[],"categories_sizes":[],"default_left":[0,0,0,0,0,0,0,0,0,0,0,0,0,0,0,0,0,0,0,0,0,0,0,0,0,0,0,0,0,0,0],"id":3,"left_children":[1,3,5,-1,7,-1,9,11,-1,13,15,-1,-1,17,-1,19,21,-1,-1,23,25,27,29,-1,-1,-1,-1,-1,-1,-1,-1],"loss_changes":[5.584294E16,7.332261E13,1.1699175E18,0E0,4.51743E14,0E0,1.6525594E17,1.1971221E15,0E0,2.884394E17,3.2892876E14,0E0,0E0,6.371651E12,0E0,2.4584594E13,8.843917E13,0E0,0E0,2.2480798E12,2.3533273E13,4.275539E13,8.16417E13,0E0,0E0,0E0,0E0,0E0,0E0,0E0,0E0],"parents":[2147483647,0,0,1,1,2,2,4,4,6,6,7,7,9,9,10,10,13,13,15,15,16,16,19,19,20,20,21,21,22,22],"right_children":[2,4,6,-1,8,-1,10,12,-1,14,16,-1,-1,18,-1,20,22,-1,-1,24,26,28,30,-1,-1,-1,-1,-1,-1,-1,-1],"split_conditions":[3.5E2,1E0,3.51E2,-8.436009E4,1E0,1.3471641E7,3.7E2,5.9E1,-8.037218E4,2E0,1.4E3,-7.113725E4,4.3445566E5,1E0,8.2816275E6,1E0,2E0,-1.790278E5,-4.4964637E4,4E0,6.9E2,1E0,2.5E3,-7.297343E4,-4.9483332E4,2.959685E4,-4.0346832E4,-3.9586188E4,2.4713854E4,-1.677513E4,3.6338668E4],"split_indices":[0,10,0,0,9,0,0,0,0,3,0,0,0,6,0,5,3,0,0,3,0,9,0,0,0,0,0,0,0,0,0],"split_type":[0,0,0,0,0,0,0,0,0,0,0,0,0,0,0,0,0,0,0,0,0,0,0,0,0,0,0,0,0,0,0],"sum_hessian":[5.79E2,4.66E2,1.13E2,4.31E2,3.5E1,1E0,1.12E2,5E0,3E1,4E0,1.08E2,4E0,1E0,3E0,1E0,5.3E1,5.5E1,2E0,1E0,4.5E1,8E0,2.1E1,3.4E1,3.3E1,1.2E1,1E0,7E0,1.8E1,3E0,1.4E1,2E1],"tree_param":{"num_deleted":"0","num_feature":"13","num_nodes":"31","size_leaf_vector":"1"}},{"base_weights":[1.1894075E5,-4.6696895E6,2.030777E7,-8.291265E4,-3.1109272E6,1.3355009E7,6.468757E6,4.9151125E6,-7.902543E4,1.8249928E8,-1.8955954E6,-7.015186E4,4.3069434E5,-8.952301E6,8.2099295E6,-3.563187E6,-1.6077377E5,-1.7696122E5,-4.457536E4,-3.8574388E6,-1.6633236E6,-2.02169E6,1.0283176E6,-7.1747055E4,-4.8692438E4,2.9340615E4,-3.9735555E4,-3.9172402E4,2.416681E4,9.860106E4,9.411951E3],"categories":[],"categories_nodes":[],"categories_segments":[],"categories_sizes":[],"default_left":[0,0,0,0,0,0,0,0,0,0,0,0,0,0,0,0,0,0,0,0,0,0,0,0,0,0,0,0,0,0,0],"id":4,"left_children":[1,3,5,-1,7,-1,9,11,-1,13,15,-1,-1,17,-1,19,21,-1,-1,23,25,27,29,-1,-1,-1,-1,-1,-1,-1,-1],"loss_changes":[5.597404E16,7.177749E13,1.1486321E18,0E0,4.4228016E14,0E0,1.623079E17,1.1745698E15,0E0,2.8343238E17,3.0608242E14,0E0,0E0,6.034194E12,0E0,2.3771839E13,1.1935732E14,0E0,0E0,2.1091645E12,2.2974466E13,2.042845E13,7.154839E13,0E0,0E0,0E0,0E0,0E0,0E0,0E0,0E0],"parents":[2147483647,0,0,1,1,2,2,4,4,6,6,7,7,9,9,10,10,13,13,15,15,16,16,19,19,20,20,21,21,22,22],"right_children":[2,4,6,-1,8,-1,10,12,-1,14,16,-1,-1,18,-1,20,22,-1,-1,24,26,28,30,-1,-1,-1,-1,-1,-1,-1,-1],"split_conditions":[3.5E2,1E0,3.51E2,-8.291265E4,1E0,1.3355009E7,3.7E2,5.9E1,-7.902543E4,2E0,1.4E3,-7.015186E4,4.3069434E5,1E0,8.2099295E6,1E0,2E0,-1.7696122E5,-4.457536E4,4E0,6.9E2,1E0,1.5E3,-7.1747055E4,-4.8692438E4,2.9340615E4,-3.9735555E4,-3.9172402E4,2.416681E4,9.860106E4,9.411951E3],"split_indices":[0,10,0,0,9,0,0,0,0,3,0,0,0,4,0,5,3,0,0,3,0,5,0,0,0,0,0,0,0,0,0],"split_type":[0,0,0,0,0,0,0,0,0,0,0,0,0,0,0,0,0,0,0,0,0,0,0,0,0,0,0,0,0,0,0],"sum_hessian":[5.77E2,4.67E2,1.1E2,4.32E2,3.5E1,1E0,1.09E2,5E0,3E1,4E0,1.05E2,4E0,1E0,3E0,1E0,5.3E1,5.2E1,2E0,1E0,4.5E1,8E0,2E1,3.2E1,3.3E1,1.2E1,1E0,7E0,1.9E1,1E0,2E0,3E1],"tree_param":{"num_deleted":"0","num_feature":"13","num_nodes":"31","size_leaf_vector":"1"}},{"base_weights":[1.625709E5,-4.5879135E6,1.9621462E7,-8.147953E4,-2.999213E6,1.3239389E7,6.2619695E6,6.8281675E6,-7.770126E4,1.80937E8,-1.8080956E6,-6.569613E4,4.2696562E5,-8.852677E6,8.138852E6,-3.5039135E6,-1.4055533E5,-1.7491852E5,-4.418945E4,-3.7932658E6,-1.6356784E6,-1.6514406E6,8.131599E5,-7.05413E4,-4.7914184E4,2.90866E4,-3.913354E4,-3.835199E4,2.4901615E4,-1.6965E4,3.5584223E4],"categories":[],"categories_nodes":[],"categories_segments":[],"categories_sizes":[],"default_left":[0,0,0,0,0,0,0,0,0,0,0,0,0,0,0,0,0,0,0,0,0,0,0,0,0,0,0,0,0,0,0],"id":5,"left_children":[1,3,5,-1,7,-1,9,11,-1,13,15,-1,-1,17,-1,19,21,-1,-1,23,25,27,29,-1,-1,-1,-1,-1,-1,-1,-1],"loss_changes":[5.370473E16,7.330113E13,1.12983465E18,0E0,5.42559E14,0E0,1.5961634E17,1.04057615E15,0E0,2.7851243E17,3.0774256E14,0E0,0E0,5.708347E12,0E0,2.2986665E13,8.2036325E13,0E0,0E0,1.9770942E12,2.2429322E13,4.148883E13,7.995035E13,0E0,0E0,0E0,0E0,0E0,0E0,0E0,0E0],"parents":[2147483647,0,0,1,1,2,2,4,4,6,6,7,7,9,9,10,10,13,13,15,15,16,16,19,19,20,20,21,21,22,22],"right_children":[2,4,6,-1,8,-1,10,12,-1,14,16,-1,-1,18,-1,20,22,-1,-1,24,26,28,30,-1,-1,-1,-1,-1,-1,-1,-1],"split_conditions":[3.5E2,1E0,3.51E2,-8.147953E4,1E0,1.3239389E7,3.7E2,5.9E1,-7.770126E4,2E0,1.4E3,-6.569613E4,4.2696562E5,1E0,8.138852E6,1E0,2E0,-1.7491852E5,-4.418945E4,4E0,6.9E2,1E0,2.5E3,-7.05413E4,-4.7914184E4,2.90866E4,-3.913354E4,-3.835199E4,2.4901615E4,-1.6965E4,3.5584223E4],"split_indices":[0,10,0,0,9,0,0,0,0,3,0,0,0,4,0,5,3,0,0,3,0,9,0,0,0,0,0,0,0,0,0],"split_type":[0,0,0,0,0,0,0,0,0,0,0,0,0,0,0,0,0,0,0,0,0,0,0,0,0,0,0,0,0,0,0],"sum_hessian":[5.79E2,4.66E2,1.13E2,4.32E2,3.4E1,1E0,1.12E2,4E0,3E1,4E0,1.08E2,3E0,1E0,3E0,1E0,5.3E1,5.5E1,2E0,1E0,4.5E1,8E0,2.1E1,3.4E1,3.3E1,1.2E1,1E0,7E0,1.8E1,3E0,1.4E1,2E1],"tree_param":{"num_deleted":"0","num_feature":"13","num_nodes":"31","size_leaf_vector":"1"}},{"base_weights":[2.1315605E5,-4.507414E6,1.9466244E7,-8.006518E4,-2.989051E6,1.312477E7,6.222539E6,4.8627345E6,-7.639926E4,1.7938803E8,-1.77792E6,-6.82701E4,4.232692E5,-8.75417E6,8.0683905E6,-3.445623E6,-1.380292E5,-1.7289936E5,-4.380688E4,-3.7301605E6,-1.608473E6,-1.6234574E6,7.996122E5,-6.93558E4,-4.714837E4,2.8834785E4,-3.854064E4,-3.7722875E4,2.4578238E4,-1.6690834E4,3.4997426E4],"categories":[],"categories_nodes":[],"categories_segments":[],"categories_sizes":[],"default_left":[0,0,0,0,0,0,0,0,0,0,0,0,0,0,0,0,0,0,0,0,0,0,0,0,0,0,0,0,0,0,0],"id":6,"left_children":[1,3,5,-1,7,-1,9,11,-1,13,15,-1,-1,17,-1,19,21,-1,-1,23,25,27,29,-1,-1,-1,-1,-1,-1,-1,-1],"loss_changes":[5.261959E16,6.852835E13,1.1103121E18,0E0,4.2376627E14,0E0,1.5686952E17,1.1309992E15,0E0,2.7367803E17,2.976231E14,0E0,0E0,5.393942E12,0E0,2.2228066E13,7.929488E13,0E0,0E0,1.8515336E12,2.1897484E13,4.025842E13,7.735235E13,0E0,0E0,0E0,0E0,0E0,0E0,0E0,0E0],"parents":[2147483647,0,0,1,1,2,2,4,4,6,6,7,7,9,9,10,10,13,13,15,15,16,16,19,19,20,20,21,21,22,22],"right_children":[2,4,6,-1,8,-1,10,12,-1,14,16,-1,-1,18,-1,20,22,-1,-1,24,26,28,30,-1,-1,-1,-1,-1,-1,-1,-1],"split_conditions":[3.5E2,1E0,3.51E2,-8.006518E4,1E0,1.312477E7,3.7E2,5.9E1,-7.639926E4,2E0,1.4E3,-6.82701E4,4.232692E5,1E0,8.0683905E6,1E0,2E0,-1.7289936E5,-4.380688E4,4E0,6.9E2,1E0,2.5E3,-6.93558E4,-4.714837E4,2.8834785E4,-3.854064E4,-3.7722875E4,2.4578238E4,-1.6690834E4,3.4997426E4],"split_indices":[0,10,0,0,9,0,0,0,0,3,0,0,0,4,0,5,3,0,0,3,0,9,0,0,0,0,0,0,0,0,0],"split_type":[0,0,0,0,0,0,0,0,0,0,0,0,0,0,0,0,0,0,0,0,0,0,0,0,0,0,0,0,0,0,0],"sum_hessian":[5.77E2,4.64E2,1.13E2,4.29E2,3.5E1,1E0,1.12E2,5E0,3E1,4E0,1.08E2,4E0,1E0,3E0,1E0,5.3E1,5.5E1,2E0,1E0,4.5E1,8E0,2.1E1,3.4E1,3.3E1,1.2E1,1E0,7E0,1.8E1,3E0,1.4E1,2E1],"tree_param":{"num_deleted":"0","num_feature":"13","num_nodes":"31","size_leaf_vector":"1"}},{"base_weights":[2.3617055E5,-4.428747E6,1.9512988E7,-7.86692E4,-2.9295568E6,1.3011142E7,6.26864E6,-7.7945414E4,1.9807681E5,1.7785227E8,-1.7330899E6,4.1960472E5,-6.6218625E4,-8.656769E6,7.9985385E6,-3.3883598E6,-1.35547E5,-1.7090355E5,-4.342762E4,-3.6743948E6,-1.581701E6,-1.5959446E6,7.8629E5,-6.848045E4,-4.6394797E4,2.8585146E4,-3.7956734E4,-3.336424E4,4.6353895E4,-1.64211E4,3.44203E4],"categories":[],"categories_nodes":[],"categories_segments":[],"categories_sizes":[],"default_left":[0,0,0,0,0,0,0,0,0,0,0,0,0,0,0,0,0,0,0,0,0,0,0,0,0,0,0,0,0,0,0],"id":7,"left_children":[1,3,5,-1,7,-1,9,-1,11,13,15,-1,-1,17,-1,19,21,-1,-1,23,25,27,29,-1,-1,-1,-1,-1,-1,-1,-1],"loss_changes":[5.215286E16,6.698109E13,1.0906997E18,0E0,1.7789862E14,0E0,1.540804E17,0E0,1.3495409E15,2.6892752E17,2.851321E14,0E0,0E0,5.0905093E12,0E0,2.157691E13,7.66448E13,0E0,0E0,1.9656186E12,2.1378628E13,3.627106E13,7.483878E13,0E0,0E0,0E0,0E0,0E0,0E0,0E0,0E0],"parents":[2147483647,0,0,1,1,2,2,4,4,6,6,8,8,9,9,10,10,13,13,15,15,16,16,19,19,20,20,21,21,22,22],"right_children":[2,4,6,-1,8,-1,10,-1,12,14,16,-1,-1,18,-1,20,22,-1,-1,24,26,28,30,-1,-1,-1,-1,-1,-1,-1,-1],"split_conditions":[3.5E2,1E0,3.51E2,-7.86692E4,1.18E2,1.3011142E7,3.7E2,-7.7945414E4,1.19E2,2E0,1.4E3,4.1960472E5,-6.6218625E4,1E0,7.9985385E6,1E0,2E0,-1.7090355E5,-4.342762E4,4E0,6.9E2,1E0,2.5E3,-6.848045E4,-4.6394797E4,2.8585146E4,-3.7956734E4,-3.336424E4,4.6353895E4,-1.64211E4,3.44203E4],"split_indices":[0,10,0,0,0,0,0,0,0,3,0,0,0,4,0,5,3,0,0,3,0,10,0,0,0,0,0,0,0,0,0],"split_type":[0,0,0,0,0,0,0,0,0,0,0,0,0,0,0,0,0,0,0,0,0,0,0,0,0,0,0,0,0,0,0],"sum_hessian":[5.78E2,4.66E2,1.12E2,4.31E2,3.5E1,1E0,1.11E2,2.3E1,1.2E1,4E0,1.07E2,1E0,1.1E1,3E0,1E0,5.2E1,5.5E1,2E0,1E0,4.4E1,8E0,2.1E1,3.4E1,3.2E1,1.2E1,1E0,7E0,2E1,1E0,1.4E1,2E1],"tree_param":{"num_deleted":"0","num_feature":"13","num_nodes":"31","size_leaf_vector":"1"}},{"base_weights":[2.6066017E5,-7.586865E4,1.2135493E7,7.5373985E6,5.118163E7,1.316981E7,-2.406751E6,-6.085332E4,1.1315409E8,1.9211306E7,-1.7569762E6,-3.131095E6,7.094212E5,5.2748215E6,-1.44779E6,2.4929736E7,-7.302983E4,-2.2322538E6,1.6527524E6,6.972914E3,-3.222642E6,-4.564475E4,7.1511414E4,2.00906E5,-4.0211613E4,5.1926022E5,-6.4054746E4,-5.3806473E4,8.005598E3,7.9737266E4,-1.5001758E4,-6.0730258E4,-3.0426135E4,4.224186E4,-3.6518777E4,2.8337672E4,-2.3119658E4],"categories":[],"categories_nodes":[],"categories_segments":[],"categories_sizes":[],"default_left":[0,0,0,0,0,0,0,0,0,0,0,0,0,0,0,0,0,0,0,0,0,0,0,0,0,0,0,0,0,0,0,0,0,0,0,0,0],"id":8,"left_children":[1,-1,3,5,7,9,11,-1,13,15,17,19,21,-1,23,25,-1,27,29,-1,31,33,-1,35,-1,-1,-1,-1,-1,-1,-1,-1,-1,-1,-1,-1,-1],"loss_changes":[3.1971756E16,0E0,2.8878892E16,8.2651E15,5.8021783E16,8.510683E15,1.2410905E14,0E0,1.7599805E17,9.081629E15,4.9065253E13,1.5532179E13,2.859924E13,0E0,9.118022E12,7.932639E15,0E0,6.0398967E13,3.3739734E13,0E0,1.1779652E13,5.6427427E13,0E0,8.80159E12,0E0,0E0,0E0,0E0,0E0,0E0,0E0,0E0,0E0,0E0,0E0,0E0,0E0],"parents":[2147483647,0,0,2,2,3,3,4,4,5,5,6,6,8,8,9,9,10,10,11,11,12,12,14,14,15,15,17,17,18,18,20,20,21,21,23,23],"right_children":[2,-1,4,6,8,10,12,-1,14,16,18,20,22,-1,24,26,-1,28,30,-1,32,34,-1,36,-1,-1,-1,-1,-1,-1,-1,-1,-1,-1,-1,-1,-1],"split_conditions":[2E0,-7.586865E4,1E0,1E0,4E0,3E0,9E0,-6.085332E4,5E0,1E0,1E0,1E0,3.4E1,5.2748215E6,6E0,1E0,-7.302983E4,8E0,1E0,6.972914E3,1E0,1.6E1,7.1511414E4,1E0,-4.0211613E4,5.1926022E5,-6.4054746E4,-5.3806473E4,8.005598E3,7.9737266E4,-1.5001758E4,-6.0730258E4,-3.0426135E4,4.224186E4,-3.6518777E4,2.8337672E4,-2.3119658E4],"split_indices":[3,0,5,4,3,3,3,0,3,8,8,2,3,0,3,6,0,3,12,0,8,3,0,4,0,0,0,0,0,0,0,0,0,0,0,0,0],"split_type":[0,0,0,0,0,0,0,0,0,0,0,0,0,0,0,0,0,0,0,0,0,0,0,0,0,0,0,0,0,0,0,0,0,0,0,0,0],"sum_hessian":[5.78E2,4.16E2,1.62E2,1.46E2,1.6E1,9.3E1,5.3E1,9E0,7E0,6.6E1,2.7E1,4.3E1,1E1,2E0,5E0,5.3E1,1.3E1,2.4E1,3E0,1E0,4.2E1,9E0,1E0,2E0,3E0,4.5E1,8E0,1.8E1,6E0,1E0,2E0,3.4E1,8E0,4E0,5E0,1E0,1E0],"tree_param":{"num_deleted":"0","num_feature":"13","num_nodes":"37","size_leaf_vector":"1"}},{"base_weights":[2.5696011E5,-4.322686E6,1.905536E7,-7.679363E4,-2.8504402E6,1.2894003E7,6.0439055E6,4.783295E6,-7.334589E4,1.7532018E8,-1.7765094E6,-6.520363E4,4.1147653E5,-8.503558E6,7.883625E6,-3.4363575E6,-1.4421823E5,-1.6805497E5,-4.239482E4,-3.7323152E6,-1.9401306E6,-1.4953009E6,7.091542E5,-6.530302E4,-1.773137E4,2.8092342E4,-4.2571047E4,-3.531227E4,2.5332502E4,-1.7591176E4,3.3030066E4],"categories":[],"categories_nodes":[],"categories_segments":[],"categories_sizes":[],"default_left":[0,0,0,0,0,0,0,0,0,0,0,0,0,0,0,0,0,0,0,0,0,0,0,0,0,0,0,0,0,0,0],"id":9,"left_children":[1,3,5,-1,7,-1,9,11,-1,13,15,-1,-1,17,-1,19,21,-1,-1,23,25,27,29,-1,-1,-1,-1,-1,-1,-1,-1],"loss_changes":[5.0100673E16,6.48175E13,1.0718148E18,0E0,4.0103046E14,0E0,1.4990207E17,1.0631031E15,0E0,2.6121335E17,2.9482414E14,0E0,0E0,5.3540794E12,0E0,1.667105E13,6.562709E13,0E0,0E0,8.0523926E11,2.4308034E13,3.83963E13,7.429899E13,0E0,0E0,0E0,0E0,0E0,0E0,0E0,0E0],"parents":[2147483647,0,0,1,1,2,2,4,4,6,6,7,7,9,9,10,10,13,13,15,15,16,16,19,19,20,20,21,21,22,22],"right_children":[2,4,6,-1,8,-1,10,12,-1,14,16,-1,-1,18,-1,20,22,-1,-1,24,26,28,30,-1,-1,-1,-1,-1,-1,-1,-1],"split_conditions":[3.5E2,1E0,3.51E2,-7.679363E4,1E0,1.2894003E7,3.7E2,5.9E1,-7.334589E4,2E0,1.4E3,-6.520363E4,4.1147653E5,1E0,7.883625E6,5E0,2E0,-1.6805497E5,-4.239482E4,1.32E3,6.9E2,1E0,2.5E3,-6.530302E4,-1.773137E4,2.8092342E4,-4.2571047E4,-3.531227E4,2.5332502E4,-1.7591176E4,3.3030066E4],"split_indices":[0,10,0,0,9,0,0,0,0,3,0,0,0,4,0,3,3,0,0,0,0,9,0,0,0,0,0,0,0,0,0],"split_type":[0,0,0,0,0,0,0,0,0,0,0,0,0,0,0,0,0,0,0,0,0,0,0,0,0,0,0,0,0,0,0],"sum_hessian":[5.8E2,4.67E2,1.13E2,4.32E2,3.5E1,1E0,1.12E2,5E0,3E1,4E0,1.08E2,4E0,1E0,3E0,1E0,5.3E1,5.5E1,2E0,1E0,4.3E1,1E1,2.1E1,3.4E1,4.2E1,1E0,1E0,9E0,1.8E1,3E0,1.4E1,2E1],"tree_param":{"num_deleted":"0","num_feature":"13","num_nodes":"31","size_leaf_vector":"1"}},{"base_weights":[2.8969888E5,-4.2454225E6,1.8905024E7,-7.542964E4,-2.7935035E6,1.2782374E7,6.006345E6,4.7581845E6,-7.2116875E4,1.7381915E8,-1.7465938E6,-6.430043E4,4.079142E5,-8.408932E6,7.8153725E6,-3.378663E6,-1.4162358E5,-1.6611506E5,-4.2027785E4,-3.6695775E6,-1.9078536E6,-1.4698632E6,6.973163E5,-6.4198598E4,-1.757786E4,2.784913E4,-4.1907645E4,-3.4733016E4,2.500353E4,-1.7306895E4,3.248539E4],"categories":[],"categories_nodes":[],"categories_segments":[],"categories_sizes":[],"default_left":[0,0,0,0,0,0,0,0,0,0,0,0,0,0,0,0,0,0,0,0,0,0,0,0,0,0,0,0,0,0,0],"id":10,"left_children":[1,3,5,-1,7,-1,9,11,-1,13,15,-1,-1,17,-1,19,21,-1,-1,23,25,27,29,-1,-1,-1,-1,-1,-1,-1,-1],"loss_changes":[4.9129877E16,6.3193464E13,1.0532937E18,0E0,3.9267597E14,0E0,1.4732138E17,1.0431178E15,0E0,2.5667941E17,2.8503852E14,0E0,0E0,5.0620887E12,0E0,1.6104517E13,6.3426496E13,0E0,0E0,6.882685E11,2.3714171E13,3.726342E13,7.188582E13,0E0,0E0,0E0,0E0,0E0,0E0,0E0,0E0],"parents":[2147483647,0,0,1,1,2,2,4,4,6,6,7,7,9,9,10,10,13,13,15,15,16,16,19,19,20,20,21,21,22,22],"right_children":[2,4,6,-1,8,-1,10,12,-1,14,16,-1,-1,18,-1,20,22,-1,-1,24,26,28,30,-1,-1,-1,-1,-1,-1,-1,-1],"split_conditions":[3.5E2,1E0,3.51E2,-7.542964E4,1E0,1.2782374E7,3.7E2,5.9E1,-7.2116875E4,2E0,1.4E3,-6.430043E4,4.079142E5,1E0,7.8153725E6,5E0,2E0,-1.6611506E5,-4.2027785E4,1.32E3,6.9E2,1E0,2.5E3,-6.4198598E4,-1.757786E4,2.784913E4,-4.1907645E4,-3.4733016E4,2.500353E4,-1.7306895E4,3.248539E4],"split_indices":[0,10,0,0,9,0,0,0,0,3,0,0,0,6,0,3,3,0,0,0,0,9,0,0,0,0,0,0,0,0,0],"split_type":[0,0,0,0,0,0,0,0,0,0,0,0,0,0,0,0,0,0,0,0,0,0,0,0,0,0,0,0,0,0,0],"sum_hessian":[5.8E2,4.67E2,1.13E2,4.32E2,3.5E1,1E0,1.12E2,5E0,3E1,4E0,1.08E2,4E0,1E0,3E0,1E0,5.3E1,5.5E1,2E0,1E0,4.3E1,1E1,2.1E1,3.4E1,4.2E1,1E0,1E0,9E0,1.8E1,3E0,1.4E1,2E1],"tree_param":{"num_deleted":"0","num_feature":"13","num_nodes":"31","size_leaf_vector":"1"}},{"base_weights":[3.2629666E5,-7.187168E4,1.1708262E7,7.256087E6,4.9779656E7,1.2597391E7,-2.275024E6,-5.7583902E4,1.0993886E8,1.8287338E7,-1.6709572E6,-2.96348E6,6.8562075E5,5.124071E6,-1.3815585E6,2.4138096E7,-6.916545E4,-2.133862E6,1.6399366E6,6.345347E3,-3.049443E6,-5.812255E4,7.032511E4,2.08679E5,-3.8592363E4,5.026024E5,-6.115791E4,-5.134584E4,7.411203E3,7.847974E4,-1.445928E4,-5.7530547E4,-2.8541242E4,4.1096938E4,-3.592476E4,2.760803E4,-2.218813E4],"categories":[],"categories_nodes":[],"categories_segments":[],"categories_sizes":[],"default_left":[0,0,0,0,0,0,0,0,0,0,0,0,0,0,0,0,0,0,0,0,0,0,0,0,0,0,0,0,0,0,0,0,0,0,0,0,0],"id":11,"left_children":[1,-1,3,5,7,9,11,-1,13,15,17,19,21,-1,23,25,-1,27,29,-1,31,33,-1,35,-1,-1,-1,-1,-1,-1,-1,-1,-1,-1,-1,-1,-1],"loss_changes":[2.9604638E16,0E0,2.7436878E16,7.5631266E15,5.4676798E16,7.743241E15,1.1209861E14,0E0,1.6604883E17,8.9613054E15,4.6412985E13,1.3712623E13,2.7854947E13,0E0,8.549452E12,7.407603E15,0E0,5.4527277E13,3.242134E13,0E0,1.0979648E13,5.396198E13,0E0,8.238178E12,0E0,0E0,0E0,0E0,0E0,0E0,0E0,0E0,0E0,0E0,0E0,0E0,0E0],"parents":[2147483647,0,0,2,2,3,3,4,4,5,5,6,6,8,8,9,9,10,10,11,11,12,12,14,14,15,15,17,17,18,18,20,20,21,21,23,23],"right_children":[2,-1,4,6,8,10,12,-1,14,16,18,20,22,-1,24,26,-1,28,30,-1,32,34,-1,36,-1,-1,-1,-1,-1,-1,-1,-1,-1,-1,-1,-1,-1],"split_conditions":[2E0,-7.187168E4,1E0,1E0,4E0,3E0,9E0,-5.7583902E4,5E0,1E0,1E0,1E0,3.4E1,5.124071E6,6E0,1E0,-6.916545E4,8E0,1E0,6.345347E3,1E0,1.6E1,7.032511E4,1E0,-3.8592363E4,5.026024E5,-6.115791E4,-5.134584E4,7.411203E3,7.847974E4,-1.445928E4,-5.7530547E4,-2.8541242E4,4.1096938E4,-3.592476E4,2.760803E4,-2.218813E4],"split_indices":[3,0,5,4,3,3,3,0,3,8,8,2,3,0,3,6,0,3,12,0,8,3,0,4,0,0,0,0,0,0,0,0,0,0,0,0,0],"split_type":[0,0,0,0,0,0,0,0,0,0,0,0,0,0,0,0,0,0,0,0,0,0,0,0,0,0,0,0,0,0,0,0,0,0,0,0,0],"sum_hessian":[5.79E2,4.16E2,1.63E2,1.47E2,1.6E1,9.4E1,5.3E1,9E0,7E0,6.7E1,2.7E1,4.3E1,1E1,2E0,5E0,5.3E1,1.4E1,2.4E1,3E0,1E0,4.2E1,9E0,1E0,2E0,3E0,4.5E1,8E0,1.8E1,6E0,1E0,2E0,3.4E1,8E0,4E0,5E0,1E0,1E0],"tree_param":{"num_deleted":"0","num_feature":"13","num_nodes":"37","size_leaf_vector":"1"}},{"base_weights":[3.3740866E5,-4.1441595E6,1.8653842E7,-7.36508E4,-2.7188338E6,1.266736E7,5.8705065E6,4.696762E6,-7.040959E4,1.7134923E8,-1.7741185E6,-6.2423555E4,4.000314E5,-8.2614635E6,7.7033495E6,-3.4244922E6,-1.5100588E5,-1.633679E5,-4.1041703E4,-3.7421758E6,-1.842441E6,-5.378108E5,2.6334588E6,-6.651166E4,-3.1006709E4,2.7369014E4,-4.0565742E4,-1.38625E4,6.6597266E4,-2.3204506E4,6.0932727E4],"categories":[],"categories_nodes":[],"categories_segments":[],"categories_sizes":[],"default_left":[0,0,0,0,0,0,0,0,0,0,0,0,0,0,0,0,0,0,0,0,0,0,0,0,0,0,0,0,0,0,0],"id":12,"left_children":[1,3,5,-1,7,-1,9,11,-1,13,15,-1,-1,17,-1,19,21,-1,-1,23,25,27,29,-1,-1,-1,-1,-1,-1,-1,-1],"loss_changes":[4.7605293E16,6.112329E13,1.03466044E18,0E0,3.7884883E14,0E0,1.4325157E17,1.0001492E15,0E0,2.4933514E17,2.914658E14,0E0,0E0,5.291836E12,0E0,2.0245268E13,6.1730806E13,0E0,0E0,1.631081E12,2.2544392E13,6.0685233E13,2.9349902E13,0E0,0E0,0E0,0E0,0E0,0E0,0E0,0E0],"parents":[2147483647,0,0,1,1,2,2,4,4,6,6,7,7,9,9,10,10,13,13,15,15,16,16,19,19,20,20,21,21,22,22],"right_children":[2,4,6,-1,8,-1,10,12,-1,14,16,-1,-1,18,-1,20,22,-1,-1,24,26,28,30,-1,-1,-1,-1,-1,-1,-1,-1],"split_conditions":[3.5E2,1E0,3.51E2,-7.36508E4,1E0,1.266736E7,3.7E2,5.9E1,-7.040959E4,2E0,1.4E3,-6.2423555E4,4.000314E5,1E0,7.7033495E6,5E0,1E0,-1.633679E5,-4.1041703E4,1.25E3,6.9E2,1E0,2.368E3,-6.651166E4,-3.1006709E4,2.7369014E4,-4.0565742E4,-1.38625E4,6.6597266E4,-2.3204506E4,6.0932727E4],"split_indices":[0,10,0,0,9,0,0,0,0,3,0,0,0,4,0,3,8,0,0,0,0,10,0,0,0,0,0,0,0,0,0],"split_type":[0,0,0,0,0,0,0,0,0,0,0,0,0,0,0,0,0,0,0,0,0,0,0,0,0,0,0,0,0,0,0],"sum_hessian":[5.78E2,4.65E2,1.13E2,4.3E2,3.5E1,1E0,1.12E2,5E0,3E1,4E0,1.08E2,4E0,1E0,3E0,1E0,5.3E1,5.5E1,2E0,1E0,4.3E1,1E1,4.9E1,6E0,4E1,3E0,1E0,9E0,4.7E1,2E0,1E0,5E0],"tree_param":{"num_deleted":"0","num_feature":"13","num_nodes":"31","size_leaf_vector":"1"}},{"base_weights":[3.6663578E5,-4.072062E6,1.850757E7,-7.2379875E4,-2.6643352E6,1.2557692E7,5.835042E6,4.671706E6,-6.922979E4,1.6988211E8,-1.7435855E6,-6.155887E4,3.9656816E5,-8.169519E6,7.636658E6,-3.3672478E6,-1.4677577E5,-1.614821E5,-4.0686387E4,-3.6795968E6,-1.8117391E6,-5.2744394E5,2.5932508E6,-6.658199E4,-3.903039E4,2.7132068E4,-3.9933594E4,-1.3627472E4,6.5828516E4,-2.3003613E4,6.0053527E4],"categories":[],"categories_nodes":[],"categories_segments":[],"categories_sizes":[],"default_left":[0,0,0,0,0,0,0,0,0,0,0,0,0,0,0,0,0,0,0,0,0,0,0,0,0,0,0,0,0,0,0],"id":13,"left_children":[1,3,5,-1,7,-1,9,11,-1,13,15,-1,-1,17,-1,19,21,-1,-1,23,25,27,29,-1,-1,-1,-1,-1,-1,-1,-1],"loss_changes":[4.6697676E16,5.9798293E13,1.0167788E18,0E0,3.70967E14,0E0,1.4078364E17,9.8136573E14,0E0,2.4500751E17,2.8210788E14,0E0,0E0,5.011103E12,0E0,1.9570018E13,5.9778085E13,0E0,0E0,1.727919E12,2.1994993E13,5.9184305E13,2.8630286E13,0E0,0E0,0E0,0E0,0E0,0E0,0E0,0E0],"parents":[2147483647,0,0,1,1,2,2,4,4,6,6,7,7,9,9,10,10,13,13,15,15,16,16,19,19,20,20,21,21,22,22],"right_children":[2,4,6,-1,8,-1,10,12,-1,14,16,-1,-1,18,-1,20,22,-1,-1,24,26,28,30,-1,-1,-1,-1,-1,-1,-1,-1],"split_conditions":[3.5E2,1E0,3.51E2,-7.2379875E4,1E0,1.2557692E7,3.7E2,5.9E1,-6.922979E4,2E0,1.4E3,-6.155887E4,3.9656816E5,1E0,7.636658E6,5E0,1E0,-1.614821E5,-4.0686387E4,1E0,6.9E2,1E0,2.368E3,-6.658199E4,-3.903039E4,2.7132068E4,-3.9933594E4,-1.3627472E4,6.5828516E4,-2.3003613E4,6.0053527E4],"split_indices":[0,10,0,0,9,0,0,0,0,3,0,0,0,6,0,3,8,0,0,8,0,10,0,0,0,0,0,0,0,0,0],"split_type":[0,0,0,0,0,0,0,0,0,0,0,0,0,0,0,0,0,0,0,0,0,0,0,0,0,0,0,0,0,0,0],"sum_hessian":[5.78E2,4.65E2,1.13E2,4.3E2,3.5E1,1E0,1.12E2,5E0,3E1,4E0,1.08E2,4E0,1E0,3E0,1E0,5.3E1,5.5E1,2E0,1E0,4.3E1,1E1,4.9E1,6E0,3.7E1,6E0,1E0,9E0,4.7E1,2E0,1E0,5E0],"tree_param":{"num_deleted":"0","num_feature":"13","num_nodes":"31","size_leaf_vector":"1"}},{"base_weights":[4.083381E5,-4.0003075E6,1.8546496E7,-7.111826E4,-2.6108195E6,1.2448974E7,5.87329E6,4.6466505E6,-6.806974E4,1.684275E8,-1.7067506E6,-6.0706156E4,3.9313488E5,-8.0786065E6,7.5705435E6,-3.3271922E6,-1.4264055E5,-1.5961808E5,-4.0334145E4,-3.618285E6,-1.713666E6,-5.1726722E5,2.5536415E6,-6.432154E4,-2.9858668E4,2.6897174E4,-3.8946074E4,-1.3396429E4,6.5068637E4,-2.280446E4,5.9187008E4],"categories":[],"categories_nodes":[],"categories_segments":[],"categories_sizes":[],"default_left":[0,0,0,0,0,0,0,0,0,0,0,0,0,0,0,0,0,0,0,0,0,0,0,0,0,0,0,0,0,0,0],"id":14,"left_children":[1,3,5,-1,7,-1,9,11,-1,13,15,-1,-1,17,-1,19,21,-1,-1,23,25,27,29,-1,-1,-1,-1,-1,-1,-1,-1],"loss_changes":[4.621383E16,5.842766E13,9.9883835E17,0E0,3.632602E14,0E0,1.3829023E17,9.6294106E14,0E0,2.4075504E17,2.7325676E14,0E0,0E0,4.7400836E12,0E0,1.8692771E13,5.7886466E13,0E0,0E0,1.6364496E12,2.0992783E13,5.7720955E13,2.7928662E13,0E0,0E0,0E0,0E0,0E0,0E0,0E0,0E0],"parents":[2147483647,0,0,1,1,2,2,4,4,6,6,7,7,9,9,10,10,13,13,15,15,16,16,19,19,20,20,21,21,22,22],"right_children":[2,4,6,-1,8,-1,10,12,-1,14,16,-1,-1,18,-1,20,22,-1,-1,24,26,28,30,-1,-1,-1,-1,-1,-1,-1,-1],"split_conditions":[3.5E2,1E0,3.51E2,-7.111826E4,1E0,1.2448974E7,3.7E2,5.9E1,-6.806974E4,2E0,1.4E3,-6.0706156E4,3.9313488E5,1E0,7.5705435E6,5E0,1E0,-1.5961808E5,-4.0334145E4,1.25E3,6.9E2,1E0,2.368E3,-6.432154E4,-2.9858668E4,2.6897174E4,-3.8946074E4,-1.3396429E4,6.5068637E4,-2.280446E4,5.9187008E4],"split_indices":[0,10,0,0,9,0,0,0,0,3,0,0,0,6,0,3,8,0,0,0,0,10,0,0,0,0,0,0,0,0,0],"split_type":[0,0,0,0,0,0,0,0,0,0,0,0,0,0,0,0,0,0,0,0,0,0,0,0,0,0,0,0,0,0,0],"sum_hessian":[5.76E2,4.64E2,1.12E2,4.29E2,3.5E1,1E0,1.11E2,5E0,3E1,4E0,1.07E2,4E0,1E0,3E0,1E0,5.2E1,5.5E1,2E0,1E0,4.3E1,9E0,4.9E1,6E0,4E1,3E0,1E0,8E0,4.7E1,2E0,1E0,5E0],"tree_param":{"num_deleted":"0","num_feature":"13","num_nodes":"31","size_leaf_vector":"1"}},{"base_weights":[4.328404E5,-3.928311E6,1.821795E7,-6.984634E4,-2.5582702E6,1.2341197E7,5.7641575E6,4.6215985E6,-6.692914E4,1.6698533E8,-1.6841912E6,-5.986526E4,3.897313E5,-7.988714E6,7.5050025E6,-3.2558398E6,-1.3859827E5,-1.5777556E5,-3.9984957E4,-3.557775E6,-1.7521131E6,-5.0727725E5,2.514623E6,-6.440646E4,-3.7581754E4,2.6664312E4,-3.8704375E4,-1.3169301E4,6.431753E4,-2.2607031E4,5.8332992E4],"categories":[],"categories_nodes":[],"categories_segments":[],"categories_sizes":[],"default_left":[0,0,0,0,0,0,0,0,0,0,0,0,0,0,0,0,0,0,0,0,0,0,0,0,0,0,0,0,0,0,0],"id":15,"left_children":[1,3,5,-1,7,-1,9,11,-1,13,15,-1,-1,17,-1,19,21,-1,-1,23,25,27,29,-1,-1,-1,-1,-1,-1,-1,-1],"loss_changes":[4.49033E16,5.6932476E13,9.819388E17,0E0,3.557244E14,0E0,1.3597519E17,9.448684E14,0E0,2.3657654E17,2.6432376E14,0E0,0E0,4.478527E12,0E0,1.8283944E13,5.605408E13,0E0,0E0,1.8106643E12,2.0940438E13,5.629424E13,2.7244576E13,0E0,0E0,0E0,0E0,0E0,0E0,0E0,0E0],"parents":[2147483647,0,0,1,1,2,2,4,4,6,6,7,7,9,9,10,10,13,13,15,15,16,16,19,19,20,20,21,21,22,22],"right_children":[2,4,6,-1,8,-1,10,12,-1,14,16,-1,-1,18,-1,20,22,-1,-1,24,26,28,30,-1,-1,-1,-1,-1,-1,-1,-1],"split_conditions":[3.5E2,1E0,3.51E2,-6.984634E4,1E0,1.2341197E7,3.7E2,5.9E1,-6.692914E4,2E0,1.4E3,-5.986526E4,3.897313E5,1E0,7.5050025E6,5E0,1E0,-1.5777556E5,-3.9984957E4,1E0,6.9E2,1E0,2.368E3,-6.440646E4,-3.7581754E4,2.6664312E4,-3.8704375E4,-1.3169301E4,6.431753E4,-2.2607031E4,5.8332992E4],"split_indices":[0,10,0,0,9,0,0,0,0,3,0,0,0,4,0,3,8,0,0,8,0,10,0,0,0,0,0,0,0,0,0],"split_type":[0,0,0,0,0,0,0,0,0,0,0,0,0,0,0,0,0,0,0,0,0,0,0,0,0,0,0,0,0,0,0],"sum_hessian":[5.77E2,4.64E2,1.13E2,4.29E2,3.5E1,1E0,1.12E2,5E0,3E1,4E0,1.08E2,4E0,1E0,3E0,1E0,5.3E1,5.5E1,2E0,1E0,4.3E1,1E1,4.9E1,6E0,3.7E1,6E0,1E0,9E0,4.7E1,2E0,1E0,5E0],"tree_param":{"num_deleted":"0","num_feature":"13","num_nodes":"31","size_leaf_vector":"1"}},{"base_weights":[4.3627334E5,-3.8611802E6,1.8074624E7,-6.978054E4,-3.5526438E6,1.2234354E7,5.7287765E6,-3.0332534E5,-6.640391E4,1.6555542E8,-1.6552786E6,-6.0331285E4,1.3582212E7,-7.89983E6,7.4400275E6,-3.2015765E6,-1.3464698E5,-3.359435E4,3.8635722E5,-1.559543E5,-3.9638785E4,-3.4984902E6,-1.7228699E6,-4.9747066E5,2.476186E6,-6.3320613E4,-3.7023984E4,2.6433467E4,-3.8101227E4,-1.165413E4,7.018426E4,-2.2411312E4,5.7491293E4],"categories":[],"categories_nodes":[],"categories_segments":[],"categories_sizes":[],"default_left":[0,0,0,0,0,0,0,0,0,0,0,0,0,0,0,0,0,0,0,0,0,0,0,0,0,0,0,0,0,0,0,0,0],"id":16,"left_children":[1,3,5,-1,7,-1,9,11,-1,13,15,-1,17,19,-1,21,23,-1,-1,-1,-1,25,27,29,31,-1,-1,-1,-1,-1,-1,-1,-1],"loss_changes":[4.410959E16,1.0070088E13,9.649698E17,0E0,1.5851127E14,0E0,1.3363311E17,7.098782E14,0E0,2.3247057E17,2.5586603E14,0E0,4.4988484E14,4.2261304E12,0E0,1.7681139E13,5.4279063E13,0E0,0E0,0E0,0E0,1.6666486E12,2.0431317E13,4.2684115E13,2.6577597E13,0E0,0E0,0E0,0E0,0E0,0E0,0E0,0E0],"parents":[2147483647,0,0,1,1,2,2,4,4,6,6,7,7,9,9,10,10,12,12,13,13,15,15,16,16,21,21,22,22,23,23,24,24],"right_children":[2,4,6,-1,8,-1,10,12,-1,14,16,-1,18,20,-1,22,24,-1,-1,-1,-1,26,28,30,32,-1,-1,-1,-1,-1,-1,-1,-1],"split_conditions":[3.5E2,1.11E2,3.51E2,-6.978054E4,1.19E2,1.2234354E7,3.7E2,1.18E2,-6.640391E4,2E0,1.4E3,-6.0331285E4,2E0,1E0,7.4400275E6,5E0,1E0,-3.359435E4,3.8635722E5,-1.559543E5,-3.9638785E4,1E0,6.9E2,4.5E1,2.368E3,-6.3320613E4,-3.7023984E4,2.6433467E4,-3.8101227E4,-1.165413E4,7.018426E4,-2.2411312E4,5.7491293E4],"split_indices":[0,0,0,0,0,0,0,0,0,3,0,0,3,4,0,3,8,0,0,0,0,8,0,3,0,0,0,0,0,0,0,0,0],"split_type":[0,0,0,0,0,0,0,0,0,0,0,0,0,0,0,0,0,0,0,0,0,0,0,0,0,0,0,0,0,0,0,0,0],"sum_hessian":[5.8E2,4.67E2,1.13E2,2.94E2,1.73E2,1E0,1.12E2,1.4E1,1.59E2,4E0,1.08E2,1.2E1,2E0,3E0,1E0,5.3E1,5.5E1,1E0,1E0,2E0,1E0,4.3E1,1E1,4.9E1,6E0,3.7E1,6E0,1E0,9E0,4.8E1,1E0,1E0,5E0],"tree_param":{"num_deleted":"0","num_feature":"13","num_nodes":"33","size_leaf_vector":"1"}},{"base_weights":[4.9404456E5,-3.791436E6,1.7932368E7,-6.7439766E4,-2.4533178E6,1.2128435E7,5.6935305E6,4.578681E6,-6.467496E4,1.6413773E8,-1.6267865E6,-5.8069406E4,3.8301234E5,-7.811943E6,7.375616E6,-3.1482158E6,-1.3064406E5,-1.5415406E5,-3.9295613E4,-3.4401948E6,-1.6940994E6,-1.344326E6,6.359744E5,-6.1189504E4,-2.8042176E4,2.620462E4,-3.7507484E4,-3.1906432E4,2.3532445E4,-1.730233E4,3.0711908E4],"categories":[],"categories_nodes":[],"categories_segments":[],"categories_sizes":[],"default_left":[0,0,0,0,0,0,0,0,0,0,0,0,0,0,0,0,0,0,0,0,0,0,0,0,0,0,0,0,0,0,0],"id":17,"left_children":[1,3,5,-1,7,-1,9,11,-1,13,15,-1,-1,17,-1,19,21,-1,-1,23,25,27,29,-1,-1,-1,-1,-1,-1,-1,-1],"loss_changes":[4.318812E16,5.467708E13,9.48294E17,0E0,3.41616E14,0E0,1.313314E17,9.090694E14,0E0,2.2843598E17,2.4770264E14,0E0,0E0,3.9826259E12,0E0,1.7098802E13,5.295909E13,0E0,0E0,1.7843576E12,1.9934973E13,3.2145817E13,6.6889863E13,0E0,0E0,0E0,0E0,0E0,0E0,0E0,0E0],"parents":[2147483647,0,0,1,1,2,2,4,4,6,6,7,7,9,9,10,10,13,13,15,15,16,16,19,19,20,20,21,21,22,22],"right_children":[2,4,6,-1,8,-1,10,12,-1,14,16,-1,-1,18,-1,20,22,-1,-1,24,26,28,30,-1,-1,-1,-1,-1,-1,-1,-1],"split_conditions":[3.5E2,1E0,3.51E2,-6.7439766E4,1E0,1.2128435E7,3.7E2,5.9E1,-6.467496E4,2E0,1.4E3,-5.8069406E4,3.8301234E5,1E0,7.375616E6,5E0,2E0,-1.5415406E5,-3.9295613E4,1.25E3,6.9E2,1E0,2.5E3,-6.1189504E4,-2.8042176E4,2.620462E4,-3.7507484E4,-3.1906432E4,2.3532445E4,-1.730233E4,3.0711908E4],"split_indices":[0,10,0,0,9,0,0,0,0,3,0,0,0,6,0,3,3,0,0,0,0,9,0,0,0,0,0,0,0,0,0],"split_type":[0,0,0,0,0,0,0,0,0,0,0,0,0,0,0,0,0,0,0,0,0,0,0,0,0,0,0,0,0,0,0],"sum_hessian":[5.76E2,4.63E2,1.13E2,4.28E2,3.5E1,1E0,1.12E2,5E0,3E1,4E0,1.08E2,4E0,1E0,3E0,1E0,5.3E1,5.5E1,2E0,1E0,4.3E1,1E1,2.1E1,3.4E1,4E1,3E0,1E0,9E0,1.8E1,3E0,1.4E1,2E1],"tree_param":{"num_deleted":"0","num_feature":"13","num_nodes":"31","size_leaf_vector":"1"}},{"base_weights":[4.8814856E5,-3.7275512E6,1.7790424E7,-6.62992E4,-2.403609E6,1.2023433E7,5.6576615E6,4.553559E6,-6.3591242E4,1.6273213E8,-1.5994949E6,-5.726503E4,3.7969644E5,-7.725042E6,7.311762E6,-3.0955665E6,-1.2829202E5,-1.5237462E5,-3.8955414E4,-3.3826558E6,-1.6657936E6,-4.8247062E5,2.4198825E6,-6.1251668E4,-3.564835E4,2.5977754E4,-3.692299E4,-1.2664317E4,6.339654E4,-2.206749E4,5.6239316E4],"categories":[],"categories_nodes":[],"categories_segments":[],"categories_sizes":[],"default_left":[0,0,0,0,0,0,0,0,0,0,0,0,0,0,0,0,0,0,0,0,0,0,0,0,0,0,0,0,0,0,0],"id":18,"left_children":[1,3,5,-1,7,-1,9,11,-1,13,15,-1,-1,17,-1,19,21,-1,-1,23,25,27,29,-1,-1,-1,-1,-1,-1,-1,-1],"loss_changes":[4.244515E16,5.3664543E13,9.319086E17,0E0,3.3455795E14,0E0,1.2907056E17,8.920274E14,0E0,2.2447148E17,2.3951459E14,0E0,0E0,3.7477113E12,0E0,1.6530725E13,5.1708026E13,0E0,0E0,1.7365761E12,1.9451072E13,5.4256233E13,2.555563E13,0E0,0E0,0E0,0E0,0E0,0E0,0E0,0E0],"parents":[2147483647,0,0,1,1,2,2,4,4,6,6,7,7,9,9,10,10,13,13,15,15,16,16,19,19,20,20,21,21,22,22],"right_children":[2,4,6,-1,8,-1,10,12,-1,14,16,-1,-1,18,-1,20,22,-1,-1,24,26,28,30,-1,-1,-1,-1,-1,-1,-1,-1],"split_conditions":[3.5E2,1E0,3.51E2,-6.62992E4,1E0,1.2023433E7,3.7E2,5.9E1,-6.3591242E4,2E0,1.4E3,-5.726503E4,3.7969644E5,1E0,7.311762E6,5E0,1E0,-1.5237462E5,-3.8955414E4,1E0,6.9E2,1E0,2.368E3,-6.1251668E4,-3.564835E4,2.5977754E4,-3.692299E4,-1.2664317E4,6.339654E4,-2.206749E4,5.6239316E4],"split_indices":[0,10,0,0,9,0,0,0,0,3,0,0,0,4,0,3,8,0,0,8,0,10,0,0,0,0,0,0,0,0,0],"split_type":[0,0,0,0,0,0,0,0,0,0,0,0,0,0,0,0,0,0,0,0,0,0,0,0,0,0,0,0,0,0,0],"sum_hessian":[5.8E2,4.67E2,1.13E2,4.32E2,3.5E1,1E0,1.12E2,5E0,3E1,4E0,1.08E2,4E0,1E0,3E0,1E0,5.3E1,5.5E1,2E0,1E0,4.3E1,1E1,4.9E1,6E0,3.7E1,6E0,1E0,9E0,4.7E1,2E0,1E0,5E0],"tree_param":{"num_deleted":"0","num_feature":"13","num_nodes":"31","size_leaf_vector":"1"}},{"base_weights":[5.208289E5,-3.6633892E6,1.7845548E7,-6.5168707E4,-2.3548005E6,1.1919341E7,5.7123015E6,4.528453E6,-6.252568E4,1.6133851E8,-1.5455075E6,-5.64718E4,3.7640922E5,-7.639116E6,7.24846E6,-3.043964E6,-4.6195473E4,-1.5061572E5,-3.8618156E4,-3.3262878E6,-1.6379455E6,-1.3159301E6,7.767562E5,-5.917521E4,-2.699342E4,2.575285E4,-3.63476E4,-3.1175307E4,2.2763795E4,-1.6807191E4,3.5469527E4],"categories":[],"categories_nodes":[],"categories_segments":[],"categories_sizes":[],"default_left":[0,0,0,0,0,0,0,0,0,0,0,0,0,0,0,0,0,0,0,0,0,0,0,0,0,0,0,0,0,0,0],"id":19,"left_children":[1,3,5,-1,7,-1,9,11,-1,13,15,-1,-1,17,-1,19,21,-1,-1,23,25,27,29,-1,-1,-1,-1,-1,-1,-1,-1],"loss_changes":[4.2109805E16,5.258543E13,9.154148E17,0E0,3.276555E14,0E0,1.2675394E17,8.7531044E14,0E0,2.2057583E17,2.4249801E14,0E0,0E0,3.521202E12,0E0,1.5987143E13,5.8493323E13,0E0,0E0,1.7712042E12,1.8979286E13,3.041008E13,7.754565E13,0E0,0E0,0E0,0E0,0E0,0E0,0E0,0E0],"parents":[2147483647,0,0,1,1,2,2,4,4,6,6,7,7,9,9,10,10,13,13,15,15,16,16,19,19,20,20,21,21,22,22],"right_children":[2,4,6,-1,8,-1,10,12,-1,14,16,-1,-1,18,-1,20,22,-1,-1,24,26,28,30,-1,-1,-1,-1,-1,-1,-1,-1],"split_conditions":[3.5E2,1E0,3.51E2,-6.5168707E4,1E0,1.1919341E7,3.7E2,5.9E1,-6.252568E4,2E0,1.4E3,-5.64718E4,3.7640922E5,1E0,7.24846E6,5E0,2E0,-1.5061572E5,-3.8618156E4,1.25E3,6.9E2,1E0,2.5E3,-5.917521E4,-2.699342E4,2.575285E4,-3.63476E4,-3.1175307E4,2.2763795E4,-1.6807191E4,3.5469527E4],"split_indices":[0,10,0,0,9,0,0,0,0,3,0,0,0,4,0,3,3,0,0,0,0,9,0,0,0,0,0,0,0,0,0],"split_type":[0,0,0,0,0,0,0,0,0,0,0,0,0,0,0,0,0,0,0,0,0,0,0,0,0,0,0,0,0,0,0],"sum_hessian":[5.79E2,4.67E2,1.12E2,4.32E2,3.5E1,1E0,1.11E2,5E0,3E1,4E0,1.07E2,4E0,1E0,3E0,1E0,5.3E1,5.4E1,2E0,1E0,4.3E1,1E1,2.1E1,3.3E1,4E1,3E0,1E0,9E0,1.8E1,3E0,1.4E1,1.9E1],"tree_param":{"num_deleted":"0","num_feature":"13","num_nodes":"31","size_leaf_vector":"1"}},{"base_weights":[5.44549E5,-3.5978898E6,1.7509236E7,-6.4015875E4,-2.306877E6,1.181615E7,5.585867E6,4.503366E6,-6.1477973E4,1.599568E8,-1.5466144E6,-5.5689555E4,3.731505E5,-7.5541535E6,7.185707E6,-2.99305E6,-1.2421913E5,-1.4887711E5,-3.8283824E4,-3.2706515E6,-1.6105479E6,-4.697697E5,2.3617448E6,-5.9250688E4,-3.4320645E4,2.5529895E4,-3.578118E4,-1.2368493E4,6.2328633E4,-2.1730936E4,5.4952703E4],"categories":[],"categories_nodes":[],"categories_segments":[],"categories_sizes":[],"default_left":[0,0,0,0,0,0,0,0,0,0,0,0,0,0,0,0,0,0,0,0,0,0,0,0,0,0,0,0,0,0,0],"id":20,"left_children":[1,3,5,-1,7,-1,9,11,-1,13,15,-1,-1,17,-1,19,21,-1,-1,23,25,27,29,-1,-1,-1,-1,-1,-1,-1,-1],"loss_changes":[4.08226E16,5.1313585E13,8.999841E17,0E0,3.2090496E14,0E0,1.2466579E17,8.5891206E14,0E0,2.1674784E17,2.2388514E14,0E0,0E0,3.3027627E12,0E0,1.5456849E13,4.9214944E13,0E0,0E0,1.7944239E12,1.8519316E13,5.233185E13,2.4540185E13,0E0,0E0,0E0,0E0,0E0,0E0,0E0,0E0],"parents":[2147483647,0,0,1,1,2,2,4,4,6,6,7,7,9,9,10,10,13,13,15,15,16,16,19,19,20,20,21,21,22,22],"right_children":[2,4,6,-1,8,-1,10,12,-1,14,16,-1,-1,18,-1,20,22,-1,-1,24,26,28,30,-1,-1,-1,-1,-1,-1,-1,-1],"split_conditions":[3.5E2,1E0,3.51E2,-6.4015875E4,1E0,1.181615E7,3.7E2,5.9E1,-6.1477973E4,2E0,1.4E3,-5.5689555E4,3.731505E5,1E0,7.185707E6,5E0,1E0,-1.4887711E5,-3.8283824E4,1E0,6.9E2,1E0,2.368E3,-5.9250688E4,-3.4320645E4,2.5529895E4,-3.578118E4,-1.2368493E4,6.2328633E4,-2.1730936E4,5.4952703E4],"split_indices":[0,10,0,0,9,0,0,0,0,3,0,0,0,4,0,3,8,0,0,8,0,10,0,0,0,0,0,0,0,0,0],"split_type":[0,0,0,0,0,0,0,0,0,0,0,0,0,0,0,0,0,0,0,0,0,0,0,0,0,0,0,0,0,0,0],"sum_hessian":[5.79E2,4.66E2,1.13E2,4.31E2,3.5E1,1E0,1.12E2,5E0,3E1,4E0,1.08E2,4E0,1E0,3E0,1E0,5.3E1,5.5E1,2E0,1E0,4.3E1,1E1,4.9E1,6E0,3.7E1,6E0,1E0,9E0,4.7E1,2E0,1E0,5E0],"tree_param":{"num_deleted":"0","num_feature":"13","num_nodes":"31","size_leaf_vector":"1"}},{"base_weights":[5.778764E5,-3.5335168E6,1.7564096E7,-6.3987742E4,-3.2394778E6,1.1713852E7,5.640259E6,-1.5365906E5,-3.5085265E6,1.5858685E8,-1.4928264E6,-5.5207254E4,1.3048177E7,-6.2631004E4,-4.9645258E4,-7.470144E6,7.1234965E6,-2.9431482E6,-4.17317E4,-3.1027256E4,3.6991994E5,-1.471586E5,-3.795238E4,-3.216147E6,-1.5835934E6,-1.2881761E6,7.6601856E5,-5.7227332E4,-2.5981354E4,2.530887E4,-3.522359E4,-3.0461025E4,2.201404E4,-1.632489E4,3.4791734E4],"categories":[],"categories_nodes":[],"categories_segments":[],"categories_sizes":[],"default_left":[0,0,0,0,0,0,0,0,0,0,0,0,0,0,0,0,0,0,0,0,0,0,0,0,0,0,0,0,0,0,0,0,0,0,0],"id":21,"left_children":[1,3,5,-1,7,-1,9,11,13,15,17,-1,19,-1,-1,21,-1,23,25,-1,-1,-1,-1,27,29,31,33,-1,-1,-1,-1,-1,-1,-1,-1],"loss_changes":[4.04977E16,1.0274099E13,8.84053E17,0E0,1.4392207E14,0E0,1.22426625E17,6.4256865E14,7.7644956E11,2.129864E17,2.2716906E14,0E0,4.0851534E14,0E0,0E0,3.092192E12,0E0,1.4949372E13,5.6361635E13,0E0,0E0,0E0,0E0,1.7542928E12,1.8070842E13,2.8762108E13,7.413252E13,0E0,0E0,0E0,0E0,0E0,0E0,0E0,0E0],"parents":[2147483647,0,0,1,1,2,2,4,4,6,6,7,7,8,8,9,9,10,10,12,12,15,15,17,17,18,18,23,23,24,24,25,25,26,26],"right_children":[2,4,6,-1,8,-1,10,12,14,16,18,-1,20,-1,-1,22,-1,24,26,-1,-1,-1,-1,28,30,32,34,-1,-1,-1,-1,-1,-1,-1,-1],"split_conditions":[3.5E2,1.11E2,3.51E2,-6.3987742E4,1.19E2,1.1713852E7,3.7E2,1.18E2,1E0,2E0,1.4E3,-5.5207254E4,2E0,-6.2631004E4,-4.9645258E4,1E0,7.1234965E6,5E0,2E0,-3.1027256E4,3.6991994E5,-1.471586E5,-3.795238E4,1.25E3,6.9E2,1E0,2.5E3,-5.7227332E4,-2.5981354E4,2.530887E4,-3.522359E4,-3.0461025E4,2.201404E4,-1.632489E4,3.4791734E4],"split_indices":[0,0,0,0,0,0,0,0,4,3,0,0,3,0,0,4,0,3,3,0,0,0,0,0,0,9,0,0,0,0,0,0,0,0,0],"split_type":[0,0,0,0,0,0,0,0,0,0,0,0,0,0,0,0,0,0,0,0,0,0,0,0,0,0,0,0,0,0,0,0,0,0,0],"sum_hessian":[5.78E2,4.66E2,1.12E2,2.93E2,1.73E2,1E0,1.11E2,1.4E1,1.59E2,4E0,1.07E2,1.2E1,2E0,1.32E2,2.7E1,3E0,1E0,5.3E1,5.4E1,1E0,1E0,2E0,1E0,4.3E1,1E1,2.1E1,3.3E1,4E1,3E0,1E0,9E0,1.8E1,3E0,1.4E1,1.9E1],"tree_param":{"num_deleted":"0","num_feature":"13","num_nodes":"35","size_leaf_vector":"1"}},{"base_weights":[5.914155E5,-3.4720192E6,1.7232052E7,-6.1796387E4,-2.2122548E6,1.1612439E7,5.5144615E6,4.4593055E6,-5.942768E4,1.5722862E8,-1.4954948E6,-5.403179E4,3.6671738E5,-7.387076E6,7.0618255E6,-2.8939122E6,-1.2031543E5,-1.4545989E5,-3.762381E4,-3.1623508E6,-1.557075E6,-1.2662554E6,6.0342725E5,-5.7315426E4,-3.3039234E4,2.5089758E4,-3.4674684E4,-2.7059697E4,4.2950266E4,-1.6061068E4,2.8886041E4],"categories":[],"categories_nodes":[],"categories_segments":[],"categories_sizes":[],"default_left":[0,0,0,0,0,0,0,0,0,0,0,0,0,0,0,0,0,0,0,0,0,0,0,0,0,0,0,0,0,0,0],"id":22,"left_children":[1,3,5,-1,7,-1,9,11,-1,13,15,-1,-1,17,-1,19,21,-1,-1,23,25,27,29,-1,-1,-1,-1,-1,-1,-1,-1],"loss_changes":[3.927835E16,4.9136573E13,8.691541E17,0E0,3.082976E14,0E0,1.2041173E17,8.2649646E14,0E0,2.092903E17,2.0926698E14,0E0,0E0,2.8892547E12,0E0,1.4454343E13,4.7208573E13,0E0,0E0,1.8412659E12,1.763358E13,2.8320066E13,5.8607605E13,0E0,0E0,0E0,0E0,0E0,0E0,0E0,0E0],"parents":[2147483647,0,0,1,1,2,2,4,4,6,6,7,7,9,9,10,10,13,13,15,15,16,16,19,19,20,20,21,21,22,22],"right_children":[2,4,6,-1,8,-1,10,12,-1,14,16,-1,-1,18,-1,20,22,-1,-1,24,26,28,30,-1,-1,-1,-1,-1,-1,-1,-1],"split_conditions":[3.5E2,1E0,3.51E2,-6.1796387E4,1E0,1.1612439E7,3.7E2,5.9E1,-5.942768E4,2E0,1.4E3,-5.403179E4,3.6671738E5,1E0,7.0618255E6,5E0,2E0,-1.4545989E5,-3.762381E4,1E0,6.9E2,1E0,2.5E3,-5.7315426E4,-3.3039234E4,2.5089758E4,-3.4674684E4,-2.7059697E4,4.2950266E4,-1.6061068E4,2.8886041E4],"split_indices":[0,10,0,0,9,0,0,0,0,3,0,0,0,4,0,3,3,0,0,8,0,10,0,0,0,0,0,0,0,0,0],"split_type":[0,0,0,0,0,0,0,0,0,0,0,0,0,0,0,0,0,0,0,0,0,0,0,0,0,0,0,0,0,0,0],"sum_hessian":[5.79E2,4.66E2,1.13E2,4.31E2,3.5E1,1E0,1.12E2,5E0,3E1,4E0,1.08E2,4E0,1E0,3E0,1E0,5.3E1,5.5E1,2E0,1E0,4.3E1,1E1,2.1E1,3.4E1,3.7E1,6E0,1E0,9E0,2E1,1E0,1.4E1,2E1],"tree_param":{"num_deleted":"0","num_feature":"13","num_nodes":"31","size_leaf_vector":"1"}},{"base_weights":[5.967989E5,-3.4147602E6,1.709526E7,-6.0782383E4,-2.1669145E6,1.1511905E7,5.4792225E6,4.4342075E6,-5.8431887E4,1.5588197E8,-1.4702538E6,-5.3283348E4,3.6354253E5,-7.30494E6,7.000688E6,-2.845655E6,-1.1771945E5,-1.437808E5,-3.729808E4,-3.1096482E6,-1.5309859E6,-4.5308384E5,2.2945575E6,-5.534366E4,-2.500473E4,2.4872541E4,-3.4134336E4,-1.1976169E4,6.086668E4,-2.1262418E4,5.34393E4],"categories":[],"categories_nodes":[],"categories_segments":[],"categories_sizes":[],"default_left":[0,0,0,0,0,0,0,0,0,0,0,0,0,0,0,0,0,0,0,0,0,0,0,0,0,0,0,0,0,0,0],"id":23,"left_children":[1,3,5,-1,7,-1,9,11,-1,13,15,-1,-1,17,-1,19,21,-1,-1,23,25,27,29,-1,-1,-1,-1,-1,-1,-1,-1],"loss_changes":[3.8577783E16,4.836509E13,8.541371E17,0E0,3.019708E14,0E0,1.1833907E17,8.1102995E14,0E0,2.056584E17,2.0243525E14,0E0,0E0,2.6937162E12,0E0,1.3980588E13,4.6343167E13,0E0,0E0,1.7339588E12,1.7207239E13,4.9770417E13,2.3312797E13,0E0,0E0,0E0,0E0,0E0,0E0,0E0,0E0],"parents":[2147483647,0,0,1,1,2,2,4,4,6,6,7,7,9,9,10,10,13,13,15,15,16,16,19,19,20,20,21,21,22,22],"right_children":[2,4,6,-1,8,-1,10,12,-1,14,16,-1,-1,18,-1,20,22,-1,-1,24,26,28,30,-1,-1,-1,-1,-1,-1,-1,-1],"split_conditions":[3.5E2,1E0,3.51E2,-6.0782383E4,1E0,1.1511905E7,3.7E2,5.9E1,-5.8431887E4,2E0,1.4E3,-5.3283348E4,3.6354253E5,1E0,7.000688E6,5E0,1E0,-1.437808E5,-3.729808E4,1.25E3,6.9E2,1E0,2.368E3,-5.534366E4,-2.500473E4,2.4872541E4,-3.4134336E4,-1.1976169E4,6.086668E4,-2.1262418E4,5.34393E4],"split_indices":[0,10,0,0,9,0,0,0,0,3,0,0,0,4,0,3,8,0,0,0,0,10,0,0,0,0,0,0,0,0,0],"split_type":[0,0,0,0,0,0,0,0,0,0,0,0,0,0,0,0,0,0,0,0,0,0,0,0,0,0,0,0,0,0,0],"sum_hessian":[5.81E2,4.68E2,1.13E2,4.33E2,3.5E1,1E0,1.12E2,5E0,3E1,4E0,1.08E2,4E0,1E0,3E0,1E0,5.3E1,5.5E1,2E0,1E0,4.3E1,1E1,4.9E1,6E0,4E1,3E0,1E0,9E0,4.7E1,2E0,1E0,5E0],"tree_param":{"num_deleted":"0","num_feature":"13","num_nodes":"31","size_leaf_vector":"1"}},{"base_weights":[6.3172556E5,-3.35554E6,1.6959982E7,-5.9745812E4,-2.1223992E6,1.1412241E7,5.444625E6,4.4091395E6,-5.7452777E4,1.545468E8,-1.4448749E6,-5.254527E4,3.603952E5,-7.223725E6,6.9400795E6,-2.798042E6,-1.1423368E5,-1.421211E5,-3.697517E4,-3.057631E6,-1.5053188E6,-1.238461E6,5.956873E5,-5.544372E4,-3.180256E4,2.4657209E4,-3.3602402E4,-2.6469922E4,4.2051473E4,-1.5597253E4,2.8331383E4],"categories":[],"categories_nodes":[],"categories_segments":[],"categories_sizes":[],"default_left":[0,0,0,0,0,0,0,0,0,0,0,0,0,0,0,0,0,0,0,0,0,0,0,0,0,0,0,0,0,0,0],"id":24,"left_children":[1,3,5,-1,7,-1,9,11,-1,13,15,-1,-1,17,-1,19,21,-1,-1,23,25,27,29,-1,-1,-1,-1,-1,-1,-1,-1],"loss_changes":[3.781787E16,4.738208E13,8.393784E17,0E0,2.957824E14,0E0,1.1630134E17,7.958578E14,0E0,2.0208958E17,1.959436E14,0E0,0E0,2.505308E12,0E0,1.351841E13,4.543204E13,0E0,0E0,1.8782093E12,1.6791535E13,2.713063E13,5.5974832E13,0E0,0E0,0E0,0E0,0E0,0E0,0E0,0E0],"parents":[2147483647,0,0,1,1,2,2,4,4,6,6,7,7,9,9,10,10,13,13,15,15,16,16,19,19,20,20,21,21,22,22],"right_children":[2,4,6,-1,8,-1,10,12,-1,14,16,-1,-1,18,-1,20,22,-1,-1,24,26,28,30,-1,-1,-1,-1,-1,-1,-1,-1],"split_conditions":[3.5E2,1E0,3.51E2,-5.9745812E4,1E0,1.1412241E7,3.7E2,5.9E1,-5.7452777E4,2E0,1.4E3,-5.254527E4,3.603952E5,1E0,6.9400795E6,5E0,2E0,-1.421211E5,-3.697517E4,1E0,6.9E2,1E0,2.5E3,-5.544372E4,-3.180256E4,2.4657209E4,-3.3602402E4,-2.6469922E4,4.2051473E4,-1.5597253E4,2.8331383E4],"split_indices":[0,10,0,0,9,0,0,0,0,3,0,0,0,4,0,3,3,0,0,8,0,10,0,0,0,0,0,0,0,0,0],"split_type":[0,0,0,0,0,0,0,0,0,0,0,0,0,0,0,0,0,0,0,0,0,0,0,0,0,0,0,0,0,0,0],"sum_hessian":[5.79E2,4.66E2,1.13E2,4.31E2,3.5E1,1E0,1.12E2,5E0,3E1,4E0,1.08E2,4E0,1E0,3E0,1E0,5.3E1,5.5E1,2E0,1E0,4.3E1,1E1,2.1E1,3.4E1,3.7E1,6E0,1E0,9E0,2E1,1E0,1.4E1,2E1],"tree_param":{"num_deleted":"0","num_feature":"13","num_nodes":"31","size_leaf_vector":"1"}},{"base_weights":[6.620005E5,-3.293493E6,1.682514E7,-5.865125E4,-2.0786945E6,1.131344E7,5.4095825E6,4.384104E6,-5.6490074E4,1.5322302E8,-1.4204796E6,-5.1817414E4,3.5727506E5,-7.143421E6,6.879996E6,-2.7513755E6,-1.1175006E5,-1.4048055E5,-3.6655062E4,-3.0066712E6,-1.4800674E6,-4.4005425E5,2.2492442E6,-5.4508977E4,-3.1330564E4,2.444374E4,-3.307876E4,-1.1671861E4,5.975785E4,-2.0943305E4,5.2417562E4],"categories":[],"categories_nodes":[],"categories_segments":[],"categories_sizes":[],"default_left":[0,0,0,0,0,0,0,0,0,0,0,0,0,0,0,0,0,0,0,0,0,0,0,0,0,0,0,0,0,0,0],"id":25,"left_children":[1,3,5,-1,7,-1,9,11,-1,13,15,-1,-1,17,-1,19,21,-1,-1,23,25,27,29,-1,-1,-1,-1,-1,-1,-1,-1],"loss_changes":[3.7072736E16,4.6073725E13,8.248763E17,0E0,2.8972917E14,0E0,1.1429961E17,7.809741E14,0E0,1.9858274E17,1.8954686E14,0E0,0E0,2.3238625E12,0E0,1.3076129E13,4.439675E13,0E0,0E0,1.7531855E12,1.63862E13,4.786176E13,2.2499669E13,0E0,0E0,0E0,0E0,0E0,0E0,0E0,0E0],"parents":[2147483647,0,0,1,1,2,2,4,4,6,6,7,7,9,9,10,10,13,13,15,15,16,16,19,19,20,20,21,21,22,22],"right_children":[2,4,6,-1,8,-1,10,12,-1,14,16,-1,-1,18,-1,20,22,-1,-1,24,26,28,30,-1,-1,-1,-1,-1,-1,-1,-1],"split_conditions":[3.5E2,1E0,3.51E2,-5.865125E4,1E0,1.131344E7,3.7E2,5.9E1,-5.6490074E4,2E0,1.4E3,-5.1817414E4,3.5727506E5,1E0,6.879996E6,5E0,1E0,-1.4048055E5,-3.6655062E4,1E0,6.9E2,1E0,2.368E3,-5.4508977E4,-3.1330564E4,2.444374E4,-3.307876E4,-1.1671861E4,5.975785E4,-2.0943305E4,5.2417562E4],"split_indices":[0,10,0,0,9,0,0,0,0,3,0,0,0,4,0,3,8,0,0,8,0,10,0,0,0,0,0,0,0,0,0],"split_type":[0,0,0,0,0,0,0,0,0,0,0,0,0,0,0,0,0,0,0,0,0,0,0,0,0,0,0,0,0,0,0],"sum_hessian":[5.78E2,4.65E2,1.13E2,4.3E2,3.5E1,1E0,1.12E2,5E0,3E1,4E0,1.08E2,4E0,1E0,3E0,1E0,5.3E1,5.5E1,2E0,1E0,4.3E1,1E1,4.9E1,6E0,3.7E1,6E0,1E0,9E0,4.7E1,2E0,1E0,5E0],"tree_param":{"num_deleted":"0","num_feature":"13","num_nodes":"31","size_leaf_vector":"1"}},{"base_weights":[6.7934006E5,-3.2381992E6,1.6863512E7,-5.7674426E4,-2.0357864E6,1.1215494E7,5.447385E6,4.359103E6,-5.5543508E4,1.5191054E8,-1.3837552E6,-5.109964E4,3.5418197E5,-7.064017E6,6.8204325E6,-2.705485E6,-6.089781E4,-1.3885892E5,-3.6337723E4,-2.9565618E6,-1.4552249E6,-3.8475397E5,2.214795E6,-5.2650234E4,-2.3454814E4,2.4232121E4,-3.2563277E4,-1.0715784E4,5.906805E4,-2.0761986E4,5.1661223E4],"categories":[],"categories_nodes":[],"categories_segments":[],"categories_sizes":[],"default_left":[0,0,0,0,0,0,0,0,0,0,0,0,0,0,0,0,0,0,0,0,0,0,0,0,0,0,0,0,0,0,0],"id":26,"left_children":[1,3,5,-1,7,-1,9,11,-1,13,15,-1,-1,17,-1,19,21,-1,-1,23,25,27,29,-1,-1,-1,-1,-1,-1,-1,-1],"loss_changes":[3.6764443E16,4.5275398E13,8.1030976E17,0E0,2.8380795E14,0E0,1.1226736E17,7.6637356E14,0E0,1.9513686E17,1.8866895E14,0E0,0E0,2.1491446E12,0E0,1.2648712E13,4.1386997E13,0E0,0E0,1.8144224E12,1.5990962E13,4.566031E13,2.195031E13,0E0,0E0,0E0,0E0,0E0,0E0,0E0,0E0],"parents":[2147483647,0,0,1,1,2,2,4,4,6,6,7,7,9,9,10,10,13,13,15,15,16,16,19,19,20,20,21,21,22,22],"right_children":[2,4,6,-1,8,-1,10,12,-1,14,16,-1,-1,18,-1,20,22,-1,-1,24,26,28,30,-1,-1,-1,-1,-1,-1,-1,-1],"split_conditions":[3.5E2,1E0,3.51E2,-5.7674426E4,1E0,1.1215494E7,3.7E2,5.9E1,-5.5543508E4,2E0,1.4E3,-5.109964E4,3.5418197E5,1E0,6.8204325E6,5E0,1E0,-1.3885892E5,-3.6337723E4,1.25E3,6.9E2,1E0,2.368E3,-5.2650234E4,-2.3454814E4,2.4232121E4,-3.2563277E4,-1.0715784E4,5.906805E4,-2.0761986E4,5.1661223E4],"split_indices":[0,10,0,0,9,0,0,0,0,3,0,0,0,4,0,3,8,0,0,0,0,10,0,0,0,0,0,0,0,0,0],"split_type":[0,0,0,0,0,0,0,0,0,0,0,0,0,0,0,0,0,0,0,0,0,0,0,0,0,0,0,0,0,0,0],"sum_hessian":[5.78E2,4.66E2,1.12E2,4.31E2,3.5E1,1E0,1.11E2,5E0,3E1,4E0,1.07E2,4E0,1E0,3E0,1E0,5.3E1,5.4E1,2E0,1E0,4.3E1,1E1,4.8E1,6E0,4E1,3E0,1E0,9E0,4.6E1,2E0,1E0,5E0],"tree_param":{"num_deleted":"0","num_feature":"13","num_nodes":"31","size_leaf_vector":"1"}},{"base_weights":[6.879687E5,-3.1795252E6,1.6559014E7,-5.6633305E4,-1.9936608E6,1.1118396E7,5.3404715E6,4.3341385E6,-5.4612797E4,1.5060926E8,-1.3722301E6,-5.039181E4,3.5111562E5,-6.985503E6,6.761385E6,-2.6602032E6,-1.057519E5,-1.3725605E5,-3.6023133E4,-2.9070988E6,-1.4307849E6,-1.2071056E6,5.895491E5,-5.2728957E4,-3.0156393E4,2.4022334E4,-3.2055822E4,-2.5768508E4,4.065868E4,-1.4961087E4,2.769984E4],"categories":[],"categories_nodes":[],"categories_segments":[],"categories_sizes":[],"default_left":[0,0,0,0,0,0,0,0,0,0,0,0,0,0,0,0,0,0,0,0,0,0,0,0,0,0,0,0,0,0,0],"id":27,"left_children":[1,3,5,-1,7,-1,9,11,-1,13,15,-1,-1,17,-1,19,21,-1,-1,23,25,27,29,-1,-1,-1,-1,-1,-1,-1,-1],"loss_changes":[3.571511E16,4.41222E13,7.966185E17,0E0,2.7801565E14,0E0,1.10398174E17,7.520504E14,0E0,1.9175084E17,1.7751838E14,0E0,0E0,1.9809698E12,0E0,1.2231631E13,4.3594904E13,0E0,0E0,1.782445E12,1.5605569E13,2.5482639E13,5.2778215E13,0E0,0E0,0E0,0E0,0E0,0E0,0E0,0E0],"parents":[2147483647,0,0,1,1,2,2,4,4,6,6,7,7,9,9,10,10,13,13,15,15,16,16,19,19,20,20,21,21,22,22],"right_children":[2,4,6,-1,8,-1,10,12,-1,14,16,-1,-1,18,-1,20,22,-1,-1,24,26,28,30,-1,-1,-1,-1,-1,-1,-1,-1],"split_conditions":[3.5E2,1E0,3.51E2,-5.6633305E4,1E0,1.1118396E7,3.7E2,5.9E1,-5.4612797E4,2E0,1.4E3,-5.039181E4,3.5111562E5,1E0,6.761385E6,5E0,2E0,-1.3725605E5,-3.6023133E4,1E0,6.9E2,1E0,2.5E3,-5.2728957E4,-3.0156393E4,2.4022334E4,-3.2055822E4,-2.5768508E4,4.065868E4,-1.4961087E4,2.769984E4],"split_indices":[0,10,0,0,9,0,0,0,0,3,0,0,0,4,0,3,3,0,0,8,0,10,0,0,0,0,0,0,0,0,0],"split_type":[0,0,0,0,0,0,0,0,0,0,0,0,0,0,0,0,0,0,0,0,0,0,0,0,0,0,0,0,0,0,0],"sum_hessian":[5.8E2,4.67E2,1.13E2,4.32E2,3.5E1,1E0,1.12E2,5E0,3E1,4E0,1.08E2,4E0,1E0,3E0,1E0,5.3E1,5.5E1,2E0,1E0,4.3E1,1E1,2.1E1,3.4E1,3.7E1,6E0,1E0,9E0,2E1,1E0,1.4E1,2E1],"tree_param":{"num_deleted":"0","num_feature":"13","num_nodes":"31","size_leaf_vector":"1"}},{"base_weights":[7.1330625E5,-5.346909E4,1.0433824E7,6.5823485E6,4.3124004E7,1.1196791E7,-1.5720948E6,-4.0782285E4,9.4582664E7,1.5983188E7,-1.2725355E6,-2.102003E6,6.904556E5,4.4034115E6,-1.04616825E6,2.0958578E7,-5.1836832E4,-1.670575E6,1.4338358E6,5.7641797E3,-2.1663705E6,-3.150945E4,6.848152E4,2.62724E5,-3.0583307E4,4.3510028E5,-4.6466094E4,-3.9097418E4,8.104831E3,7.130203E4,-1.4432304E4,-4.12624E4,-1.875235E4,4.0665527E4,-3.479725E4,2.381436E4,-1.6990783E4],"categories":[],"categories_nodes":[],"categories_segments":[],"categories_sizes":[],"default_left":[0,0,0,0,0,0,0,0,0,0,0,0,0,0,0,0,0,0,0,0,0,0,0,0,0,0,0,0,0,0,0,0,0,0,0,0,0],"id":28,"left_children":[1,-1,3,5,7,9,11,-1,13,15,17,19,21,-1,23,25,-1,27,29,-1,31,33,-1,35,-1,-1,-1,-1,-1,-1,-1,-1,-1,-1,-1,-1,-1],"loss_changes":[2.142683E16,0E0,2.0238728E16,5.548949E15,4.0007955E16,5.630555E15,6.6194313E13,0E0,1.2246448E17,6.483151E15,3.1480886E13,7.6172587E12,2.6050801E13,0E0,6.119461E12,5.391204E15,0E0,3.1208981E13,2.7775694E13,0E0,7.513022E12,5.1801743E13,0E0,5.5019983E12,0E0,0E0,0E0,0E0,0E0,0E0,0E0,0E0,0E0,0E0,0E0,0E0,0E0],"parents":[2147483647,0,0,2,2,3,3,4,4,5,5,6,6,8,8,9,9,10,10,11,11,12,12,14,14,15,15,17,17,18,18,20,20,21,21,23,23],"right_children":[2,-1,4,6,8,10,12,-1,14,16,18,20,22,-1,24,26,-1,28,30,-1,32,34,-1,36,-1,-1,-1,-1,-1,-1,-1,-1,-1,-1,-1,-1,-1],"split_conditions":[2E0,-5.346909E4,1E0,1E0,4E0,3E0,9E0,-4.0782285E4,5E0,1E0,1E0,1E0,3.4E1,4.4034115E6,6E0,1E0,-5.1836832E4,8E0,1E0,5.7641797E3,1E0,1.6E1,6.848152E4,1E0,-3.0583307E4,4.3510028E5,-4.6466094E4,-3.9097418E4,8.104831E3,7.130203E4,-1.4432304E4,-4.12624E4,-1.875235E4,4.0665527E4,-3.479725E4,2.381436E4,-1.6990783E4],"split_indices":[3,0,5,4,3,3,3,0,3,8,8,2,3,0,3,6,0,3,12,0,8,3,0,4,0,0,0,0,0,0,0,0,0,0,0,0,0],"split_type":[0,0,0,0,0,0,0,0,0,0,0,0,0,0,0,0,0,0,0,0,0,0,0,0,0,0,0,0,0,0,0,0,0,0,0,0,0],"sum_hessian":[5.78E2,4.16E2,1.62E2,1.46E2,1.6E1,9.3E1,5.3E1,9E0,7E0,6.7E1,2.6E1,4.3E1,1E1,2E0,5E0,5.3E1,1.4E1,2.3E1,3E0,1E0,4.2E1,9E0,1E0,2E0,3E0,4.5E1,8E0,1.8E1,5E0,1E0,2E0,3.4E1,8E0,4E0,5E0,1E0,1E0],"tree_param":{"num_deleted":"0","num_feature":"13","num_nodes":"37","size_leaf_vector":"1"}},{"base_weights":[7.048216E5,-3.1106208E6,1.6500593E7,-5.62195E4,-2.8595075E6,1.1018372E7,5.28452E6,4.2190316E4,-3.1152685E6,1.484705E8,-1.3933912E6,-4.794003E4,1.2208687E7,-3.235918E6,-4.216591E4,-6.8677675E6,6.664726E6,-2.7139532E6,-1.18691586E5,-2.7219871E4,3.44309E5,-5.135772E4,-3.725416E6,-1.3505445E5,-3.5248355E4,-2.9918135E6,-1.3810494E6,-7.080018E5,1.1647412E6,-6.885717E4,-4.325871E4,-5.6013945E4,-3.4461137E4,2.3608186E4,-3.1025709E4,-5.7459097E3,-4.7123426E4,-4.481471E3,3.2865336E4],"categories":[],"categories_nodes":[],"categories_segments":[],"categories_sizes":[],"default_left":[0,0,0,0,0,0,0,0,0,0,0,0,0,0,0,0,0,0,0,0,0,0,0,0,0,0,0,0,0,0,0,0,0,0,0,0,0,0,0],"id":29,"left_children":[1,3,5,-1,7,-1,9,11,13,15,17,-1,19,21,-1,23,-1,25,27,-1,-1,-1,29,-1,-1,31,33,35,37,-1,-1,-1,-1,-1,-1,-1,-1,-1,-1],"loss_changes":[3.5006683E16,6.728603E12,7.822449E17,0E0,1.285218E14,0E0,1.072994E17,5.4678413E14,5.165101E12,1.8628538E17,1.8147641E14,0E0,3.4861894E14,6.384603E12,0E0,2.1376354E12,0E0,1.5497316E13,4.3179684E13,0E0,0E0,0E0,3.3260495E12,0E0,0E0,4.0350547E12,1.4844875E13,2.8635656E13,1.9282707E13,0E0,0E0,0E0,0E0,0E0,0E0,0E0,0E0,0E0,0E0],"parents":[2147483647,0,0,1,1,2,2,4,4,6,6,7,7,8,8,9,9,10,10,12,12,13,13,15,15,17,17,18,18,22,22,25,25,26,26,27,27,28,28],"right_children":[2,4,6,-1,8,-1,10,12,14,16,18,-1,20,22,-1,24,-1,26,28,-1,-1,-1,30,-1,-1,32,34,36,38,-1,-1,-1,-1,-1,-1,-1,-1,-1,-1],"split_conditions":[3.5E2,1.11E2,3.51E2,-5.62195E4,1.19E2,1.1018372E7,3.7E2,1.18E2,1E0,2E0,1.4E3,-4.794003E4,2E0,2E0,-4.216591E4,1E0,6.664726E6,5E0,1E0,-2.7219871E4,3.44309E5,-5.135772E4,1E0,-1.3505445E5,-3.5248355E4,1E0,6.9E2,4.924E3,2.368E3,-6.885717E4,-4.325871E4,-5.6013945E4,-3.4461137E4,2.3608186E4,-3.1025709E4,-5.7459097E3,-4.7123426E4,-4.481471E3,3.2865336E4],"split_indices":[0,0,0,0,0,0,0,0,4,3,0,0,3,3,0,4,0,3,4,0,0,0,6,0,0,4,0,0,0,0,0,0,0,0,0,0,0,0,0],"split_type":[0,0,0,0,0,0,0,0,0,0,0,0,0,0,0,0,0,0,0,0,0,0,0,0,0,0,0,0,0,0,0,0,0,0,0,0,0,0,0],"sum_hessian":[5.79E2,4.67E2,1.12E2,2.95E2,1.72E2,1E0,1.11E2,1.4E1,1.58E2,4E0,1.07E2,1.2E1,2E0,1.31E2,2.7E1,3E0,1E0,5.2E1,5.5E1,1E0,1E0,8.9E1,4.2E1,2E0,1E0,4.2E1,1E1,3.8E1,1.7E1,3.3E1,9E0,3.2E1,1E1,1E0,9E0,3.3E1,5E0,6E0,1.1E1],"tree_param":{"num_deleted":"0","num_feature":"13","num_nodes":"39","size_leaf_vector":"1"}},{"base_weights":[7.442492E5,-3.0556148E6,1.6203833E7,-3.145232E6,-1.9027964E6,1.0922981E7,5.1818985E6,-5.2968926E4,-3.4623858E6,-5.496596E4,5.912982E5,1.4719862E8,-1.3801705E6,-3.7849812E6,-4.5731656E4,3.4132816E5,-4.579654E4,-6.791428E6,6.6070265E6,-2.66449E6,-1.17073664E5,-4.0217848E6,-4.7676207E4,-1.3349548E5,-3.4943195E4,-2.9306032E6,-1.357811E6,-6.970984E5,1.1461506E6,-7.3158336E4,-4.4205926E4,-5.350233E4,-2.851623E4,2.34038E4,-3.0542225E4,-1.6665357E4,3.2303584E4,-4.4149595E3,3.2343695E4],"categories":[],"categories_nodes":[],"categories_segments":[],"categories_sizes":[],"default_left":[0,0,0,0,0,0,0,0,0,0,0,0,0,0,0,0,0,0,0,0,0,0,0,0,0,0,0,0,0,0,0,0,0,0,0,0,0,0,0],"id":30,"left_children":[1,3,5,7,9,-1,11,-1,13,-1,15,17,19,21,-1,-1,-1,23,-1,25,27,29,-1,-1,-1,31,33,35,37,-1,-1,-1,-1,-1,-1,-1,-1,-1,-1],"loss_changes":[3.3944984E16,4.1952435E13,7.6902324E17,1.1209865E12,1.1605833E14,0E0,1.0551052E17,0E0,1.2256696E13,0E0,8.5660016E14,1.8305302E17,1.7651004E14,3.0934502E12,0E0,0E0,0E0,1.9763728E12,0E0,1.4797907E13,4.183025E13,2.654357E12,0E0,0E0,0E0,3.9114737E12,1.4488009E13,2.8320188E13,1.868068E13,0E0,0E0,0E0,0E0,0E0,0E0,0E0,0E0,0E0,0E0],"parents":[2147483647,0,0,1,1,2,2,3,3,4,4,6,6,8,8,10,10,11,11,12,12,13,13,17,17,19,19,20,20,21,21,25,25,26,26,27,27,28,28],"right_children":[2,4,6,8,10,-1,12,-1,14,-1,16,18,20,22,-1,-1,-1,24,-1,26,28,30,-1,-1,-1,32,34,36,38,-1,-1,-1,-1,-1,-1,-1,-1,-1,-1],"split_conditions":[3.5E2,1E0,3.51E2,2E0,1.18E2,1.0922981E7,3.7E2,-5.2968926E4,1E0,-5.496596E4,1.19E2,2E0,1.4E3,1E0,-4.5731656E4,3.4132816E5,-4.579654E4,1E0,6.6070265E6,5E0,1E0,1E0,-4.7676207E4,-1.3349548E5,-3.4943195E4,1E0,6.9E2,1E0,2.368E3,-7.3158336E4,-4.4205926E4,-5.350233E4,-2.851623E4,2.34038E4,-3.0542225E4,-1.6665357E4,3.2303584E4,-4.4149595E3,3.2343695E4],"split_indices":[0,10,0,3,0,0,0,0,4,0,0,3,0,8,0,0,0,4,0,3,4,6,0,0,0,8,0,8,0,0,0,0,0,0,0,0,0,0,0],"split_type":[0,0,0,0,0,0,0,0,0,0,0,0,0,0,0,0,0,0,0,0,0,0,0,0,0,0,0,0,0,0,0,0,0,0,0,0,0,0,0],"sum_hessian":[5.76E2,4.63E2,1.13E2,4.28E2,3.5E1,1E0,1.12E2,3.45E2,8.3E1,2.3E1,1.2E1,4E0,1.08E2,5.7E1,2.6E1,1E0,1.1E1,3E0,1E0,5.3E1,5.5E1,4.4E1,1.3E1,2E0,1E0,4.3E1,1E1,3.8E1,1.7E1,3.7E1,7E0,3.7E1,6E0,1E0,9E0,3.5E1,3E0,6E0,1.1E1],"tree_param":{"num_deleted":"0","num_feature":"13","num_nodes":"39","size_leaf_vector":"1"}},{"base_weights":[7.287808E5,-3.0030228E6,1.6075159E7,-3.0906535E6,-1.8631671E6,1.0828415E7,5.1487495E6,-5.205969E4,-3.404944E6,4.231922E6,-5.1646316E4,1.459376E8,-1.3566911E6,-3.72229E6,-4.496914E4,-4.7418652E4,3.3837312E5,-6.715945E6,6.5498265E6,-2.6200058E6,-1.14268445E5,-3.9547558E6,-4.690966E4,-1.319545E5,-3.4640676E4,-2.881724E6,-1.3349498E6,-4.2925388E5,2.1519515E6,-7.192493E4,-4.353618E4,-5.260032E4,-2.809301E4,2.3201182E4,-3.0066275E4,-1.1394332E4,5.843419E4,-2.0213346E4,5.0208855E4],"categories":[],"categories_nodes":[],"categories_segments":[],"categories_sizes":[],"default_left":[0,0,0,0,0,0,0,0,0,0,0,0,0,0,0,0,0,0,0,0,0,0,0,0,0,0,0,0,0,0,0,0,0,0,0,0,0,0,0],"id":31,"left_children":[1,3,5,7,9,-1,11,-1,13,15,-1,17,19,21,-1,-1,-1,23,-1,25,27,29,-1,-1,-1,31,33,35,37,-1,-1,-1,-1,-1,-1,-1,-1,-1,-1],"loss_changes":[3.337922E16,4.108834E13,7.557364E17,1.2232604E12,2.5828739E14,0E0,1.0369396E17,0E0,1.1866659E13,6.9384425E14,0E0,1.7987682E17,1.7078385E14,2.9452738E12,0E0,0E0,0E0,1.8211332E12,0E0,1.4314455E13,4.0898004E13,2.4649757E12,0E0,0E0,0E0,3.7220254E12,1.4140005E13,4.5740827E13,2.0760337E13,0E0,0E0,0E0,0E0,0E0,0E0,0E0,0E0,0E0,0E0],"parents":[2147483647,0,0,1,1,2,2,3,3,4,4,6,6,8,8,9,9,11,11,12,12,13,13,17,17,19,19,20,20,21,21,25,25,26,26,27,27,28,28],"right_children":[2,4,6,8,10,-1,12,-1,14,16,-1,18,20,22,-1,-1,-1,24,-1,26,28,30,-1,-1,-1,32,34,36,38,-1,-1,-1,-1,-1,-1,-1,-1,-1,-1],"split_conditions":[3.5E2,1E0,3.51E2,2E0,1E0,1.0828415E7,3.7E2,-5.205969E4,1E0,5.9E1,-5.1646316E4,2E0,1.4E3,1E0,-4.496914E4,-4.7418652E4,3.3837312E5,1E0,6.5498265E6,5E0,1E0,1E0,-4.690966E4,-1.319545E5,-3.4640676E4,1E0,6.9E2,1E0,2.368E3,-7.192493E4,-4.353618E4,-5.260032E4,-2.809301E4,2.3201182E4,-3.0066275E4,-1.1394332E4,5.843419E4,-2.0213346E4,5.0208855E4],"split_indices":[0,10,0,3,9,0,0,0,4,0,0,3,0,8,0,0,0,4,0,3,8,6,0,0,0,8,0,10,0,0,0,0,0,0,0,0,0,0,0],"split_type":[0,0,0,0,0,0,0,0,0,0,0,0,0,0,0,0,0,0,0,0,0,0,0,0,0,0,0,0,0,0,0,0,0,0,0,0,0,0,0],"sum_hessian":[5.81E2,4.68E2,1.13E2,4.33E2,3.5E1,1E0,1.12E2,3.5E2,8.3E1,5E0,3E1,4E0,1.08E2,5.7E1,2.6E1,4E0,1E0,3E0,1E0,5.3E1,5.5E1,4.4E1,1.3E1,2E0,1E0,4.3E1,1E1,4.9E1,6E0,3.7E1,7E0,3.7E1,6E0,1E0,9E0,4.7E1,2E0,1E0,5E0],"tree_param":{"num_deleted":"0","num_feature":"13","num_nodes":"39","size_leaf_vector":"1"}},{"base_weights":[7.7162144E5,-4.9882938E4,1.0088707E7,6.378496E6,4.157766E7,1.06727E7,-1.4390105E6,-3.7670484E4,9.107203E7,1.5376248E7,-1.1313704E6,-1.9566012E6,9.822901E5,4.239114E6,-9.8262656E5,2.0140618E7,-4.8491668E4,-1.4932146E6,1.412999E6,5.2483804E3,-2.0162019E6,2.2612122E5,6.742275E4,2.6758984E5,-2.8996164E4,4.1795228E5,-4.379848E4,-3.634949E4,6.3238667E3,7.0020125E4,-1.4058753E4,-3.8465613E4,-1.720576E4,3.9613426E4,-3.2565926E4,2.300032E4,-1.6050365E4],"categories":[],"categories_nodes":[],"categories_segments":[],"categories_sizes":[],"default_left":[0,0,0,0,0,0,0,0,0,0,0,0,0,0,0,0,0,0,0,0,0,0,0,0,0,0,0,0,0,0,0,0,0,0,0,0,0],"id":32,"left_children":[1,-1,3,5,7,9,11,-1,13,15,17,19,21,-1,23,25,-1,27,29,-1,31,33,-1,35,-1,-1,-1,-1,-1,-1,-1,-1,-1,-1,-1,-1,-1],"loss_changes":[1.9698996E16,0E0,1.8778192E16,4.9501425E15,3.7012323E16,5.2918926E15,6.8343835E13,0E0,1.1346925E17,5.9452795E15,2.7888544E13,6.5370744E12,2.1136235E13,0E0,5.639056E12,4.9548976E15,0E0,2.8926672E13,2.6697957E13,0E0,6.8201564E12,4.3397373E13,0E0,5.0327506E12,0E0,0E0,0E0,0E0,0E0,0E0,0E0,0E0,0E0,0E0,0E0,0E0,0E0],"parents":[2147483647,0,0,2,2,3,3,4,4,5,5,6,6,8,8,9,9,10,10,11,11,12,12,14,14,15,15,17,17,18,18,20,20,21,21,23,23],"right_children":[2,-1,4,6,8,10,12,-1,14,16,18,20,22,-1,24,26,-1,28,30,-1,32,34,-1,36,-1,-1,-1,-1,-1,-1,-1,-1,-1,-1,-1,-1,-1],"split_conditions":[2E0,-4.9882938E4,1E0,1E0,4E0,3E0,9E0,-3.7670484E4,5E0,1E0,1E0,1E0,3.4E1,4.239114E6,6E0,1E0,-4.8491668E4,8E0,1E0,5.2483804E3,1E0,1.6E1,6.742275E4,1E0,-2.8996164E4,4.1795228E5,-4.379848E4,-3.634949E4,6.3238667E3,7.0020125E4,-1.4058753E4,-3.8465613E4,-1.720576E4,3.9613426E4,-3.2565926E4,2.300032E4,-1.6050365E4],"split_indices":[3,0,5,4,3,3,3,0,3,8,8,2,3,0,3,6,0,3,12,0,8,3,0,4,0,0,0,0,0,0,0,0,0,0,0,0,0],"split_type":[0,0,0,0,0,0,0,0,0,0,0,0,0,0,0,0,0,0,0,0,0,0,0,0,0,0,0,0,0,0,0,0,0,0,0,0,0],"sum_hessian":[5.77E2,4.15E2,1.62E2,1.46E2,1.6E1,9.4E1,5.2E1,9E0,7E0,6.7E1,2.7E1,4.3E1,9E0,2E0,5E0,5.3E1,1.4E1,2.4E1,3E0,1E0,4.2E1,8E0,1E0,2E0,3E0,4.5E1,8E0,1.8E1,6E0,1E0,2E0,3.4E1,8E0,4E0,4E0,1E0,1E0],"tree_param":{"num_deleted":"0","num_feature":"13","num_nodes":"37","size_leaf_vector":"1"}},{"base_weights":[7.513068E5,-2.936459E6,1.6017882E7,-3.022734E6,-1.8171926E6,1.073105E7,5.093818E6,-5.0319008E4,-3.4727122E6,4.170504E6,-5.0516047E4,1.4386946E8,-1.3781451E6,-3.8567118E6,-4.36199E4,-4.607565E4,3.3182525E5,-6.603895E6,6.4564215E6,-2.7001498E6,-1.4792775E5,-4.15509E6,-4.5402547E4,-1.2985549E5,-3.390891E4,-2.3502615E6,-4.330753E6,-4.974283E5,1.771345E6,-7.630847E4,-4.2226273E4,-4.5252637E4,-3.5255962E3,-1.00948445E5,-2.3787941E4,-2.5813723E4,2.2073066E3,-2.1073717E4,4.8465402E4],"categories":[],"categories_nodes":[],"categories_segments":[],"categories_sizes":[],"default_left":[0,0,0,0,0,0,0,0,0,0,0,0,0,0,0,0,0,0,0,0,0,0,0,0,0,0,0,0,0,0,0,0,0,0,0,0,0,0,0],"id":33,"left_children":[1,3,5,7,9,-1,11,-1,13,15,-1,17,19,21,-1,-1,-1,23,-1,25,27,29,-1,-1,-1,31,33,35,37,-1,-1,-1,-1,-1,-1,-1,-1,-1,-1],"loss_changes":[3.2700775E16,3.969919E13,7.4210974E17,1.2632573E13,2.4934265E14,0E0,1.0079117E17,0E0,2.1040508E13,6.65572E14,0E0,1.7476349E17,1.7524671E14,1.0469721E13,0E0,0E0,0E0,1.9575152E12,0E0,1.9489119E13,3.911597E13,8.7157637E12,0E0,0E0,0E0,2.4896617E13,2.7458649E13,3.060866E13,3.104768E13,0E0,0E0,0E0,0E0,0E0,0E0,0E0,0E0,0E0,0E0],"parents":[2147483647,0,0,1,1,2,2,3,3,4,4,6,6,8,8,9,9,11,11,12,12,13,13,17,17,19,19,20,20,21,21,25,25,26,26,27,27,28,28],"right_children":[2,4,6,8,10,-1,12,-1,14,16,-1,18,20,22,-1,-1,-1,24,-1,26,28,30,-1,-1,-1,32,34,36,38,-1,-1,-1,-1,-1,-1,-1,-1,-1,-1],"split_conditions":[3.5E2,1E0,3.51E2,2E0,1E0,1.073105E7,3.7E2,-5.0319008E4,1E0,5.9E1,-5.0516047E4,2E0,1.32E3,1E0,-4.36199E4,-4.607565E4,3.3182525E5,1E0,6.4564215E6,1.2E3,1E0,1E0,-4.5402547E4,-1.2985549E5,-3.390891E4,1E0,1.25E3,2E0,1.635E3,-7.630847E4,-4.2226273E4,-4.5252637E4,-3.5255962E3,-1.00948445E5,-2.3787941E4,-2.5813723E4,2.2073066E3,-2.1073717E4,4.8465402E4],"split_indices":[0,10,0,3,9,0,0,0,4,0,0,3,0,8,0,0,0,4,0,0,9,6,0,0,0,5,0,3,0,0,0,0,0,0,0,0,0,0,0],"split_type":[0,0,0,0,0,0,0,0,0,0,0,0,0,0,0,0,0,0,0,0,0,0,0,0,0,0,0,0,0,0,0,0,0,0,0,0,0,0,0],"sum_hessian":[5.79E2,4.67E2,1.12E2,4.32E2,3.5E1,1E0,1.11E2,3.49E2,8.3E1,5E0,3E1,4E0,1.07E2,5.7E1,2.6E1,4E0,1E0,3E0,1E0,5.1E1,5.6E1,4.4E1,1.3E1,2E0,1E0,4.4E1,7E0,4.8E1,8E0,3.7E1,7E0,3.9E1,5E0,4E0,3E0,1.8E1,3E1,2E0,6E0],"tree_param":{"num_deleted":"0","num_feature":"13","num_nodes":"39","size_leaf_vector":"1"}},{"base_weights":[7.872764E5,-2.883969E6,1.605525E7,-2.969564E6,-1.7450828E6,1.0638147E7,5.1297835E6,-4.9413934E4,-3.4150532E6,4.1459165E6,-4.9609277E4,1.426369E8,-1.3437245E6,-3.7927595E6,-4.2892594E4,-4.543741E4,3.2895247E5,-6.53049E6,6.400525E6,-2.6499228E6,-1.06831E5,-4.085779E6,-4.4672555E4,-1.2835654E5,-3.3615344E4,-2.3027802E6,-4.2713585E6,-4.342185E5,2.2469128E6,-7.268401E4,-3.2699576E4,-4.433537E4,-3.4747263E3,-9.955012E4,-2.3479025E4,-1.1439151E4,5.771861E4,6.123423E4,6.849809E3],"categories":[],"categories_nodes":[],"categories_segments":[],"categories_sizes":[],"default_left":[0,0,0,0,0,0,0,0,0,0,0,0,0,0,0,0,0,0,0,0,0,0,0,0,0,0,0,0,0,0,0,0,0,0,0,0,0,0,0],"id":34,"left_children":[1,3,5,7,9,-1,11,-1,13,15,-1,17,19,21,-1,-1,-1,23,-1,25,27,29,-1,-1,-1,31,33,35,37,-1,-1,-1,-1,-1,-1,-1,-1,-1,-1],"loss_changes":[3.2388582E16,4.0245186E13,7.290033E17,1.2527077E13,2.4281195E14,0E0,9.899869E16,0E0,2.0360158E13,6.531615E14,0E0,1.7173117E17,1.7258907E14,1.0069618E13,0E0,0E0,0E0,1.8088188E12,0E0,1.9433217E13,4.412848E13,3.1449227E12,0E0,0E0,0E0,2.386752E13,2.6675471E13,4.4858635E13,1.5312909E13,0E0,0E0,0E0,0E0,0E0,0E0,0E0,0E0,0E0,0E0],"parents":[2147483647,0,0,1,1,2,2,3,3,4,4,6,6,8,8,9,9,11,11,12,12,13,13,17,17,19,19,20,20,21,21,25,25,26,26,27,27,28,28],"right_children":[2,4,6,8,10,-1,12,-1,14,16,-1,18,20,22,-1,-1,-1,24,-1,26,28,30,-1,-1,-1,32,34,36,38,-1,-1,-1,-1,-1,-1,-1,-1,-1,-1],"split_conditions":[3.5E2,1E0,3.51E2,2E0,1E0,1.0638147E7,3.7E2,-4.9413934E4,1E0,5.9E1,-4.9609277E4,2E0,1.32E3,1E0,-4.2892594E4,-4.543741E4,3.2895247E5,1E0,6.400525E6,1.2E3,1E0,5E0,-4.4672555E4,-1.2835654E5,-3.3615344E4,1E0,1.25E3,1E0,4E0,-7.268401E4,-3.2699576E4,-4.433537E4,-3.4747263E3,-9.955012E4,-2.3479025E4,-1.1439151E4,5.771861E4,6.123423E4,6.849809E3],"split_indices":[0,10,0,3,9,0,0,0,4,0,0,3,0,8,0,0,0,4,0,0,8,2,0,0,0,5,0,10,3,0,0,0,0,0,0,0,0,0,0],"split_type":[0,0,0,0,0,0,0,0,0,0,0,0,0,0,0,0,0,0,0,0,0,0,0,0,0,0,0,0,0,0,0,0,0,0,0,0,0,0,0],"sum_hessian":[5.76E2,4.65E2,1.11E2,4.31E2,3.4E1,1E0,1.1E2,3.48E2,8.3E1,5E0,2.9E1,4E0,1.06E2,5.7E1,2.6E1,4E0,1E0,3E0,1E0,5.1E1,5.5E1,4.4E1,1.3E1,2E0,1E0,4.4E1,7E0,4.9E1,6E0,4.1E1,3E0,3.9E1,5E0,4E0,3E0,4.7E1,2E0,3E0,3E0],"tree_param":{"num_deleted":"0","num_feature":"13","num_nodes":"39","size_leaf_vector":"1"}},{"base_weights":[7.8842556E5,-2.8357495E6,1.5925261E7,-2.9201408E6,-1.7419418E6,1.0546048E7,5.094461E6,-4.8577637E4,-3.3696268E6,-5.1108023E4,6.254004E5,1.4141486E8,-1.3232626E6,-3.7528038E6,-4.2177418E4,3.2610456E5,-4.2619594E4,-6.457908E6,6.3451125E6,-2.572671E6,-9.522805E4,-4.0538762E6,-4.395431E4,-1.26874875E5,-3.3324324E4,-2.8580362E6,-1.2232724E6,-6.9225325E5,1.2800198E6,-7.470004E4,-4.057186E4,-4.443852E4,-8.759728E4,2.2861795E4,-2.787134E4,-5.5765483E3,-4.6310684E4,-4.0573206E3,3.6834566E4],"categories":[],"categories_nodes":[],"categories_segments":[],"categories_sizes":[],"default_left":[0,0,0,0,0,0,0,0,0,0,0,0,0,0,0,0,0,0,0,0,0,0,0,0,0,0,0,0,0,0,0,0,0,0,0,0,0,0,0],"id":35,"left_children":[1,3,5,7,9,-1,11,-1,13,-1,15,17,19,21,-1,-1,-1,23,-1,25,27,29,-1,-1,-1,31,33,35,37,-1,-1,-1,-1,-1,-1,-1,-1,-1,-1],"loss_changes":[3.1808257E16,3.811327E13,7.1641346E17,1.2852153E13,1.0494434E14,0E0,9.729733E16,0E0,2.055464E13,0E0,7.770362E14,1.6875155E17,1.6392689E14,1.0547701E13,0E0,0E0,0E0,1.6656756E12,0E0,1.6912642E13,4.6044264E13,9.485502E12,0E0,0E0,0E0,1.46097E13,1.2936669E13,2.7758478E13,2.2311468E13,0E0,0E0,0E0,0E0,0E0,0E0,0E0,0E0,0E0,0E0],"parents":[2147483647,0,0,1,1,2,2,3,3,4,4,6,6,8,8,10,10,11,11,12,12,13,13,17,17,19,19,20,20,21,21,25,25,26,26,27,27,28,28],"right_children":[2,4,6,8,10,-1,12,-1,14,-1,16,18,20,22,-1,-1,-1,24,-1,26,28,30,-1,-1,-1,32,34,36,38,-1,-1,-1,-1,-1,-1,-1,-1,-1,-1],"split_conditions":[3.5E2,1E0,3.51E2,2E0,1.18E2,1.0546048E7,3.7E2,-4.8577637E4,1E0,-5.1108023E4,1.19E2,2E0,1.4E3,1E0,-4.2177418E4,3.2610456E5,-4.2619594E4,1E0,6.3451125E6,5E0,1E0,1E0,-4.395431E4,-1.26874875E5,-3.3324324E4,1E0,6.9E2,4.924E3,2.368E3,-7.470004E4,-4.057186E4,-4.443852E4,-8.759728E4,2.2861795E4,-2.787134E4,-5.5765483E3,-4.6310684E4,-4.0573206E3,3.6834566E4],"split_indices":[0,10,0,3,0,0,0,0,4,0,0,3,0,8,0,0,0,4,0,3,4,6,0,0,0,5,0,0,0,0,0,0,0,0,0,0,0,0,0],"split_type":[0,0,0,0,0,0,0,0,0,0,0,0,0,0,0,0,0,0,0,0,0,0,0,0,0,0,0,0,0,0,0,0,0,0,0,0,0,0,0],"sum_hessian":[5.78E2,4.67E2,1.11E2,4.32E2,3.5E1,1E0,1.1E2,3.5E2,8.2E1,2.3E1,1.2E1,4E0,1.06E2,5.6E1,2.6E1,1E0,1.1E1,3E0,1E0,5.2E1,5.4E1,4.3E1,1.3E1,2E0,1E0,4.2E1,1E1,3.8E1,1.6E1,3.6E1,7E0,3.9E1,3E0,1E0,9E0,3.3E1,5E0,6E0,1E1],"tree_param":{"num_deleted":"0","num_feature":"13","num_nodes":"39","size_leaf_vector":"1"}},{"base_weights":[8.0099444E5,-2.7819095E6,1.5632836E7,-2.9025315E6,-2.5594468E6,1.0454745E7,4.990291E6,-4.9007098E4,-5.9038836E4,1.7513961E5,-2.8013295E6,1.4020325E8,-1.315774E6,-4.2488965E4,1.150922E7,-2.9227872E6,-3.685825E4,-6.3861395E6,6.2901795E6,-2.5790722E6,-1.4020762E5,-2.4359078E4,3.2328134E5,-4.529399E4,-3.4971585E6,-1.2541031E5,-3.303582E4,-2.2384582E6,-4.172642E6,-4.7821866E5,1.7156532E6,-6.533226E4,-3.824866E4,-4.2888277E4,2.8548577E3,-3.0917523E4,-1.0585123E5,-2.5038457E4,2.257889E3,-2.0651578E4,4.7044668E4],"categories":[],"categories_nodes":[],"categories_segments":[],"categories_sizes":[],"default_left":[0,0,0,0,0,0,0,0,0,0,0,0,0,0,0,0,0,0,0,0,0,0,0,0,0,0,0,0,0,0,0,0,0,0,0,0,0,0,0,0,0],"id":36,"left_children":[1,3,5,7,9,-1,11,-1,-1,13,15,17,19,-1,21,23,-1,25,-1,27,29,-1,-1,-1,31,-1,-1,33,35,37,39,-1,-1,-1,-1,-1,-1,-1,-1,-1,-1],"loss_changes":[3.0865308E16,5.129533E12,7.043198E17,1.1875585E12,1.1492138E14,0E0,9.5682586E16,0E0,0E0,4.7520683E14,6.767929E12,1.6582365E17,1.6002822E14,0E0,3.037585E14,1.4119839E13,0E0,1.527901E12,0E0,1.8884904E13,3.6576638E13,0E0,0E0,0E0,6.95372E12,0E0,0E0,2.6201482E13,2.6143365E13,2.905191E13,2.9450972E13,0E0,0E0,0E0,0E0,0E0,0E0,0E0,0E0,0E0,0E0],"parents":[2147483647,0,0,1,1,2,2,3,3,4,4,6,6,9,9,10,10,11,11,12,12,14,14,15,15,17,17,19,19,20,20,24,24,27,27,28,28,29,29,30,30],"right_children":[2,4,6,8,10,-1,12,-1,-1,14,16,18,20,-1,22,24,-1,26,-1,28,30,-1,-1,-1,32,-1,-1,34,36,38,40,-1,-1,-1,-1,-1,-1,-1,-1,-1,-1],"split_conditions":[3.5E2,1.11E2,3.51E2,2E0,1.19E2,1.0454745E7,3.7E2,-4.9007098E4,-5.9038836E4,1.18E2,1E0,2E0,1.32E3,-4.2488965E4,2E0,2E0,-3.685825E4,1E0,6.2901795E6,1.2E3,1E0,-2.4359078E4,3.2328134E5,-4.529399E4,1E0,-1.2541031E5,-3.303582E4,1E0,1E0,2E0,1.635E3,-6.533226E4,-3.824866E4,-4.2888277E4,2.8548577E3,-3.0917523E4,-1.0585123E5,-2.5038457E4,2.257889E3,-2.0651578E4,4.7044668E4],"split_indices":[0,0,0,3,0,0,0,0,0,0,4,3,0,0,3,3,0,4,0,0,9,0,0,0,6,0,0,5,5,3,0,0,0,0,0,0,0,0,0,0,0],"split_type":[0,0,0,0,0,0,0,0,0,0,0,0,0,0,0,0,0,0,0,0,0,0,0,0,0,0,0,0,0,0,0,0,0,0,0,0,0,0,0,0,0],"sum_hessian":[5.79E2,4.67E2,1.12E2,2.95E2,1.72E2,1E0,1.11E2,2.64E2,3.1E1,1.4E1,1.58E2,4E0,1.07E2,1.2E1,2E0,1.31E2,2.7E1,3E0,1E0,5.1E1,5.6E1,1E0,1E0,8.9E1,4.2E1,2E0,1E0,4.4E1,7E0,4.8E1,8E0,3.3E1,9E0,4E1,4E0,4E0,3E0,1.8E1,3E1,2E0,6E0],"tree_param":{"num_deleted":"0","num_feature":"13","num_nodes":"41","size_leaf_vector":"1"}},{"base_weights":[8.269662E5,-2.7366548E6,1.5355534E7,-2.8196442E6,-1.636509E6,1.0364234E7,4.897237E6,-4.6894875E4,-3.2471668E6,4.0815668E6,-4.7193164E4,1.3900198E8,-1.2992856E6,-3.6082892E6,-4.071014E4,-4.3386484E4,3.204825E5,-6.3151755E6,6.2357225E6,-2.5017798E6,-1.16536164E5,-3.8910535E6,-4.227738E4,-1.2396267E5,-3.2749812E4,-2.7792198E6,-1.1645851E6,-6.7304744E5,1.0957125E6,-6.925731E4,-3.0748658E4,-4.325036E4,-8.6026234E4,2.263915E4,-2.6709031E4,-5.3489717E3,-4.5438727E4,-4.0280596E3,3.0808004E4],"categories":[],"categories_nodes":[],"categories_segments":[],"categories_sizes":[],"default_left":[0,0,0,0,0,0,0,0,0,0,0,0,0,0,0,0,0,0,0,0,0,0,0,0,0,0,0,0,0,0,0,0,0,0,0,0,0,0,0],"id":37,"left_children":[1,3,5,7,9,-1,11,-1,13,15,-1,17,19,21,-1,-1,-1,23,-1,25,27,29,-1,-1,-1,31,33,35,37,-1,-1,-1,-1,-1,-1,-1,-1,-1,-1],"loss_changes":[2.9967572E16,3.784054E13,6.924056E17,1.171345E13,2.2908206E14,0E0,9.408168E16,0E0,1.8696194E13,6.1660524E14,0E0,1.6294664E17,1.5473361E14,9.632269E12,0E0,0E0,0E0,1.3953946E12,0E0,1.6796879E13,3.851675E13,3.2533706E12,0E0,0E0,0E0,1.4690265E13,1.2294586E13,2.6898097E13,1.6758014E13,0E0,0E0,0E0,0E0,0E0,0E0,0E0,0E0,0E0,0E0],"parents":[2147483647,0,0,1,1,2,2,3,3,4,4,6,6,8,8,9,9,11,11,12,12,13,13,17,17,19,19,20,20,21,21,25,25,26,26,27,27,28,28],"right_children":[2,4,6,8,10,-1,12,-1,14,16,-1,18,20,22,-1,-1,-1,24,-1,26,28,30,-1,-1,-1,32,34,36,38,-1,-1,-1,-1,-1,-1,-1,-1,-1,-1],"split_conditions":[3.5E2,1E0,3.51E2,2E0,1E0,1.0364234E7,3.7E2,-4.6894875E4,1E0,5.9E1,-4.7193164E4,2E0,1.4E3,1E0,-4.071014E4,-4.3386484E4,3.204825E5,1E0,6.2357225E6,5E0,1E0,5E0,-4.227738E4,-1.2396267E5,-3.2749812E4,1E0,6.9E2,4.924E3,2.368E3,-6.925731E4,-3.0748658E4,-4.325036E4,-8.6026234E4,2.263915E4,-2.6709031E4,-5.3489717E3,-4.5438727E4,-4.0280596E3,3.0808004E4],"split_indices":[0,10,0,3,9,0,0,0,4,0,0,3,0,8,0,0,0,4,0,3,4,2,0,0,0,5,0,0,0,0,0,0,0,0,0,0,0,0,0],"split_type":[0,0,0,0,0,0,0,0,0,0,0,0,0,0,0,0,0,0,0,0,0,0,0,0,0,0,0,0,0,0,0,0,0,0,0,0,0,0,0],"sum_hessian":[5.77E2,4.64E2,1.13E2,4.3E2,3.4E1,1E0,1.12E2,3.47E2,8.3E1,5E0,2.9E1,4E0,1.08E2,5.7E1,2.6E1,4E0,1E0,3E0,1E0,5.3E1,5.5E1,4.4E1,1.3E1,2E0,1E0,4.3E1,1E1,3.8E1,1.7E1,4.1E1,3E0,4E1,3E0,1E0,9E0,3.3E1,5E0,6E0,1.1E1],"tree_param":{"num_deleted":"0","num_feature":"13","num_nodes":"39","size_leaf_vector":"1"}},{"base_weights":[8.1579644E5,-2.6902195E6,1.5232513E7,-2.7716475E6,-1.633832E6,1.0274505E7,4.864846E6,-4.610772E4,-3.1931205E6,4.0570778E6,-4.6448965E4,1.3781098E8,-1.2782322E6,-3.548265E6,-4.003135E4,-4.2785496E4,3.1770797E5,-6.2450065E6,6.1817375E6,-2.483202E6,-1.3539661E5,-3.8259022E6,-4.1597633E4,-1.22531734E5,-3.2466283E4,-2.1517878E6,-4.0784332E6,-3.194954E5,5.687752E4,-7.037116E4,-3.8366742E4,-4.14681E4,-2.279979E3,-9.58263E4,-2.1452826E4,-1.1066358E4,2.8365342E4],"categories":[],"categories_nodes":[],"categories_segments":[],"categories_sizes":[],"default_left":[0,0,0,0,0,0,0,0,0,0,0,0,0,0,0,0,0,0,0,0,0,0,0,0,0,0,0,0,0,0,0,0,0,0,0,0,0],"id":38,"left_children":[1,3,5,7,9,-1,11,-1,13,15,-1,17,19,21,-1,-1,-1,23,-1,25,27,29,-1,-1,-1,31,33,35,-1,-1,-1,-1,-1,-1,-1,-1,-1],"loss_changes":[2.9458309E16,3.581466E13,6.804451E17,1.1391864E13,2.2574627E14,0E0,9.2463095E16,0E0,1.8083758E13,6.051251E14,0E0,1.6011961E17,1.497658E14,9.260218E12,0E0,0E0,0E0,1.2679213E12,0E0,1.9244239E13,3.6940624E13,8.259088E12,0E0,0E0,0E0,2.227875E13,2.6214316E13,3.546222E13,0E0,0E0,0E0,0E0,0E0,0E0,0E0,0E0,0E0],"parents":[2147483647,0,0,1,1,2,2,3,3,4,4,6,6,8,8,9,9,11,11,12,12,13,13,17,17,19,19,20,20,21,21,25,25,26,26,27,27],"right_children":[2,4,6,8,10,-1,12,-1,14,16,-1,18,20,22,-1,-1,-1,24,-1,26,28,30,-1,-1,-1,32,34,36,-1,-1,-1,-1,-1,-1,-1,-1,-1],"split_conditions":[3.5E2,1E0,3.51E2,2E0,1E0,1.0274505E7,3.7E2,-4.610772E4,1E0,5.9E1,-4.6448965E4,2E0,1.32E3,1E0,-4.003135E4,-4.2785496E4,3.1770797E5,1E0,6.1817375E6,1.2E3,1E0,1E0,-4.1597633E4,-1.22531734E5,-3.2466283E4,1E0,1.25E3,1E0,5.687752E4,-7.037116E4,-3.8366742E4,-4.14681E4,-2.279979E3,-9.58263E4,-2.1452826E4,-1.1066358E4,2.8365342E4],"split_indices":[0,10,0,3,9,0,0,0,4,0,0,3,0,8,0,0,0,4,0,0,10,6,0,0,0,5,0,8,0,0,0,0,0,0,0,0,0],"split_type":[0,0,0,0,0,0,0,0,0,0,0,0,0,0,0,0,0,0,0,0,0,0,0,0,0,0,0,0,0,0,0,0,0,0,0,0,0],"sum_hessian":[5.81E2,4.68E2,1.13E2,4.33E2,3.5E1,1E0,1.12E2,3.5E2,8.3E1,5E0,3E1,4E0,1.08E2,5.7E1,2.6E1,4E0,1E0,3E0,1E0,5.2E1,5.6E1,4.4E1,1.3E1,2E0,1E0,4.5E1,7E0,5.4E1,2E0,3.7E1,7E0,4E1,5E0,4E0,3E0,4.7E1,7E0],"tree_param":{"num_deleted":"0","num_feature":"13","num_nodes":"37","size_leaf_vector":"1"}},{"base_weights":[8.461089E5,-2.6454E6,1.5110995E7,-2.726648E6,-1.5991958E6,1.0185555E7,4.8331765E6,-4.534809E4,-3.1400982E6,4.03265E6,-4.5670652E4,1.3663014E8,-1.2568965E6,-3.489419E6,-3.9363887E4,-4.2192832E4,3.149574E5,-6.175624E6,6.1282195E6,-2.4222382E6,-1.107296E5,-3.7620735E6,-4.092882E4,-1.2111731E5,-3.2185207E4,-2.6940822E6,-1.1146578E6,-6.5668856E5,1.0783331E6,-6.918475E4,-3.7785465E4,-4.181973E4,-8.447454E4,2.2462895E4,-2.5722842E4,-5.1679434E3,-4.4623406E4,-4.0696377E3,3.0380873E4],"categories":[],"categories_nodes":[],"categories_segments":[],"categories_sizes":[],"default_left":[0,0,0,0,0,0,0,0,0,0,0,0,0,0,0,0,0,0,0,0,0,0,0,0,0,0,0,0,0,0,0,0,0,0,0,0,0,0,0],"id":39,"left_children":[1,3,5,7,9,-1,11,-1,13,15,-1,17,19,21,-1,-1,-1,23,-1,25,27,29,-1,-1,-1,31,33,35,37,-1,-1,-1,-1,-1,-1,-1,-1,-1,-1],"loss_changes":[2.8877636E16,3.5250676E13,6.6869E17,1.0956193E13,2.2117828E14,0E0,9.087153E16,0E0,1.7498502E13,5.9386224E14,0E0,1.5734166E17,1.4532049E14,8.907963E12,0E0,0E0,0E0,1.1453302E12,0E0,1.6191758E13,3.7062175E13,7.8871706E12,0E0,0E0,0E0,1.5020172E13,1.1768618E13,2.6061025E13,1.639988E13,0E0,0E0,0E0,0E0,0E0,0E0,0E0,0E0,0E0,0E0],"parents":[2147483647,0,0,1,1,2,2,3,3,4,4,6,6,8,8,9,9,11,11,12,12,13,13,17,17,19,19,20,20,21,21,25,25,26,26,27,27,28,28],"right_children":[2,4,6,8,10,-1,12,-1,14,16,-1,18,20,22,-1,-1,-1,24,-1,26,28,30,-1,-1,-1,32,34,36,38,-1,-1,-1,-1,-1,-1,-1,-1,-1,-1],"split_conditions":[3.5E2,1E0,3.51E2,2E0,1E0,1.0185555E7,3.7E2,-4.534809E4,1E0,5.9E1,-4.5670652E4,2E0,1.4E3,1E0,-3.9363887E4,-4.2192832E4,3.149574E5,1E0,6.1282195E6,5E0,1E0,1E0,-4.092882E4,-1.2111731E5,-3.2185207E4,1E0,6.9E2,4.924E3,2.368E3,-6.918475E4,-3.7785465E4,-4.181973E4,-8.447454E4,2.2462895E4,-2.5722842E4,-5.1679434E3,-4.4623406E4,-4.0696377E3,3.0380873E4],"split_indices":[0,10,0,3,9,0,0,0,4,0,0,3,0,8,0,0,0,4,0,3,4,6,0,0,0,5,0,0,0,0,0,0,0,0,0,0,0,0,0],"split_type":[0,0,0,0,0,0,0,0,0,0,0,0,0,0,0,0,0,0,0,0,0,0,0,0,0,0,0,0,0,0,0,0,0,0,0,0,0,0,0],"sum_hessian":[5.78E2,4.65E2,1.13E2,4.3E2,3.5E1,1E0,1.12E2,3.47E2,8.3E1,5E0,3E1,4E0,1.08E2,5.7E1,2.6E1,4E0,1E0,3E0,1E0,5.3E1,5.5E1,4.4E1,1.3E1,2E0,1E0,4.3E1,1E1,3.8E1,1.7E1,3.7E1,7E0,4E1,3E0,1E0,9E0,3.3E1,5E0,6E0,1.1E1],"tree_param":{"num_deleted":"0","num_feature":"13","num_nodes":"39","size_leaf_vector":"1"}},{"base_weights":[8.4267056E5,-2.5978652E6,1.4989764E7,-2.6775385E6,-1.5651975E6,1.0097373E7,4.8010115E6,-4.452868E4,-3.0879568E6,4.008286E6,-4.4905375E4,1.3545938E8,-1.2365374E6,-3.4315498E6,-3.870754E4,-4.160838E4,3.122307E5,-6.107019E6,6.075164E6,-2.3826965E6,-1.0923161E5,-3.6993102E6,-4.027076E4,-1.1971922E5,-3.1906564E4,-2.6503048E6,-1.095654E6,-4.058352E5,2.02497E6,-6.8018336E4,-3.7212992E4,-4.1113285E4,-8.337753E4,2.2268422E4,-2.5321992E4,-1.0836948E4,5.6274277E4,-2.0127691E4,4.761518E4],"categories":[],"categories_nodes":[],"categories_segments":[],"categories_sizes":[],"default_left":[0,0,0,0,0,0,0,0,0,0,0,0,0,0,0,0,0,0,0,0,0,0,0,0,0,0,0,0,0,0,0,0,0,0,0,0,0,0,0],"id":40,"left_children":[1,3,5,7,9,-1,11,-1,13,15,-1,17,19,21,-1,-1,-1,23,-1,25,27,29,-1,-1,-1,31,33,35,37,-1,-1,-1,-1,-1,-1,-1,-1,-1,-1],"loss_changes":[2.8366968E16,3.4396782E13,6.571395E17,1.0912438E13,2.1670861E14,0E0,8.930825E16,0E0,1.693217E13,5.828125E14,0E0,1.5461192E17,1.4057554E14,8.5690637E12,0E0,0E0,0E0,1.0275206E12,0E0,1.5695052E13,3.627047E13,7.5307554E12,0E0,0E0,0E0,1.4845756E13,1.1490155E13,4.2255583E13,1.9372293E13,0E0,0E0,0E0,0E0,0E0,0E0,0E0,0E0,0E0,0E0],"parents":[2147483647,0,0,1,1,2,2,3,3,4,4,6,6,8,8,9,9,11,11,12,12,13,13,17,17,19,19,20,20,21,21,25,25,26,26,27,27,28,28],"right_children":[2,4,6,8,10,-1,12,-1,14,16,-1,18,20,22,-1,-1,-1,24,-1,26,28,30,-1,-1,-1,32,34,36,38,-1,-1,-1,-1,-1,-1,-1,-1,-1,-1],"split_conditions":[3.5E2,1E0,3.51E2,2E0,1E0,1.0097373E7,3.7E2,-4.452868E4,1E0,5.9E1,-4.4905375E4,2E0,1.4E3,1E0,-3.870754E4,-4.160838E4,3.122307E5,1E0,6.075164E6,5E0,1E0,1E0,-4.027076E4,-1.1971922E5,-3.1906564E4,1E0,6.9E2,1E0,2.368E3,-6.8018336E4,-3.7212992E4,-4.1113285E4,-8.337753E4,2.2268422E4,-2.5321992E4,-1.0836948E4,5.6274277E4,-2.0127691E4,4.761518E4],"split_indices":[0,10,0,3,9,0,0,0,4,0,0,3,0,8,0,0,0,4,0,3,8,6,0,0,0,5,0,10,0,0,0,0,0,0,0,0,0,0,0],"split_type":[0,0,0,0,0,0,0,0,0,0,0,0,0,0,0,0,0,0,0,0,0,0,0,0,0,0,0,0,0,0,0,0,0,0,0,0,0,0,0],"sum_hessian":[5.81E2,4.68E2,1.13E2,4.33E2,3.5E1,1E0,1.12E2,3.5E2,8.3E1,5E0,3E1,4E0,1.08E2,5.7E1,2.6E1,4E0,1E0,3E0,1E0,5.3E1,5.5E1,4.4E1,1.3E1,2E0,1E0,4.3E1,1E1,4.9E1,6E0,3.7E1,7E0,4E1,3E0,1E0,9E0,4.7E1,2E0,1E0,5E0],"tree_param":{"num_deleted":"0","num_feature":"13","num_nodes":"39","size_leaf_vector":"1"}},{"base_weights":[8.648744E5,-2.553008E6,1.5012698E7,-2.6320138E6,-1.5318262E6,1.0009955E7,4.823334E6,-4.3761332E4,-3.036682E6,3.9839862E6,-4.4152918E4,1.3429861E8,-1.2155522E6,-3.3746412E6,-3.806215E4,-4.103202E4,3.0952756E5,-6.039183E6,6.0225685E6,-2.3868368E6,-1.2568651E5,-3.6375952E6,-3.962328E4,-1.18337266E5,-3.1630334E4,-2.0563862E6,-3.9472662E6,-3.0548553E5,5.5624688E4,-6.572209E4,-3.4238387E4,-3.9433977E4,2.9026677E3,-2.7929098E4,-1.01782016E5,-7.8115737E3,6.5452195E4],"categories":[],"categories_nodes":[],"categories_segments":[],"categories_sizes":[],"default_left":[0,0,0,0,0,0,0,0,0,0,0,0,0,0,0,0,0,0,0,0,0,0,0,0,0,0,0,0,0,0,0,0,0,0,0,0,0],"id":41,"left_children":[1,3,5,7,9,-1,11,-1,13,15,-1,17,19,21,-1,-1,-1,23,-1,25,27,29,-1,-1,-1,31,33,35,-1,-1,-1,-1,-1,-1,-1,-1,-1],"loss_changes":[2.8084572E16,3.372623E13,6.455616E17,1.0660109E13,2.1233498E14,0E0,8.773453E16,0E0,1.6384361E13,5.719715E14,0E0,1.5192962E17,1.3756663E14,8.242579E12,0E0,0E0,0E0,9.143247E11,0E0,1.8696429E13,3.519319E13,4.3053692E12,0E0,0E0,0E0,2.2506417E13,2.6578147E13,3.4436393E13,0E0,0E0,0E0,0E0,0E0,0E0,0E0,0E0,0E0],"parents":[2147483647,0,0,1,1,2,2,3,3,4,4,6,6,8,8,9,9,11,11,12,12,13,13,17,17,19,19,20,20,21,21,25,25,26,26,27,27],"right_children":[2,4,6,8,10,-1,12,-1,14,16,-1,18,20,22,-1,-1,-1,24,-1,26,28,30,-1,-1,-1,32,34,36,-1,-1,-1,-1,-1,-1,-1,-1,-1],"split_conditions":[3.5E2,1E0,3.51E2,2E0,1E0,1.0009955E7,3.7E2,-4.3761332E4,1E0,5.9E1,-4.4152918E4,2E0,1.32E3,1E0,-3.806215E4,-4.103202E4,3.0952756E5,1E0,6.0225685E6,1.2E3,1E0,3E0,-3.962328E4,-1.18337266E5,-3.1630334E4,1E0,1E0,4.5E1,5.5624688E4,-6.572209E4,-3.4238387E4,-3.9433977E4,2.9026677E3,-2.7929098E4,-1.01782016E5,-7.8115737E3,6.5452195E4],"split_indices":[0,10,0,3,9,0,0,0,4,0,0,3,0,8,0,0,0,4,0,0,10,3,0,0,0,5,5,3,0,0,0,0,0,0,0,0,0],"split_type":[0,0,0,0,0,0,0,0,0,0,0,0,0,0,0,0,0,0,0,0,0,0,0,0,0,0,0,0,0,0,0,0,0,0,0,0,0],"sum_hessian":[5.79E2,4.67E2,1.12E2,4.32E2,3.5E1,1E0,1.11E2,3.49E2,8.3E1,5E0,3E1,4E0,1.07E2,5.7E1,2.6E1,4E0,1E0,3E0,1E0,5.1E1,5.6E1,4.4E1,1.3E1,2E0,1E0,4.4E1,7E0,5.4E1,2E0,3.9E1,5E0,4E1,4E0,4E0,3E0,5.3E1,1E0],"tree_param":{"num_deleted":"0","num_feature":"13","num_nodes":"37","size_leaf_vector":"1"}},{"base_weights":[8.73762E5,-2.508565E6,1.475144E7,-2.586702E6,-1.499071E6,9.923295E6,4.7385185E6,-2.4834278E6,-2.9862168E6,3.959753E6,-4.341308E4,1.3314777E8,-1.1952865E6,-4.359593E4,-3.519503E4,-3.3186162E6,-3.742751E4,-4.046365E4,3.068478E5,-5.972107E6,5.970429E6,-2.3069925E6,-1.01939836E5,-3.576832E6,-3.898621E4,-1.1697127E5,-3.1356496E4,-2.5709785E6,-1.0413216E6,-6.3626806E5,1.0614346E6,-6.5835305E4,-3.565347E4,-3.9785418E4,-8.187931E4,2.2050504E4,-2.4243568E4,-4.923476E3,-4.371045E4,-4.0324082E3,2.9920258E4],"categories":[],"categories_nodes":[],"categories_segments":[],"categories_sizes":[],"default_left":[0,0,0,0,0,0,0,0,0,0,0,0,0,0,0,0,0,0,0,0,0,0,0,0,0,0,0,0,0,0,0,0,0,0,0,0,0,0,0,0,0],"id":42,"left_children":[1,3,5,7,9,-1,11,13,15,17,-1,19,21,-1,-1,23,-1,-1,-1,25,-1,27,29,31,-1,-1,-1,33,35,37,39,-1,-1,-1,-1,-1,-1,-1,-1,-1,-1],"loss_changes":[2.7308474E16,3.3037694E13,6.3463076E17,1.0449387E13,2.0805516E14,0E0,8.6260115E16,3.0856656E11,1.5851852E13,5.6133548E14,0E0,1.4929389E17,1.3225216E14,0E0,0E0,7.926765E12,0E0,0E0,0E0,8.0554125E11,0E0,1.5365212E13,3.5486286E13,7.564444E12,0E0,0E0,0E0,1.5076073E13,1.0920005E13,2.5197021E13,1.5931963E13,0E0,0E0,0E0,0E0,0E0,0E0,0E0,0E0,0E0,0E0],"parents":[2147483647,0,0,1,1,2,2,3,3,4,4,6,6,7,7,8,8,9,9,11,11,12,12,15,15,19,19,21,21,22,22,23,23,27,27,28,28,29,29,30,30],"right_children":[2,4,6,8,10,-1,12,14,16,18,-1,20,22,-1,-1,24,-1,-1,-1,26,-1,28,30,32,-1,-1,-1,34,36,38,40,-1,-1,-1,-1,-1,-1,-1,-1,-1,-1],"split_conditions":[3.5E2,1E0,3.51E2,2E0,1E0,9.923295E6,3.7E2,2.13E2,1E0,5.9E1,-4.341308E4,2E0,1.4E3,-4.359593E4,-3.519503E4,1E0,-3.742751E4,-4.046365E4,3.068478E5,1E0,5.970429E6,5E0,1E0,1E0,-3.898621E4,-1.1697127E5,-3.1356496E4,1E0,6.9E2,4.924E3,2.368E3,-6.5835305E4,-3.565347E4,-3.9785418E4,-8.187931E4,2.2050504E4,-2.4243568E4,-4.923476E3,-4.371045E4,-4.0324082E3,2.9920258E4],"split_indices":[0,10,0,3,9,0,0,0,4,0,0,3,0,0,0,8,0,0,0,4,0,3,4,6,0,0,0,5,0,0,0,0,0,0,0,0,0,0,0,0,0],"split_type":[0,0,0,0,0,0,0,0,0,0,0,0,0,0,0,0,0,0,0,0,0,0,0,0,0,0,0,0,0,0,0,0,0,0,0,0,0,0,0,0,0],"sum_hessian":[5.8E2,4.67E2,1.13E2,4.32E2,3.5E1,1E0,1.12E2,3.49E2,8.3E1,5E0,3E1,4E0,1.08E2,3.2E2,2.9E1,5.7E1,2.6E1,4E0,1E0,3E0,1E0,5.3E1,5.5E1,4.4E1,1.3E1,2E0,1E0,4.3E1,1E1,3.8E1,1.7E1,3.7E1,7E0,4E1,3E0,1E0,9E0,3.3E1,5E0,6E0,1.1E1],"tree_param":{"num_deleted":"0","num_feature":"13","num_nodes":"41","size_leaf_vector":"1"}},{"base_weights":[8.854211E5,-2.4652038E6,1.4632851E7,-2.5425085E6,-1.466921E6,9.837384E6,4.706697E6,-2.4408982E6,-2.9415772E6,3.9355875E6,-4.268563E4,1.32006744E8,-1.1759351E6,-4.2843418E4,-3.4901055E4,-3.2765188E6,-3.680346E4,-3.990315E4,3.041913E5,-5.9057825E6,5.91874E6,-2.2899242E6,-1.1949019E5,-3.5171545E6,-3.7945848E4,-1.1562103E5,-3.108503E4,-1.9672701E6,-3.8589448E6,-2.9720403E5,5.5034285E4,-6.4725363E4,-3.5113297E4,-3.8128566E4,-6.057857E2,-2.699112E4,-9.989593E4,-7.634943E3,6.462651E4],"categories":[],"categories_nodes":[],"categories_segments":[],"categories_sizes":[],"default_left":[0,0,0,0,0,0,0,0,0,0,0,0,0,0,0,0,0,0,0,0,0,0,0,0,0,0,0,0,0,0,0,0,0,0,0,0,0,0,0],"id":43,"left_children":[1,3,5,7,9,-1,11,13,15,17,-1,19,21,-1,-1,23,-1,-1,-1,25,-1,27,29,31,-1,-1,-1,33,35,37,-1,-1,-1,-1,-1,-1,-1,-1,-1],"loss_changes":[2.6798373E16,3.2387275E13,6.236691E17,1.0377446E13,2.0386708E14,0E0,8.477633E16,7.1135396E9,1.5721862E13,5.5090042E14,0E0,1.4670395E17,1.28005024E14,0E0,0E0,7.1744073E12,0E0,0E0,0E0,7.011031E11,0E0,1.9239709E13,3.4351515E13,7.2275575E12,0E0,0E0,0E0,2.0792373E13,2.6159656E13,3.350301E13,0E0,0E0,0E0,0E0,0E0,0E0,0E0,0E0,0E0],"parents":[2147483647,0,0,1,1,2,2,3,3,4,4,6,6,7,7,8,8,9,9,11,11,12,12,15,15,19,19,21,21,22,22,23,23,27,27,28,28,29,29],"right_children":[2,4,6,8,10,-1,12,14,16,18,-1,20,22,-1,-1,24,-1,-1,-1,26,-1,28,30,32,-1,-1,-1,34,36,38,-1,-1,-1,-1,-1,-1,-1,-1,-1],"split_conditions":[3.5E2,1E0,3.51E2,2E0,1E0,9.837384E6,3.7E2,2.13E2,1E0,5.9E1,-4.268563E4,2E0,1.32E3,-4.2843418E4,-3.4901055E4,1E0,-3.680346E4,-3.990315E4,3.041913E5,1E0,5.91874E6,1.2E3,1E0,1E0,-3.7945848E4,-1.1562103E5,-3.108503E4,1E0,1E0,4.5E1,5.5034285E4,-6.4725363E4,-3.5113297E4,-3.8128566E4,-6.057857E2,-2.699112E4,-9.989593E4,-7.634943E3,6.462651E4],"split_indices":[0,10,0,3,9,0,0,0,4,0,0,3,0,0,0,8,0,0,0,4,0,0,10,6,0,0,0,5,5,3,0,0,0,0,0,0,0,0,0],"split_type":[0,0,0,0,0,0,0,0,0,0,0,0,0,0,0,0,0,0,0,0,0,0,0,0,0,0,0,0,0,0,0,0,0,0,0,0,0,0,0],"sum_hessian":[5.8E2,4.67E2,1.13E2,4.32E2,3.5E1,1E0,1.12E2,3.5E2,8.2E1,5E0,3E1,4E0,1.08E2,3.2E2,3E1,5.6E1,2.6E1,4E0,1E0,3E0,1E0,5.2E1,5.6E1,4.4E1,1.2E1,2E0,1E0,4.5E1,7E0,5.4E1,2E0,3.7E1,7E0,4E1,5E0,4E0,3E0,5.3E1,1E0],"tree_param":{"num_deleted":"0","num_feature":"13","num_nodes":"39","size_leaf_vector":"1"}},{"base_weights":[9.2168044E5,-2.4202742E6,1.4515938E7,-2.4972822E6,-1.4353658E6,9.752217E6,4.675806E6,-2.4013788E6,-2.8681415E6,3.911491E6,-4.1970367E4,1.3087545E8,-1.1560655E6,-4.2158883E4,-3.431624E4,-3.1863735E6,-3.618981E4,-3.9350406E4,3.0155775E5,-5.8402005E6,5.8674985E6,-2.2533992E6,-1.1545579E5,-3.434116E6,-3.7749285E4,-1.1428639E5,-3.081591E4,-1.934049E6,-3.8079882E6,-2.910217E5,5.4399004E4,-6.3233965E4,-3.4581312E4,-3.7484477E4,-5.970438E2,-9.074623E4,-1.843742E4,-1.0404804E4,2.7785531E4],"categories":[],"categories_nodes":[],"categories_segments":[],"categories_sizes":[],"default_left":[0,0,0,0,0,0,0,0,0,0,0,0,0,0,0,0,0,0,0,0,0,0,0,0,0,0,0,0,0,0,0,0,0,0,0,0,0,0,0],"id":44,"left_children":[1,3,5,7,9,-1,11,13,15,17,-1,19,21,-1,-1,23,-1,-1,-1,25,-1,27,29,31,-1,-1,-1,33,35,37,-1,-1,-1,-1,-1,-1,-1,-1,-1],"loss_changes":[2.6249047E16,3.1607738E13,6.12895E17,8.370891E12,1.9976858E14,0E0,8.331706E16,4.321811E10,1.3891065E13,5.406625E14,0E0,1.4415893E17,1.2420651E14,0E0,0E0,6.7221607E12,0E0,0E0,0E0,6.008508E11,0E0,1.8947466E13,3.3509878E13,6.481173E12,0E0,0E0,0E0,2.0093853E13,2.5865426E13,3.3275427E13,0E0,0E0,0E0,0E0,0E0,0E0,0E0,0E0,0E0],"parents":[2147483647,0,0,1,1,2,2,3,3,4,4,6,6,7,7,8,8,9,9,11,11,12,12,15,15,19,19,21,21,22,22,23,23,27,27,28,28,29,29],"right_children":[2,4,6,8,10,-1,12,14,16,18,-1,20,22,-1,-1,24,-1,-1,-1,26,-1,28,30,32,-1,-1,-1,34,36,38,-1,-1,-1,-1,-1,-1,-1,-1,-1],"split_conditions":[3.5E2,1E0,3.51E2,2E0,1E0,9.752217E6,3.7E2,2.13E2,1E0,5.9E1,-4.1970367E4,2E0,1.32E3,-4.2158883E4,-3.431624E4,1E0,-3.618981E4,-3.9350406E4,3.0155775E5,1E0,5.8674985E6,1.2E3,1E0,1E0,-3.7749285E4,-1.1428639E5,-3.081591E4,1E0,1.25E3,1E0,5.4399004E4,-6.3233965E4,-3.4581312E4,-3.7484477E4,-5.970438E2,-9.074623E4,-1.843742E4,-1.0404804E4,2.7785531E4],"split_indices":[0,10,0,3,9,0,0,0,4,0,0,3,0,0,0,8,0,0,0,4,0,0,10,6,0,0,0,5,0,8,0,0,0,0,0,0,0,0,0],"split_type":[0,0,0,0,0,0,0,0,0,0,0,0,0,0,0,0,0,0,0,0,0,0,0,0,0,0,0,0,0,0,0,0,0,0,0,0,0,0,0],"sum_hessian":[5.76E2,4.63E2,1.13E2,4.28E2,3.5E1,1E0,1.12E2,3.46E2,8.2E1,5E0,3E1,4E0,1.08E2,3.16E2,3E1,5.6E1,2.6E1,4E0,1E0,3E0,1E0,5.2E1,5.6E1,4.3E1,1.3E1,2E0,1E0,4.5E1,7E0,5.4E1,2E0,3.6E1,7E0,4E1,5E0,4E0,3E0,4.7E1,7E0],"tree_param":{"num_deleted":"0","num_feature":"13","num_nodes":"39","size_leaf_vector":"1"}},{"base_weights":[9.074586E5,-2.3810462E6,1.4399676E7,-2.456747E6,-1.4043949E6,9.667787E6,4.644818E6,-4.081976E4,-2.8469088E6,3.8874645E6,-4.12671E4,1.2975383E8,-1.1367408E6,-3.171963E6,-3.5586395E4,-3.880533E4,2.9894703E5,-5.7753535E6,5.816701E6,-2.1982975E6,-9.279794E4,-3.426601E6,-3.7142348E4,-1.1296716E5,-3.0549123E4,-2.4577342E6,-9.607043E5,-3.807691E5,1.9773958E6,-6.3192508E4,-3.4057387E4,-3.786639E4,-7.998036E4,2.1870018E4,-2.2672E4,-1.02283955E4,5.3771062E4,-2.0025352E4,4.6620035E4],"categories":[],"categories_nodes":[],"categories_segments":[],"categories_sizes":[],"default_left":[0,0,0,0,0,0,0,0,0,0,0,0,0,0,0,0,0,0,0,0,0,0,0,0,0,0,0,0,0,0,0,0,0,0,0,0,0,0,0],"id":45,"left_children":[1,3,5,7,9,-1,11,-1,13,15,-1,17,19,21,-1,-1,-1,23,-1,25,27,29,-1,-1,-1,31,33,35,37,-1,-1,-1,-1,-1,-1,-1,-1,-1,-1],"loss_changes":[2.5812803E16,3.1150324E13,6.023078E17,1.0057471E13,1.9575763E14,0E0,8.188323E16,0E0,1.4839649E13,5.3061784E14,0E0,1.4165818E17,1.205903E14,7.5537737E12,0E0,0E0,0E0,5.046167E11,0E0,1.4977021E13,3.413767E13,7.143269E12,0E0,0E0,0E0,1.5653411E13,1.0183216E13,3.843257E13,1.8800978E13,0E0,0E0,0E0,0E0,0E0,0E0,0E0,0E0,0E0,0E0],"parents":[2147483647,0,0,1,1,2,2,3,3,4,4,6,6,8,8,9,9,11,11,12,12,13,13,17,17,19,19,20,20,21,21,25,25,26,26,27,27,28,28],"right_children":[2,4,6,8,10,-1,12,-1,14,16,-1,18,20,22,-1,-1,-1,24,-1,26,28,30,-1,-1,-1,32,34,36,38,-1,-1,-1,-1,-1,-1,-1,-1,-1,-1],"split_conditions":[3.5E2,1E0,3.51E2,2E0,1E0,9.667787E6,3.7E2,-4.081976E4,1E0,5.9E1,-4.12671E4,2E0,1.4E3,1E0,-3.5586395E4,-3.880533E4,2.9894703E5,1E0,5.816701E6,5E0,1E0,1E0,-3.7142348E4,-1.1296716E5,-3.0549123E4,1E0,6.9E2,1E0,2.368E3,-6.3192508E4,-3.4057387E4,-3.786639E4,-7.998036E4,2.1870018E4,-2.2672E4,-1.02283955E4,5.3771062E4,-2.0025352E4,4.6620035E4],"split_indices":[0,10,0,3,9,0,0,0,4,0,0,3,0,8,0,0,0,4,0,3,8,6,0,0,0,5,0,10,0,0,0,0,0,0,0,0,0,0,0],"split_type":[0,0,0,0,0,0,0,0,0,0,0,0,0,0,0,0,0,0,0,0,0,0,0,0,0,0,0,0,0,0,0,0,0,0,0,0,0,0,0],"sum_hessian":[5.8E2,4.67E2,1.13E2,4.32E2,3.5E1,1E0,1.12E2,3.5E2,8.2E1,5E0,3E1,4E0,1.08E2,5.6E1,2.6E1,4E0,1E0,3E0,1E0,5.3E1,5.5E1,4.3E1,1.3E1,2E0,1E0,4.3E1,1E1,4.9E1,6E0,3.6E1,7E0,4E1,3E0,1E0,9E0,4.7E1,2E0,1E0,5E0],"tree_param":{"num_deleted":"0","num_feature":"13","num_nodes":"39","size_leaf_vector":"1"}},{"base_weights":[9.1808075E5,-2.3398012E6,1.428449E7,-2.4146952E6,-1.373998E6,9.584088E6,4.614169E6,-2.3167838E6,-2.7996625E6,3.8635108E6,-4.057561E4,1.2864179E8,-1.1175031E6,-4.06716E4,-3.305723E4,-3.1193985E6,-3.499304E4,-3.8267797E4,2.963589E5,-5.711233E6,5.766343E6,-2.162431E6,-8.993861E4,-3.3694798E6,-3.6545168E4,-1.1166314E5,-3.0284645E4,-2.417857E6,-9.441427E5,-6.111747E5,1.0444028E6,-6.2127906E4,-3.3541395E4,-3.7226727E4,-7.894173E4,2.1680678E4,-2.2318691E4,-4.608372E3,-4.2671855E4,-4.09687E3,2.9515506E4],"categories":[],"categories_nodes":[],"categories_segments":[],"categories_sizes":[],"default_left":[0,0,0,0,0,0,0,0,0,0,0,0,0,0,0,0,0,0,0,0,0,0,0,0,0,0,0,0,0,0,0,0,0,0,0,0,0,0,0,0,0],"id":46,"left_children":[1,3,5,7,9,-1,11,13,15,17,-1,19,21,-1,-1,23,-1,-1,-1,25,-1,27,29,31,-1,-1,-1,33,35,37,39,-1,-1,-1,-1,-1,-1,-1,-1,-1,-1],"loss_changes":[2.5333757E16,3.0533728E13,5.9190305E17,9.834938E12,1.9183228E14,0E0,8.047385E16,1.14890375E11,1.436076E13,5.207628E14,0E0,1.3920082E17,1.16842195E14,0E0,0E0,7.2681584E12,0E0,0E0,0E0,4.1232525E11,0E0,1.452105E13,3.3748855E13,6.828025E12,0E0,0E0,0E0,1.5436968E13,9.94504E12,2.428172E13,1.5626899E13,0E0,0E0,0E0,0E0,0E0,0E0,0E0,0E0,0E0,0E0],"parents":[2147483647,0,0,1,1,2,2,3,3,4,4,6,6,7,7,8,8,9,9,11,11,12,12,15,15,19,19,21,21,22,22,23,23,27,27,28,28,29,29,30,30],"right_children":[2,4,6,8,10,-1,12,14,16,18,-1,20,22,-1,-1,24,-1,-1,-1,26,-1,28,30,32,-1,-1,-1,34,36,38,40,-1,-1,-1,-1,-1,-1,-1,-1,-1,-1],"split_conditions":[3.5E2,1E0,3.51E2,2E0,1E0,9.584088E6,3.7E2,2.13E2,1E0,5.9E1,-4.057561E4,2E0,1.4E3,-4.06716E4,-3.305723E4,1E0,-3.499304E4,-3.8267797E4,2.963589E5,1E0,5.766343E6,5E0,1E0,1E0,-3.6545168E4,-1.1166314E5,-3.0284645E4,1E0,6.9E2,4.924E3,2.368E3,-6.2127906E4,-3.3541395E4,-3.7226727E4,-7.894173E4,2.1680678E4,-2.2318691E4,-4.608372E3,-4.2671855E4,-4.09687E3,2.9515506E4],"split_indices":[0,10,0,3,9,0,0,0,4,0,0,3,0,0,0,8,0,0,0,4,0,3,4,6,0,0,0,5,0,0,0,0,0,0,0,0,0,0,0,0,0],"split_type":[0,0,0,0,0,0,0,0,0,0,0,0,0,0,0,0,0,0,0,0,0,0,0,0,0,0,0,0,0,0,0,0,0,0,0,0,0,0,0,0,0],"sum_hessian":[5.8E2,4.67E2,1.13E2,4.32E2,3.5E1,1E0,1.12E2,3.5E2,8.2E1,5E0,3E1,4E0,1.08E2,3.2E2,3E1,5.6E1,2.6E1,4E0,1E0,3E0,1E0,5.3E1,5.5E1,4.3E1,1.3E1,2E0,1E0,4.3E1,1E1,3.8E1,1.7E1,3.6E1,7E0,4E1,3E0,1E0,9E0,3.3E1,5E0,6E0,1.1E1],"tree_param":{"num_deleted":"0","num_feature":"13","num_nodes":"41","size_leaf_vector":"1"}},{"base_weights":[9.3686006E5,-2.2295472E6,9.051102E6,-3.9135223E4,-3.043576E4,5.8041855E6,3.659496E7,9.690474E6,-1.0683198E6,-2.685949E4,7.970333E7,1.3917941E7,-7.7134006E5,-1.2279356E6,6.3990113E4,3.7042168E6,-6.947757E5,1.8217286E7,-3.8109125E4,-1.0994586E6,1.4722356E6,-1.466204E6,-5.6761E4,2.747656E5,-2.1613168E4,3.783862E5,-3.4391062E4,-2.7420926E4,6.438712E3,6.789876E4,-1.1276935E4,-2.8064924E4,-1.1855709E4,3.8083598E4,-3.3374355E4,2.149298E4,-1.4356653E4],"categories":[],"categories_nodes":[],"categories_segments":[],"categories_sizes":[],"default_left":[0,0,0,0,0,0,0,0,