{"learner":{"attributes":{"scikit_learn":"{\"_estimator_type\": \"regressor\"}"},"feature_names":["surface_numeric","pieces","chambres","sallesdebain","meuble","neuf","parking","ascenseur","balcon_terrasse","climatisation","chauffage","jardin","piscine"],"feature_types":["float","float","float","float","float","float","float","float","float","float","float","float","float"],"gradient_booster":{"model":{"cats":{"enc":[],"feature_segments":[],"sorted_idx":[]},"gbtree_model_param":{"num_parallel_tree":"1","num_trees":"274"},"iteration_indptr":[0,1,2,3,4,5,6,7,8,9,10,11,12,13,14,15,16,17,18,19,20,21,22,23,24,25,26,27,28,29,30,31,32,33,34,35,36,37,38,39,40,41,42,43,44,45,46,47,48,49,50,51,52,53,54,55,56,57,58,59,60,61,62,63,64,65,66,67,68,69,70,71,72,73,74,75,76,77,78,79,80,81,82,83,84,85,86,87,88,89,90,91,92,93,94,95,96,97,98,99,100,101,102,103,104,105,106,107,108,109,110,111,112,113,114,115,116,117,118,119,120,121,122,123,124,125,126,127,128,129,130,131,132,133,134,135,136,137,138,139,140,141,142,143,144,145,146,147,148,149,150,151,152,153,154,155,156,157,158,159,160,161,162,163,164,165,166,167,168,169,170,171,172,173,174,175,176,177,178,179,180,181,182,183,184,185,186,187,188,189,190,191,192,193,194,195,196,197,198,199,200,201,202,203,204,205,206,207,208,209,210,211,212,213,214,215,216,217,218,219,220,221,222,223,224,225,226,227,228,229,230,231,232,233,234,235,236,237,238,239,240,241,242,243,244,245,246,247,248,249,250,251,252,253,254,255,256,257,258,259,260,261,262,263,264,265,266,267,268,269,270,271,272,273,274],"tree_info":[0,0,0,0,0,0,0,0,0,0,0,0,0,0,0,0,0,0,0,0,0,0,0,0,0,0,0,0,0,0,0,0,0,0,0,0,0,0,0,0,0,0,0,0,0,0,0,0,0,0,0,0,0,0,0,0,0,0,0,0,0,0,0,0,0,0,0,0,0,0,0,0,0,0,0,0,0,0,0,0,0,0,0,0,0,0,0,0,0,0,0,0,0,0,0,0,0,0,0,0,0,0,0,0,0,0,0,0,0,0,0,0,0,0,0,0,0,0,0,0,0,0,0,0,0,0,0,0,0,0,0,0,0,0,0,0,0,0,0,0,0,0,0,0,0,0,0,0,0,0,0,0,0,0,0,0,0,0,0,0,0,0,0,0,0,0,0,0,0,0,0,0,0,0,0,0,0,0,0,0,0,0,0,0,0,0,0,0,0,0,0,0,0,0,0,0,0,0,0,0,0,0,0,0,0,0,0,0,0,0,0,0,0,0,0,0,0,0,0,0,0,0,0,0,0,0,0,0,0,0,0,0,0,0,0,0,0,0,0,0,0,0,0,0,0,0,0,0,0,0,0,0,0,0,0,0,0,0,0,0,0,0,0,0,0,0,0,0,0,0,0,0,0,0],"trees":[{"base_weights":[4.789645E0,-3.7473264E2,8.633963E2,-4.9957138E2,5.9630806E1,3.8497418E2,1.0907401E3,3.1962045E2,-5.159501E2,1.8206998E2,-5.889398E1,3.539619E2,1.0868501E3,9.6609344E2,1.4291475E3,-5.642359E2,9.540609E2,-6.554252E2,-4.0725418E2,2.3357455E2,-2.8490857E2,-7.315516E2,2.108391E1,4.8889825E2,2.1558263E2,1.2249114E3,-3.8723786E0,9.142547E2,1.6682732E3,6.6899854E2,1.5740747E3,-9.895044E2,-1.2159651E2,2.3465349E2,1.3541608E3,-7.3048334E2,-3.6273428E2,-4.4992487E2,-2.422429E2,1.9968213E2,9.4948926E2,3.282259E1,-4.5655338E2,-8.065144E2,-1.3636844E2,-9.296439E1,2.0163509E2,2.8460065E2,6.508026E2,2.916049E2,-2.6273337E2,2.6609875E1,4.0113156E2,6.316438E2,1.0220947E3,1.5081098E0,1.7200007E3,-4.0346527E1,9.0736816E2,1.5975004E3,-1.4454006E1,1.5081098E0,-2.1207214E1,-3.864261E0,2.6131561E1,-7.602064E0,1.2815253E1,1.4347048E3,4.198354E0,-7.358191E2,4.7878357E2,-4.218183E2,3.124941E2,-4.3171643E2,-7.655161E2,-3.980678E2,-1.073693E2,2.0443472E2,-6.5626225E0,1.0113156E2,1.3568127E3,-2.015205E2,6.745905E0,-5.14204E2,-5.4549725E1,-2.9886844E2,-1.5620258E1,-6.5626225E0,6.2116943E1,-1.8941345E2,1.3694016E2,-8.046055E1,2.6599173E2,1.5798076E2,4.943271E2,7.420303E2,-2.5159651E2,-2.1014577E2,3.477414E2,-3.858349E2,3.2613156E2,-4.769127E0,1.277179E1,-1.4104857E2,6.8075793E2,1.0619893E3,5.0908478E2,1.7632405E3,4.5670233E0,-7.271903E0,4.2613153E2,1.174237E3,-1.8145967E2,1.6342596E3,-2.4118439E1,-2.0788825E0,2.010813E0,2.6926794E1,6.888598E0,-8.1285657E2,-6.6731323E2,2.2133314E1,-9.252867E0,-4.7756772E2,1.7082747E2,-1.6162186E2,1.3011315E3,-5.0937146E2,-3.6348425E2,-7.858964E2,-2.8538635E-1,-5.259697E2,-2.4102898E2,-1.6719928E2,5.161559E2,1.8710222E2,3.7592978E2,2.787836E2,-3.8723786E0,2.9315416E1,-2.8538635E-1,-2.9545966E2,2.4048579E0,-5.9281836E2,-5.4549725E1,-1.1821344E0,-2.8538635E-1,-2.8538635E-1,-6.9566674E0,6.888598E0,-5.2175007E0,-1.3650363E2,-3.257516E2,9.1381325E1,1.6752827E1,-2.3364212E2,1.4986464E2,3.95886E2,5.8893353E1,2.1104271E2,-3.9886844E2,3.279201E2,7.352365E2,4.7535742E2,9.3206683E2,-8.453975E0,-2.5459667E1,-5.1364215E2,6.011316E2,3.8626987E2,-1.9659651E2,-1.1934993E1,-2.4860732E2,8.682095E0,2.010813E0,-1.5414375E1,7.922274E2,7.413937E2,1.9902003E2,1.0706553E3,-1.2391485E1,6.0064325E2,-9.886844E1,1.0701461E3,3.349148E1,2.2133314E1,-4.5653396E0,7.9848016E2,1.4971534E3,5.287836E2,-1.4907833E1,3.033219E1,1.073324E3,-6.364814E0,8.682095E0,-1.5139644E1,-9.56914E0,-1.2368703E1,-8.315412E0,-8.707695E0,4.198354E0,6.1956377E0,1.8178495E0,-7.9893017E0,2.7716749E0,-2.8538635E-1,3.130458E1,-7.303928E0,-1.1702901E1,-9.021209E0,-4.9456024E0,-1.7697897E1,-1.2028613E1,-1.0277291E1,-4.5661813E-1,-1.1516137E0,-6.1795197E0,-5.1172743E0,-7.689054E-1,1.5964737E1,-3.1183238E0,4.1124077E0,6.8984705E-1,-1.0964869E1,1.1319881E1,5.99185E0,1.5081098E0,-9.701241E0,-1.7732016E0,-1.1638315E1,-2.8538635E-1,-5.665875E0,4.198354E0,-7.387069E-1,-6.8179684E0,-8.3094015E0,1.6885829E0,-7.907745E0,2.1106613E0,1.5896037E0,-6.894577E0,-3.6685915E0,5.964098E0,-1.257875E0,8.568952E0,-3.450387E0,1.04529E1,3.050119E0,1.5856079E1,-8.152331E0,-2.0788825E0,7.094236E0,4.6866855E-1,1.5836001E1,2.608645E0,1.1656055E1,4.7272745E-1,1.7423765E1,1.9510298E0,1.8137907E0,-4.769127E0,-1.1890744E1,-2.2215757E0,-4.769127E0,1.7554447E1,7.4783325E0,-1.7703024E0,-7.3507123E0,5.2988896E0,1.6955767E0,-7.382422E0,-6.0477513E-1,1.9347942E1,1.6325232E1,9.534556E0,1.2798007E0,7.434765E0,1.7486565E1,2.3173288E1,3.2608063E0,1.29161215E1,-4.769127E0,8.1514895E-1,2.737111E1,1.8912467E0,1.6573153E1,-2.9756305E0,1.1576125E1,3.001379E1,1.5856079E1,-1.6305084E0,-2.1740112E0,2.2713263E1],"categories":[],"categories_nodes":[],"categories_segments":[],"categories_sizes":[],"default_left":[0,0,0,0,0,0,0,0,0,0,0,0,0,0,0,0,0,0,0,0,0,0,0,0,0,0,0,0,0,0,0,0,0,0,0,0,0,0,0,0,0,0,0,0,0,0,0,0,0,0,0,0,0,0,0,0,0,0,0,0,0,0,0,0,0,0,0,0,0,0,0,0,0,0,0,0,0,0,0,0,0,0,0,0,0,0,0,0,0,0,0,0,0,0,0,0,0,0,0,0,0,0,0,0,0,0,0,0,0,0,0,0,0,0,0,0,0,0,0,0,0,0,0,0,0,0,0,0,0,0,0,0,0,0,0,0,0,0,0,0,0,0,0,0,0,0,0,0,0,0,0,0,0,0,0,0,0,0,0,0,0,0,0,0,0,0,0,0,0,0,0,0,0,0,0,0,0,0,0,0,0,0,0,0,0,0,0,0,0,0,0,0,0,0,0,0,0,0,0,0,0,0,0,0,0,0,0,0,0,0,0,0,0,0,0,0,0,0,0,0,0,0,0,0,0,0,0,0,0,0,0,0,0,0,0,0,0,0,0,0,0,0,0,0,0,0,0,0,0,0,0,0,0,0,0,0,0,0,0,0,0,0,0,0,0,0,0,0,0,0,0,0,0,0,0,0,0,0,0,0,0,0,0,0,0,0,0,0,0,0,0,0,0],"id":0,"left_children":[1,3,5,7,9,11,13,15,17,19,21,23,25,27,29,31,33,35,37,39,41,43,45,47,49,51,-1,53,55,57,59,61,63,65,67,69,71,73,75,77,79,81,83,85,87,89,91,93,95,97,99,-1,101,103,105,-1,107,109,111,113,-1,-1,-1,-1,115,-1,-1,117,-1,119,121,123,125,127,129,131,133,135,-1,137,139,141,-1,143,145,147,-1,-1,149,151,153,155,157,159,161,163,165,167,169,171,173,-1,-1,175,177,179,181,183,-1,-1,185,187,189,191,193,-1,-1,-1,-1,195,197,-1,-1,199,201,203,205,207,209,211,-1,213,215,217,219,221,223,225,-1,-1,-1,227,-1,229,231,-1,-1,-1,-1,-1,-1,233,235,237,-1,239,241,243,245,247,249,251,253,255,257,-1,259,261,263,265,267,-1,269,-1,-1,-1,271,273,275,277,-1,279,281,283,-1,-1,-1,285,287,289,-1,-1,291,-1,-1,-1,-1,-1,-1,-1,-1,-1,-1,-1,-1,-1,-1,-1,-1,-1,-1,-1,-1,-1,-1,-1,-1,-1,-1,-1,-1,-1,-1,-1,-1,-1,-1,-1,-1,-1,-1,-1,-1,-1,-1,-1,-1,-1,-1,-1,-1,-1,-1,-1,-1,-1,-1,-1,-1,-1,-1,-1,-1,-1,-1,-1,-1,-1,-1,-1,-1,-1,-1,-1,-1,-1,-1,-1,-1,-1,-1,-1,-1,-1,-1,-1,-1,-1,-1,-1,-1,-1,-1,-1,-1,-1,-1,-1,-1,-1,-1,-1,-1],"loss_changes":[9.684546E8,1.1178832E8,9.866624E7,2.1646016E7,6.70079E6,6.036492E6,2.4645184E7,1.848245E7,2.353488E7,5.5262445E6,1.2657892E7,5.197564E6,2.422806E6,1.500048E7,1.7014208E7,2.5150475E6,5.151102E6,1.4805632E7,6.122416E6,4.78454E6,1.2693342E6,1.005431E6,4.363563E6,4.54474E6,5.2401115E6,1.749765E6,0E0,1.2307008E7,2.31376E6,4.771025E6,8.925568E6,1.5494515E6,1.16560086E5,2.8309992E6,7.46738E5,3.868832E6,5.796934E6,3.703504E6,3.824328E6,6.04349E5,2.972788E6,7.99867E5,3.195865E5,4.59212E5,2.0497375E5,2.9085682E6,1.5100898E6,1.6480155E6,6.69027E6,3.537561E6,1.5756369E6,0E0,1.0191241E6,4.650032E6,5.722016E6,0E0,1.388488E6,1.5353172E6,6.315136E6,8.146304E6,0E0,0E0,0E0,0E0,6.185051E4,0E0,0E0,1.9364E5,0E0,2.323264E6,2.8905745E6,4.409776E6,5.835036E6,3.343704E6,5.52748E5,1.580498E6,3.8168505E6,5.12261E5,0E0,2.8548675E5,2.31347E6,2.2877808E5,0E0,4.374225E5,2.682461E2,9.457681E4,0E0,0E0,4.527311E5,6.1918725E5,1.331009E6,5.9951994E5,1.7790445E6,1.3251735E6,7.210375E5,3.205728E6,3.8558738E5,3.5096228E6,2.403886E6,4.868895E5,8.094525E4,0E0,0E0,6.0446945E6,3.153236E6,5.038688E6,1.395303E6,2.2728E4,0E0,0E0,2.5139792E6,8.673E5,2.7469602E6,2.435168E6,8.4418094E5,0E0,0E0,0E0,0E0,1.742896E6,1.012736E6,0E0,0E0,7.92352E5,1.1055759E5,8.764906E5,2.3685225E6,4.251568E6,4.243092E6,1.7142E5,0E0,1.068929E6,7.100645E5,1.3388925E6,2.4773298E6,1.1200605E6,4.669723E6,4.2097812E3,0E0,0E0,0E0,1.8778997E5,0E0,3.4567975E5,3.0026822E5,0E0,0E0,0E0,0E0,0E0,0E0,1.5635232E6,1.4876205E6,5.8392056E5,0E0,5.199927E5,5.2122125E5,1.5982335E6,3.666707E6,9.25247E5,1.03335E4,3.1623925E5,6.55744E5,2.490794E6,1.225268E6,0E0,1.790881E5,5.000045E5,1.5700341E6,1.589575E6,9.60552E5,0E0,7.661096E5,0E0,0E0,0E0,9.83099E5,3.058204E6,3.556122E5,4.713024E6,0E0,9.203055E5,1.08516E5,2.4783925E6,0E0,0E0,0E0,1.36449E6,1.21272E5,7.4091594E5,0E0,0E0,3.613494E6,0E0,0E0,0E0,0E0,0E0,0E0,0E0,0E0,0E0,0E0,0E0,0E0,0E0,0E0,0E0,0E0,0E0,0E0,0E0,0E0,0E0,0E0,0E0,0E0,0E0,0E0,0E0,0E0,0E0,0E0,0E0,0E0,0E0,0E0,0E0,0E0,0E0,0E0,0E0,0E0,0E0,0E0,0E0,0E0,0E0,0E0,0E0,0E0,0E0,0E0,0E0,0E0,0E0,0E0,0E0,0E0,0E0,0E0,0E0,0E0,0E0,0E0,0E0,0E0,0E0,0E0,0E0,0E0,0E0,0E0,0E0,0E0,0E0,0E0,0E0,0E0,0E0,0E0,0E0,0E0,0E0,0E0,0E0,0E0,0E0,0E0,0E0,0E0,0E0,0E0,0E0,0E0,0E0,0E0,0E0,0E0,0E0,0E0,0E0,0E0],"parents":[2147483647,0,0,1,1,2,2,3,3,4,4,5,5,6,6,7,7,8,8,9,9,10,10,11,11,12,12,13,13,14,14,15,15,16,16,17,17,18,18,19,19,20,20,21,21,22,22,23,23,24,24,25,25,27,27,28,28,29,29,30,30,31,31,32,32,33,33,34,34,35,35,36,36,37,37,38,38,39,39,40,40,41,41,42,42,43,43,44,44,45,45,46,46,47,47,48,48,49,49,50,50,52,52,53,53,54,54,56,56,57,57,58,58,59,59,64,64,67,67,69,69,70,70,71,71,72,72,73,73,74,74,75,75,76,76,77,77,79,79,80,80,81,81,83,83,84,84,85,85,88,88,89,89,90,90,91,91,92,92,93,93,94,94,95,95,96,96,97,97,98,98,99,99,100,100,103,103,104,104,105,105,106,106,107,107,110,110,111,111,112,112,113,113,114,114,119,119,120,120,123,123,124,124,125,125,126,126,127,127,128,128,129,129,131,131,132,132,133,133,134,134,135,135,136,136,137,137,141,141,143,143,144,144,151,151,152,152,153,153,155,155,156,156,157,157,158,158,159,159,160,160,161,161,162,162,163,163,164,164,166,166,167,167,168,168,169,169,170,170,172,172,176,176,177,177,178,178,179,179,181,181,182,182,183,183,187,187,188,188,189,189,192,192],"right_children":[2,4,6,8,10,12,14,16,18,20,22,24,26,28,30,32,34,36,38,40,42,44,46,48,50,52,-1,54,56,58,60,62,64,66,68,70,72,74,76,78,80,82,84,86,88,90,92,94,96,98,100,-1,102,104,106,-1,108,110,112,114,-1,-1,-1,-1,116,-1,-1,118,-1,120,122,124,126,128,130,132,134,136,-1,138,140,142,-1,144,146,148,-1,-1,150,152,154,156,158,160,162,164,166,168,170,172,174,-1,-1,176,178,180,182,184,-1,-1,186,188,190,192,194,-1,-1,-1,-1,196,198,-1,-1,200,202,204,206,208,210,212,-1,214,216,218,220,222,224,226,-1,-1,-1,228,-1,230,232,-1,-1,-1,-1,-1,-1,234,236,238,-1,240,242,244,246,248,250,252,254,256,258,-1,260,262,264,266,268,-1,270,-1,-1,-1,272,274,276,278,-1,280,282,284,-1,-1,-1,286,288,290,-1,-1,292,-1,-1,-1,-1,-1,-1,-1,-1,-1,-1,-1,-1,-1,-1,-1,-1,-1,-1,-1,-1,-1,-1,-1,-1,-1,-1,-1,-1,-1,-1,-1,-1,-1,-1,-1,-1,-1,-1,-1,-1,-1,-1,-1,-1,-1,-1,-1,-1,-1,-1,-1,-1,-1,-1,-1,-1,-1,-1,-1,-1,-1,-1,-1,-1,-1,-1,-1,-1,-1,-1,-1,-1,-1,-1,-1,-1,-1,-1,-1,-1,-1,-1,-1,-1,-1,-1,-1,-1,-1,-1,-1,-1,-1,-1,-1,-1,-1,-1,-1,-1],"split_conditions":[1.3999994E2,1.1815309E2,1.5827678E2,2.8E1,1E0,1E0,2.1E2,2E0,7.9E1,1E0,1E0,1E0,1E0,1E0,3E0,1E0,1E0,1E0,1E0,1E0,1E0,1E0,1.26025154E2,1E0,5E0,3E0,-3.8723786E0,4E0,2E0,3E0,8E0,1E0,1E0,3E0,1E0,3E0,2E0,5E0,1E2,6E0,3E0,1E0,1E0,2E0,1.21995056E2,1E0,3E0,1E0,1.55E2,1E0,1.5350696E2,2.6609875E1,1.423179E2,2E0,1E0,1.5081098E0,6E0,1E0,4E0,7E0,-1.4454006E1,1.5081098E0,-2.1207214E1,-3.864261E0,1E0,-7.602064E0,1.2815253E1,1E0,4.198354E0,6.5E1,5E1,1E0,1E0,9.7E1,1.1694969E2,1E0,1E0,1E0,-6.5626225E0,1E0,1E0,1.21995056E2,6.745905E0,1E0,1.26025154E2,1.29E2,-1.5620258E1,-6.5626225E0,1.26025154E2,4E0,4E0,1E0,3E0,1E0,3E0,1.5E2,2E0,1E0,1E0,3E0,4E0,-4.769127E0,1.277179E1,1E0,1E0,6E0,2E2,3E0,4.5670233E0,-7.271903E0,2E0,1E0,1E0,1E0,2.4999998E2,-2.0788825E0,2.010813E0,2.6926794E1,6.888598E0,1E0,1E0,2.2133314E1,-9.252867E0,7.75E1,6.2E1,6.2E1,2E0,9E1,1E0,1E0,-2.8538635E-1,1E0,8.2E1,1E0,1E0,3E0,3E0,1.21995056E2,-3.8723786E0,2.9315416E1,-2.8538635E-1,3E0,2.4048579E0,5E0,1.29E2,-1.1821344E0,-2.8538635E-1,-2.8538635E-1,-6.9566674E0,6.888598E0,-5.2175007E0,1E0,1.21995056E2,2E0,1.6752827E1,1E0,1.29E2,1.3E2,1E0,1.5350696E2,5E0,4E0,1.5350696E2,1.45E2,1E0,-8.453975E0,1E0,4E0,1E0,4E0,1E0,-1.1934993E1,1.423179E2,8.682095E0,2.010813E0,-1.5414375E1,2E0,1E0,1.8087605E2,2E2,-1.2391485E1,1.62E2,1E0,1E0,3.349148E1,2.2133314E1,-4.5653396E0,3E2,2.3E2,2.5E2,-1.4907833E1,3.033219E1,2.3E2,-6.364814E0,8.682095E0,-1.5139644E1,-9.56914E0,-1.2368703E1,-8.315412E0,-8.707695E0,4.198354E0,6.1956377E0,1.8178495E0,-7.9893017E0,2.7716749E0,-2.8538635E-1,3.130458E1,-7.303928E0,-1.1702901E1,-9.021209E0,-4.9456024E0,-1.7697897E1,-1.2028613E1,-1.0277291E1,-4.5661813E-1,-1.1516137E0,-6.1795197E0,-5.1172743E0,-7.689054E-1,1.5964737E1,-3.1183238E0,4.1124077E0,6.8984705E-1,-1.0964869E1,1.1319881E1,5.99185E0,1.5081098E0,-9.701241E0,-1.7732016E0,-1.1638315E1,-2.8538635E-1,-5.665875E0,4.198354E0,-7.387069E-1,-6.8179684E0,-8.3094015E0,1.6885829E0,-7.907745E0,2.1106613E0,1.5896037E0,-6.894577E0,-3.6685915E0,5.964098E0,-1.257875E0,8.568952E0,-3.450387E0,1.04529E1,3.050119E0,1.5856079E1,-8.152331E0,-2.0788825E0,7.094236E0,4.6866855E-1,1.5836001E1,2.608645E0,1.1656055E1,4.7272745E-1,1.7423765E1,1.9510298E0,1.8137907E0,-4.769127E0,-1.1890744E1,-2.2215757E0,-4.769127E0,1.7554447E1,7.4783325E0,-1.7703024E0,-7.3507123E0,5.2988896E0,1.6955767E0,-7.382422E0,-6.0477513E-1,1.9347942E1,1.6325232E1,9.534556E0,1.2798007E0,7.434765E0,1.7486565E1,2.3173288E1,3.2608063E0,1.29161215E1,-4.769127E0,8.1514895E-1,2.737111E1,1.8912467E0,1.6573153E1,-2.9756305E0,1.1576125E1,3.001379E1,1.5856079E1,-1.6305084E0,-2.1740112E0,2.2713263E1],"split_indices":[0,0,0,0,10,12,0,2,0,9,9,10,7,12,2,10,8,11,11,12,8,11,0,8,1,2,0,1,2,1,2,0,8,2,4,2,2,1,0,1,2,4,7,1,0,11,1,11,0,9,0,0,0,2,7,0,1,11,1,1,0,0,0,0,11,0,0,12,0,0,0,12,9,0,0,9,12,4,0,8,7,0,0,11,0,0,0,0,0,1,2,11,2,9,2,0,2,4,5,2,2,0,0,9,7,2,0,1,0,0,1,9,9,4,0,0,0,0,0,4,5,0,0,0,0,0,1,0,8,9,0,5,0,8,8,2,1,0,0,0,0,1,0,1,0,0,0,0,0,0,0,7,0,2,0,8,0,0,11,0,1,1,0,0,4,0,4,1,8,2,11,0,0,0,0,0,1,11,0,0,0,0,9,8,0,0,0,0,0,0,0,0,0,0,0,0,0,0,0,0,0,0,0,0,0,0,0,0,0,0,0,0,0,0,0,0,0,0,0,0,0,0,0,0,0,0,0,0,0,0,0,0,0,0,0,0,0,0,0,0,0,0,0,0,0,0,0,0,0,0,0,0,0,0,0,0,0,0,0,0,0,0,0,0,0,0,0,0,0,0,0,0,0,0,0,0,0,0,0,0,0,0,0,0,0,0,0,0,0,0,0,0,0],"split_type":[0,0,0,0,0,0,0,0,0,0,0,0,0,0,0,0,0,0,0,0,0,0,0,0,0,0,0,0,0,0,0,0,0,0,0,0,0,0,0,0,0,0,0,0,0,0,0,0,0,0,0,0,0,0,0,0,0,0,0,0,0,0,0,0,0,0,0,0,0,0,0,0,0,0,0,0,0,0,0,0,0,0,0,0,0,0,0,0,0,0,0,0,0,0,0,0,0,0,0,0,0,0,0,0,0,0,0,0,0,0,0,0,0,0,0,0,0,0,0,0,0,0,0,0,0,0,0,0,0,0,0,0,0,0,0,0,0,0,0,0,0,0,0,0,0,0,0,0,0,0,0,0,0,0,0,0,0,0,0,0,0,0,0,0,0,0,0,0,0,0,0,0,0,0,0,0,0,0,0,0,0,0,0,0,0,0,0,0,0,0,0,0,0,0,0,0,0,0,0,0,0,0,0,0,0,0,0,0,0,0,0,0,0,0,0,0,0,0,0,0,0,0,0,0,0,0,0,0,0,0,0,0,0,0,0,0,0,0,0,0,0,0,0,0,0,0,0,0,0,0,0,0,0,0,0,0,0,0,0,0,0,0,0,0,0,0,0,0,0,0,0,0,0,0,0,0,0,0,0,0,0,0,0,0,0,0,0,0,0,0,0,0,0],"sum_hessian":[2.97E3,2.06E3,9.1E2,1.6E3,4.6E2,2.94E2,6.16E2,3.1E1,1.569E3,2.26E2,2.34E2,2.83E2,1.1E1,4.53E2,1.63E2,1.3E1,1.8E1,6.85E2,8.84E2,2.04E2,2.2E1,2.4E1,2.1E2,1.42E2,1.41E2,1E1,1E0,4.24E2,2.9E1,2.7E1,1.36E2,6E0,7E0,7E0,1.1E1,5.44E2,1.41E2,7.01E2,1.83E2,1.96E2,8E0,8E0,1.4E1,2.1E1,3E0,1.29E2,8.1E1,6.4E1,7.8E1,1.22E2,1.9E1,7E0,3E0,1.19E2,3.05E2,1E0,2.8E1,7E0,2E1,1.35E2,1E0,1E0,5E0,4E0,3E0,3E0,4E0,1E1,1E0,5.42E2,2E0,1.3E2,1.1E1,6.65E2,3.6E1,8.4E1,9.9E1,1.95E2,1E0,3E0,5E0,5E0,3E0,1.2E1,2E0,3E0,1.8E1,1E0,2E0,9.1E1,3.8E1,1.5E1,6.6E1,4.1E1,2.3E1,7.1E1,7E0,1.2E1,1.1E2,1.6E1,3E0,1E0,2E0,7E0,1.12E2,2.82E2,2.3E1,2.7E1,1E0,4E0,3E0,1.6E1,4E0,1.32E2,3E0,1E0,2E0,9E0,1E0,2.5E2,2.92E2,1E0,1E0,1.19E2,1.1E1,8E0,3E0,3.08E2,3.57E2,3.5E1,1E0,4.5E1,3.9E1,9.1E1,8E0,1.79E2,1.6E1,2E0,1E0,4E0,1E0,4E0,1E0,1E1,2E0,1E0,1E0,1E0,2E0,1E0,1E0,6.7E1,2.4E1,3.7E1,1E0,9E0,6E0,4E1,2.6E1,3.8E1,3E0,1.5E1,8E0,3.1E1,4E1,3E0,4E0,9E0,3E0,1.03E2,7E0,4E0,1.2E1,1E0,2E0,4E0,3E0,9.9E1,1.3E1,2.81E2,1E0,2E1,3E0,5E0,2.2E1,1E0,2E0,9E0,7E0,2E0,2E0,1.18E2,1.4E1,2E0,1E0,2.23E2,2.7E1,2.61E2,3.1E1,1.18E2,1E0,2E0,9E0,4E0,4E0,1E0,2E0,1.82E2,1.26E2,1.36E2,2.21E2,1E1,2.5E1,4.1E1,4E0,1.5E1,2.4E1,4.6E1,4.5E1,5E0,3E0,1.39E2,4E1,3E0,1.3E1,1E0,1E0,1E0,3E0,9E0,1E0,1E0,1E0,4.9E1,1.8E1,1.8E1,6E0,1E0,3.6E1,3E0,6E0,2E0,4E0,6E0,3.4E1,1.8E1,8E0,3.7E1,1E0,2E0,1E0,1.2E1,3E0,6E0,2E0,2.2E1,9E0,3.8E1,2E0,3E0,1E0,6E0,3E0,1E0,2E0,9.7E1,6E0,5E0,2E0,4E0,8E0,1E0,2E0,5.3E1,4.6E1,9E0,4E0,2E2,8.1E1,5E0,1.5E1,1E0,2E0,3E0,2E0,8E0,1E0,2E0,5E0,1E0,1E0,2E0,1.2E1],"tree_param":{"num_deleted":"0","num_feature":"13","num_nodes":"293","size_leaf_vector":"1"}},{"base_weights":[2.1187788E1,-3.5646304E2,7.0741315E2,-4.3712653E2,1.4311034E2,5.200251E2,1.2441484E3,-5.7553766E2,-2.5578299E2,-2.0657654E2,4.4533453E2,3.0903336E2,7.313071E2,1.1680865E3,1.7573203E3,-6.402463E2,-2.883159E2,-3.9387448E2,-1.6002657E0,-2.3211525E2,2.6316721E1,1.1845694E2,7.0126996E2,-1.8098732E2,3.4148303E2,2.8962915E2,9.78477E2,6.849063E2,1.2368062E3,3.3170372E1,8.713242E2,-8.28071E2,-5.979153E2,-4.3459335E2,-1.0029992E2,-4.8530948E2,-2.1487733E2,-5.4929834E2,2.0945335E1,-2.975393E2,3.978524E2,3.7050743E1,2.3858648E1,8.2123615E2,-2.2061685E2,-3.5347955E2,2.1553917E1,3.944294E2,3.2998585E1,2.385786E2,1.01186194E3,1.0321511E3,5.179723E2,7.269935E2,-5.5580087E0,1.2504978E3,-1.432439E1,-2.46543E0,1.1578878E3,-8.406453E2,-5.882305E0,-5.662116E2,-1.717713E1,-7.933797E0,-2.0312442E2,-1.4934532E2,1.492395E1,-8.365342E0,-1.0091292E1,-2.6298215E2,9.445158E1,-1.2955008E1,-3.1355338E2,-3.4764523E1,1.9527379E2,-1.3718396E2,-4.7345972E2,2.8512595E2,1.4687327E1,9.175017E1,-4.7965237E2,1.02136096E3,6.097333E2,-4.0682532E2,1.305001E1,-4.6245428E2,5.271702E2,6.55991E2,3.5604053E2,-5.77572E1,4.0127237E2,3.4642828E2,-8.564344E1,1.3246045E3,-5.515816E1,1.156897E3,9.1647626E2,6.063142E2,-7.538334E0,7.6976404E2,7.121366E1,1.300503E3,7.456647E2,5.9381185E0,2.3730152E1,-1.5581859E1,-5.974385E2,-6.5168146E2,-4.6656308E2,-5.7284346E0,2.3492982E0,-2.6847876E1,-2.779024E2,-3.1297385E2,-2.6500278E1,1.8253015E2,-2.415216E2,-6.6653614E0,-2.0730074E-1,-5.1101646E0,-4.267214E2,2.757947E2,-3.5252142E2,-2.305101E2,6.023583E2,-3.8430875E2,-1.4677579E1,3.7990042E2,-9.423942E1,1.7198337E2,-3.4635464E2,-1.1317661E1,-1.1791935E2,1.1300044E3,4.2535797E2,3.9065973E2,3.0068022E1,-8.108143E0,-4.0121156E-1,-6.168251E2,-1.3449869E2,1.7595844E1,-3.4136775E0,8.4384106E2,3.6325323E2,1.5135277E2,3.8709534E2,1.9382753E2,-1.7762862E2,1.0459802E1,1.1892464E0,3.8656592E2,-1.0235928E2,2.8091794E2,-4.2708234E2,3.2880824E0,2.662016E1,-2.8282702E-1,-1.2010622E0,3.3963043E2,1.1864873E3,9.453024E2,-1.5580927E2,4.839028E2,1.0236615E3,3.4176572E2,1.4788688E1,-1.09808655E1,1.2896687E1,2.60447E1,1.0840908E3,5.6188087E1,9.045893E2,-1.2389391E1,-5.580487E0,-1.1025725E1,-1.358914E1,-9.958767E0,-6.0832677E0,-1.3073286E0,4.2783437E0,-8.437349E0,-4.0122876E0,-5.8429084E0,-5.4241943E-1,1.1087373E0,-2.9621835E0,2.399622E0,6.844043E0,-9.197452E0,-8.158749E-1,1.7800516E0,-1.8375542E0,-1.1488121E1,-4.6723785E0,4.354228E0,1.7572733E1,-1.2870816E1,-1.994536E0,-6.042484E0,1.2139239E1,1.7189568E1,-1.3757252E1,-1.2154157E1,-4.7703905E0,4.425679E0,1.2958029E1,-3.708872E-1,-2.1643834E0,6.4110273E-1,1.0361326E1,-6.1092967E-1,-1.721007E1,-2.9312813E0,-2.4103716E-1,2.4533695E1,1.2177037E1,3.234819E0,1.2409119E1,8.022353E0,2.2322524E0,-1.1614771E1,-1.943118E0,-1.0664042E0,-3.4914522E0,1.0871264E1,2.0557661E1,1.4819049E0,1.0824079E1,4.2317705E0,-4.6093473E0,5.750122E0,9.240594E0,5.963899E0,-4.855612E0,-4.003289E0,8.8781416E-1,7.802771E0,1.5300841E0,2.3684351E-1,-9.208518E0,8.687082E0,-8.992215E0,-1.1843688E1,-2.1597567E0,1.1456748E1,-1.3046502E0,2.1664284E1,1.1706335E1,1.5879096E-1,1.7547077E1,4.5260687E0,-6.74329E0,7.0100236E0,2.1861313E1,2.225302E1,1.3922845E0,7.374702E0,5.7448363E-1,1.6753252E1,2.5133528E1,3.926351E0,-7.0351154E-1,4.8206723E-1,1.9562563E1],"categories":[],"categories_nodes":[],"categories_segments":[],"categories_sizes":[],"default_left":[0,0,0,0,0,0,0,0,0,0,0,0,0,0,0,0,0,0,0,0,0,0,0,0,0,0,0,0,0,0,0,0,0,0,0,0,0,0,0,0,0,0,0,0,0,0,0,0,0,0,0,0,0,0,0,0,0,0,0,0,0,0,0,0,0,0,0,0,0,0,0,0,0,0,0,0,0,0,0,0,0,0,0,0,0,0,0,0,0,0,0,0,0,0,0,0,0,0,0,0,0,0,0,0,0,0,0,0,0,0,0,0,0,0,0,0,0,0,0,0,0,0,0,0,0,0,0,0,0,0,0,0,0,0,0,0,0,0,0,0,0,0,0,0,0,0,0,0,0,0,0,0,0,0,0,0,0,0,0,0,0,0,0,0,0,0,0,0,0,0,0,0,0,0,0,0,0,0,0,0,0,0,0,0,0,0,0,0,0,0,0,0,0,0,0,0,0,0,0,0,0,0,0,0,0,0,0,0,0,0,0,0,0,0,0,0,0,0,0,0,0,0,0,0,0,0,0,0,0,0,0,0,0,0,0,0,0,0,0,0,0,0,0,0,0,0,0,0,0,0,0,0,0,0,0,0,0,0,0,0,0,0,0,0,0],"id":1,"left_children":[1,3,5,7,9,11,13,15,17,19,21,23,25,27,29,31,33,35,37,39,-1,41,43,45,47,49,51,53,55,-1,57,59,61,63,65,67,69,71,73,75,77,79,-1,81,83,85,-1,87,89,91,93,95,97,99,-1,101,-1,-1,103,105,-1,107,-1,-1,109,111,-1,-1,-1,113,115,-1,117,119,121,123,125,127,-1,129,131,133,135,137,-1,139,141,143,145,147,149,151,153,155,157,159,161,163,-1,165,167,169,171,-1,-1,-1,173,175,177,-1,-1,179,181,183,185,187,189,-1,-1,191,193,195,197,199,201,203,-1,205,207,209,211,-1,213,215,217,219,-1,-1,-1,221,223,-1,-1,225,227,229,231,233,235,-1,-1,237,239,241,243,-1,-1,-1,-1,245,247,249,251,253,255,257,-1,-1,-1,-1,259,261,263,-1,-1,-1,-1,-1,-1,-1,-1,-1,-1,-1,-1,-1,-1,-1,-1,-1,-1,-1,-1,-1,-1,-1,-1,-1,-1,-1,-1,-1,-1,-1,-1,-1,-1,-1,-1,-1,-1,-1,-1,-1,-1,-1,-1,-1,-1,-1,-1,-1,-1,-1,-1,-1,-1,-1,-1,-1,-1,-1,-1,-1,-1,-1,-1,-1,-1,-1,-1,-1,-1,-1,-1,-1,-1,-1,-1,-1,-1,-1,-1,-1,-1,-1,-1,-1,-1,-1,-1,-1,-1,-1,-1],"loss_changes":[7.6656934E8,7.694986E7,1.0495968E8,4.1092E7,2.8203896E7,3.4545456E7,8.525184E6,1.711872E7,2.5026008E7,5.6415565E6,1.1880248E7,6.295004E6,4.218352E7,7.088672E6,1.083088E6,5.539552E6,4.714342E6,7.45708E6,3.1232472E6,5.187827E6,0E0,6.264343E6,9.028796E6,6.387731E6,5.997576E6,4.957315E6,5.619968E6,1.565086E6,6.795552E6,0E0,1.604581E6,5.85776E5,6.564864E6,8.4636E4,3.6455338E6,1.83056E5,2.375912E6,1.8142975E5,2.366759E6,3.094544E6,3.3609188E5,1.7680735E6,0E0,2.38246E6,2.0617332E6,2.4510698E6,0E0,2.919332E6,1.8614401E6,4.680314E6,3.076387E6,2.143168E6,2.575765E6,8.14672E5,0E0,4.25584E6,0E0,0E0,1.083865E5,3.91592E5,0E0,4.5932E6,0E0,0E0,2.3608564E5,1.1578846E6,0E0,0E0,0E0,1.611338E6,6.951099E5,0E0,1.0095681E5,2.148117E6,2.6996535E6,4.279967E6,1.31523E6,4.312973E5,0E0,2.027998E6,2.5415762E5,1.785656E6,7.991997E6,1.4649262E5,0E0,9.801995E5,1.163813E6,1.838114E6,1.695816E6,1.391531E6,6.3168575E5,1.840894E6,4.375358E6,1.003362E6,3.394248E2,2.087904E6,3.856488E6,8.32937E5,0E0,3.98478E5,1.7686656E6,4.563744E6,2.250245E6,0E0,0E0,0E0,2.39416E5,7.35736E5,2.85122E6,0E0,0E0,4.9397244E5,2.7036325E5,3.99387E5,3.1637716E5,1.23573875E5,2.4258806E5,0E0,0E0,1.7676969E6,2.951205E5,9.707855E5,6.250487E5,5.441392E6,4.148557E6,1.3471375E6,0E0,2.3223125E5,3.3391992E3,2.632599E6,1.6908624E6,0E0,1.207127E4,2.183348E6,3.3230788E5,4.26825E5,0E0,0E0,0E0,1.489525E5,2.4548266E4,0E0,0E0,9.58366E5,1.0963552E6,1.3733952E6,1.870852E6,1.05656E6,3.3200038E5,0E0,0E0,1.30689E6,4.3433856E5,2.9485145E6,1.2081932E6,0E0,0E0,0E0,0E0,6.633044E5,3.45008E5,3.614664E6,4.54361E5,1.028148E6,9.306E5,9.43465E4,0E0,0E0,0E0,0E0,2.545384E6,8.622248E4,2.748404E6,0E0,0E0,0E0,0E0,0E0,0E0,0E0,0E0,0E0,0E0,0E0,0E0,0E0,0E0,0E0,0E0,0E0,0E0,0E0,0E0,0E0,0E0,0E0,0E0,0E0,0E0,0E0,0E0,0E0,0E0,0E0,0E0,0E0,0E0,0E0,0E0,0E0,0E0,0E0,0E0,0E0,0E0,0E0,0E0,0E0,0E0,0E0,0E0,0E0,0E0,0E0,0E0,0E0,0E0,0E0,0E0,0E0,0E0,0E0,0E0,0E0,0E0,0E0,0E0,0E0,0E0,0E0,0E0,0E0,0E0,0E0,0E0,0E0,0E0,0E0,0E0,0E0,0E0,0E0,0E0,0E0,0E0,0E0,0E0,0E0,0E0,0E0,0E0,0E0,0E0,0E0,0E0],"parents":[2147483647,0,0,1,1,2,2,3,3,4,4,5,5,6,6,7,7,8,8,9,9,10,10,11,11,12,12,13,13,14,14,15,15,16,16,17,17,18,18,19,19,21,21,22,22,23,23,24,24,25,25,26,26,27,27,28,28,30,30,31,31,32,32,33,33,34,34,35,35,36,36,37,37,38,38,39,39,40,40,41,41,43,43,44,44,45,45,47,47,48,48,49,49,50,50,51,51,52,52,53,53,55,55,58,58,59,59,61,61,64,64,65,65,69,69,70,70,72,72,73,73,74,74,75,75,76,76,77,77,79,79,80,80,81,81,82,82,83,83,85,85,86,86,87,87,88,88,89,89,90,90,91,91,92,92,93,93,94,94,95,95,96,96,97,97,99,99,100,100,101,101,102,102,106,106,107,107,108,108,111,111,112,112,113,113,114,114,115,115,116,116,119,119,120,120,121,121,122,122,123,123,124,124,125,125,127,127,128,128,129,129,130,130,132,132,133,133,134,134,135,135,139,139,140,140,143,143,144,144,145,145,146,146,147,147,148,148,151,151,152,152,153,153,154,154,159,159,160,160,161,161,162,162,163,163,164,164,165,165,170,170,171,171,172,172],"right_children":[2,4,6,8,10,12,14,16,18,20,22,24,26,28,30,32,34,36,38,40,-1,42,44,46,48,50,52,54,56,-1,58,60,62,64,66,68,70,72,74,76,78,80,-1,82,84,86,-1,88,90,92,94,96,98,100,-1,102,-1,-1,104,106,-1,108,-1,-1,110,112,-1,-1,-1,114,116,-1,118,120,122,124,126,128,-1,130,132,134,136,138,-1,140,142,144,146,148,150,152,154,156,158,160,162,164,-1,166,168,170,172,-1,-1,-1,174,176,178,-1,-1,180,182,184,186,188,190,-1,-1,192,194,196,198,200,202,204,-1,206,208,210,212,-1,214,216,218,220,-1,-1,-1,222,224,-1,-1,226,228,230,232,234,236,-1,-1,238,240,242,244,-1,-1,-1,-1,246,248,250,252,254,256,258,-1,-1,-1,-1,260,262,264,-1,-1,-1,-1,-1,-1,-1,-1,-1,-1,-1,-1,-1,-1,-1,-1,-1,-1,-1,-1,-1,-1,-1,-1,-1,-1,-1,-1,-1,-1,-1,-1,-1,-1,-1,-1,-1,-1,-1,-1,-1,-1,-1,-1,-1,-1,-1,-1,-1,-1,-1,-1,-1,-1,-1,-1,-1,-1,-1,-1,-1,-1,-1,-1,-1,-1,-1,-1,-1,-1,-1,-1,-1,-1,-1,-1,-1,-1,-1,-1,-1,-1,-1,-1,-1,-1,-1,-1,-1,-1,-1,-1],"split_conditions":[2E0,3E0,3E0,1E0,1E0,4E0,1E0,1E0,3E0,1E0,4E0,2E0,1E0,3E0,1E0,2E0,2E0,1E0,2E0,1E0,2.6316721E1,1E0,1E0,3E0,1E0,1E0,1E0,6E0,6E0,3.3170372E1,3E0,1E0,4E0,3E0,1E0,1E0,1E0,1E0,1E0,1E0,5E0,1E0,2.3858648E1,1E0,4E0,1E0,2.1553917E1,2E0,3E0,5E0,1E0,1E0,1E0,1E0,-5.5580087E0,1E0,-1.432439E1,-2.46543E0,4E0,1E0,-5.882305E0,3E0,-1.717713E1,-7.933797E0,1E0,1E0,1.492395E1,-8.365342E0,-1.0091292E1,2E0,1E0,-1.2955008E1,1E0,4E0,1E0,4E0,1E0,1E0,1.4687327E1,1E0,3E0,5E0,5E0,1E0,1.305001E1,1E0,2E0,1E0,3E0,1E0,1E0,1E0,1E0,3E0,5E0,3E0,7E0,4E0,-7.538334E0,3E0,1E0,1E0,1E0,5.9381185E0,2.3730152E1,-1.5581859E1,1E0,2E0,1E0,-5.7284346E0,2.3492982E0,1E0,1E0,1E0,1E0,1E0,2E0,-6.6653614E0,-2.0730074E-1,1E0,1E0,1E0,1E0,5E0,6E0,1E0,-1.4677579E1,1E0,1E0,1E0,4E0,-1.1317661E1,1E0,1E0,4E0,4E0,3.0068022E1,-8.108143E0,-4.0121156E-1,1E0,1E0,1.7595844E1,-3.4136775E0,3E0,1E0,1E0,1E0,1E0,1E0,1.0459802E1,1.1892464E0,1E0,1E0,7E0,6E0,3.2880824E0,2.662016E1,-2.8282702E-1,-1.2010622E0,1E0,1E0,1E0,3E0,1E0,6E0,2E0,1.4788688E1,-1.09808655E1,1.2896687E1,2.60447E1,5E0,4E0,4E0,-1.2389391E1,-5.580487E0,-1.1025725E1,-1.358914E1,-9.958767E0,-6.0832677E0,-1.3073286E0,4.2783437E0,-8.437349E0,-4.0122876E0,-5.8429084E0,-5.4241943E-1,1.1087373E0,-2.9621835E0,2.399622E0,6.844043E0,-9.197452E0,-8.158749E-1,1.7800516E0,-1.8375542E0,-1.1488121E1,-4.6723785E0,4.354228E0,1.7572733E1,-1.2870816E1,-1.994536E0,-6.042484E0,1.2139239E1,1.7189568E1,-1.3757252E1,-1.2154157E1,-4.7703905E0,4.425679E0,1.2958029E1,-3.708872E-1,-2.1643834E0,6.4110273E-1,1.0361326E1,-6.1092967E-1,-1.721007E1,-2.9312813E0,-2.4103716E-1,2.4533695E1,1.2177037E1,3.234819E0,1.2409119E1,8.022353E0,2.2322524E0,-1.1614771E1,-1.943118E0,-1.0664042E0,-3.4914522E0,1.0871264E1,2.0557661E1,1.4819049E0,1.0824079E1,4.2317705E0,-4.6093473E0,5.750122E0,9.240594E0,5.963899E0,-4.855612E0,-4.003289E0,8.8781416E-1,7.802771E0,1.5300841E0,2.3684351E-1,-9.208518E0,8.687082E0,-8.992215E0,-1.1843688E1,-2.1597567E0,1.1456748E1,-1.3046502E0,2.1664284E1,1.1706335E1,1.5879096E-1,1.7547077E1,4.5260687E0,-6.74329E0,7.0100236E0,2.1861313E1,2.225302E1,1.3922845E0,7.374702E0,5.7448363E-1,1.6753252E1,2.5133528E1,3.926351E0,-7.0351154E-1,4.8206723E-1,1.9562563E1],"split_indices":[3,2,3,6,6,1,12,11,1,12,1,2,6,2,7,1,2,11,2,11,0,12,7,1,7,12,7,1,2,0,1,12,1,1,12,7,12,9,11,10,1,5,0,9,2,12,0,1,2,1,7,10,4,4,0,7,0,0,1,4,0,1,0,0,7,10,0,0,0,2,10,0,7,1,7,2,4,9,0,4,1,1,1,5,0,6,1,10,1,9,11,7,10,2,1,2,1,2,0,1,9,11,6,0,0,0,7,2,9,0,0,9,9,4,10,7,1,0,0,10,9,12,10,1,1,9,0,4,4,11,2,0,10,11,2,2,0,0,0,5,5,0,0,2,11,4,11,5,11,0,0,4,4,1,1,0,0,0,0,11,4,9,2,12,1,1,0,0,0,0,1,1,1,0,0,0,0,0,0,0,0,0,0,0,0,0,0,0,0,0,0,0,0,0,0,0,0,0,0,0,0,0,0,0,0,0,0,0,0,0,0,0,0,0,0,0,0,0,0,0,0,0,0,0,0,0,0,0,0,0,0,0,0,0,0,0,0,0,0,0,0,0,0,0,0,0,0,0,0,0,0,0,0,0,0,0,0,0,0,0,0,0,0,0,0],"split_type":[0,0,0,0,0,0,0,0,0,0,0,0,0,0,0,0,0,0,0,0,0,0,0,0,0,0,0,0,0,0,0,0,0,0,0,0,0,0,0,0,0,0,0,0,0,0,0,0,0,0,0,0,0,0,0,0,0,0,0,0,0,0,0,0,0,0,0,0,0,0,0,0,0,0,0,0,0,0,0,0,0,0,0,0,0,0,0,0,0,0,0,0,0,0,0,0,0,0,0,0,0,0,0,0,0,0,0,0,0,0,0,0,0,0,0,0,0,0,0,0,0,0,0,0,0,0,0,0,0,0,0,0,0,0,0,0,0,0,0,0,0,0,0,0,0,0,0,0,0,0,0,0,0,0,0,0,0,0,0,0,0,0,0,0,0,0,0,0,0,0,0,0,0,0,0,0,0,0,0,0,0,0,0,0,0,0,0,0,0,0,0,0,0,0,0,0,0,0,0,0,0,0,0,0,0,0,0,0,0,0,0,0,0,0,0,0,0,0,0,0,0,0,0,0,0,0,0,0,0,0,0,0,0,0,0,0,0,0,0,0,0,0,0,0,0,0,0,0,0,0,0,0,0,0,0,0,0,0,0,0,0,0,0,0,0],"sum_hessian":[2.956E3,1.907E3,1.049E3,1.642E3,2.65E2,7.79E2,2.7E2,9.3E2,7.12E2,1.23E2,1.42E2,3.91E2,3.88E2,2.38E2,3.2E1,7.58E2,1.72E2,4.61E2,2.51E2,1.22E2,1E0,6.3E1,7.9E1,2.4E1,3.67E2,1.4E2,2.48E2,3.1E1,2.07E2,2.8E1,4E0,1.36E2,6.22E2,9.6E1,7.6E1,3.04E2,1.57E2,9E0,2.42E2,1.11E2,1.1E1,6E1,3E0,7E1,9E0,2.2E1,2E0,3.13E2,5.4E1,1.32E2,8E0,2.21E2,2.7E1,3E1,1E0,2.06E2,1E0,1E0,3E0,1.32E2,4E0,5.74E2,4.8E1,9.2E1,4E0,7.3E1,3E0,2.5E2,5.4E1,1.36E2,2.1E1,4E0,5E0,1.84E2,5.8E1,5.9E1,5.2E1,1E1,1E0,5.5E1,5E0,3.4E1,3.6E1,8E0,1E0,2E1,2E0,3.8E1,2.75E2,4.4E1,1E1,9.9E1,3.3E1,6E0,2E0,1.02E2,1.19E2,2.5E1,2E0,2.8E1,2E0,1.86E2,2E1,1E0,2E0,1.16E2,1.6E1,3.06E2,2.68E2,3E0,1E0,3.8E1,3.5E1,1.12E2,2.4E1,1.7E1,4E0,4E0,1E0,1.72E2,1.2E1,5.1E1,7E0,5.3E1,6E0,4.3E1,9E0,8E0,2E0,4.7E1,8E0,3E0,2E0,2.8E1,6E0,3.1E1,5E0,7E0,1E0,1.3E1,7E0,1E0,1E0,2.2E1,1.6E1,3.7E1,2.38E2,1.4E1,3E1,6E0,4E0,9.1E1,8E0,1.6E1,1.7E1,1E0,5E0,1E0,1E0,4E0,9.8E1,1.16E2,3E0,2.1E1,4E0,4E0,2.4E1,1E0,1E0,1.06E2,8E1,4E0,1.6E1,1.1E1,5E0,2.32E2,7.4E1,1.56E2,1.12E2,3.3E1,5E0,6E0,2.9E1,1.07E2,5E0,1.5E1,9E0,1.5E1,2E0,1E0,3E0,8.3E1,8.9E1,4E0,8E0,5E1,1E0,2E0,5E0,4.8E1,5E0,5E0,1E0,1.1E1,3.2E1,7E0,1E0,1E0,1E0,3.6E1,1.1E1,6E0,2E0,1E0,1E0,1.7E1,1.1E1,4E0,2E0,2.5E1,6E0,1.2E1,1E0,4E0,3E0,1.4E1,8E0,8E0,8E0,3.1E1,6E0,1.59E2,7.9E1,1.1E1,3E0,2.5E1,5E0,7.8E1,1.3E1,7E0,1E0,1.3E1,3E0,9E0,8E0,2E0,2E0,9.3E1,5E0,4E0,1.12E2,1E0,2E0,2E1,1E0,3E0,1E0,3E0,1E0,5.7E1,2.3E1,1E0,3E0,3E0,1.3E1],"tree_param":{"num_deleted":"0","num_feature":"13","num_nodes":"265","size_leaf_vector":"1"}},{"base_weights":[8.966779E0,-3.4633005E2,9.3160925E2,-4.9900775E2,1.14062744E2,6.607599E2,1.3017393E3,-5.675782E2,1.8295342E0,7.0261635E1,7.01703E2,3.0304587E2,8.1978894E2,8.3191327E2,1.4825835E3,-6.9276337E2,-3.9346887E2,1.2941271E3,-1.2091285E2,2.0098538E2,-4.7806E1,5.9398193E2,1.4419062E3,4.500475E1,5.133355E2,4.6831564E2,9.4319E2,8.795936E2,-1.7702803E1,1.1742427E3,1.6055549E3,-7.4293054E2,-4.2691174E2,-5.156447E2,-2.77949E2,-4.399797E0,2.718476E1,-1.5724118E2,4.482144E2,2.4572478E2,-2.9672342E2,-6.428104E2,2.8680916E1,4.8021573E2,2.3802828E1,5.8848686E0,3.0557463E1,-1.407378E2,2.462692E2,4.1552255E2,2.4502121E1,6.965818E2,1.6365869E2,8.417199E2,1.2096736E3,6.411235E2,1.3439509E3,8.9508575E2,1.563142E3,1.4627778E3,3.0848436E1,-7.924122E2,-5.75119E2,-5.137673E2,-1.367188E2,-5.937922E2,-2.9378888E2,-1.5027606E2,-3.088712E2,-7.065409E2,-1.2914464E2,1.8406343E1,1.03153366E2,2.93107E2,5.1688175E1,-9.6638954E1,-4.220598E2,-1.5055269E1,-3.9022144E2,-2.0944917E2,1.76288E2,3.001662E2,7.0642535E2,-2.4092389E2,2.4002902E2,5.5600085E2,-1.1217343E1,3.4187186E2,2.4719006E1,5.800312E2,1.1630864E3,2.672357E2,-1.4517434E1,7.93135E2,1.4048384E3,5.912672E2,1.2625409E3,-8.968939E1,7.024965E2,1.4591779E3,1.7256815E2,3.7335233E2,1.0483918E3,2.8902498E1,1.4371154E0,6.6031134E2,2.7576359E1,-1.5519186E1,-7.412576E2,-5.205471E2,-1.607426E1,-6.342207E2,-3.7581122E2,-2.3971242E2,1.1553068E1,1.9024365E2,-6.059565E2,-3.8152667E2,1.6749916E2,-2.5490971E2,3.0694E2,7.813733E0,-3.136688E2,-1.991234E0,-1.39131155E1,-2.0008093E2,2.4760616E1,-1.3456291E1,3.3225604E2,2.5097319E2,5.147673E2,-4.0834634E2,2.3696194E2,-2.2670982E2,4.28776E0,-4.8995294E2,-9.8754895E-1,6.893701E1,-5.107558E2,-3.2423688E2,-1.0850679E1,5.5350204E1,3.2428296E2,1.6756366E2,4.2888416E2,3.638303E2,1.3860512E1,-5.323711E2,-8.3154076E1,4.6505792E2,-5.2018285E0,1.1776715E2,9.247345E2,-2.0015645E2,1.7884349E2,6.247479E2,1.07024185E2,6.430596E2,-8.136927E0,1.5211345E3,-6.0054607E1,-2.403643E0,4.1974503E2,6.9504224E2,9.82034E2,6.803631E0,1.5568044E3,-6.760583E0,1.4625275E1,1.4392286E3,9.4490326E2,-5.016435E2,1.7666664E1,7.8487726E2,1.3931036E2,6.643484E2,2.7974533E1,8.365521E0,-1.4503433E0,7.1500464E2,-2.4796179E2,7.524342E2,1.317498E3,9.7006433E2,3.0604065E1,-1.2001785E1,-1.4551791E1,-3.5608585E0,-1.0052454E1,-1.9966318E1,-1.0459902E1,-7.951818E0,-3.368466E-1,-7.148181E0,1.0125169E0,-3.0963008E0,6.61355E0,-1.2858816E1,-1.0194345E1,-1.8030531E0,-7.5183473E0,3.7566736E0,-3.013451E0,-3.6507277E0,-7.5892506E0,7.9016757E0,-1.0429471E1,-6.360718E0,-3.6079164E0,1.1367273E1,-3.8277438E0,4.0654316E0,-3.3336332E0,9.6038085E-1,9.467869E0,5.266797E0,-1.0143377E0,6.1559606E0,1.8973637E1,-1.0019267E1,5.001381E0,-2.2382977E0,6.886082E0,-7.584201E0,-1.1419241E0,-9.657631E0,-4.771002E-1,-6.3902802E0,1.2058186E1,-1.1306828E1,1.0478824E0,-6.7828646E0,9.948299E-2,-3.6823683E0,4.468716E0,-7.619453E-1,4.733767E0,6.5708227E0,-4.556005E0,4.998709E0,-1.7329865E0,2.6720166E0,1.117362E1,-3.5686347E-1,8.938286E0,-3.4983006E0,-1.1641049E1,8.713905E0,-2.487111E0,1.1097309E1,1.88518E0,-4.034953E0,4.833676E0,1.9531044E1,-2.018341E0,4.3458657E0,-9.604551E0,5.8625765E0,-1.0343838E1,2.1466904E0,1.3655241E1,-4.439407E0,5.5142336E0,1.2093153E1,5.966979E-1,3.1202002E1,1.1653472E1,4.8056765E0,-6.421292E0,3.880218E0,-7.881142E0,9.251345E0,1.1037245E0,1.3667868E1,2.0731316E0,2.0442968E1,1.1637697E1,4.7736135E0,2.9758627E1,2.6471165E1,1.3797989E0,-1.084844E0,1.7777954E1,-1.3402999E1,4.3136067E0,1.5257392E1,2.2854264E0,6.414108E0,-7.470673E0,5.9339064E-1,1.9265047E1,6.324876E-1,1.6781862E1,-6.171703E0,1.2254425E0,1.7943886E1,8.6279745E0,1.3893817E1,3.073926E1,2.5951513E1,6.633465E0,4.0631433E0,-4.996949E0],"categories":[],"categories_nodes":[],"categories_segments":[],"categories_sizes":[],"default_left":[0,0,0,0,0,0,0,0,0,0,0,0,0,0,0,0,0,0,0,0,0,0,0,0,0,0,0,0,0,0,0,0,0,0,0,0,0,0,0,0,0,0,0,0,0,0,0,0,0,0,0,0,0,0,0,0,0,0,0,0,0,0,0,0,0,0,0,0,0,0,0,0,0,0,0,0,0,0,0,0,0,0,0,0,0,0,0,0,0,0,0,0,0,0,0,0,0,0,0,0,0,0,0,0,0,0,0,0,0,0,0,0,0,0,0,0,0,0,0,0,0,0,0,0,0,0,0,0,0,0,0,0,0,0,0,0,0,0,0,0,0,0,0,0,0,0,0,0,0,0,0,0,0,0,0,0,0,0,0,0,0,0,0,0,0,0,0,0,0,0,0,0,0,0,0,0,0,0,0,0,0,0,0,0,0,0,0,0,0,0,0,0,0,0,0,0,0,0,0,0,0,0,0,0,0,0,0,0,0,0,0,0,0,0,0,0,0,0,0,0,0,0,0,0,0,0,0,0,0,0,0,0,0,0,0,0,0,0,0,0,0,0,0,0,0,0,0,0,0,0,0,0,0,0,0,0,0,0,0,0,0,0,0,0,0,0,0,0,0,0,0,0,0,0,0,0,0,0,0,0,0,0,0,0,0,0,0,0,0,0,0,0,0,0,0,0,0,0,0,0,0,0,0],"id":2,"left_children":[1,3,5,7,9,11,13,15,17,19,21,23,25,27,29,31,33,35,37,39,41,43,45,47,49,51,53,55,-1,57,59,61,63,65,67,-1,-1,69,71,73,75,77,79,81,-1,-1,-1,83,85,87,-1,89,91,93,95,97,99,101,103,105,-1,107,109,111,113,115,117,119,121,123,125,-1,127,129,131,133,135,-1,137,139,141,143,145,147,149,151,153,155,-1,157,159,161,-1,163,165,167,169,171,173,175,177,179,181,-1,-1,183,-1,-1,185,187,-1,189,191,193,-1,195,197,199,201,203,205,-1,207,-1,-1,209,211,-1,213,215,217,219,221,223,-1,225,-1,227,229,231,233,235,237,239,241,243,-1,245,247,249,-1,251,253,255,257,259,261,263,-1,265,267,269,271,273,275,-1,277,-1,-1,279,281,283,-1,285,287,289,-1,-1,-1,291,293,295,297,299,301,-1,-1,-1,-1,-1,-1,-1,-1,-1,-1,-1,-1,-1,-1,-1,-1,-1,-1,-1,-1,-1,-1,-1,-1,-1,-1,-1,-1,-1,-1,-1,-1,-1,-1,-1,-1,-1,-1,-1,-1,-1,-1,-1,-1,-1,-1,-1,-1,-1,-1,-1,-1,-1,-1,-1,-1,-1,-1,-1,-1,-1,-1,-1,-1,-1,-1,-1,-1,-1,-1,-1,-1,-1,-1,-1,-1,-1,-1,-1,-1,-1,-1,-1,-1,-1,-1,-1,-1,-1,-1,-1,-1,-1,-1,-1,-1,-1,-1,-1,-1,-1,-1,-1,-1,-1,-1,-1,-1,-1,-1,-1,-1,-1,-1,-1,-1,-1,-1],"loss_changes":[9.7392416E8,1.5083267E8,8.194592E7,5.5326976E7,1.372122E7,2.7000416E7,2.8334528E7,3.0612224E7,3.1087314E7,7.711296E6,2.093744E6,8.062141E6,1.3914464E7,9.454376E6,7.593984E6,1.0659232E7,8.254352E6,6.171616E6,3.7713818E6,5.350238E6,1.198758E7,2.198698E6,6.07688E5,2.5767288E6,6.272588E6,6.005768E6,5.579568E6,9.879696E6,0E0,6.743144E6,3.60288E5,5.282048E6,3.282002E6,4.818744E6,1.169542E6,0E0,0E0,2.5170018E6,2.0882932E6,1.989116E6,4.6077E5,1.162405E6,8.26195E6,1.050552E6,0E0,0E0,0E0,1.4311402E6,2.638044E6,4.846772E6,0E0,2.043946E6,4.1471845E6,3.810408E6,1.378576E6,3.023252E6,4.067392E6,3.287888E6,2.023104E6,4.086624E6,0E0,1.33856E6,2.35496E6,1.456616E6,2.7280468E6,2.137184E6,3.18028E6,3.044334E6,1.018948E6,2.436105E5,1.773584E6,0E0,1.8134818E6,1.5052E6,3.846985E6,4.471969E5,2.7202075E5,0E0,8.653755E5,2.0481818E6,2.5772885E6,2.5243288E5,1.4533E4,1.2891968E6,1.0891288E6,2.3149695E6,7.1808525E5,4.649865E6,0E0,3.028209E6,4.032841E6,1.4814195E6,0E0,2.430416E6,1.43534E6,1.8268715E6,1.951304E6,3.1505755E6,2.720794E6,1.282568E6,3.356253E5,2.7245745E6,1.796212E6,0E0,0E0,1.725795E6,0E0,0E0,1.068912E6,1.689588E6,0E0,6.45776E5,1.197692E6,1.3868302E6,0E0,3.2277275E5,4.63696E5,6.45957E5,2.1822112E5,3.5452375E5,1.6809349E6,0E0,1.06296E6,0E0,0E0,1.3702835E6,2.2537105E6,0E0,3.5342506E5,1.972641E6,2.152352E6,1.4985042E6,1.7494806E6,1.969514E5,0E0,2.1052925E5,0E0,1.2658974E6,8.54266E5,1.0163345E6,1.7703334E6,1.6642002E6,1.675113E6,3.4994103E5,3.9619962E5,2.1642631E5,0E0,2.6704125E5,6.9920925E5,2.6689288E5,0E0,4.767093E5,1.4855945E6,1.6136485E6,1.3070652E6,2.117011E6,2.9186642E6,7.39038E5,0E0,2.02937E5,3.891489E5,1.433479E6,7.5985025E5,4.340228E6,2.151884E6,0E0,1.012828E6,0E0,0E0,1.687528E6,1.178176E6,1.0913594E6,0E0,2.185408E6,1.2411586E6,1.2579595E6,0E0,0E0,0E0,1.16716E6,1.755745E5,7.97685E5,2.330504E6,1.1822885E6,3.054792E5,0E0,0E0,0E0,0E0,0E0,0E0,0E0,0E0,0E0,0E0,0E0,0E0,0E0,0E0,0E0,0E0,0E0,0E0,0E0,0E0,0E0,0E0,0E0,0E0,0E0,0E0,0E0,0E0,0E0,0E0,0E0,0E0,0E0,0E0,0E0,0E0,0E0,0E0,0E0,0E0,0E0,0E0,0E0,0E0,0E0,0E0,0E0,0E0,0E0,0E0,0E0,0E0,0E0,0E0,0E0,0E0,0E0,0E0,0E0,0E0,0E0,0E0,0E0,0E0,0E0,0E0,0E0,0E0,0E0,0E0,0E0,0E0,0E0,0E0,0E0,0E0,0E0,0E0,0E0,0E0,0E0,0E0,0E0,0E0,0E0,0E0,0E0,0E0,0E0,0E0,0E0,0E0,0E0,0E0,0E0,0E0,0E0,0E0,0E0,0E0,0E0,0E0,0E0,0E0,0E0,0E0,0E0,0E0,0E0,0E0,0E0,0E0,0E0,0E0,0E0,0E0,0E0,0E0],"parents":[2147483647,0,0,1,1,2,2,3,3,4,4,5,5,6,6,7,7,8,8,9,9,10,10,11,11,12,12,13,13,14,14,15,15,16,16,17,17,18,18,19,19,20,20,21,21,22,22,23,23,24,24,25,25,26,26,27,27,29,29,30,30,31,31,32,32,33,33,34,34,37,37,38,38,39,39,40,40,41,41,42,42,43,43,47,47,48,48,49,49,51,51,52,52,53,53,54,54,55,55,56,56,57,57,58,58,59,59,61,61,62,62,63,63,64,64,65,65,66,66,67,67,68,68,69,69,70,70,72,72,73,73,74,74,75,75,76,76,78,78,79,79,80,80,81,81,82,82,83,83,84,84,85,85,86,86,87,87,89,89,90,90,91,91,93,93,94,94,95,95,96,96,97,97,98,98,99,99,100,100,101,101,102,102,105,105,108,108,109,109,111,111,112,112,113,113,115,115,116,116,117,117,118,118,119,119,120,120,122,122,125,125,126,126,128,128,129,129,130,130,131,131,132,132,133,133,135,135,137,137,138,138,139,139,140,140,141,141,142,142,143,143,144,144,145,145,147,147,148,148,149,149,151,151,152,152,153,153,154,154,155,155,156,156,157,157,159,159,160,160,161,161,162,162,163,163,164,164,166,166,169,169,170,170,171,171,173,173,174,174,175,175,179,179,180,180,181,181,182,182,183,183,184,184],"right_children":[2,4,6,8,10,12,14,16,18,20,22,24,26,28,30,32,34,36,38,40,42,44,46,48,50,52,54,56,-1,58,60,62,64,66,68,-1,-1,70,72,74,76,78,80,82,-1,-1,-1,84,86,88,-1,90,92,94,96,98,100,102,104,106,-1,108,110,112,114,116,118,120,122,124,126,-1,128,130,132,134,136,-1,138,140,142,144,146,148,150,152,154,156,-1,158,160,162,-1,164,166,168,170,172,174,176,178,180,182,-1,-1,184,-1,-1,186,188,-1,190,192,194,-1,196,198,200,202,204,206,-1,208,-1,-1,210,212,-1,214,216,218,220,222,224,-1,226,-1,228,230,232,234,236,238,240,242,244,-1,246,248,250,-1,252,254,256,258,260,262,264,-1,266,268,270,272,274,276,-1,278,-1,-1,280,282,284,-1,286,288,290,-1,-1,-1,292,294,296,298,300,302,-1,-1,-1,-1,-1,-1,-1,-1,-1,-1,-1,-1,-1,-1,-1,-1,-1,-1,-1,-1,-1,-1,-1,-1,-1,-1,-1,-1,-1,-1,-1,-1,-1,-1,-1,-1,-1,-1,-1,-1,-1,-1,-1,-1,-1,-1,-1,-1,-1,-1,-1,-1,-1,-1,-1,-1,-1,-1,-1,-1,-1,-1,-1,-1,-1,-1,-1,-1,-1,-1,-1,-1,-1,-1,-1,-1,-1,-1,-1,-1,-1,-1,-1,-1,-1,-1,-1,-1,-1,-1,-1,-1,-1,-1,-1,-1,-1,-1,-1,-1,-1,-1,-1,-1,-1,-1,-1,-1,-1,-1,-1,-1,-1,-1,-1,-1,-1,-1],"split_conditions":[1.423179E2,1.2E2,1.85E2,2E0,3E0,2E0,1E0,1E0,5E1,1E0,1E0,1.5350696E2,1E0,6E0,4E0,1E0,7.9E1,3E0,3E0,1E0,1E0,4E0,3E0,1E0,4E0,1E0,1.722347E2,2.3E2,-1.7702803E1,3E0,2.1E2,9.7E1,9.7E1,1E0,8.4582664E1,-4.399797E0,2.718476E1,6.2E1,2E0,4E0,1E0,2E0,1E0,1E0,2.3802828E1,5.8848686E0,3.0557463E1,1E0,3E0,1E0,2.4502121E1,3E0,5E0,1E0,3E0,2E0,6E0,3E0,1E0,2E0,3.0848436E1,6.7E1,3E0,1E0,1E0,1E0,1E0,3E0,1E0,5.5E1,1.1E2,1.8406343E1,3E0,1.4E2,2E0,2E0,1E0,-1.5055269E1,3E0,2E0,1.3E2,1.34E2,1.21995056E2,1E0,4E0,1.5E2,4E0,1.62E2,2.4719006E1,6E0,1E0,4E0,-1.4517434E1,3E0,1E0,1E0,1E0,2E0,2.1666667E2,3E0,2.6666666E2,2.1E2,2.3E2,2.8902498E1,1.4371154E0,1E0,2.7576359E1,-1.5519186E1,2E0,2E0,-1.607426E1,5E1,8.059724E1,1E0,1.1553068E1,4E0,2E0,5.6E1,1E0,1E0,4E0,7.813733E0,1E0,-1.991234E0,-1.39131155E1,6.4E1,1E0,-1.3456291E1,1E0,3E0,3E0,5E0,1.26025154E2,3E0,4.28776E0,4E0,-9.8754895E-1,1.26025154E2,1E0,1E0,1.29E2,1E0,5E0,1E0,4E0,4E0,1.3860512E1,3E0,2E0,1E0,-5.2018285E0,1.45E2,4E0,1E0,5E0,3E0,3E0,1E0,-8.136927E0,4E0,1.65E2,1.5350696E2,1E0,1E0,1E0,6.803631E0,1.45E2,-6.760583E0,1.4625275E1,6E0,1.75E2,2.1E2,1.7666664E1,1E0,1E0,1E0,2.7974533E1,8.365521E0,-1.4503433E0,2E0,2.6666666E2,3E0,3E0,4E0,4E0,-1.2001785E1,-1.4551791E1,-3.5608585E0,-1.0052454E1,-1.9966318E1,-1.0459902E1,-7.951818E0,-3.368466E-1,-7.148181E0,1.0125169E0,-3.0963008E0,6.61355E0,-1.2858816E1,-1.0194345E1,-1.8030531E0,-7.5183473E0,3.7566736E0,-3.013451E0,-3.6507277E0,-7.5892506E0,7.9016757E0,-1.0429471E1,-6.360718E0,-3.6079164E0,1.1367273E1,-3.8277438E0,4.0654316E0,-3.3336332E0,9.6038085E-1,9.467869E0,5.266797E0,-1.0143377E0,6.1559606E0,1.8973637E1,-1.0019267E1,5.001381E0,-2.2382977E0,6.886082E0,-7.584201E0,-1.1419241E0,-9.657631E0,-4.771002E-1,-6.3902802E0,1.2058186E1,-1.1306828E1,1.0478824E0,-6.7828646E0,9.948299E-2,-3.6823683E0,4.468716E0,-7.619453E-1,4.733767E0,6.5708227E0,-4.556005E0,4.998709E0,-1.7329865E0,2.6720166E0,1.117362E1,-3.5686347E-1,8.938286E0,-3.4983006E0,-1.1641049E1,8.713905E0,-2.487111E0,1.1097309E1,1.88518E0,-4.034953E0,4.833676E0,1.9531044E1,-2.018341E0,4.3458657E0,-9.604551E0,5.8625765E0,-1.0343838E1,2.1466904E0,1.3655241E1,-4.439407E0,5.5142336E0,1.2093153E1,5.966979E-1,3.1202002E1,1.1653472E1,4.8056765E0,-6.421292E0,3.880218E0,-7.881142E0,9.251345E0,1.1037245E0,1.3667868E1,2.0731316E0,2.0442968E1,1.1637697E1,4.7736135E0,2.9758627E1,2.6471165E1,1.3797989E0,-1.084844E0,1.7777954E1,-1.3402999E1,4.3136067E0,1.5257392E1,2.2854264E0,6.414108E0,-7.470673E0,5.9339064E-1,1.9265047E1,6.324876E-1,1.6781862E1,-6.171703E0,1.2254425E0,1.7943886E1,8.6279745E0,1.3893817E1,3.073926E1,2.5951513E1,6.633465E0,4.0631433E0,-4.996949E0],"split_indices":[0,0,0,3,3,3,6,6,0,10,12,0,6,2,1,11,0,1,3,9,9,2,2,6,2,10,0,0,0,3,0,0,0,11,0,0,0,0,1,1,8,3,6,9,0,0,0,11,2,12,0,3,1,12,2,2,1,1,7,3,0,0,2,8,12,0,12,1,3,0,0,0,1,0,3,3,7,0,2,3,0,0,0,8,1,0,1,0,0,1,11,1,0,3,11,9,11,3,0,2,0,0,0,0,0,9,0,0,2,2,0,0,0,8,0,1,1,0,8,7,1,0,11,0,0,0,9,0,8,2,2,1,0,1,0,2,0,0,11,11,0,11,1,11,1,1,0,2,2,8,0,0,1,9,1,1,2,7,0,2,0,0,11,7,10,0,0,0,0,1,0,0,0,7,10,11,0,0,0,2,0,2,2,2,2,0,0,0,0,0,0,0,0,0,0,0,0,0,0,0,0,0,0,0,0,0,0,0,0,0,0,0,0,0,0,0,0,0,0,0,0,0,0,0,0,0,0,0,0,0,0,0,0,0,0,0,0,0,0,0,0,0,0,0,0,0,0,0,0,0,0,0,0,0,0,0,0,0,0,0,0,0,0,0,0,0,0,0,0,0,0,0,0,0,0,0,0,0,0,0,0,0,0,0,0,0,0,0,0,0,0,0,0,0,0,0,0,0,0,0,0,0,0],"split_type":[0,0,0,0,0,0,0,0,0,0,0,0,0,0,0,0,0,0,0,0,0,0,0,0,0,0,0,0,0,0,0,0,0,0,0,0,0,0,0,0,0,0,0,0,0,0,0,0,0,0,0,0,0,0,0,0,0,0,0,0,0,0,0,0,0,0,0,0,0,0,0,0,0,0,0,0,0,0,0,0,0,0,0,0,0,0,0,0,0,0,0,0,0,0,0,0,0,0,0,0,0,0,0,0,0,0,0,0,0,0,0,0,0,0,0,0,0,0,0,0,0,0,0,0,0,0,0,0,0,0,0,0,0,0,0,0,0,0,0,0,0,0,0,0,0,0,0,0,0,0,0,0,0,0,0,0,0,0,0,0,0,0,0,0,0,0,0,0,0,0,0,0,0,0,0,0,0,0,0,0,0,0,0,0,0,0,0,0,0,0,0,0,0,0,0,0,0,0,0,0,0,0,0,0,0,0,0,0,0,0,0,0,0,0,0,0,0,0,0,0,0,0,0,0,0,0,0,0,0,0,0,0,0,0,0,0,0,0,0,0,0,0,0,0,0,0,0,0,0,0,0,0,0,0,0,0,0,0,0,0,0,0,0,0,0,0,0,0,0,0,0,0,0,0,0,0,0,0,0,0,0,0,0,0,0,0,0,0,0,0,0,0,0,0,0,0,0,0,0,0,0,0,0],"sum_hessian":[2.969E3,2.144E3,8.25E2,1.61E3,5.34E2,4.78E2,3.47E2,1.416E3,1.94E2,4.98E2,3.6E1,1.48E2,3.3E2,9.8E1,2.49E2,8.22E2,5.94E2,1.6E1,1.78E2,2.36E2,2.62E2,3.3E1,3E0,6.7E1,8.1E1,8.7E1,2.43E2,9.6E1,2E0,7.4E1,1.75E2,6.9E2,1.32E2,2.87E2,3.07E2,2E0,1.4E1,1.68E2,1E1,2.17E2,1.9E1,2.9E1,2.33E2,3E1,3E0,1E0,2E0,3.5E1,3.2E1,7.4E1,7E0,4.9E1,3.8E1,1.79E2,6.4E1,6.5E1,3.1E1,4.5E1,2.9E1,8.4E1,9.1E1,5.3E2,1.6E2,1.01E2,3.1E1,2.11E2,7.6E1,6.1E1,2.46E2,7E0,1.61E2,3E0,7E0,1.74E2,4.3E1,8E0,1.1E1,1.5E1,1.4E1,8.9E1,1.44E2,1.8E1,1.2E1,2.8E1,7E0,1.4E1,1.8E1,7E1,4E0,4.1E1,8E0,3.5E1,3E0,1.67E2,1.2E1,6E0,5.8E1,5E0,6E1,2.8E1,3E0,1.1E1,3.4E1,2.8E1,1E0,8E0,7.6E1,2.12E2,3.18E2,1.39E2,2.1E1,5.2E1,4.9E1,2.8E1,3E0,3E0,2.08E2,6.4E1,1.2E1,5E1,1.1E1,1E0,2.45E2,1E0,6E0,1.1E2,5.1E1,1E0,6E0,1.48E2,2.6E1,1.2E1,3.1E1,6E0,2E0,9E0,2E0,3E0,1.1E1,5.6E1,3.3E1,8E1,6.4E1,1E1,8E0,3E0,9E0,9E0,1.9E1,5E0,2E0,7E0,7E0,9E0,9E0,3.1E1,3.9E1,3.9E1,2E0,6E0,2E0,1.3E1,2.2E1,1.13E2,5.4E1,2E0,1E1,1E0,5E0,3.5E1,2.3E1,4E0,1E0,5.2E1,8E0,4E0,2.4E1,1E0,2E0,7E0,4E0,1.8E1,1.6E1,5E0,3E0,1.62E2,1.56E2,1.6E1,1.23E2,3E0,4.9E1,4.1E1,8E0,1.8E1,1E1,1E0,2E0,4.8E1,1.6E2,8E0,5.6E1,1.1E1,1E0,4E1,1E1,1E1,1E0,1.78E2,6.7E1,1E0,1.09E2,2.6E1,2.5E1,3E0,3E0,1.3E2,1.8E1,2.1E1,5E0,1E1,2E0,9E0,2.2E1,2E0,4E0,8E0,1E0,2E0,1E0,9E0,2E0,4.8E1,8E0,1.9E1,1.4E1,5.5E1,2.5E1,6E1,4E0,7E0,3E0,4E0,4E0,1E0,2E0,3E0,6E0,1E0,1.8E1,3E0,2E0,2E0,5E0,6E0,1E0,4E0,5E0,8E0,1E0,7E0,2.4E1,1.4E1,2.5E1,3.7E1,2E0,4E0,2E0,1E0,1E0,9E0,4E0,1.7E1,5E0,1.01E2,1.2E1,3.5E1,1.9E1,1E0,9E0,3.4E1,1E0,1E0,2.2E1,3E0,1E0,4.7E1,5E0,6E0,2E0,2E0,2E0,2E0,5E0,3E0,1E0,8E0,1E1,8E0,8E0,2E0,3E0,2E0,1E0],"tree_param":{"num_deleted":"0","num_feature":"13","num_nodes":"303","size_leaf_vector":"1"}},{"base_weights":[-2.161478E-1,-3.4924744E2,8.2066833E2,-4.7559933E2,1.4037033E2,3.5240933E2,1.0468625E3,-5.951571E2,-2.6127213E2,1.2079783E3,1.01907265E2,2.145218E1,5.970732E2,8.97238E2,1.4539188E3,-7.0766595E2,-4.181655E2,-3.7542133E2,-9.52295E1,-4.620166E0,2.387257E1,2.5052221E1,3.8745746E2,-1.8715013E2,2.2009665E2,3.2626633E2,7.4700793E2,4.5026245E2,1.02217554E3,8.8927716E2,1.5764377E3,-7.5377563E2,-4.8612177E2,-5.004205E2,-2.512731E2,-4.4920508E2,-9.6704994E1,-1.8614204E1,-3.5621E2,-1.6452063E1,5.5837604E2,4.15701E2,-7.252804E1,-3.0671918E2,3.366142E2,2.6756628E2,-4.0305228E2,7.310332E2,1.1611465E2,6.200654E2,1.0875555E3,1.0596436E2,6.7229016E2,6.905362E2,1.1205675E3,6.364809E2,3.7242332E1,1.6006052E3,-1.4037188E1,-8.487326E2,-6.9968585E2,-6.329612E2,-4.275387E2,-5.8057166E2,-2.9534897E2,4.033021E2,-2.9367838E2,-5.744902E2,-2.872511E2,1.3494781E2,-1.8760785E2,-2.6836844E2,6.884262E1,-4.4293842E2,3.8855225E1,6.652708E1,-9.414218E1,2.2506741E2,1.5207906E3,4.9262808E2,2.3505388E2,-9.001047E0,5.24106E2,-5.7065814E2,-3.0983334E1,6.0745807E2,-3.5472736E1,3.2160852E2,-2.814222E2,-5.067139E2,1.0397111E-1,9.727713E2,1.0858967E2,8.1922546E2,4.1023422E1,8.6824866E2,4.5705078E2,4.1633517E2,1.2153716E3,9.611834E2,-1.3787738E2,9.815912E2,2.837464E2,5.187762E2,3.6337288E1,9.6065497E2,1.3849006E3,8.540634E2,-2.6740173E2,1.6232661E3,1.0020866E2,-9.248388E2,-7.330212E2,-6.16416E2,-7.9302893E2,-2.0872553E1,-5.345225E2,2.1767085E0,-4.4205273E2,-6.1154254E2,-1.5576312E2,-3.6981552E2,1.22615814E2,1.1403899E3,-1.5530676E2,-1.7930971E2,-3.7709555E2,-5.144748E2,-1.6220123E1,1.8080283E2,-3.2512427E2,3.0942066E1,4.071395E2,-2.3704556E2,5.8566383E1,-4.3237164E2,-3.9983814E1,8.517925E1,-5.201504E2,-4.996152E2,2.7707184E2,-3.4565564E2,4.1689023E2,-5.334592E2,9.089529E1,-1.7821533E2,1.1808724E2,-3.64375E2,5.251466E2,3.355076E1,5.473276E2,5.5313116E2,1.8383026E2,4.922599E2,7.910309E1,1.3773106E0,1.2722421E1,-5.910874E2,-5.3738874E-1,-1.3467162E2,8.0885077E2,3.638194E0,1.30697155E1,-1.320498E2,4.0121636E0,9.042523E1,4.287368E2,-1.0008222E1,-3.6118774E0,-1.0783697E1,-2.0002418E0,1.11283E3,3.0940253E2,-1.9158533E2,6.8442907E0,1.692408E1,3.9994328E0,1.4467253E2,-3.2054834E2,9.618913E2,-5.8536043E0,1.0255522E2,6.312822E2,9.700629E0,-1.8507054E0,1.4068391E3,1.3652408E1,3.6674252E0,1.148171E3,-3.8226355E2,1.3040024E2,1.2582444E3,3.1389902E2,4.6522778E2,-2.2811053E2,-6.0994403E2,5.750593E2,8.658393E2,1.0920781E3,1.4533746E3,7.730558E2,3.2824182E2,1.0307314E3,-5.448648E2,1.0042803E1,3.6472107E1,1.5376375E3,-5.594646E0,8.2905035E0,-1.6737143E1,4.2295594E-2,-1.7488073E1,-1.2138236E1,-9.349648E0,-1.213498E1,-1.4495232E1,-2.7740521E0,-8.242968E0,-1.4118946E1,-9.17733E0,-6.3942966E0,-1.3327189E1,-1.0148887E1,2.7511265E0,-7.9891376E0,-6.9312906E0,6.8382483E0,5.495448E0,1.2346536E-1,2.4416782E1,4.2805214E0,-1.1691538E1,4.590522E0,-4.2569604E0,-4.5474032E-1,-8.979634E0,-2.6428807E0,-9.469521E0,4.6773715E0,3.474636E-1,4.433866E0,-4.784475E0,-9.643769E0,-2.926669E0,2.7200675E0,1.0263352E1,-3.7522898E0,2.5703058E0,-4.787111E0,-8.808519E-1,5.850224E0,-5.2870407E0,-1.4754364E1,-5.6168647E0,5.724286E0,3.1091962E0,-2.9263005E-1,-1.339724E1,1.4381061E0,-1.1790963E1,-5.9867253E0,-8.023251E0,2.1973421E1,-9.270271E0,-3.827964E-2,-2.199743E0,9.85219E0,1.5147445E0,-1.2086983E1,-5.4907405E-1,2.68097E0,-2.6192884E0,-8.99282E0,5.1807934E-1,1.2696949E1,-1.1187928E1,3.3980937E0,1.1810195E1,-9.641023E0,1.2768821E1,1.9556267E0,1.163901E1,5.3634768E0,4.47756E0,-1.3437216E0,2.1590629E0,1.2915218E1,5.9254537E0,-6.509807E0,-7.4679365E0,-1.2918851E1,-2.1898104E-2,-9.591977E0,2.644823E1,-4.688171E0,1.8626394E0,-5.8098197E0,4.9096136E0,-7.052685E-1,9.784395E0,3.3990347E0,-1.23885E0,7.395282E-1,6.990987E0,2.3504313E1,1.0622221E1,-4.8350854E0,-7.224021E0,3.9638803E0,-2.4609108E0,5.119314E0,1.079586E1,-1.2018396E1,3.0443897E0,1.765015E1,1.0674892E1,-6.3944924E-1,6.4300203E0,1.4845708E1,1.4736041E1,2.9005783E1,2.2813625E1,3.632528E0,-1.1097713E1,7.892649E-1,7.0495744E0,1.8097518E-1,3.296824E1,1.5955317E1,8.708521E0,3.9779854E0,1.0485346E1,-3.3788836E0,-5.893429E0,-8.1552076E-1,-1.5896207E1,1.9656647E0,1.2246439E1,-2.096676E-1,1.8201853E1,1.2865002E1,2.6333413E0,2.1210722E1,2.445588E1,3.271614E1,-1.0677725E0,2.1464447E1,8.993393E0,-6.375664E0,9.096693E0,2.0857883E1,-1.1451551E1,-1.5272193E0,2.8253744E1,1.7989323E1],"categories":[],"categories_nodes":[],"categories_segments":[],"categories_sizes":[],"default_left":[0,0,0,0,0,0,0,0,0,0,0,0,0,0,0,0,0,0,0,0,0,0,0,0,0,0,0,0,0,0,0,0,0,0,0,0,0,0,0,0,0,0,0,0,0,0,0,0,0,0,0,0,0,0,0,0,0,0,0,0,0,0,0,0,0,0,0,0,0,0,0,0,0,0,0,0,0,0,0,0,0,0,0,0,0,0,0,0,0,0,0,0,0,0,0,0,0,0,0,0,0,0,0,0,0,0,0,0,0,0,0,0,0,0,0,0,0,0,0,0,0,0,0,0,0,0,0,0,0,0,0,0,0,0,0,0,0,0,0,0,0,0,0,0,0,0,0,0,0,0,0,0,0,0,0,0,0,0,0,0,0,0,0,0,0,0,0,0,0,0,0,0,0,0,0,0,0,0,0,0,0,0,0,0,0,0,0,0,0,0,0,0,0,0,0,0,0,0,0,0,0,0,0,0,0,0,0,0,0,0,0,0,0,0,0,0,0,0,0,0,0,0,0,0,0,0,0,0,0,0,0,0,0,0,0,0,0,0,0,0,0,0,0,0,0,0,0,0,0,0,0,0,0,0,0,0,0,0,0,0,0,0,0,0,0,0,0,0,0,0,0,0,0,0,0,0,0,0,0,0,0,0,0,0,0,0,0,0,0,0,0,0,0,0,0,0,0,0,0,0,0,0,0,0,0,0,0,0,0,0,0,0,0,0,0,0,0,0,0,0,0,0,0,0,0,0,0,0,0,0,0,0,0,0,0,0,0,0,0,0,0,0,0,0,0,0,0,0,0,0,0,0,0,0,0],"id":3,"left_children":[1,3,5,7,9,11,13,15,17,19,21,23,25,27,29,31,33,35,37,-1,-1,39,41,43,45,47,49,51,53,55,57,59,61,63,65,67,69,71,73,75,77,79,81,83,85,87,89,91,93,95,97,99,101,103,105,107,-1,109,-1,111,113,115,117,119,121,123,125,127,129,131,133,135,137,139,141,143,145,147,149,151,153,-1,155,157,159,161,163,165,167,169,-1,171,173,175,177,179,181,183,185,187,189,191,193,195,-1,197,199,201,203,205,207,209,211,213,215,-1,217,-1,219,221,223,225,227,229,231,233,235,237,-1,239,241,243,245,247,249,251,253,255,257,259,261,263,265,267,269,271,273,275,277,-1,279,281,283,285,287,-1,-1,289,-1,291,293,-1,-1,295,-1,297,299,-1,301,-1,-1,303,305,307,-1,-1,-1,309,311,313,-1,315,317,-1,-1,319,-1,-1,321,323,325,327,329,331,333,335,337,339,341,343,345,347,349,351,-1,-1,353,-1,-1,-1,-1,-1,-1,-1,-1,-1,-1,-1,-1,-1,-1,-1,-1,-1,-1,-1,-1,-1,-1,-1,-1,-1,-1,-1,-1,-1,-1,-1,-1,-1,-1,-1,-1,-1,-1,-1,-1,-1,-1,-1,-1,-1,-1,-1,-1,-1,-1,-1,-1,-1,-1,-1,-1,-1,-1,-1,-1,-1,-1,-1,-1,-1,-1,-1,-1,-1,-1,-1,-1,-1,-1,-1,-1,-1,-1,-1,-1,-1,-1,-1,-1,-1,-1,-1,-1,-1,-1,-1,-1,-1,-1,-1,-1,-1,-1,-1,-1,-1,-1,-1,-1,-1,-1,-1,-1,-1,-1,-1,-1,-1,-1,-1,-1,-1,-1,-1,-1,-1,-1,-1,-1,-1,-1,-1,-1,-1,-1,-1,-1,-1,-1,-1,-1,-1,-1,-1,-1,-1,-1,-1,-1,-1,-1,-1,-1],"loss_changes":[8.624083E8,1.3072382E8,9.474496E7,4.2868E7,1.7698448E7,2.3793328E7,3.5543424E7,2.1150496E7,1.1393292E7,3.048764E6,9.207602E6,5.262341E6,6.618244E6,2.4390336E7,9.735968E6,6.345024E6,5.653632E6,7.298164E6,4.932159E6,0E0,0E0,7.3580805E6,1.186404E6,3.9860585E6,2.0305855E6,5.188987E6,3.99448E6,7.496688E6,1.0549056E7,7.98239E6,8.721568E6,2.189984E6,7.27254E5,4.447248E6,4.032241E6,5.55688E6,1.6257179E6,4.2122755E6,1.93596E6,1.9982809E6,7.3564645E6,1.051526E6,1.7999996E6,3.6939675E6,1.2308781E6,1.9002905E6,2.1484744E5,3.054202E6,2.1838858E6,2.880228E6,1.896192E6,8.47405E6,6.932098E6,1.775886E7,9.91344E6,5.538442E6,0E0,4.257344E6,0E0,1.012896E6,2.23936E6,9.97806E5,7.38797E5,2.54924E6,2.566421E6,3.882804E6,1.201245E6,2.662928E6,2.27462E6,6.1021125E5,6.832489E5,1.8555028E6,1.4202758E6,2.015591E6,1.7430448E6,2.2415782E6,2.875892E6,3.552059E6,1.019806E6,9.81944E5,1.0440709E6,0E0,1.9412894E5,2.69486E5,2.373034E6,1.9563825E5,1.7972489E5,1.348142E6,4.5904916E5,8.2406375E4,0E0,1.049347E6,6.468046E5,8.628175E4,1.5079616E6,3.781852E6,3.085236E6,4.440322E5,9.29072E5,1.038656E6,2.147874E6,5.700774E6,2.707114E6,5.05182E6,0E0,1.160336E6,2.982208E6,1.705379E6,1.6824694E6,1.370304E6,5.9184594E5,8.7184E5,4.4256E5,7.35016E5,1.445016E6,0E0,1.683015E5,0E0,3.17927E5,7.02936E5,1.4117161E6,1.010383E6,2.7441103E5,4.722575E5,1.3921918E6,5.1229388E5,2.08396E6,1.562936E6,0E0,1.0242591E5,1.295603E6,4.231412E5,7.3034094E5,5.608625E5,3.0419884E5,1.314689E6,2.2585768E6,1.2558135E6,6.046164E5,9.05756E5,3.2953928E6,3.5181756E5,4.9611212E5,5.7772975E5,1.0368286E6,1.1225168E6,2.3998685E6,1.1239766E6,2.1962905E6,0E0,1.3882669E5,9.74598E5,2.0606103E5,7.60648E5,2.1194425E6,0E0,0E0,2.64468E5,0E0,1.2809486E6,2.52327E6,0E0,0E0,2.599799E5,0E0,4.6269094E5,9.584555E5,0E0,1.4591114E4,0E0,0E0,1.204487E6,8.1476544E5,4.375938E5,0E0,0E0,0E0,1.2692356E6,3.305584E6,3.4359E5,0E0,1.2468046E6,1.525291E6,0E0,0E0,5.18404E5,0E0,0E0,5.62175E5,1.741138E6,5.016479E5,3.28184E6,6.6210125E4,1.7490925E6,1.3188503E5,8.926141E5,4.497418E6,1.552064E6,5.562216E6,4.0896E5,4.3048585E6,1.007226E6,5.1785E5,1.6086538E5,0E0,0E0,6.37296E5,0E0,0E0,0E0,0E0,0E0,0E0,0E0,0E0,0E0,0E0,0E0,0E0,0E0,0E0,0E0,0E0,0E0,0E0,0E0,0E0,0E0,0E0,0E0,0E0,0E0,0E0,0E0,0E0,0E0,0E0,0E0,0E0,0E0,0E0,0E0,0E0,0E0,0E0,0E0,0E0,0E0,0E0,0E0,0E0,0E0,0E0,0E0,0E0,0E0,0E0,0E0,0E0,0E0,0E0,0E0,0E0,0E0,0E0,0E0,0E0,0E0,0E0,0E0,0E0,0E0,0E0,0E0,0E0,0E0,0E0,0E0,0E0,0E0,0E0,0E0,0E0,0E0,0E0,0E0,0E0,0E0,0E0,0E0,0E0,0E0,0E0,0E0,0E0,0E0,0E0,0E0,0E0,0E0,0E0,0E0,0E0,0E0,0E0,0E0,0E0,0E0,0E0,0E0,0E0,0E0,0E0,0E0,0E0,0E0,0E0,0E0,0E0,0E0,0E0,0E0,0E0,0E0,0E0,0E0,0E0,0E0,0E0,0E0,0E0,0E0,0E0,0E0,0E0,0E0,0E0,0E0,0E0,0E0,0E0,0E0,0E0,0E0,0E0,0E0,0E0,0E0,0E0,0E0,0E0,0E0,0E0,0E0,0E0],"parents":[2147483647,0,0,1,1,2,2,3,3,4,4,5,5,6,6,7,7,8,8,9,9,10,10,11,11,12,12,13,13,14,14,15,15,16,16,17,17,18,18,21,21,22,22,23,23,24,24,25,25,26,26,27,27,28,28,29,29,30,30,31,31,32,32,33,33,34,34,35,35,36,36,37,37,38,38,39,39,40,40,41,41,42,42,43,43,44,44,45,45,46,46,47,47,48,48,49,49,50,50,51,51,52,52,53,53,54,54,55,55,57,57,59,59,60,60,61,61,62,62,63,63,64,64,65,65,66,66,67,67,68,68,69,69,70,70,71,71,72,72,73,73,74,74,75,75,76,76,77,77,78,78,79,79,80,80,82,82,83,83,84,84,85,85,86,86,87,87,88,88,89,89,91,91,92,92,93,93,94,94,95,95,96,96,97,97,98,98,99,99,100,100,101,101,102,102,103,103,105,105,106,106,107,107,108,108,109,109,110,110,111,111,112,112,113,113,114,114,116,116,118,118,119,119,120,120,121,121,122,122,123,123,124,124,125,125,126,126,127,127,129,129,130,130,131,131,132,132,133,133,134,134,135,135,136,136,137,137,138,138,139,139,140,140,141,141,142,142,143,143,144,144,145,145,146,146,147,147,148,148,150,150,151,151,152,152,153,153,154,154,157,157,159,159,160,160,163,163,165,165,166,166,168,168,171,171,172,172,173,173,177,177,178,178,179,179,181,181,182,182,185,185,188,188,189,189,190,190,191,191,192,192,193,193,194,194,195,195,196,196,197,197,198,198,199,199,200,200,201,201,202,202,203,203,206,206],"right_children":[2,4,6,8,10,12,14,16,18,20,22,24,26,28,30,32,34,36,38,-1,-1,40,42,44,46,48,50,52,54,56,58,60,62,64,66,68,70,72,74,76,78,80,82,84,86,88,90,92,94,96,98,100,102,104,106,108,-1,110,-1,112,114,116,118,120,122,124,126,128,130,132,134,136,138,140,142,144,146,148,150,152,154,-1,156,158,160,162,164,166,168,170,-1,172,174,176,178,180,182,184,186,188,190,192,194,196,-1,198,200,202,204,206,208,210,212,214,216,-1,218,-1,220,222,224,226,228,230,232,234,236,238,-1,240,242,244,246,248,250,252,254,256,258,260,262,264,266,268,270,272,274,276,278,-1,280,282,284,286,288,-1,-1,290,-1,292,294,-1,-1,296,-1,298,300,-1,302,-1,-1,304,306,308,-1,-1,-1,310,312,314,-1,316,318,-1,-1,320,-1,-1,322,324,326,328,330,332,334,336,338,340,342,344,346,348,350,352,-1,-1,354,-1,-1,-1,-1,-1,-1,-1,-1,-1,-1,-1,-1,-1,-1,-1,-1,-1,-1,-1,-1,-1,-1,-1,-1,-1,-1,-1,-1,-1,-1,-1,-1,-1,-1,-1,-1,-1,-1,-1,-1,-1,-1,-1,-1,-1,-1,-1,-1,-1,-1,-1,-1,-1,-1,-1,-1,-1,-1,-1,-1,-1,-1,-1,-1,-1,-1,-1,-1,-1,-1,-1,-1,-1,-1,-1,-1,-1,-1,-1,-1,-1,-1,-1,-1,-1,-1,-1,-1,-1,-1,-1,-1,-1,-1,-1,-1,-1,-1,-1,-1,-1,-1,-1,-1,-1,-1,-1,-1,-1,-1,-1,-1,-1,-1,-1,-1,-1,-1,-1,-1,-1,-1,-1,-1,-1,-1,-1,-1,-1,-1,-1,-1,-1,-1,-1,-1,-1,-1,-1,-1,-1,-1,-1,-1,-1,-1,-1,-1],"split_conditions":[1.3999994E2,2E0,1.5827678E2,1E2,5E1,2E0,2.1E2,1E0,1.1815309E2,3E0,1.3E2,1E0,1E0,2E0,3E0,1E0,7.75E1,1E0,3E0,-4.620166E0,2.387257E1,3E0,5E0,1E0,5E0,3E0,3E0,3E0,1E0,3E0,8E0,6.5E1,2E0,1E0,8E1,1E0,2E0,3E0,1E0,1E0,1E0,1.31E2,1E0,1E0,1E0,4E0,1.5350696E2,1E0,2E0,3E0,1.423179E2,1.62E2,1E0,1E0,1.9E2,3E2,3.7242332E1,7E0,-1.4037188E1,1E0,2E0,4.5E1,2.8E1,3E0,1E0,1E0,8.4582664E1,3E0,2E0,1E0,1E0,1E0,5E0,5E0,4E0,6.2E1,1E0,9.306684E1,1E0,1E0,1E0,-9.001047E0,1.31E2,1.5350696E2,4E0,3E0,1.5350696E2,3E0,4E0,6E0,1.0397111E-1,1E0,4E0,1E0,5E0,1E0,1E0,1E0,1E0,3E0,1E0,1E0,1.8087605E2,3E0,3.6337288E1,1.8E2,1E0,2.3E2,1E0,2E0,2.3E2,1E0,5E1,1E0,1E0,-2.0872553E1,8.4582664E1,2.1767085E0,1E0,2E0,6.7E1,3E0,6.7E1,1E0,7.9E1,3E0,1E0,1E0,-1.6220123E1,1E0,1E0,1E0,3E0,2E0,1.12E2,1.25E2,1.26025154E2,1E0,1.21995056E2,1.24E2,1E0,1E0,1E0,5.5E1,1.0285151E2,1E0,3E0,1E0,6E0,3.355076E1,8.8E1,1E0,4E0,4E0,3E0,1.3773106E0,1.2722421E1,3E0,-5.3738874E-1,4E0,1.423179E2,3.638194E0,1.30697155E1,4E0,4.0121636E0,1E0,1E0,-1.0008222E1,1E0,-1.0783697E1,-2.0002418E0,1E0,1E0,3E0,6.8442907E0,1.692408E1,3.9994328E0,1.49E2,1E0,2E0,-5.8536043E0,4E0,1.423179E2,9.700629E0,-1.8507054E0,1E0,1.3652408E1,3.6674252E0,1E0,1E0,1.722347E2,1E0,1.62E2,1E0,1E0,1.62E2,1E0,1.65E2,3E0,5E0,4E0,4E0,3E0,5E0,1.0042803E1,3.6472107E1,1E0,-5.594646E0,8.2905035E0,-1.6737143E1,4.2295594E-2,-1.7488073E1,-1.2138236E1,-9.349648E0,-1.213498E1,-1.4495232E1,-2.7740521E0,-8.242968E0,-1.4118946E1,-9.17733E0,-6.3942966E0,-1.3327189E1,-1.0148887E1,2.7511265E0,-7.9891376E0,-6.9312906E0,6.8382483E0,5.495448E0,1.2346536E-1,2.4416782E1,4.2805214E0,-1.1691538E1,4.590522E0,-4.2569604E0,-4.5474032E-1,-8.979634E0,-2.6428807E0,-9.469521E0,4.6773715E0,3.474636E-1,4.433866E0,-4.784475E0,-9.643769E0,-2.926669E0,2.7200675E0,1.0263352E1,-3.7522898E0,2.5703058E0,-4.787111E0,-8.808519E-1,5.850224E0,-5.2870407E0,-1.4754364E1,-5.6168647E0,5.724286E0,3.1091962E0,-2.9263005E-1,-1.339724E1,1.4381061E0,-1.1790963E1,-5.9867253E0,-8.023251E0,2.1973421E1,-9.270271E0,-3.827964E-2,-2.199743E0,9.85219E0,1.5147445E0,-1.2086983E1,-5.4907405E-1,2.68097E0,-2.6192884E0,-8.99282E0,5.1807934E-1,1.2696949E1,-1.1187928E1,3.3980937E0,1.1810195E1,-9.641023E0,1.2768821E1,1.9556267E0,1.163901E1,5.3634768E0,4.47756E0,-1.3437216E0,2.1590629E0,1.2915218E1,5.9254537E0,-6.509807E0,-7.4679365E0,-1.2918851E1,-2.1898104E-2,-9.591977E0,2.644823E1,-4.688171E0,1.8626394E0,-5.8098197E0,4.9096136E0,-7.052685E-1,9.784395E0,3.3990347E0,-1.23885E0,7.395282E-1,6.990987E0,2.3504313E1,1.0622221E1,-4.8350854E0,-7.224021E0,3.9638803E0,-2.4609108E0,5.119314E0,1.079586E1,-1.2018396E1,3.0443897E0,1.765015E1,1.0674892E1,-6.3944924E-1,6.4300203E0,1.4845708E1,1.4736041E1,2.9005783E1,2.2813625E1,3.632528E0,-1.1097713E1,7.892649E-1,7.0495744E0,1.8097518E-1,3.296824E1,1.5955317E1,8.708521E0,3.9779854E0,1.0485346E1,-3.3788836E0,-5.893429E0,-8.1552076E-1,-1.5896207E1,1.9656647E0,1.2246439E1,-2.096676E-1,1.8201853E1,1.2865002E1,2.6333413E0,2.1210722E1,2.445588E1,3.271614E1,-1.0677725E0,2.1464447E1,8.993393E0,-6.375664E0,9.096693E0,2.0857883E1,-1.1451551E1,-1.5272193E0,2.8253744E1,1.7989323E1],"split_indices":[0,3,0,0,0,3,0,6,0,1,0,6,6,3,2,11,0,11,2,0,0,3,1,11,1,2,3,2,6,3,2,0,1,11,0,6,2,1,11,9,12,0,11,8,8,2,0,11,1,2,0,0,9,12,0,0,0,1,0,8,2,0,0,1,12,8,0,2,2,12,5,6,1,1,1,0,11,0,9,7,6,0,0,0,2,1,0,1,1,1,0,7,1,9,1,7,9,11,9,1,9,11,0,1,0,0,7,0,6,3,0,12,0,8,12,0,0,0,8,1,0,2,0,11,0,1,11,5,0,8,7,8,1,1,0,0,0,9,0,0,8,7,8,0,0,12,2,6,1,0,0,11,1,1,2,0,0,2,0,1,0,0,0,1,0,8,11,0,11,0,0,8,9,3,0,0,0,0,9,1,0,1,0,0,0,8,0,0,7,6,0,6,0,7,11,0,7,0,2,1,1,1,1,1,0,0,7,0,0,0,0,0,0,0,0,0,0,0,0,0,0,0,0,0,0,0,0,0,0,0,0,0,0,0,0,0,0,0,0,0,0,0,0,0,0,0,0,0,0,0,0,0,0,0,0,0,0,0,0,0,0,0,0,0,0,0,0,0,0,0,0,0,0,0,0,0,0,0,0,0,0,0,0,0,0,0,0,0,0,0,0,0,0,0,0,0,0,0,0,0,0,0,0,0,0,0,0,0,0,0,0,0,0,0,0,0,0,0,0,0,0,0,0,0,0,0,0,0,0,0,0,0,0,0,0,0,0,0,0,0,0,0,0,0,0,0,0,0,0,0,0,0,0,0,0],"split_type":[0,0,0,0,0,0,0,0,0,0,0,0,0,0,0,0,0,0,0,0,0,0,0,0,0,0,0,0,0,0,0,0,0,0,0,0,0,0,0,0,0,0,0,0,0,0,0,0,0,0,0,0,0,0,0,0,0,0,0,0,0,0,0,0,0,0,0,0,0,0,0,0,0,0,0,0,0,0,0,0,0,0,0,0,0,0,0,0,0,0,0,0,0,0,0,0,0,0,0,0,0,0,0,0,0,0,0,0,0,0,0,0,0,0,0,0,0,0,0,0,0,0,0,0,0,0,0,0,0,0,0,0,0,0,0,0,0,0,0,0,0,0,0,0,0,0,0,0,0,0,0,0,0,0,0,0,0,0,0,0,0,0,0,0,0,0,0,0,0,0,0,0,0,0,0,0,0,0,0,0,0,0,0,0,0,0,0,0,0,0,0,0,0,0,0,0,0,0,0,0,0,0,0,0,0,0,0,0,0,0,0,0,0,0,0,0,0,0,0,0,0,0,0,0,0,0,0,0,0,0,0,0,0,0,0,0,0,0,0,0,0,0,0,0,0,0,0,0,0,0,0,0,0,0,0,0,0,0,0,0,0,0,0,0,0,0,0,0,0,0,0,0,0,0,0,0,0,0,0,0,0,0,0,0,0,0,0,0,0,0,0,0,0,0,0,0,0,0,0,0,0,0,0,0,0,0,0,0,0,0,0,0,0,0,0,0,0,0,0,0,0,0,0,0,0,0,0,0,0,0,0,0,0,0,0,0,0,0,0,0,0,0,0,0,0,0,0,0,0,0,0,0,0,0,0],"sum_hessian":[3.008E3,2.111E3,8.97E2,1.678E3,4.33E2,2.93E2,6.04E2,1.076E3,6.02E2,1.4E1,4.19E2,1.25E2,1.68E2,4.44E2,1.6E2,6.56E2,4.2E2,3.56E2,2.46E2,1E0,1.3E1,3.31E2,8.8E1,6.1E1,6.4E1,6.1E1,1.07E2,9.8E1,3.46E2,3E1,1.3E2,5.41E2,1.15E2,2.8E2,1.4E2,2.81E2,7.5E1,1.91E2,5.5E1,3.08E2,2.3E1,8.3E1,5E0,5E1,1.1E1,6E1,4E0,2E1,4.1E1,8E1,2.7E1,3.9E1,5.9E1,8.1E1,2.65E2,2.6E1,4E0,1.29E2,1E0,1.91E2,3.5E2,3E1,8.5E1,2E2,8E1,8E0,1.32E2,1.57E2,1.24E2,2.1E1,5.4E1,4.9E1,1.42E2,4.5E1,1E1,1.49E2,1.59E2,1.8E1,5E0,5.7E1,2.6E1,3E0,2E0,2.5E1,2.5E1,6E0,5E0,5.5E1,5E0,3E0,1E0,1.4E1,6E0,3E0,3.8E1,3E1,5E1,5E0,2.2E1,8E0,3.1E1,3.2E1,2.7E1,7.3E1,8E0,1.68E2,9.7E1,2.1E1,5E0,1.27E2,2E0,1.11E2,8E1,1.89E2,1.61E2,3E0,2.7E1,2E0,8.3E1,1.86E2,1.4E1,6.8E1,1.2E1,3E0,5E0,5.7E1,7.5E1,1.35E2,2.2E1,9E0,1.15E2,1.6E1,5E0,4.5E1,9E0,2.8E1,2.1E1,1.39E2,3E0,4.2E1,3E0,5E0,5E0,5E0,1.44E2,1.14E2,4.5E1,6E0,1.2E1,3E0,2E0,4.7E1,1E1,9E0,1.7E1,1E0,1E0,2.4E1,1E0,2.3E1,2E0,2E0,4E0,4E0,1E0,1.8E1,3.7E1,2E0,3E0,2E0,1E0,1.1E1,3E0,3E0,3E0,2E0,1E0,3E1,8E0,2.8E1,2E0,1.7E1,3.3E1,4E0,1E0,1.4E1,8E0,2E0,6E0,1.6E1,1.5E1,2.2E1,1E1,2E1,7E0,3E0,7E1,1.02E2,6.6E1,8.6E1,1.1E1,6E0,1.5E1,4E0,1E0,1.8E1,1.09E2,1E0,1E0,1.1E2,1E0,1.2E1,6.8E1,7.7E1,1.12E2,1.57E2,4E0,2.3E1,4E0,4.3E1,4E1,4.4E1,1.42E2,7E0,7E0,6.7E1,1E0,4E0,8E0,2E0,1E0,2E0,3E0,4.1E1,1.6E1,4.8E1,2.7E1,1.33E2,2E0,3E0,6E0,9.2E1,2.3E1,6E0,1E1,4E0,1E0,3E0,4.2E1,7E0,2E0,2.2E1,6E0,1.2E1,9E0,7.4E1,6.5E1,2E0,1E0,2E1,2.2E1,2E0,1E0,3E0,2E0,1E0,4E0,1E0,4E0,4.7E1,9.7E1,1.05E2,9E0,4E1,5E0,4E0,2E0,1.1E1,1E0,1E0,1E0,3.3E1,1.4E1,8E0,2E0,4E0,5E0,1.1E1,6E0,1.2E1,1.2E1,1.8E1,5E0,1E0,1E0,2E0,2E0,7E0,1.1E1,2.4E1,1.3E1,1E0,2E0,3E0,8E0,2E0,1E0,2E0,1E0,1E1,2E1,2E0,6E0,1E0,2.7E1,3E0,1.4E1,1.5E1,1.8E1,5E0,9E0,5E0,1E0,1E1,6E0,4E0,1.1E1,7E0,1.5E1,2E0,8E0,1.7E1,3E0,4E0,3E0,2E0,1E0,5.9E1,1.1E1,4.8E1,5.4E1,6E0,6E1,7.3E1,1.3E1,4E0,7E0,5E0,1E0,4E0,1.1E1,3E0,1E0,1E2,9E0],"tree_param":{"num_deleted":"0","num_feature":"13","num_nodes":"355","size_leaf_vector":"1"}},{"base_weights":[-1.3638088E0,-3.6721204E2,8.1469995E2,-4.8844836E2,1.1891311E2,4.8895566E2,1.1522562E3,-5.5696967E2,-6.517327E1,2.5894384E1,6.548704E1,1.7185855E2,6.7229913E2,7.935882E2,1.3026802E3,-6.1688715E2,-3.241686E2,1.1184947E2,-2.766517E2,2.5014261E1,5.2887744E2,2.289534E2,-2.8207425E2,5.263783E2,8.8381525E2,6.811829E2,3.4214725E1,8.2405347E2,1.3722769E3,-6.9870154E2,-4.825108E2,-3.6142175E2,5.7609585E1,1.6378035E2,-3.1900555E2,-4.389497E2,6.5122795E1,5.773999E1,-4.6838208E2,-2.1372487E2,6.7431213E2,6.103197E1,3.721595E2,-5.1543964E2,3.4835168E2,4.8320663E2,1.1457246E3,9.1510693E2,-2.5173925E1,4.7802066E2,1.1060312E3,7.037065E1,1.1854738E3,1.1418732E3,1.4980092E3,-7.9317535E2,-6.518831E2,-5.983775E2,-3.6917938E2,-4.2873337E2,-1.4016696E2,1.27248955E2,-2.7425345E2,2.733105E2,-3.7902836E1,-3.6511407E2,2.5145266E0,-2.8434375E2,-7.01547E2,-1.5131714E1,1.2390873E1,-5.8912148E1,1.549532E2,-5.9944403E2,3.04023E2,3.8608154E1,-4.7892728E2,7.4122675E2,-9.554566E0,-1.0680369E2,5.4365985E2,5.456112E2,1.25734634E2,-2.8150992E2,-1.0311046E1,1.8025146E2,1.0661015E1,3.0448126E2,5.8043384E2,1.3596415E3,1.2206559E2,9.3195483E2,-9.319438E0,8.422542E0,-2.6627533E2,-4.5258304E2,5.5254175E2,1.221338E3,-1.2970524E1,1.5515664E1,-1.1844321E2,4.6311832E2,2.6676064E1,1.2548995E3,8.997999E2,1.8643928E3,1.4307463E3,-8.202363E2,-5.1631757E2,-6.298071E2,-8.8918317E2,-1.2910828E1,-5.0105835E2,1.619228E2,-3.74769E2,-4.966764E2,-3.5929547E2,-1.836952E2,4.1020538E2,1.9781921E1,1.1348739E1,2.4568796E0,-7.376846E0,3.4987256E2,-3.1851254E2,-4.1649295E2,1.4282392E1,-4.3457394E2,1.1276855E1,-5.4612695E2,1.2565987E1,-1.4032999E1,-4.9387723E2,-9.3181015E1,4.249707E2,-2.4164406E1,-3.1184747E2,2.822076E2,2.8735823E1,-6.4401807E2,-1.3218506E2,1.2812676E1,-7.090043E1,4.5850763E0,-5.492743E0,-1.086697E1,-2.0173438E0,2.5801268E1,6.231704E2,1.439978E2,-2.5423305E2,-2.0131189E2,6.95924E2,7.313016E2,3.923316E2,2.2632843E2,-1.5844208E2,-1.0059463E1,1.6446811E0,-3.9354126E0,3.3502777E2,3.636193E2,-1.40153E2,5.1224023E2,7.4293567E2,3.7190392E0,2.6503498E1,-5.0002966E0,8.284159E0,1.0670073E3,7.682021E2,2.6836544E-1,-6.5464272E0,8.345083E0,-6.8311255E2,4.3110474E2,9.013693E2,1.2569862E3,-8.756473E-1,7.092168E1,-1.0083836E1,-4.4071126E0,1.0208258E1,6.812145E2,1.310476E3,7.5775024E2,1.4837565E3,1.2723042E3,3.9392963E1,1.1331733E3,1.4883373E3,-1.5786644E1,-1.2926541E1,-7.4408274E0,-1.12634115E1,-1.2078986E1,-9.645997E0,-1.7915268E1,-1.0190957E1,2.0973895E0,-9.28603E0,-9.743529E0,1.40996475E1,-4.921387E0,-7.339376E0,-1.0187821E1,-7.0182147E0,-7.0854383E0,-1.3591573E0,1.4791508E0,-4.05743E0,1.1932268E1,-5.4719934E0,2.2814584E0,-3.5492368E0,3.1769655E0,9.886636E0,5.515272E-1,-1.0834045E1,-1.0024483E1,1.374505E0,4.832684E0,-4.450217E-1,-4.70663E0,-1.0557665E1,6.0108066E-1,-2.9770568E-1,-1.39733095E1,-7.7397885E0,-1.0197522E1,1.162662E0,2.547892E0,-1.0408053E1,7.6481705E0,-2.2996252E0,3.8969353E-1,9.332444E0,2.4842073E-1,-5.732929E0,-6.8845534E0,9.715929E-1,3.3049264E0,1.0339795E1,2.8666546E0,-5.5996203E0,-1.2080332E1,-1.2711295E0,-3.455762E0,-1.0033902E-1,-2.211328E0,3.0393323E-1,-4.1514573E0,1.202347E1,9.061918E-2,2.6211058E1,-6.5227656E0,6.015813E0,8.556332E0,-1.05182495E1,9.874697E0,2.5790735E1,1.1367027E1,2.4046318E1,3.0486276E0,1.4308456E1,5.2371287E0,-2.1711578E0,-9.884761E0,1.5889313E0,7.3081903E0,1.0551349E0,5.8869475E-1,9.391816E0,5.696799E0,-1.2148276E1,9.748621E0,2.9139206E0,1.02555065E1,3.0709251E1,2.310379E1,1.4552366E1,6.9966316E0,1.6315176E1,-1.5784954E1,-3.456588E0,9.202032E0,-1.9483597E0,1.8312588E1,-1.2309338E1,2.3814152E1,9.652202E0,3.0833387E0,-3.9823115E0,-1.5268077E0,1.4399151E1,2.3997433E1,6.1163063E0,1.3967051E1,1.1426816E0,3.4496544E1,1.4044265E1,2.6183754E1,5.1174016E0,2.6493986E1,1.365396E1,2.6897902E1,9.40577E0],"categories":[],"categories_nodes":[],"categories_segments":[],"categories_sizes":[],"default_left":[0,0,0,0,0,0,0,0,0,0,0,0,0,0,0,0,0,0,0,0,0,0,0,0,0,0,0,0,0,0,0,0,0,0,0,0,0,0,0,0,0,0,0,0,0,0,0,0,0,0,0,0,0,0,0,0,0,0,0,0,0,0,0,0,0,0,0,0,0,0,0,0,0,0,0,0,0,0,0,0,0,0,0,0,0,0,0,0,0,0,0,0,0,0,0,0,0,0,0,0,0,0,0,0,0,0,0,0,0,0,0,0,0,0,0,0,0,0,0,0,0,0,0,0,0,0,0,0,0,0,0,0,0,0,0,0,0,0,0,0,0,0,0,0,0,0,0,0,0,0,0,0,0,0,0,0,0,0,0,0,0,0,0,0,0,0,0,0,0,0,0,0,0,0,0,0,0,0,0,0,0,0,0,0,0,0,0,0,0,0,0,0,0,0,0,0,0,0,0,0,0,0,0,0,0,0,0,0,0,0,0,0,0,0,0,0,0,0,0,0,0,0,0,0,0,0,0,0,0,0,0,0,0,0,0,0,0,0,0,0,0,0,0,0,0,0,0,0,0,0,0,0,0,0,0,0,0,0,0,0,0,0,0,0,0,0,0,0,0,0,0,0,0,0,0,0,0,0,0,0,0,0,0,0,0,0,0,0,0,0,0,0,0,0,0,0,0,0,0,0,0,0,0,0,0,0,0],"id":4,"left_children":[1,3,5,7,9,11,13,15,17,-1,19,21,23,25,27,29,31,33,35,37,39,41,43,45,47,49,-1,51,53,55,57,59,61,63,65,67,69,71,73,75,77,79,81,83,85,87,89,91,93,95,97,99,101,103,105,107,109,111,113,115,117,119,121,123,125,127,-1,129,131,133,-1,135,137,139,141,143,145,147,-1,149,151,153,155,157,-1,159,-1,161,163,165,167,169,-1,-1,171,173,175,177,-1,-1,179,181,-1,183,185,187,189,191,193,195,197,-1,199,201,203,205,207,209,211,213,-1,-1,-1,215,217,219,221,223,225,227,229,-1,231,233,235,237,239,241,243,245,247,-1,249,-1,-1,-1,-1,-1,251,253,255,257,259,261,263,265,267,-1,-1,-1,269,271,273,275,277,-1,-1,-1,-1,279,281,-1,-1,-1,283,285,287,289,-1,291,-1,-1,-1,293,295,297,299,301,-1,303,305,-1,-1,-1,-1,-1,-1,-1,-1,-1,-1,-1,-1,-1,-1,-1,-1,-1,-1,-1,-1,-1,-1,-1,-1,-1,-1,-1,-1,-1,-1,-1,-1,-1,-1,-1,-1,-1,-1,-1,-1,-1,-1,-1,-1,-1,-1,-1,-1,-1,-1,-1,-1,-1,-1,-1,-1,-1,-1,-1,-1,-1,-1,-1,-1,-1,-1,-1,-1,-1,-1,-1,-1,-1,-1,-1,-1,-1,-1,-1,-1,-1,-1,-1,-1,-1,-1,-1,-1,-1,-1,-1,-1,-1,-1,-1,-1,-1,-1,-1,-1,-1,-1,-1,-1,-1,-1,-1,-1,-1,-1,-1,-1,-1,-1,-1,-1],"loss_changes":[8.950699E8,1.2205568E8,1.0147674E8,4.802224E7,2.9209684E7,2.744172E7,2.351456E7,1.9691104E7,8.71621E6,0E0,7.469893E6,4.6000965E6,8.79416E6,1.5857472E7,9.495296E6,1.2118976E7,4.202216E6,2.8938315E6,5.908333E6,5.96905E6,3.600122E6,3.728677E6,3.1219465E6,4.259256E6,3.464736E6,1.0346748E7,0E0,1.1629612E7,6.313952E6,2.587936E6,5.451832E6,3.931232E6,6.5888825E5,2.5286635E6,3.4761738E5,2.723656E6,1.7681434E6,3.9328135E6,2.5106015E6,4.200065E5,2.575642E6,5.9712225E6,3.521794E6,4.6846E4,1.41045E5,2.777356E6,2.242792E6,3.312408E6,7.215197E5,6.283482E6,9.32016E6,2.353325E6,5.635548E6,1.661624E6,1.669856E6,1.284688E6,1.928352E6,2.145872E6,7.16756E5,7.887E5,1.6085841E6,1.2370048E6,3.3816356E5,3.4644675E6,8.1597775E5,3.4477362E5,0E0,3.6599838E6,5.0336E4,1.1387891E6,0E0,1.3811156E6,3.0275555E6,3.314225E5,6.660859E5,3.7769784E5,7.144344E4,1.244072E6,0E0,2.0702618E6,2.295316E6,1.107752E6,1.0649709E6,5.7276725E5,0E0,3.828178E5,0E0,1.68124E6,8.27332E5,9.18477E5,5.3746394E5,1.745688E6,0E0,0E0,1.1653294E5,1.799039E6,3.042622E6,1.781976E6,0E0,0E0,1.1324006E6,8.9169175E5,0E0,1.243464E6,1.861914E6,1.923816E6,9.35488E5,5.9488E5,5.05E1,1.397488E6,7.70614E5,0E0,1.309572E6,1.7477052E6,6.44994E5,5.37162E5,1.034818E6,6.979456E5,1.1153698E6,4.92854E5,0E0,0E0,0E0,2.1981435E6,9.162035E5,3.9404988E5,3.7580306E5,1.3730462E5,2.416002E3,3.31154E5,7.3539706E5,0E0,6.3217925E5,5.644769E5,1.8099738E5,1.5770621E6,5.2161325E5,2.603131E6,4.3410235E6,2.57068E5,2.1897395E4,0E0,1.5898076E4,0E0,0E0,0E0,0E0,0E0,1.123778E6,3.8367428E6,2.3809615E6,1.3249242E6,9.33944E5,3.9822E5,2.4788805E6,6.513731E5,1.01894594E6,0E0,0E0,0E0,5.607475E4,2.894546E6,2.1825428E6,7.87896E5,3.996985E6,0E0,0E0,0E0,0E0,2.403632E6,2.640762E6,0E0,0E0,0E0,4.1003625E5,2.798875E6,4.501295E6,1.168924E6,0E0,3.3405466E5,0E0,0E0,0E0,8.1408825E5,1.146168E6,4.02436E5,3.42256E5,1.620414E6,0E0,2.585716E6,5.88192E5,0E0,0E0,0E0,0E0,0E0,0E0,0E0,0E0,0E0,0E0,0E0,0E0,0E0,0E0,0E0,0E0,0E0,0E0,0E0,0E0,0E0,0E0,0E0,0E0,0E0,0E0,0E0,0E0,0E0,0E0,0E0,0E0,0E0,0E0,0E0,0E0,0E0,0E0,0E0,0E0,0E0,0E0,0E0,0E0,0E0,0E0,0E0,0E0,0E0,0E0,0E0,0E0,0E0,0E0,0E0,0E0,0E0,0E0,0E0,0E0,0E0,0E0,0E0,0E0,0E0,0E0,0E0,0E0,0E0,0E0,0E0,0E0,0E0,0E0,0E0,0E0,0E0,0E0,0E0,0E0,0E0,0E0,0E0,0E0,0E0,0E0,0E0,0E0,0E0,0E0,0E0,0E0,0E0,0E0,0E0,0E0,0E0,0E0,0E0,0E0,0E0,0E0,0E0,0E0,0E0,0E0,0E0,0E0,0E0,0E0,0E0,0E0,0E0,0E0,0E0,0E0],"parents":[2147483647,0,0,1,1,2,2,3,3,4,4,5,5,6,6,7,7,8,8,10,10,11,11,12,12,13,13,14,14,15,15,16,16,17,17,18,18,19,19,20,20,21,21,22,22,23,23,24,24,25,25,27,27,28,28,29,29,30,30,31,31,32,32,33,33,34,34,35,35,36,36,37,37,38,38,39,39,40,40,41,41,42,42,43,43,44,44,45,45,46,46,47,47,48,48,49,49,50,50,51,51,52,52,53,53,54,54,55,55,56,56,57,57,58,58,59,59,60,60,61,61,62,62,63,63,64,64,65,65,67,67,68,68,69,69,71,71,72,72,73,73,74,74,75,75,76,76,77,77,79,79,80,80,81,81,82,82,83,83,85,85,87,87,88,88,89,89,90,90,91,91,94,94,95,95,96,96,97,97,100,100,101,101,103,103,104,104,105,105,106,106,107,107,108,108,109,109,110,110,112,112,113,113,114,114,115,115,116,116,117,117,118,118,119,119,123,123,124,124,125,125,126,126,127,127,128,128,129,129,130,130,132,132,133,133,134,134,135,135,136,136,137,137,138,138,139,139,140,140,142,142,148,148,149,149,150,150,151,151,152,152,153,153,154,154,155,155,156,156,160,160,161,161,162,162,163,163,164,164,169,169,170,170,174,174,175,175,176,176,177,177,179,179,183,183,184,184,185,185,186,186,187,187,189,189,190,190],"right_children":[2,4,6,8,10,12,14,16,18,-1,20,22,24,26,28,30,32,34,36,38,40,42,44,46,48,50,-1,52,54,56,58,60,62,64,66,68,70,72,74,76,78,80,82,84,86,88,90,92,94,96,98,100,102,104,106,108,110,112,114,116,118,120,122,124,126,128,-1,130,132,134,-1,136,138,140,142,144,146,148,-1,150,152,154,156,158,-1,160,-1,162,164,166,168,170,-1,-1,172,174,176,178,-1,-1,180,182,-1,184,186,188,190,192,194,196,198,-1,200,202,204,206,208,210,212,214,-1,-1,-1,216,218,220,222,224,226,228,230,-1,232,234,236,238,240,242,244,246,248,-1,250,-1,-1,-1,-1,-1,252,254,256,258,260,262,264,266,268,-1,-1,-1,270,272,274,276,278,-1,-1,-1,-1,280,282,-1,-1,-1,284,286,288,290,-1,292,-1,-1,-1,294,296,298,300,302,-1,304,306,-1,-1,-1,-1,-1,-1,-1,-1,-1,-1,-1,-1,-1,-1,-1,-1,-1,-1,-1,-1,-1,-1,-1,-1,-1,-1,-1,-1,-1,-1,-1,-1,-1,-1,-1,-1,-1,-1,-1,-1,-1,-1,-1,-1,-1,-1,-1,-1,-1,-1,-1,-1,-1,-1,-1,-1,-1,-1,-1,-1,-1,-1,-1,-1,-1,-1,-1,-1,-1,-1,-1,-1,-1,-1,-1,-1,-1,-1,-1,-1,-1,-1,-1,-1,-1,-1,-1,-1,-1,-1,-1,-1,-1,-1,-1,-1,-1,-1,-1,-1,-1,-1,-1,-1,-1,-1,-1,-1,-1,-1,-1,-1,-1,-1,-1,-1],"split_conditions":[1.3999994E2,2E0,1.75E2,1.1815309E2,5E1,1E0,1E0,1E0,1E0,2.5894384E1,3E0,5E0,1.5827678E2,1E0,3E0,1E0,1E0,1E0,1E0,5E0,9.306684E1,2E0,1E0,1E0,1E0,2.1E2,3.4214725E1,3E0,2E2,7E1,7.75E1,9.7E1,3E0,1.24E2,1E0,3E0,1E0,1.2E2,1E0,1E0,5E0,1.5827678E2,1E0,1.423179E2,1E0,2E0,3E0,5E0,3E0,3E0,5E0,2E0,2E0,1E0,2E0,1E0,3E0,1E0,7.9E1,1E0,1.15E2,9.7E1,5.5E1,1E0,2E0,1E0,2.5145266E0,1E0,1.24E2,4E0,1.2390873E1,4E0,1E0,1E0,1.0285151E2,5E0,8.059724E1,1.0285151E2,-9.554566E0,1.423179E2,3E0,3E0,1.5827678E2,2E0,-1.0311046E1,3E0,1.0661015E1,1E0,3E0,2E0,1.423179E2,1.65E2,-9.319438E0,8.422542E0,3E0,2E0,5E0,6E0,-1.2970524E1,1.5515664E1,1E0,1.8087605E2,2.6676064E1,2E0,5E0,2.3E2,4E0,1E0,1E0,9.7E1,1E0,-1.2910828E1,4.7E1,2E0,2E0,1E0,8.8E1,2E0,4E0,8.2E1,1.1348739E1,2.4568796E0,-7.376846E0,1E0,3E0,1E0,3E0,1E0,1.21995056E2,1E0,1E0,-1.4032999E1,3E0,2E0,1.21995056E2,1E0,1E0,4E0,3E0,1E0,6E0,1.2812676E1,1.0421351E2,4.5850763E0,-5.492743E0,-1.086697E1,-2.0173438E0,2.5801268E1,1.08E2,4E0,1E0,2E0,4E0,1E0,1.5827678E2,1E0,4E0,-1.0059463E1,1.6446811E0,-3.9354126E0,1.5827678E2,3E0,1.46E2,4E0,4E0,3.7190392E0,2.6503498E1,-5.0002966E0,8.284159E0,1E0,1.6999997E2,2.6836544E-1,-6.5464272E0,8.345083E0,1E0,1E0,6E0,1E0,-8.756473E-1,2.1E2,-1.0083836E1,-4.4071126E0,1.0208258E1,4E0,6E0,1E0,1E0,4E0,3.9392963E1,2E0,7E0,-1.5786644E1,-1.2926541E1,-7.4408274E0,-1.12634115E1,-1.2078986E1,-9.645997E0,-1.7915268E1,-1.0190957E1,2.0973895E0,-9.28603E0,-9.743529E0,1.40996475E1,-4.921387E0,-7.339376E0,-1.0187821E1,-7.0182147E0,-7.0854383E0,-1.3591573E0,1.4791508E0,-4.05743E0,1.1932268E1,-5.4719934E0,2.2814584E0,-3.5492368E0,3.1769655E0,9.886636E0,5.515272E-1,-1.0834045E1,-1.0024483E1,1.374505E0,4.832684E0,-4.450217E-1,-4.70663E0,-1.0557665E1,6.0108066E-1,-2.9770568E-1,-1.39733095E1,-7.7397885E0,-1.0197522E1,1.162662E0,2.547892E0,-1.0408053E1,7.6481705E0,-2.2996252E0,3.8969353E-1,9.332444E0,2.4842073E-1,-5.732929E0,-6.8845534E0,9.715929E-1,3.3049264E0,1.0339795E1,2.8666546E0,-5.5996203E0,-1.2080332E1,-1.2711295E0,-3.455762E0,-1.0033902E-1,-2.211328E0,3.0393323E-1,-4.1514573E0,1.202347E1,9.061918E-2,2.6211058E1,-6.5227656E0,6.015813E0,8.556332E0,-1.05182495E1,9.874697E0,2.5790735E1,1.1367027E1,2.4046318E1,3.0486276E0,1.4308456E1,5.2371287E0,-2.1711578E0,-9.884761E0,1.5889313E0,7.3081903E0,1.0551349E0,5.8869475E-1,9.391816E0,5.696799E0,-1.2148276E1,9.748621E0,2.9139206E0,1.02555065E1,3.0709251E1,2.310379E1,1.4552366E1,6.9966316E0,1.6315176E1,-1.5784954E1,-3.456588E0,9.202032E0,-1.9483597E0,1.8312588E1,-1.2309338E1,2.3814152E1,9.652202E0,3.0833387E0,-3.9823115E0,-1.5268077E0,1.4399151E1,2.3997433E1,6.1163063E0,1.3967051E1,1.1426816E0,3.4496544E1,1.4044265E1,2.6183754E1,5.1174016E0,2.6493986E1,1.365396E1,2.6897902E1,9.40577E0],"split_indices":[0,3,0,0,0,6,6,11,10,0,3,1,0,12,2,6,12,9,11,1,0,3,11,12,4,0,0,1,0,0,0,0,1,0,4,2,5,0,5,4,2,0,9,0,12,3,2,2,2,1,2,1,3,11,3,4,2,10,0,9,0,0,0,4,2,11,0,6,0,1,0,1,10,4,0,1,0,0,0,0,1,2,0,3,0,2,0,4,3,3,0,0,0,0,1,1,1,1,0,0,4,0,0,3,1,0,1,10,10,0,9,0,0,1,2,6,0,1,1,0,0,0,0,6,2,12,1,6,0,9,9,0,1,1,0,12,5,1,2,12,1,0,0,0,0,0,0,0,0,2,11,2,2,12,0,11,1,0,0,0,0,1,0,2,2,0,0,0,0,10,0,0,0,0,11,4,2,4,0,0,0,0,0,1,1,4,9,2,0,1,1,0,0,0,0,0,0,0,0,0,0,0,0,0,0,0,0,0,0,0,0,0,0,0,0,0,0,0,0,0,0,0,0,0,0,0,0,0,0,0,0,0,0,0,0,0,0,0,0,0,0,0,0,0,0,0,0,0,0,0,0,0,0,0,0,0,0,0,0,0,0,0,0,0,0,0,0,0,0,0,0,0,0,0,0,0,0,0,0,0,0,0,0,0,0,0,0,0,0,0,0,0,0,0,0,0,0,0,0,0,0,0,0,0,0,0,0],"split_type":[0,0,0,0,0,0,0,0,0,0,0,0,0,0,0,0,0,0,0,0,0,0,0,0,0,0,0,0,0,0,0,0,0,0,0,0,0,0,0,0,0,0,0,0,0,0,0,0,0,0,0,0,0,0,0,0,0,0,0,0,0,0,0,0,0,0,0,0,0,0,0,0,0,0,0,0,0,0,0,0,0,0,0,0,0,0,0,0,0,0,0,0,0,0,0,0,0,0,0,0,0,0,0,0,0,0,0,0,0,0,0,0,0,0,0,0,0,0,0,0,0,0,0,0,0,0,0,0,0,0,0,0,0,0,0,0,0,0,0,0,0,0,0,0,0,0,0,0,0,0,0,0,0,0,0,0,0,0,0,0,0,0,0,0,0,0,0,0,0,0,0,0,0,0,0,0,0,0,0,0,0,0,0,0,0,0,0,0,0,0,0,0,0,0,0,0,0,0,0,0,0,0,0,0,0,0,0,0,0,0,0,0,0,0,0,0,0,0,0,0,0,0,0,0,0,0,0,0,0,0,0,0,0,0,0,0,0,0,0,0,0,0,0,0,0,0,0,0,0,0,0,0,0,0,0,0,0,0,0,0,0,0,0,0,0,0,0,0,0,0,0,0,0,0,0,0,0,0,0,0,0,0,0,0,0,0,0,0,0,0,0,0,0,0,0,0,0,0,0,0,0,0,0,0,0,0,0],"sum_hessian":[2.996E3,2.069E3,9.27E2,1.656E3,4.13E2,4.73E2,4.54E2,1.425E3,2.31E2,1.5E1,3.98E2,1.74E2,2.99E2,1.36E2,3.18E2,1.132E3,2.93E2,1.26E2,1.05E2,3.67E2,3.1E1,1.55E2,1.9E1,1.79E2,1.2E2,1.25E2,1.1E1,4.2E1,2.76E2,7.01E2,4.31E2,2.67E2,2.6E1,1.13E2,1.3E1,7.1E1,3.4E1,3.45E2,2.2E1,5E0,2.6E1,7.2E1,8.3E1,1.4E1,5E0,1.69E2,1E1,1.16E2,4E0,8.6E1,3.9E1,1.4E1,2.8E1,1.01E2,1.75E2,2.27E2,4.74E2,2.11E2,2.2E2,2.04E2,6.3E1,2.2E1,4E0,7.3E1,4E1,1.2E1,1E0,4.6E1,2.5E1,3.1E1,3E0,1.57E2,1.88E2,1.9E1,3E0,3E0,2E0,2.5E1,1E0,5.4E1,1.8E1,4.8E1,3.5E1,4E0,1E1,4E0,1E0,6.1E1,1.08E2,8E0,2E0,1.15E2,1E0,1E0,3E0,6E0,8E1,3.7E1,2E0,2E0,1.2E1,9E0,1.9E1,6.6E1,3.5E1,2.3E1,1.52E2,2.05E2,2.2E1,4.37E2,3.7E1,9.1E1,1.2E2,2E0,2.18E2,1E2,1.04E2,5.9E1,4E0,1.9E1,3E0,1E0,3E0,6.5E1,8E0,4E0,3.6E1,1E1,2E0,2.4E1,2.2E1,1.6E1,9E0,2.7E1,4E0,1.39E2,1.8E1,9.3E1,9.5E1,1.7E1,2E0,1E0,2E0,2E0,1E0,1E0,1E0,2E0,2.3E1,2E1,3.4E1,3E0,1.5E1,2E1,2.8E1,2.6E1,9E0,2E0,2E0,1E0,3E0,5.4E1,7E0,7.9E1,2.9E1,1E0,7E0,1E0,1E0,6E1,5.5E1,1E0,2E0,1E0,5E0,6.1E1,1.9E1,3.6E1,1E0,9E0,3E0,1E0,8E0,7E0,5.9E1,3E1,5E0,1E1,1.3E1,2.8E1,1.24E2,1.23E2,8.2E1,1.4E1,8E0,2.92E2,1.45E2,2.6E1,1.1E1,3E0,1.17E2,1E0,1E0,5.8E1,1.6E2,5.7E1,4.3E1,9.2E1,1.2E1,8E0,5.1E1,3E0,1E0,1.3E1,6E0,3.6E1,2.9E1,4E0,4E0,3E0,1E0,4E0,3.2E1,6E0,4E0,1E0,1E0,6E0,1.8E1,1E0,2.1E1,1E0,8E0,1E0,2.6E1,1E0,3E0,1.24E2,1.5E1,1.5E1,3E0,7.1E1,2.2E1,6.9E1,2.6E1,1.6E1,1E0,1E0,1E0,1E0,1E0,1E0,2.2E1,1.9E1,1E0,2.9E1,5E0,1E0,2E0,1.4E1,1E0,1.9E1,1E0,1.9E1,9E0,2.2E1,4E0,3E0,6E0,2E0,1E0,1.8E1,3.6E1,4E0,3E0,7.2E1,7E0,2.6E1,3E0,3E1,3E1,1.6E1,3.9E1,3E0,2E0,5.3E1,8E0,1.8E1,1E0,3.2E1,4E0,7E0,2E0,1E0,6E0,5.7E1,2E0,2.9E1,1E0,2E0,3E0,8E0,2E0,1.3E1,1.5E1,1.22E2,2E0],"tree_param":{"num_deleted":"0","num_feature":"13","num_nodes":"307","size_leaf_vector":"1"}},{"base_weights":[1.6285061E0,-3.516249E2,6.1723254E2,-5.0918112E2,-1.558415E2,4.2632663E2,1.1614607E3,-5.9825824E2,-2.643871E2,-3.636305E2,1.2259005E2,2.3112837E2,6.2880963E2,1.0966042E3,1.6718627E3,-6.8393286E2,-8.47359E0,-3.925599E2,-1.7168362E2,-4.223427E2,-5.5061832E1,1.9315176E2,-2.951052E2,1.7146117E2,3.5051782E2,2.2215968E2,8.722317E2,7.3137354E2,1.1781562E3,1.1655149E3,3.487771E1,-7.754592E2,-1.1466671E1,-5.219529E2,-2.9955392E2,-2.0427583E2,6.308528E1,-5.2929047E2,-3.2337918E2,-1.12534195E2,8.18036E2,8.8291306E1,4.8619586E2,-4.4255685E2,-1.6730702E2,2.0228828E2,-1.9644916E2,2.5143954E2,1.7783707E1,1.5667128E2,1.2307366E3,9.242085E2,3.7163028E2,-1.8047604E1,8.267265E2,1.0970609E3,1.5430203E3,1.3994075E3,2.894048E2,-8.389569E2,-6.4197406E2,-6.6417236E2,-2.48022E2,-3.1822116E2,9.267749E1,-1.8802338E2,-3.2457556E2,1.8972867E2,-1.664263E2,-6.231322E2,-3.448636E2,-2.7058273E2,-6.168533E2,-7.927932E0,-2.78188E2,1.7121881E1,2.434847E0,-6.65292E1,1.5328716E2,7.3300195E2,2.7710846E2,-1.2115129E1,-1.9348634E2,-2.1277655E2,-1.5668732E1,1.0194814E2,2.7433383E2,2.5584957E1,-4.3007523E2,1.1757085E2,2.947561E2,2.8703674E2,-2.0767198E2,2.4926609E1,-3.7698337E-1,1.7645952E1,6.421814E2,7.626859E2,9.894714E0,9.829152E2,-5.7557693E1,1.2092168E3,8.7315076E2,2.8250488E1,4.0368376E0,7.537486E2,3.0565151E1,1.398297E1,-1.0593529E1,-1.5850957E1,-2.4079005E2,-6.644484E0,-1.3358085E1,-1.2405255E1,-1.7687346E2,-2.887078E0,-7.929936E0,-5.214594E0,-4.4847757E2,-4.5048162E-1,4.0000567E0,-1.4802048E2,-2.0398047E2,-6.8600893E0,4.8806696E0,1.4311787E2,5.6123686E0,-8.8663734E-2,-7.9564176E0,-5.9268884E2,-8.4684705E2,-5.311858E2,-2.7731857E2,-1.7272536E2,-3.4929004E2,-3.6163715E2,-1.3485316E1,1.4798003E1,-9.445635E0,-2.3553262E2,-7.8165464E0,1.3089714E2,-3.275467E2,1.71077E2,-1.701255E2,8.3270667E2,-1.2098097E1,-1.0372056E2,3.2608078E2,-8.481883E1,-4.1678354E2,-2.586328E2,1.7914278E2,4.0798584E1,-3.685096E0,-1.336102E2,2.404401E2,3.0772723E2,7.801658E1,-8.313069E0,-4.251708E0,-2.7875546E1,2.1089886E2,3.7494992E2,2.1677505E2,3.152731E2,-2.314087E2,-4.189236E2,3.4893872E2,1.2111371E2,7.429345E2,1.5895359E1,1.7304406E0,-8.879707E0,1.3532034E2,2.3312494E2,1.0833674E3,-1.5178604E2,2.9336523E1,1.0301511E3,1.3058788E3,1.6248251E1,4.214613E2,1.8220098E1,-2.6440659E0,-1.1053344E1,5.179559E0,-9.221647E0,4.4633193E0,-8.949594E0,5.6032524E-2,-2.9337273E0,4.2523427E0,-3.8272517E0,9.713483E-1,-2.1719573E0,3.1950614E0,-1.6192468E0,4.0433464E0,-1.022025E1,-1.5547906E1,-1.7786224E1,-9.192732E0,-1.0766087E1,-4.399281E0,-3.5582023E0,-1.0562958E1,-3.7437384E0,2.5256596E1,-1.4746549E1,-4.8438993E0,-4.7437544E0,-1.36961355E1,7.093164E-1,-6.333815E0,-4.7244744E0,-4.1706777E-1,3.1161551E0,-3.6552362E0,-9.396306E0,1.062729E0,3.91662E0,2.3778412E0,-1.2377323E1,3.6747577E0,9.356387E0,1.7101376E1,-7.782298E0,6.6559486E0,1.4726635E0,7.827172E0,-2.2063837E0,5.811512E-2,-9.844017E0,-1.83968E-1,-3.4435241E0,-7.7740097E0,5.365265E0,-5.4588664E-1,1.7545316E0,-2.7025712E0,1.0174385E0,-6.0315847E0,6.1665244E0,-4.149562E0,4.9408097E0,9.833593E0,3.4002995E0,-4.8372064E0,2.2867915E-1,-4.6217294E0,2.2013319E0,9.161371E0,9.582692E0,2.9589014E0,-3.1831179E0,5.8324E0,6.073353E0,1.7126678E0,-8.166876E0,-1.00302346E-1,-9.511714E0,6.8545628E0,8.072646E0,-5.9431167E0,-4.7511177E0,1.5294687E1,1.5893197E1,6.275239E0,1.5396469E0,6.0937324E0,9.325112E0,-1.0769521E1,1.3031183E1,2.3577818E1,-4.821183E0,-4.1558012E-1,2.241139E0,-1.3642232E0,1.9144327E1,7.0035596E0,2.580484E1,1.8485695E1,-1.4740603E0,1.2443884E1],"categories":[],"categories_nodes":[],"categories_segments":[],"categories_sizes":[],"default_left":[0,0,0,0,0,0,0,0,0,0,0,0,0,0,0,0,0,0,0,0,0,0,0,0,0,0,0,0,0,0,0,0,0,0,0,0,0,0,0,0,0,0,0,0,0,0,0,0,0,0,0,0,0,0,0,0,0,0,0,0,0,0,0,0,0,0,0,0,0,0,0,0,0,0,0,0,0,0,0,0,0,0,0,0,0,0,0,0,0,0,0,0,0,0,0,0,0,0,0,0,0,0,0,0,0,0,0,0,0,0,0,0,0,0,0,0,0,0,0,0,0,0,0,0,0,0,0,0,0,0,0,0,0,0,0,0,0,0,0,0,0,0,0,0,0,0,0,0,0,0,0,0,0,0,0,0,0,0,0,0,0,0,0,0,0,0,0,0,0,0,0,0,0,0,0,0,0,0,0,0,0,0,0,0,0,0,0,0,0,0,0,0,0,0,0,0,0,0,0,0,0,0,0,0,0,0,0,0,0,0,0,0,0,0,0,0,0,0,0,0,0,0,0,0,0,0,0,0,0,0,0,0,0,0,0,0,0,0,0,0,0,0,0,0,0,0,0,0,0,0,0,0,0,0,0,0,0,0,0,0,0,0,0,0,0,0,0,0,0,0,0,0,0,0,0,0,0,0,0,0,0,0,0,0,0],"id":5,"left_children":[1,3,5,7,9,11,13,15,17,19,21,23,25,27,29,31,-1,33,35,37,39,41,43,45,47,49,51,53,55,57,-1,59,-1,61,63,65,67,69,71,73,75,77,79,81,83,85,87,89,-1,91,93,95,97,-1,99,101,103,105,107,109,111,113,115,117,119,121,123,125,127,129,131,133,135,137,139,-1,-1,141,143,145,147,-1,149,151,153,155,157,-1,159,161,163,165,167,-1,-1,-1,169,171,173,175,177,179,181,-1,-1,183,-1,-1,-1,-1,185,-1,-1,-1,187,-1,-1,-1,189,-1,-1,191,193,-1,-1,195,-1,197,-1,199,201,203,205,207,209,211,-1,213,-1,215,-1,217,219,221,223,225,-1,227,229,231,233,235,237,239,-1,241,243,245,247,-1,-1,249,251,253,255,257,259,261,263,265,267,-1,-1,-1,269,271,273,275,277,279,281,-1,283,-1,-1,-1,-1,-1,-1,-1,-1,-1,-1,-1,-1,-1,-1,-1,-1,-1,-1,-1,-1,-1,-1,-1,-1,-1,-1,-1,-1,-1,-1,-1,-1,-1,-1,-1,-1,-1,-1,-1,-1,-1,-1,-1,-1,-1,-1,-1,-1,-1,-1,-1,-1,-1,-1,-1,-1,-1,-1,-1,-1,-1,-1,-1,-1,-1,-1,-1,-1,-1,-1,-1,-1,-1,-1,-1,-1,-1,-1,-1,-1,-1,-1,-1,-1,-1,-1,-1,-1,-1,-1,-1,-1,-1,-1,-1,-1,-1,-1,-1,-1,-1,-1],"loss_changes":[6.513049E8,5.862229E7,1.1295968E8,2.2824864E7,4.922134E7,3.186936E7,7.53472E6,7.997152E6,3.295228E6,8.799596E6,1.078528E7,2.889084E6,3.910429E7,6.703808E6,1.877624E6,1.369104E6,0E0,1.263696E6,1.283059E6,4.157664E6,4.0561978E6,9.544439E6,9.24692E5,3.192708E6,8.4521E6,9.71469E6,6.109408E6,8.95075E6,4.402496E6,2.258908E6,0E0,6.90432E5,0E0,1.705269E6,5.493455E5,2.24427E5,6.4196444E5,3.159956E6,3.164384E6,1.2974265E6,3.3648875E5,2.3346795E6,4.028412E6,1.2617825E6,2.0351375E5,1.8299E6,8.955322E6,6.611925E5,0E0,6.8042935E6,1.821569E6,3.138224E6,3.5289218E6,0E0,6.54799E6,3.263568E6,1.128136E6,6.83504E5,2.186303E6,2.335556E6,1.14793E6,2.93199E5,2.329935E5,1.12927E5,6.702208E4,5.34275E4,6.57095E5,3.560872E4,3.688308E5,3.69844E5,7.084815E5,1.356853E6,8.31009E5,5.6186156E5,9.234925E4,0E0,0E0,3.598564E6,9.669185E5,5.754284E6,8.91725E5,0E0,2.8009588E5,4.5968706E5,9.412342E4,3.5880252E6,9.52791E5,0E0,1.9193E4,4.2667984E5,4.815445E5,1.610054E6,4.614405E6,0E0,0E0,0E0,2.114986E6,9.025335E5,9.5375844E5,2.760164E6,6.995606E4,5.93328E5,5.22004E5,0E0,0E0,1.3309818E6,0E0,0E0,0E0,0E0,1.7689132E6,0E0,0E0,0E0,5.587561E5,0E0,0E0,0E0,2.2973112E5,0E0,0E0,2.844012E5,2.3273875E5,0E0,0E0,1.326389E5,0E0,1.4240714E5,0E0,2.32456E5,1.21214E5,1.88592E5,1.1621375E6,5.0766755E6,3.561436E6,3.0568938E5,0E0,4.3290425E5,0E0,1.4188525E5,0E0,6.090954E5,2.3096522E6,2.532905E5,1.8964814E6,8.17728E5,0E0,1.1017718E6,1.0678585E6,3.403947E4,2.0916119E5,1.614015E5,8.455928E4,9.118293E4,0E0,1.6008782E6,3.4452802E6,8.34014E5,9.4346625E5,0E0,0E0,1.2466153E5,4.3966288E5,1.3506005E6,2.1095302E6,4.81045E5,3.0088522E5,2.7020025E6,9.062325E5,2.4854428E6,1.660204E6,0E0,0E0,0E0,9.221108E4,1.7467509E6,1.932708E6,5.3977555E4,5.989893E4,6.32396E5,1.040784E6,0E0,8.8010925E5,0E0,0E0,0E0,0E0,0E0,0E0,0E0,0E0,0E0,0E0,0E0,0E0,0E0,0E0,0E0,0E0,0E0,0E0,0E0,0E0,0E0,0E0,0E0,0E0,0E0,0E0,0E0,0E0,0E0,0E0,0E0,0E0,0E0,0E0,0E0,0E0,0E0,0E0,0E0,0E0,0E0,0E0,0E0,0E0,0E0,0E0,0E0,0E0,0E0,0E0,0E0,0E0,0E0,0E0,0E0,0E0,0E0,0E0,0E0,0E0,0E0,0E0,0E0,0E0,0E0,0E0,0E0,0E0,0E0,0E0,0E0,0E0,0E0,0E0,0E0,0E0,0E0,0E0,0E0,0E0,0E0,0E0,0E0,0E0,0E0,0E0,0E0,0E0,0E0,0E0,0E0,0E0,0E0,0E0,0E0,0E0,0E0,0E0,0E0,0E0,0E0,0E0],"parents":[2147483647,0,0,1,1,2,2,3,3,4,4,5,5,6,6,7,7,8,8,9,9,10,10,11,11,12,12,13,13,14,14,15,15,17,17,18,18,19,19,20,20,21,21,22,22,23,23,24,24,25,25,26,26,27,27,28,28,29,29,31,31,33,33,34,34,35,35,36,36,37,37,38,38,39,39,40,40,41,41,42,42,43,43,44,44,45,45,46,46,47,47,49,49,50,50,51,51,52,52,54,54,55,55,56,56,57,57,58,58,59,59,60,60,61,61,62,62,63,63,64,64,65,65,66,66,67,67,68,68,69,69,70,70,71,71,72,72,73,73,74,74,77,77,78,78,79,79,80,80,82,82,83,83,84,84,85,85,86,86,88,88,89,89,90,90,91,91,92,92,96,96,97,97,98,98,99,99,100,100,101,101,102,102,105,105,110,110,114,114,118,118,121,121,122,122,125,125,127,127,129,129,130,130,131,131,132,132,133,133,134,134,135,135,137,137,139,139,141,141,142,142,143,143,144,144,145,145,147,147,148,148,149,149,150,150,151,151,152,152,153,153,155,155,156,156,157,157,158,158,161,161,162,162,163,163,164,164,165,165,166,166,167,167,168,168,169,169,170,170,174,174,175,175,176,176,177,177,178,178,179,179,180,180,182,182],"right_children":[2,4,6,8,10,12,14,16,18,20,22,24,26,28,30,32,-1,34,36,38,40,42,44,46,48,50,52,54,56,58,-1,60,-1,62,64,66,68,70,72,74,76,78,80,82,84,86,88,90,-1,92,94,96,98,-1,100,102,104,106,108,110,112,114,116,118,120,122,124,126,128,130,132,134,136,138,140,-1,-1,142,144,146,148,-1,150,152,154,156,158,-1,160,162,164,166,168,-1,-1,-1,170,172,174,176,178,180,182,-1,-1,184,-1,-1,-1,-1,186,-1,-1,-1,188,-1,-1,-1,190,-1,-1,192,194,-1,-1,196,-1,198,-1,200,202,204,206,208,210,212,-1,214,-1,216,-1,218,220,222,224,226,-1,228,230,232,234,236,238,240,-1,242,244,246,248,-1,-1,250,252,254,256,258,260,262,264,266,268,-1,-1,-1,270,272,274,276,278,280,282,-1,284,-1,-1,-1,-1,-1,-1,-1,-1,-1,-1,-1,-1,-1,-1,-1,-1,-1,-1,-1,-1,-1,-1,-1,-1,-1,-1,-1,-1,-1,-1,-1,-1,-1,-1,-1,-1,-1,-1,-1,-1,-1,-1,-1,-1,-1,-1,-1,-1,-1,-1,-1,-1,-1,-1,-1,-1,-1,-1,-1,-1,-1,-1,-1,-1,-1,-1,-1,-1,-1,-1,-1,-1,-1,-1,-1,-1,-1,-1,-1,-1,-1,-1,-1,-1,-1,-1,-1,-1,-1,-1,-1,-1,-1,-1,-1,-1,-1,-1,-1,-1,-1,-1],"split_conditions":[2E0,3E0,3E0,1E0,1E0,4E0,1E0,1E0,1E0,1E0,1E0,1E0,1E0,1E0,1E0,2E0,-8.47359E0,1E0,1E0,1E0,1E0,4E0,1E0,1E0,1E0,1E0,1E0,3E0,5E0,5E0,3.487771E1,1E0,-1.1466671E1,1E0,1E0,1E0,1E0,1E0,1E0,1E0,1E0,1E0,1E0,1E0,1E0,1E0,1E0,3E0,1.7783707E1,5E0,1E0,5E0,1E0,-1.8047604E1,1E0,1E0,1E0,4E0,4E0,1E0,1E0,1E0,1E0,1E0,1E0,2E0,1E0,1E0,1E0,1E0,1E0,1E0,1E0,1E0,5E0,1.7121881E1,2.434847E0,1E0,1E0,1E0,1E0,-1.2115129E1,1E0,1E0,1E0,1E0,1E0,2.5584957E1,1E0,1E0,1E0,1E0,1E0,2.4926609E1,-3.7698337E-1,1.7645952E1,1E0,5E0,1E0,4E0,1E0,4E0,1E0,2.8250488E1,4.0368376E0,1E0,3.0565151E1,1.398297E1,-1.0593529E1,-1.5850957E1,1E0,-6.644484E0,-1.3358085E1,-1.2405255E1,2E0,-2.887078E0,-7.929936E0,-5.214594E0,1E0,-4.5048162E-1,4.0000567E0,1E0,1E0,-6.8600893E0,4.8806696E0,2E0,5.6123686E0,1E0,-7.9564176E0,1E0,4E0,1E0,5E0,1E0,1E0,1E0,-1.3485316E1,5E0,-9.445635E0,4E0,-7.8165464E0,1E0,1E0,1E0,1E0,1E0,-1.2098097E1,1E0,1E0,1E0,1E0,1E0,4E0,1E0,-3.685096E0,1E0,1E0,1E0,1E0,-8.313069E0,-4.251708E0,1E0,1E0,1E0,1E0,1E0,1E0,1E0,7E0,6E0,1E0,1.5895359E1,1.7304406E0,-8.879707E0,1E0,1E0,1E0,1E0,1E0,1E0,1E0,1.6248251E1,1E0,1.8220098E1,-2.6440659E0,-1.1053344E1,5.179559E0,-9.221647E0,4.4633193E0,-8.949594E0,5.6032524E-2,-2.9337273E0,4.2523427E0,-3.8272517E0,9.713483E-1,-2.1719573E0,3.1950614E0,-1.6192468E0,4.0433464E0,-1.022025E1,-1.5547906E1,-1.7786224E1,-9.192732E0,-1.0766087E1,-4.399281E0,-3.5582023E0,-1.0562958E1,-3.7437384E0,2.5256596E1,-1.4746549E1,-4.8438993E0,-4.7437544E0,-1.36961355E1,7.093164E-1,-6.333815E0,-4.7244744E0,-4.1706777E-1,3.1161551E0,-3.6552362E0,-9.396306E0,1.062729E0,3.91662E0,2.3778412E0,-1.2377323E1,3.6747577E0,9.356387E0,1.7101376E1,-7.782298E0,6.6559486E0,1.4726635E0,7.827172E0,-2.2063837E0,5.811512E-2,-9.844017E0,-1.83968E-1,-3.4435241E0,-7.7740097E0,5.365265E0,-5.4588664E-1,1.7545316E0,-2.7025712E0,1.0174385E0,-6.0315847E0,6.1665244E0,-4.149562E0,4.9408097E0,9.833593E0,3.4002995E0,-4.8372064E0,2.2867915E-1,-4.6217294E0,2.2013319E0,9.161371E0,9.582692E0,2.9589014E0,-3.1831179E0,5.8324E0,6.073353E0,1.7126678E0,-8.166876E0,-1.00302346E-1,-9.511714E0,6.8545628E0,8.072646E0,-5.9431167E0,-4.7511177E0,1.5294687E1,1.5893197E1,6.275239E0,1.5396469E0,6.0937324E0,9.325112E0,-1.0769521E1,1.3031183E1,2.3577818E1,-4.821183E0,-4.1558012E-1,2.241139E0,-1.3642232E0,1.9144327E1,7.0035596E0,2.580484E1,1.8485695E1,-1.4740603E0,1.2443884E1],"split_indices":[3,1,3,11,6,1,12,6,6,11,7,11,6,6,11,1,0,9,12,8,12,1,9,12,12,12,7,1,1,1,0,8,0,8,12,5,8,9,4,10,7,8,9,8,11,6,8,1,0,1,7,1,10,0,7,11,4,1,3,4,9,10,7,5,8,1,4,9,10,5,10,9,10,7,1,0,0,10,12,10,10,0,5,5,4,8,5,0,7,9,9,7,11,0,0,0,8,1,9,1,9,1,5,0,0,7,0,0,0,0,7,0,0,0,1,0,0,0,4,0,0,7,4,0,0,1,0,5,0,10,1,4,1,12,10,9,0,1,0,1,0,4,11,10,9,8,0,4,8,4,10,4,1,5,0,10,4,4,7,0,0,4,5,8,8,4,9,4,1,1,11,0,0,0,12,4,8,8,8,4,10,0,9,0,0,0,0,0,0,0,0,0,0,0,0,0,0,0,0,0,0,0,0,0,0,0,0,0,0,0,0,0,0,0,0,0,0,0,0,0,0,0,0,0,0,0,0,0,0,0,0,0,0,0,0,0,0,0,0,0,0,0,0,0,0,0,0,0,0,0,0,0,0,0,0,0,0,0,0,0,0,0,0,0,0,0,0,0,0,0,0,0,0,0,0,0,0,0,0,0,0,0,0,0,0],"split_type":[0,0,0,0,0,0,0,0,0,0,0,0,0,0,0,0,0,0,0,0,0,0,0,0,0,0,0,0,0,0,0,0,0,0,0,0,0,0,0,0,0,0,0,0,0,0,0,0,0,0,0,0,0,0,0,0,0,0,0,0,0,0,0,0,0,0,0,0,0,0,0,0,0,0,0,0,0,0,0,0,0,0,0,0,0,0,0,0,0,0,0,0,0,0,0,0,0,0,0,0,0,0,0,0,0,0,0,0,0,0,0,0,0,0,0,0,0,0,0,0,0,0,0,0,0,0,0,0,0,0,0,0,0,0,0,0,0,0,0,0,0,0,0,0,0,0,0,0,0,0,0,0,0,0,0,0,0,0,0,0,0,0,0,0,0,0,0,0,0,0,0,0,0,0,0,0,0,0,0,0,0,0,0,0,0,0,0,0,0,0,0,0,0,0,0,0,0,0,0,0,0,0,0,0,0,0,0,0,0,0,0,0,0,0,0,0,0,0,0,0,0,0,0,0,0,0,0,0,0,0,0,0,0,0,0,0,0,0,0,0,0,0,0,0,0,0,0,0,0,0,0,0,0,0,0,0,0,0,0,0,0,0,0,0,0,0,0,0,0,0,0,0,0,0,0,0,0,0,0,0,0,0,0,0,0],"sum_hessian":[2.993E3,1.902E3,1.091E3,1.053E3,8.49E2,8.09E2,2.82E2,7.71E2,2.82E2,4.86E2,3.63E2,4.13E2,3.96E2,2.53E2,2.9E1,4.56E2,3.15E2,1.17E2,1.65E2,4.08E2,7.8E1,3.11E2,5.2E1,2.77E2,1.36E2,1.49E2,2.47E2,4.8E1,2.05E2,1.2E1,1.7E1,1.44E2,3.12E2,4.7E1,7E1,1.45E2,2E1,1.94E2,2.14E2,7.4E1,4E0,2.3E2,8.1E1,2.3E1,2.9E1,2.56E2,2.1E1,1.19E2,1.7E1,1.41E2,8E0,2.23E2,2.4E1,2E0,4.6E1,1.71E2,3.4E1,9E0,3E0,9.4E1,5E1,3E1,1.7E1,6.7E1,3E0,1.3E2,1.5E1,1.3E1,7E0,1.27E2,6.7E1,1.83E2,3.1E1,4.6E1,2.8E1,3E0,1E0,6.8E1,1.62E2,3.6E1,4.5E1,1.1E1,1.2E1,2.2E1,7E0,1.08E2,1.48E2,2E0,1.9E1,3E1,8.9E1,1.04E2,3.7E1,7E0,1E0,1.82E2,4.1E1,1.1E1,1.3E1,3.9E1,7E0,1.11E2,6E1,3.3E1,1E0,4E0,5E0,2E0,1E0,8.7E1,7E0,1.5E1,3.5E1,2.8E1,2E0,1.3E1,4E0,5.8E1,9E0,2E0,1E0,4E1,9E1,1.4E1,1E0,1.1E1,2E0,5E0,2E0,1.15E2,1.2E1,1.6E1,5.1E1,8.3E1,1E2,1.2E1,1.9E1,4.5E1,1E0,2.4E1,4E0,3.9E1,2.9E1,1.54E2,8E0,3.4E1,2E0,5E0,4E1,9E0,3E0,2E1,2E0,6E0,1E0,4E1,6.8E1,1.26E2,2.2E1,1.5E1,4E0,1.2E1,1.8E1,4.2E1,4.7E1,9.9E1,5E0,2.7E1,1E1,7E0,3.4E1,9E0,2E0,2E0,1.1E1,5E0,3.4E1,3E0,4E0,4.3E1,6.8E1,5.5E1,5E0,3E0,1E0,4E0,3E0,1E0,1E0,8E0,1E0,3.9E1,1E0,8.7E1,3E0,1E0,1E1,4E0,1E0,1.09E2,6E0,7E0,5E0,1.2E1,4E0,4.2E1,9E0,8.2E1,1E0,1.3E1,8.7E1,1.1E1,1E0,4.3E1,2E0,2.1E1,3E0,3.5E1,4E0,1.9E1,1E1,6.7E1,8.7E1,3E0,5E0,1.1E1,2.3E1,3E0,2E0,1.3E1,2.7E1,6E0,3E0,2E0,1E0,1.6E1,4E0,1E0,1E0,5E0,1E0,2.1E1,1.9E1,5.6E1,1.2E1,1.13E2,1.3E1,1.7E1,5E0,1.1E1,1E0,1.5E1,3E0,2.3E1,1.9E1,1E1,3.7E1,8.9E1,1E1,2E0,3E0,2.4E1,3E0,9E0,1E0,5E0,2E0,2.4E1,1E1,1E1,1E0,4E0,1E0,1.5E1,1.9E1,1E0,2E0,2E0,2E0,4E1,3E0,4.3E1,2.5E1,2E0,3E0],"tree_param":{"num_deleted":"0","num_feature":"13","num_nodes":"285","size_leaf_vector":"1"}},{"base_weights":[-1.4522613E1,-3.3946738E2,8.7499097E2,-4.5789838E2,9.644705E1,5.650782E2,1.126743E3,-5.835416E2,-2.3708144E2,1.149974E3,5.8690083E1,2.6817932E2,7.1427515E2,9.6135333E2,1.4005419E3,-6.965267E2,-4.1219882E2,-3.7296194E2,-7.914641E1,2.779745E2,1.329822E3,1.1761905E1,5.0150586E2,2.2150963E1,5.730265E2,3.8559375E2,8.3363947E2,4.4848227E2,1.1023942E3,1.4735366E3,6.42369E2,-7.376245E2,-4.6187936E2,-5.023083E2,-2.0671269E2,-3.8282156E2,2.6009583E1,-2.297225E2,9.561808E1,1.6851559E1,-4.5870895E0,2.5289722E1,3.2886636E0,-7.276292E1,2.3504391E2,-2.5166249E2,6.549459E2,9.045068E1,-5.0140326E2,4.886099E2,1.1669244E3,5.8447156E2,6.479738E1,7.850729E2,1.2928691E3,-6.212656E1,7.1810504E2,7.9418695E2,1.2138688E3,1.5085553E3,3.9917303E2,-4.419885E2,9.2660443E2,-8.2685016E2,-6.768267E2,-5.6018695E2,-3.6413138E2,-5.7346313E2,-2.8786472E2,-3.6955986E1,-3.5682138E2,-4.2968848E2,-1.2799978E2,-3.0635767E2,-9.167266E0,3.0470914E2,-9.990388E1,-1.9808762E2,1.3811242E1,4.858127E2,-2.4400103E1,-6.1281757E2,2.62697E2,1.02181006E3,3.442425E2,-2.6404874E2,1.9196196E2,-7.058736E2,8.338763E0,6.7538605E2,1.2941833E2,2.642234E1,3.6954092E2,6.834839E2,-4.3996534E0,1.5488382E2,-1.2150815E1,8.1018774E2,2.7647086E2,1.5546595E3,6.410735E2,-3.807973E2,2.9116214E2,1.1591334E3,2.6388254E2,2.7677881E1,6.4927094E2,1.0815659E3,2.3675482E1,1.0838593E3,1.5733053E3,-2.1078781E2,1.9358934E1,4.0612726E0,-1.327691E1,-2.8767413E2,1.3196554E3,-1.4858828E1,-4.2062893E0,-6.2605597E2,-7.723252E2,-1.0907144E1,-1.2308816E2,-4.4055566E2,5.8449112E1,-6.0130005E2,-1.9749988E2,-3.6385477E2,1.5406932E2,2.225E2,-9.5003456E1,-3.173297E2,-1.126588E1,-3.71693E2,-6.4526263E2,-1.8570116E2,1.1214148E1,-2.4765837E2,-4.9776453E2,-1.06485374E2,1.2784403E1,2.374453E2,6.9685693E2,-2.921376E2,1.6614566E2,-1.24934044E2,-4.064388E2,-2.4374825E2,4.6533398E1,6.1728674E2,2.117214E2,-2.3653116E2,1.3061642E2,1.965285E0,-1.4721216E1,7.656652E0,-2.0620575E0,6.643782E2,1.3864541E3,8.535876E1,6.204787E2,8.797279E0,-3.5982327E2,5.151804E2,-1.9056121E0,-1.7644262E0,-1.4181643E1,7.5937744E2,-1.0239813E2,-1.3164873E2,5.584735E2,1.2643944E1,-2.7023907E0,7.23715E2,-6.4978867E0,3.0380453E2,-1.8093317E2,8.3964984E2,4.61905E2,4.0222098E2,-1.09103065E2,4.1753845E0,3.0052979E1,1.3830914E1,4.554038E0,4.170725E0,-4.5769656E2,-1.1775098E2,4.5922342E2,1.2800137E3,-1.02013235E1,5.1119635E2,-2.0190195E2,6.884889E2,-1.2113658E1,4.2821332E2,1.1321731E3,7.362882E2,3.386122E1,3.401564E1,2.673217E1,-5.342867E0,-1.478717E0,1.1531926E0,-7.648028E0,6.262634E0,2.4906048E1,-1.2490093E1,-8.93426E0,-1.28938E1,-1.7612913E1,-6.936969E0,4.834129E0,2.297749E0,-8.429161E0,4.6573787E0,-2.77047E0,-1.2192109E1,-1.01628E1,-9.222252E0,2.5315192E0,-6.917475E0,-1.4552656E0,5.6967216E0,5.8438975E-1,1.0452327E1,-2.1182303E0,-3.0360987E0,3.6587663E0,-6.8995614E0,-4.0919437E0,-8.263888E0,-4.121545E0,-1.2499122E1,-5.876315E0,-6.417269E0,2.8079623E-1,-5.339981E0,8.158304E-1,-1.3121348E1,-4.395324E0,-2.7453942E0,8.47526E0,4.896193E0,-3.3519213E0,-2.087366E0,1.4582206E1,-2.5078974E0,-1.1631801E1,-1.8881053E0,7.357254E0,-3.0856044E0,4.9117026E0,-1.2587983E1,-5.7863655E0,-6.4834394E0,-1.0701147E0,1.1411835E1,5.5442137E-1,1.2100619E1,-7.0578736E-1,5.90533E0,5.6448275E-1,-4.9517574E0,6.039087E0,1.3826444E1,7.333346E-1,5.5584283E0,2.0061743E1,2.6930908E1,6.2382817E0,-3.6703398E0,2.9381893E0,-2.6203554E0,1.2947037E1,-1.0711379E1,-1.273538E0,1.1124717E1,-3.893374E0,6.736668E0,-4.0949755E0,2.7898402E0,1.6323212E1,-4.7738633E0,7.339001E-1,-1.4306744E1,1.4586855E0,5.7438725E-1,1.1494105E1,1.1144521E1,2.4417088E1,6.9966826E0,-4.1073194E0,-6.9365788E0,5.2197466E0,1.6906605E1,1.1575939E1,4.47834E0,2.0746464E1,8.648056E0,-6.9580513E-1,1.7777768E-1,-3.1129167E0,-1.0052988E1,-3.9851103E0,-3.7518232E0,1.404016E0,1.1241023E1,2.4210298E0,2.7534407E1,1.48116045E1,1.2917329E1,-3.4336512E0,-5.1788254E0,3.6414735E0,1.4255005E1,1.8648754E0,-3.7434165E0,1.29980345E1,2.2522945E1,1.5501823E1,2.3600222E1,8.191462E0],"categories":[],"categories_nodes":[],"categories_segments":[],"categories_sizes":[],"default_left":[0,0,0,0,0,0,0,0,0,0,0,0,0,0,0,0,0,0,0,0,0,0,0,0,0,0,0,0,0,0,0,0,0,0,0,0,0,0,0,0,0,0,0,0,0,0,0,0,0,0,0,0,0,0,0,0,0,0,0,0,0,0,0,0,0,0,0,0,0,0,0,0,0,0,0,0,0,0,0,0,0,0,0,0,0,0,0,0,0,0,0,0,0,0,0,0,0,0,0,0,0,0,0,0,0,0,0,0,0,0,0,0,0,0,0,0,0,0,0,0,0,0,0,0,0,0,0,0,0,0,0,0,0,0,0,0,0,0,0,0,0,0,0,0,0,0,0,0,0,0,0,0,0,0,0,0,0,0,0,0,0,0,0,0,0,0,0,0,0,0,0,0,0,0,0,0,0,0,0,0,0,0,0,0,0,0,0,0,0,0,0,0,0,0,0,0,0,0,0,0,0,0,0,0,0,0,0,0,0,0,0,0,0,0,0,0,0,0,0,0,0,0,0,0,0,0,0,0,0,0,0,0,0,0,0,0,0,0,0,0,0,0,0,0,0,0,0,0,0,0,0,0,0,0,0,0,0,0,0,0,0,0,0,0,0,0,0,0,0,0,0,0,0,0,0,0,0,0,0,0,0,0,0,0,0,0,0,0,0,0,0,0,0,0,0,0,0,0,0,0,0,0,0,0,0,0,0,0,0,0,0,0,0,0,0,0,0,0,0,0,0,0,0],"id":6,"left_children":[1,3,5,7,9,11,13,15,17,19,21,23,25,27,29,31,33,35,37,39,41,43,45,47,49,51,53,55,57,59,61,63,65,67,69,71,-1,73,75,-1,-1,-1,-1,77,79,81,83,85,87,89,91,93,95,97,99,101,103,105,107,109,111,113,115,117,119,121,123,125,127,129,131,133,135,137,139,141,143,145,147,149,151,153,155,157,159,161,163,165,-1,167,169,-1,171,173,-1,175,-1,177,179,181,183,185,187,189,191,-1,193,195,-1,197,199,201,-1,-1,-1,203,205,-1,-1,207,209,-1,211,213,215,217,219,221,223,225,227,229,-1,231,233,235,-1,237,239,241,-1,243,245,247,249,251,253,255,257,259,261,263,265,-1,-1,-1,-1,267,269,271,273,-1,275,277,279,-1,-1,281,283,285,287,-1,-1,289,-1,291,293,295,297,299,301,-1,-1,-1,-1,-1,303,305,307,309,-1,311,313,315,-1,317,319,321,-1,-1,-1,-1,-1,-1,-1,-1,-1,-1,-1,-1,-1,-1,-1,-1,-1,-1,-1,-1,-1,-1,-1,-1,-1,-1,-1,-1,-1,-1,-1,-1,-1,-1,-1,-1,-1,-1,-1,-1,-1,-1,-1,-1,-1,-1,-1,-1,-1,-1,-1,-1,-1,-1,-1,-1,-1,-1,-1,-1,-1,-1,-1,-1,-1,-1,-1,-1,-1,-1,-1,-1,-1,-1,-1,-1,-1,-1,-1,-1,-1,-1,-1,-1,-1,-1,-1,-1,-1,-1,-1,-1,-1,-1,-1,-1,-1,-1,-1,-1,-1,-1,-1,-1,-1,-1,-1,-1,-1,-1,-1,-1,-1,-1,-1,-1,-1,-1,-1,-1,-1,-1,-1,-1,-1],"loss_changes":[8.555747E8,1.1196885E8,6.1156096E7,4.716541E7,1.8389492E7,1.5622264E7,1.839712E7,2.073696E7,1.327586E7,2.139584E6,9.324563E6,9.062435E6,8.976736E6,1.939792E7,8.018976E6,5.95648E6,7.932216E6,6.541132E6,7.6007875E6,1.6528328E6,9.37592E5,7.6983615E6,5.13417E6,2.4769375E6,2.13711E6,4.109081E6,2.843456E6,8.442593E6,6.422784E6,4.928352E6,5.340953E6,