{"learner":{"attributes":{"scikit_learn":"{\"_estimator_type\": \"regressor\"}"},"feature_names":["surface_numeric","pieces","chambres","sallesdebain","meuble","neuf","parking","ascenseur","balcon_terrasse","climatisation","chauffage","jardin","piscine"],"feature_types":["float","float","float","float","float","float","float","float","float","float","float","float","float"],"gradient_booster":{"model":{"cats":{"enc":[],"feature_segments":[],"sorted_idx":[]},"gbtree_model_param":{"num_parallel_tree":"1","num_trees":"265"},"iteration_indptr":[0,1,2,3,4,5,6,7,8,9,10,11,12,13,14,15,16,17,18,19,20,21,22,23,24,25,26,27,28,29,30,31,32,33,34,35,36,37,38,39,40,41,42,43,44,45,46,47,48,49,50,51,52,53,54,55,56,57,58,59,60,61,62,63,64,65,66,67,68,69,70,71,72,73,74,75,76,77,78,79,80,81,82,83,84,85,86,87,88,89,90,91,92,93,94,95,96,97,98,99,100,101,102,103,104,105,106,107,108,109,110,111,112,113,114,115,116,117,118,119,120,121,122,123,124,125,126,127,128,129,130,131,132,133,134,135,136,137,138,139,140,141,142,143,144,145,146,147,148,149,150,151,152,153,154,155,156,157,158,159,160,161,162,163,164,165,166,167,168,169,170,171,172,173,174,175,176,177,178,179,180,181,182,183,184,185,186,187,188,189,190,191,192,193,194,195,196,197,198,199,200,201,202,203,204,205,206,207,208,209,210,211,212,213,214,215,216,217,218,219,220,221,222,223,224,225,226,227,228,229,230,231,232,233,234,235,236,237,238,239,240,241,242,243,244,245,246,247,248,249,250,251,252,253,254,255,256,257,258,259,260,261,262,263,264,265],"tree_info":[0,0,0,0,0,0,0,0,0,0,0,0,0,0,0,0,0,0,0,0,0,0,0,0,0,0,0,0,0,0,0,0,0,0,0,0,0,0,0,0,0,0,0,0,0,0,0,0,0,0,0,0,0,0,0,0,0,0,0,0,0,0,0,0,0,0,0,0,0,0,0,0,0,0,0,0,0,0,0,0,0,0,0,0,0,0,0,0,0,0,0,0,0,0,0,0,0,0,0,0,0,0,0,0,0,0,0,0,0,0,0,0,0,0,0,0,0,0,0,0,0,0,0,0,0,0,0,0,0,0,0,0,0,0,0,0,0,0,0,0,0,0,0,0,0,0,0,0,0,0,0,0,0,0,0,0,0,0,0,0,0,0,0,0,0,0,0,0,0,0,0,0,0,0,0,0,0,0,0,0,0,0,0,0,0,0,0,0,0,0,0,0,0,0,0,0,0,0,0,0,0,0,0,0,0,0,0,0,0,0,0,0,0,0,0,0,0,0,0,0,0,0,0,0,0,0,0,0,0,0,0,0,0,0,0,0,0,0,0,0,0,0,0,0,0,0,0,0,0,0,0,0,0,0,0,0,0,0,0,0,0,0,0,0,0],"trees":[{"base_weights":[1.7348727E3,-9.134843E4,3.7597565E6,-4.571363E5,4.6229488E5,8.07241E5,4.5211453E5,-5.1963122E5,-9.609337E4,1.8115881E6,-2.9876975E5,-1.5560179E4,6.7853125E4,-1.9655795E4,-3.8881394E5,6.279583E5,-4.8951712E5,-3.8320947E5,2.3854014E5,-4.117001E5,-4.1894977E2,-1.801065E4,2.1790167E5,-1.901061E4,-6.0403503E2,-3.906191E5,1.3743E4,5.427227E5,-1.7038164E4,-4.4908257E3,-1.5657143E4,-3.9615597E5,3.8380115E3,1.1241423E4,-1.0478334E4,6.344192E5,-1.0321012E4,-1.5193187E4,-6.157137E3,2.7172385E4,-8.542139E3],"categories":[],"categories_nodes":[],"categories_segments":[],"categories_sizes":[],"default_left":[0,0,0,0,0,0,0,0,0,0,0,0,0,0,0,0,0,0,0,0,0,0,0,0,0,0,0,0,0,0,0,0,0,0,0,0,0,0,0,0,0],"id":0,"left_children":[1,3,5,7,9,11,-1,13,15,-1,17,-1,-1,-1,19,21,23,25,27,29,-1,-1,-1,-1,-1,31,33,35,-1,-1,-1,37,-1,-1,-1,39,-1,-1,-1,-1,-1],"loss_changes":[1.1578044E14,6.5624005E13,1.8982336E14,4.349917E12,4.7739635E15,9.585215E12,0E0,4.0273707E10,8.853171E12,0E0,5.8988083E12,0E0,0E0,0E0,1.4221076E11,6.7331917E13,2.1919433E11,3.318481E11,4.076037E12,1.052246E9,0E0,0E0,0E0,0E0,0E0,3.3939574E11,3.441339E11,1.1562084E12,0E0,0E0,0E0,2.8620987E11,0E0,0E0,0E0,1.2037805E12,0E0,0E0,0E0,0E0,0E0],"parents":[2147483647,0,0,1,1,2,2,3,3,4,4,5,5,7,7,8,8,10,10,14,14,15,15,16,16,17,17,18,18,19,19,25,25,26,26,27,27,31,31,35,35],"right_children":[2,4,6,8,10,12,-1,14,16,-1,18,-1,-1,-1,20,22,24,26,28,30,-1,-1,-1,-1,-1,32,34,36,-1,-1,-1,38,-1,-1,-1,40,-1,-1,-1,-1,-1],"split_conditions":[5E3,1.74E2,1E0,2E0,1.78E2,5.5E3,4.5211453E5,1.44E2,4.6E1,1.8115881E6,1.821E3,-1.5560179E4,6.7853125E4,-1.9655795E4,1E0,4.2E1,4E0,8E0,3.2E3,1.5E2,-4.1894977E2,-1.801065E4,2.1790167E5,-1.901061E4,-6.0403503E2,1E0,5.4E2,8E0,-1.7038164E4,-4.4908257E3,-1.5657143E4,1E0,3.8380115E3,1.1241423E4,-1.0478334E4,1E0,-1.0321012E4,-1.5193187E4,-6.157137E3,2.7172385E4,-8.542139E3],"split_indices":[0,0,5,2,0,0,0,0,0,0,0,0,0,0,4,0,2,2,0,0,0,0,0,0,0,5,0,2,0,0,0,4,0,0,0,6,0,0,0,0,0],"split_type":[0,0,0,0,0,0,0,0,0,0,0,0,0,0,0,0,0,0,0,0,0,0,0,0,0,0,0,0,0,0,0,0,0,0,0,0,0,0,0,0,0],"sum_hessian":[3.29E2,3.22E2,7E0,1.94E2,1.28E2,6E0,1E0,1.65E2,2.9E1,1E0,1.27E2,3E0,3E0,1.49E2,1.6E1,1E1,1.9E1,1.1E2,1.7E1,1.5E1,1E0,9E0,1E0,1.8E1,1E0,1.08E2,2E0,1.2E1,5E0,1E0,1.4E1,1.07E2,1E0,1E0,1E0,1.1E1,1E0,1E2,7E0,1E1,1E0],"tree_param":{"num_deleted":"0","num_feature":"13","num_nodes":"41","size_leaf_vector":"1"}},{"base_weights":[7.3249766E3,1.6145246E6,-2.5120127E5,-4.817564E5,5.575161E6,-3.631277E5,3.6836322E6,-1.8942184E4,-1.5160692E5,1.7780582E6,-4.576265E5,-4.024377E5,2.2922514E5,7.8482975E5,4.4374656E5,-1.0220033E4,-6.6936707E2,-1.8791324E4,4.4893857E3,-4.530305E5,-2.5719694E5,5.2327184E5,-1.6512576E4,-1.5128186E4,6.5969336E4,-4.9317375E5,-1.8795823E5,7.406341E5,-4.1655944E5,3.501952E5,4.8125727E4,-1.8604559E4,-2.719478E5,9.787985E3,-2.5552272E5,-1.706404E4,2.1386864E5,-4.8042756E5,-1.8866875E5,5.3244644E5,-1.3845888E4,-1.3886943E4,1.0247592E4,-1.3056955E4,3.5122305E3,-1.902668E4,-1.0423123E4,1.0537292E4,-1.2242382E4,2.3762676E4,-8.384037E3],"categories":[],"categories_nodes":[],"categories_segments":[],"categories_sizes":[],"default_left":[0,0,0,0,0,0,0,0,0,0,0,0,0,0,0,0,0,0,0,0,0,0,0,0,0,0,0,0,0,0,0,0,0,0,0,0,0,0,0,0,0,0,0,0,0,0,0,0,0,0,0],"id":1,"left_children":[1,3,5,7,9,11,13,-1,15,-1,17,19,21,23,-1,-1,-1,-1,-1,25,27,29,-1,-1,-1,31,33,35,37,39,-1,-1,41,-1,43,-1,-1,45,47,49,-1,-1,-1,-1,-1,-1,-1,-1,-1,-1,-1],"loss_changes":[1.3793716E14,3.846058E14,1.2729541E14,2.2903679E11,4.1202542E15,6.588874E12,1.8316482E14,0E0,6.149351E10,0E0,4.9585927E11,1.8086971E12,3.807705E12,9.060378E12,0E0,0E0,0E0,0E0,0E0,1.9609923E12,1.14397E13,1.2925644E12,0E0,0E0,0E0,2.1135937E11,8.9280866E11,6.3187756E13,7.9720926E11,1.7830719E12,0E0,0E0,6.135735E11,0E0,8.5093515E11,0E0,0E0,1.6901682E11,1.1027184E12,9.763703E11,0E0,0E0,0E0,0E0,0E0,0E0,0E0,0E0,0E0,0E0,0E0],"parents":[2147483647,0,0,1,1,2,2,3,3,4,4,5,5,6,6,8,8,10,10,11,11,12,12,13,13,19,19,20,20,21,21,25,25,26,26,27,27,28,28,29,29,32,32,34,34,37,37,38,38,39,39],"right_children":[2,4,6,8,10,12,14,-1,16,-1,18,20,22,24,-1,-1,-1,-1,-1,26,28,30,-1,-1,-1,32,34,36,38,40,-1,-1,42,-1,44,-1,-1,46,48,50,-1,-1,-1,-1,-1,-1,-1,-1,-1,-1,-1],"split_conditions":[1E0,1.65E2,5E3,1.05E2,1.78E2,1.821E3,1E0,-1.8942184E4,1E0,1.7780582E6,2E0,2E0,3.2E3,5.5E3,4.4374656E5,-1.0220033E4,-6.6936707E2,-1.8791324E4,4.4893857E3,3.2E2,4.6E1,7E0,-1.6512576E4,-1.5128186E4,6.5969336E4,2E0,3.8E2,4.2E1,3E0,2E0,4.8125727E4,-1.8604559E4,2.5E2,9.787985E3,1E0,-1.706404E4,2.1386864E5,1E0,2.2E2,1E0,-1.3845888E4,-1.3886943E4,1.0247592E4,-1.3056955E4,3.5122305E3,-1.902668E4,-1.0423123E4,1.0537292E4,-1.2242382E4,2.3762676E4,-8.384037E3],"split_indices":[3,0,0,0,0,0,5,0,4,0,2,2,0,0,0,0,0,0,0,0,0,3,0,0,0,3,0,0,3,2,0,0,0,0,6,0,0,11,0,6,0,0,0,0,0,0,0,0,0,0,0],"split_type":[0,0,0,0,0,0,0,0,0,0,0,0,0,0,0,0,0,0,0,0,0,0,0,0,0,0,0,0,0,0,0,0,0,0,0,0,0,0,0,0,0,0,0,0,0,0,0,0,0,0,0],"sum_hessian":[3.3E2,4.5E1,2.85E2,3E1,1.5E1,2.78E2,7E0,2.7E1,3E0,1E0,1.4E1,2.61E2,1.7E1,6E0,1E0,1E0,2E0,1.3E1,1E0,1.92E2,6.9E1,1.2E1,5E0,3E0,3E0,1.66E2,2.6E1,9E0,6E1,1.1E1,1E0,1.58E2,8E0,3E0,2.3E1,8E0,1E0,4.6E1,1.4E1,9E0,2E0,7E0,1E0,1.8E1,5E0,3.8E1,8E0,3E0,1.1E1,8E0,1E0],"tree_param":{"num_deleted":"0","num_feature":"13","num_nodes":"51","size_leaf_vector":"1"}},{"base_weights":[1.3204114E4,1.5924536E6,-2.4173864E5,-4.648855E5,5.47902E6,-3.5168453E5,3.6090985E6,-1.8266041E4,-1.4871722E5,1.745149E6,-4.4163997E5,-3.8994162E5,2.2258136E5,7.630407E5,4.355335E5,-1.9110723E5,-3.988067E2,-1.814541E4,4.406294E3,-4.4064103E5,-2.4530983E5,5.0772178E5,-1.6003205E4,-1.4708185E4,6.413784E4,-5.804656E2,-1.0030875E4,-4.750511E5,-2.026747E5,7.3289844E5,-4.0165038E5,3.3735972E5,4.7234992E4,-1.7920203E4,-2.622855E5,-2.772033E5,9.195454E4,-1.6502562E4,2.0991025E5,-4.6327012E5,-1.8179847E5,5.1427475E5,-1.35042E4,-1.3437146E4,1.0057925E4,7.9653223E3,-1.2599064E4,-1.2334673E4,2.3254002E4,-1.8340428E4,-1.008016E4,1.0244748E4,-1.1826971E4,8.114597E3,3.3391797E4],"categories":[],"categories_nodes":[],"categories_segments":[],"categories_sizes":[],"default_left":[0,0,0,0,0,0,0,0,0,0,0,0,0,0,0,0,0,0,0,0,0,0,0,0,0,0,0,0,0,0,0,0,0,0,0,0,0,0,0,0,0,0,0,0,0,0,0,0,0,0,0,0,0,0,0],"id":2,"left_children":[1,3,5,7,9,11,13,-1,15,-1,17,19,21,23,-1,25,-1,-1,-1,27,29,31,-1,-1,-1,-1,-1,33,35,37,39,41,-1,-1,43,45,47,-1,-1,49,51,53,-1,-1,-1,-1,-1,-1,-1,-1,-1,-1,-1,-1,-1],"loss_changes":[1.3324897E14,3.7036248E14,1.21933635E14,2.0657629E11,3.9678113E15,6.194383E12,1.7673673E14,0E0,2.1330805E10,0E0,4.6666534E11,1.8057527E12,3.580796E12,8.564278E12,0E0,3.7785985E10,0E0,0E0,0E0,1.4759001E12,1.0999722E13,1.2711022E12,0E0,0E0,0E0,0E0,0E0,1.9478767E11,5.964061E11,6.0729537E13,7.42159E11,1.6783054E12,0E0,0E0,5.826553E11,7.262643E11,1.577292E12,0E0,0E0,1.539771E11,1.0355861E12,9.464798E11,0E0,0E0,0E0,0E0,0E0,0E0,0E0,0E0,0E0,0E0,0E0,0E0,0E0],"parents":[2147483647,0,0,1,1,2,2,3,3,4,4,5,5,6,6,8,8,10,10,11,11,12,12,13,13,15,15,19,19,20,20,21,21,27,27,28,28,29,29,30,30,31,31,34,34,35,35,36,36,39,39,40,40,41,41],"right_children":[2,4,6,8,10,12,14,-1,16,-1,18,20,22,24,-1,26,-1,-1,-1,28,30,32,-1,-1,-1,-1,-1,34,36,38,40,42,-1,-1,44,46,48,-1,-1,50,52,54,-1,-1,-1,-1,-1,-1,-1,-1,-1,-1,-1,-1,-1],"split_conditions":[1E0,1.65E2,5E3,1.05E2,1.78E2,1.821E3,1E0,-1.8266041E4,1.33E2,1.745149E6,2E0,2E0,3.2E3,5.5E3,4.355335E5,1.2E2,-3.988067E2,-1.814541E4,4.406294E3,3.2E2,4.6E1,7E0,-1.6003205E4,-1.4708185E4,6.413784E4,-5.804656E2,-1.0030875E4,2E0,1E0,4.2E1,3E0,2E0,4.7234992E4,-1.7920203E4,2.5E2,3.8E2,6E2,-1.6502562E4,2.0991025E5,1E0,2.2E2,3E3,-1.35042E4,-1.3437146E4,1.0057925E4,7.9653223E3,-1.2599064E4,-1.2334673E4,2.3254002E4,-1.8340428E4,-1.008016E4,1.0244748E4,-1.1826971E4,8.114597E3,3.3391797E4],"split_indices":[3,0,0,0,0,0,5,0,0,0,2,2,0,0,0,0,0,0,0,0,0,3,0,0,0,0,0,3,6,0,3,2,0,0,0,0,0,0,0,11,0,0,0,0,0,0,0,0,0,0,0,0,0,0,0],"split_type":[0,0,0,0,0,0,0,0,0,0,0,0,0,0,0,0,0,0,0,0,0,0,0,0,0,0,0,0,0,0,0,0,0,0,0,0,0,0,0,0,0,0,0,0,0,0,0,0,0,0,0,0,0,0,0],"sum_hessian":[3.29E2,4.5E1,2.84E2,3E1,1.5E1,2.77E2,7E0,2.7E1,3E0,1E0,1.4E1,2.6E2,1.7E1,6E0,1E0,2E0,1E0,1.3E1,1E0,1.91E2,6.9E1,1.2E1,5E0,3E0,3E0,1E0,1E0,1.66E2,2.5E1,9E0,6E1,1.1E1,1E0,1.58E2,8E0,2E1,5E0,8E0,1E0,4.6E1,1.4E1,9E0,2E0,7E0,1E0,2E0,1.8E1,3E0,2E0,3.8E1,8E0,3E0,1.1E1,6E0,3E0],"tree_param":{"num_deleted":"0","num_feature":"13","num_nodes":"55","size_leaf_vector":"1"}},{"base_weights":[2.0592531E4,1.5705086E6,-2.2964161E5,-4.4862122E5,5.384416E6,-3.371828E5,3.5361208E6,-4.628703E5,-3.914253E2,1.7128489E6,-4.2620772E5,-3.741541E5,2.176328E5,7.4185656E5,4.274724E5,-1.7685637E4,-5.6972253E2,-1.75217E4,4.3247397E3,-4.2334156E5,-2.3389481E5,4.9471484E5,-1.5509546E4,-1.4299844E4,6.23572E4,-4.6137462E5,-1.7382923E5,7.251095E5,-3.8727428E5,3.2720512E5,4.6360742E4,-1.741011E4,-2.5295194E5,9.295104E3,-2.3740844E5,-1.5959562E4,2.0602512E5,-4.467259E5,-1.751743E5,4.9938838E5,-1.3170942E4,-1.300192E4,9.871768E3,-1.215723E4,3.3452517E3,-1.7678926E4,-9.74848E3,9.960324E3,-1.1425654E4,2.2505852E4,-8.846894E3],"categories":[],"categories_nodes":[],"categories_segments":[],"categories_sizes":[],"default_left":[0,0,0,0,0,0,0,0,0,0,0,0,0,0,0,0,0,0,0,0,0,0,0,0,0,0,0,0,0,0,0,0,0,0,0,0,0,0,0,0,0,0,0,0,0,0,0,0,0,0,0],"id":3,"left_children":[1,3,5,7,9,11,13,15,-1,-1,17,19,21,23,-1,-1,-1,-1,-1,25,27,29,-1,-1,-1,31,33,35,37,39,-1,-1,41,-1,43,-1,-1,45,47,49,-1,-1,-1,-1,-1,-1,-1,-1,-1,-1,-1],"loss_changes":[1.2834848E14,3.5665113E14,1.166101E14,1.8860055E11,3.8210284E15,5.7838257E12,1.7053117E14,1.9266483E11,0E0,0E0,4.3923092E11,1.7016207E12,3.382388E12,8.0953444E12,0E0,0E0,0E0,0E0,0E0,1.7418273E12,1.0577227E13,1.2401925E12,0E0,0E0,0E0,1.9075275E11,7.890696E11,5.8368715E13,6.9093504E11,1.588926E12,0E0,0E0,5.533398E11,0E0,7.456589E11,0E0,0E0,1.4022083E11,9.725584E11,9.471724E11,0E0,0E0,0E0,0E0,0E0,0E0,0E0,0E0,0E0,0E0,0E0],"parents":[2147483647,0,0,1,1,2,2,3,3,4,4,5,5,6,6,7,7,10,10,11,11,12,12,13,13,19,19,20,20,21,21,25,25,26,26,27,27,28,28,29,29,32,32,34,34,37,37,38,38,39,39],"right_children":[2,4,6,8,10,12,14,16,-1,-1,18,20,22,24,-1,-1,-1,-1,-1,26,28,30,-1,-1,-1,32,34,36,38,40,-1,-1,42,-1,44,-1,-1,46,48,50,-1,-1,-1,-1,-1,-1,-1,-1,-1,-1,-1],"split_conditions":[1E0,1.65E2,5E3,1.33E2,1.78E2,1.821E3,1E0,3E0,-3.914253E2,1.7128489E6,2E0,2E0,3.2E3,5.5E3,4.274724E5,-1.7685637E4,-5.6972253E2,-1.75217E4,4.3247397E3,3.2E2,4.6E1,7E0,-1.5509546E4,-1.4299844E4,6.23572E4,2E0,3.8E2,4.2E1,3E0,2E0,4.6360742E4,-1.741011E4,2.5E2,9.295104E3,1E0,-1.5959562E4,2.0602512E5,1E0,2.2E2,1E0,-1.3170942E4,-1.300192E4,9.871768E3,-1.215723E4,3.3452517E3,-1.7678926E4,-9.74848E3,9.960324E3,-1.1425654E4,2.2505852E4,-8.846894E3],"split_indices":[3,0,0,0,0,0,5,2,0,0,2,2,0,0,0,0,0,0,0,0,0,3,0,0,0,3,0,0,3,2,0,0,0,0,6,0,0,11,0,6,0,0,0,0,0,0,0,0,0,0,0],"split_type":[0,0,0,0,0,0,0,0,0,0,0,0,0,0,0,0,0,0,0,0,0,0,0,0,0,0,0,0,0,0,0,0,0,0,0,0,0,0,0,0,0,0,0,0,0,0,0,0,0,0,0],"sum_hessian":[3.29E2,4.5E1,2.84E2,3E1,1.5E1,2.77E2,7E0,2.9E1,1E0,1E0,1.4E1,2.6E2,1.7E1,6E0,1E0,2.8E1,1E0,1.3E1,1E0,1.91E2,6.9E1,1.2E1,5E0,3E0,3E0,1.65E2,2.6E1,9E0,6E1,1.1E1,1E0,1.57E2,8E0,3E0,2.3E1,8E0,1E0,4.6E1,1.4E1,9E0,2E0,7E0,1E0,1.8E1,5E0,3.8E1,8E0,3E0,1.1E1,8E0,1E0],"tree_param":{"num_deleted":"0","num_feature":"13","num_nodes":"51","size_leaf_vector":"1"}},{"base_weights":[3.219608E4,1.5489166E6,-2.1445177E5,-4.326161E5,5.291329E6,-3.2097694E5,4.0315372E6,-4.4634475E5,-3.8418036E2,1.6811466E6,-4.1131056E5,-3.5659356E5,2.1131772E5,9.253771E5,4.1956053E5,-1.7053541E4,-5.591773E2,-1.6919428E4,4.244695E3,-4.0420484E5,-2.1894203E5,4.800057E5,-1.5031114E4,-1.2325177E4,6.062599E4,-4.402901E5,-1.673767E5,7.172746E5,-3.7132912E5,3.1513362E5,4.5502668E4,-1.6609113E4,-2.4393622E5,9.037045E3,-2.2898744E5,-1.5434428E4,2.022119E5,-4.293029E5,-1.6878755E5,3.46309E4,9.7498664E4,-1.2580789E4,9.689056E3,-1.1730891E4,3.2420588E3,-1.7004234E4,-9.427717E3,9.683798E3,-1.1037955E4,-1.2108566E4,2.1748508E4],"categories":[],"categories_nodes":[],"categories_segments":[],"categories_sizes":[],"default_left":[0,0,0,0,0,0,0,0,0,0,0,0,0,0,0,0,0,0,0,0,0,0,0,0,0,0,0,0,0,0,0,0,0,0,0,0,0,0,0,0,0,0,0,0,0,0,0,0,0,0,0],"id":4,"left_children":[1,3,5,7,9,11,13,15,-1,-1,17,19,21,23,-1,-1,-1,-1,-1,25,27,29,-1,-1,-1,31,33,35,37,39,-1,-1,41,-1,43,-1,-1,45,47,-1,49,-1,-1,-1,-1,-1,-1,-1,-1,-1,-1],"loss_changes":[1.23035604E14,3.4341186E14,1.2929627E14,1.7506658E11,3.679695E15,5.326869E12,1.4829529E14,1.7868154E11,0E0,0E0,4.1344854E11,1.6154802E12,3.1807822E12,5.9240114E12,0E0,0E0,0E0,0E0,0E0,1.5671367E12,1.0110391E13,1.2184776E12,0E0,0E0,0E0,1.642825E11,7.4044375E11,5.6101324E13,6.3206484E11,1.5290491E12,0E0,0E0,5.255417E11,0E0,6.957257E11,0E0,0E0,1.2445496E11,9.1338356E11,0E0,2.272875E12,0E0,0E0,0E0,0E0,0E0,0E0,0E0,0E0,0E0,0E0],"parents":[2147483647,0,0,1,1,2,2,3,3,4,4,5,5,6,6,7,7,10,10,11,11,12,12,13,13,19,19,20,20,21,21,25,25,26,26,27,27,28,28,29,29,32,32,34,34,37,37,38,38,40,40],"right_children":[2,4,6,8,10,12,14,16,-1,-1,18,20,22,24,-1,-1,-1,-1,-1,26,28,30,-1,-1,-1,32,34,36,38,40,-1,-1,42,-1,44,-1,-1,46,48,-1,50,-1,-1,-1,-1,-1,-1,-1,-1,-1,-1],"split_conditions":[1E0,1.65E2,5E3,1.33E2,1.78E2,1.821E3,1E0,3E0,-3.8418036E2,1.6811466E6,2E0,2E0,3.2E3,5.5E3,4.1956053E5,-1.7053541E4,-5.591773E2,-1.6919428E4,4.244695E3,3.2E2,4.6E1,7E0,-1.5031114E4,-1.2325177E4,6.062599E4,2E0,3.8E2,4.2E1,3E0,2.16E3,4.5502668E4,-1.6609113E4,2.5E2,9.037045E3,1E0,-1.5434428E4,2.022119E5,1E0,2.2E2,3.46309E4,3E3,-1.2580789E4,9.689056E3,-1.1730891E4,3.2420588E3,-1.7004234E4,-9.427717E3,9.683798E3,-1.1037955E4,-1.2108566E4,2.1748508E4],"split_indices":[3,0,0,0,0,0,5,2,0,0,2,2,0,0,0,0,0,0,0,0,0,3,0,0,0,3,0,0,3,0,0,0,0,0,6,0,0,11,0,0,0,0,0,0,0,0,0,0,0,0,0],"split_type":[0,0,0,0,0,0,0,0,0,0,0,0,0,0,0,0,0,0,0,0,0,0,0,0,0,0,0,0,0,0,0,0,0,0,0,0,0,0,0,0,0,0,0,0,0,0,0,0,0,0,0],"sum_hessian":[3.27E2,4.5E1,2.82E2,3E1,1.5E1,2.76E2,6E0,2.9E1,1E0,1E0,1.4E1,2.59E2,1.7E1,5E0,1E0,2.8E1,1E0,1.3E1,1E0,1.91E2,6.8E1,1.2E1,5E0,2E0,3E0,1.65E2,2.6E1,9E0,5.9E1,1.1E1,1E0,1.57E2,8E0,3E0,2.3E1,8E0,1E0,4.5E1,1.4E1,2E0,9E0,7E0,1E0,1.8E1,5E0,3.7E1,8E0,3E0,1.1E1,5E0,4E0],"tree_param":{"num_deleted":"0","num_feature":"13","num_nodes":"51","size_leaf_vector":"1"}},{"base_weights":[-2.3591519E5,-3.253694E5,3.3941072E6,-3.5575938E5,2.0764773E5,7.005602E5,4.1179503E5,-1.6454504E4,-3.259171E5,4.6914297E5,-1.456744E4,-1.3560659E4,5.894284E4,5.096921E5,-3.7381256E5,3.0715753E5,4.4660484E4,9.3041094E5,-1.2938948E4,-4.0951297E5,-2.5926569E5,4.736611E5,-1.2964856E4,-7.424761E3,5.661145E4,-4.2239112E5,-1.8964875E5,-1.5149153E4,-2.1246903E5,5.808336E5,-9.085684E3,-1.6099221E4,-8.0617466E3,1.333979E4,-1.6322724E4,5.440506E3,-9.71031E3,7.032902E3,4.8092145E4],"categories":[],"categories_nodes":[],"categories_segments":[],"categories_sizes":[],"default_left":[0,0,0,0,0,0,0,0,0,0,0,0,0,0,0,0,0,0,0,0,0,0,0,0,0,0,0,0,0,0,0,0,0,0,0,0,0,0,0],"id":5,"left_children":[1,3,5,7,9,11,-1,-1,13,15,-1,-1,-1,17,19,21,-1,23,-1,25,27,29,-1,-1,-1,31,33,-1,35,37,-1,-1,-1,-1,-1,-1,-1,-1,-1],"loss_changes":[1.07937494E14,5.2897513E12,1.5878336E14,6.629349E11,3.0143304E12,7.2431923E12,0E0,0E0,9.475608E12,1.1821198E12,0E0,0E0,0E0,5.024654E12,7.934889E11,1.4794034E12,0E0,6.403123E12,0E0,3.8991508E11,2.9907432E11,9.132486E11,0E0,0E0,0E0,3.0498043E11,1.6793346E12,0E0,8.269673E11,2.2800412E12,0E0,0E0,0E0,0E0,0E0,0E0,0E0,0E0,0E0],"parents":[2147483647,0,0,1,1,2,2,3,3,4,4,5,5,8,8,9,9,13,13,14,14,15,15,17,17,19,19,20,20,21,21,25,25,26,26,28,28,29,29],"right_children":[2,4,6,8,10,12,-1,-1,14,16,-1,-1,-1,18,20,22,-1,24,-1,26,28,30,-1,-1,-1,32,34,-1,36,38,-1,-1,-1,-1,-1,-1,-1,-1,-1],"split_conditions":[5E3,1.821E3,1E0,4.2E1,3.2E3,5.5E3,4.1179503E5,-1.6454504E4,4.6E1,7E0,-1.456744E4,-1.3560659E4,5.894284E4,1E0,2E0,2E0,4.4660484E4,4.5E1,-1.2938948E4,8.5E2,1.9E2,1E0,-1.2964856E4,-7.424761E3,5.661145E4,1E0,1.02E3,-1.5149153E4,2.2E2,3E3,-9.085684E3,-1.6099221E4,-8.0617466E3,1.333979E4,-1.6322724E4,5.440506E3,-9.71031E3,7.032902E3,4.8092145E4],"split_indices":[0,0,5,0,0,0,0,0,0,3,0,0,0,9,3,3,0,0,0,0,0,6,0,0,0,4,0,0,0,0,0,0,0,0,0,0,0,0,0],"split_type":[0,0,0,0,0,0,0,0,0,0,0,0,0,0,0,0,0,0,0,0,0,0,0,0,0,0,0,0,0,0,0,0,0,0,0,0,0,0,0],"sum_hessian":[3.28E2,3.21E2,7E0,3.04E2,1.7E1,6E0,1E0,7.3E1,2.31E2,1.2E1,5E0,3E0,3E0,1.2E1,2.19E2,1.1E1,1E0,8E0,4E0,1.65E2,5.4E1,9E0,2E0,3E0,5E0,1.55E2,1E1,1.1E1,4.3E1,8E0,1E0,1.45E2,1E1,3E0,7E0,5E0,3.8E1,6E0,2E0],"tree_param":{"num_deleted":"0","num_feature":"13","num_nodes":"39","size_leaf_vector":"1"}},{"base_weights":[4.4695008E4,1.5414398E6,-1.9875005E5,-4.0234362E5,5.21118E6,-3.0018544E5,3.3256145E6,-4.1534472E5,-2.2785847E2,1.650329E6,-3.857995E5,-3.3402953E5,2.0347055E5,6.811107E5,4.0417334E5,-1.5877445E4,-3.9961646E2,-1.5938974E4,4.4641055E3,-3.771485E5,-2.0736969E5,4.577563E5,-1.4118071E4,-1.3184177E4,5.7306426E4,-4.119234E5,-1.4937881E5,7.169035E5,-3.605114E5,2.985437E5,4.3833883E4,-1.5550104E4,-2.2297044E5,9.055736E3,-2.0882398E5,-1.4385152E4,1.9742147E5,-3.764041E5,6.161955E4,3.360272E4,8.59235E4,-1.1707784E4,9.689449E3,-1.0831512E4,3.379592E3,-1.4286396E4,2.918051E3,1.207434E4,-8.652878E3,-1.1828618E4,2.0555611E4],"categories":[],"categories_nodes":[],"categories_segments":[],"categories_sizes":[],"default_left":[0,0,0,0,0,0,0,0,0,0,0,0,0,0,0,0,0,0,0,0,0,0,0,0,0,0,0,0,0,0,0,0,0,0,0,0,0,0,0,0,0,0,0,0,0,0,0,0,0,0,0],"id":6,"left_children":[1,3,5,7,9,11,13,15,-1,-1,17,19,21,23,-1,-1,-1,-1,-1,25,27,29,-1,-1,-1,31,33,35,37,39,-1,-1,41,-1,43,-1,-1,45,47,-1,49,-1,-1,-1,-1,-1,-1,-1,-1,-1,-1],"loss_changes":[1.1982139E14,3.30223E14,1.0216947E14,1.571202E11,3.5430066E15,4.7726E12,1.5320006E14,1.6015583E11,0E0,0E0,3.9211106E11,1.3363053E12,2.8515933E12,6.8465936E12,0E0,0E0,0E0,0E0,0E0,1.459234E12,9.883498E12,1.1499494E12,0E0,0E0,0E0,1.6215808E11,6.8348903E11,5.3106906E13,4.1901202E11,1.47639E12,0E0,0E0,4.898589E11,0E0,6.302103E11,0E0,0E0,2.778889E11,3.106817E11,0E0,2.0806224E12,0E0,0E0,0E0,0E0,0E0,0E0,0E0,0E0,0E0,0E0],"parents":[2147483647,0,0,1,1,2,2,3,3,4,4,5,5,6,6,7,7,10,10,11,11,12,12,13,13,19,19,20,20,21,21,25,25,26,26,27,27,28,28,29,29,32,32,34,34,37,37,38,38,40,40],"right_children":[2,4,6,8,10,12,14,16,-1,-1,18,20,22,24,-1,-1,-1,-1,-1,26,28,30,-1,-1,-1,32,34,36,38,40,-1,-1,42,-1,44,-1,-1,46,48,-1,50,-1,-1,-1,-1,-1,-1,-1,-1,-1,-1],"split_conditions":[1E0,1.65E2,5E3,1.33E2,1.78E2,1.821E3,1E0,3E0,-2.2785847E2,1.650329E6,2E0,2E0,3.2E3,5.5E3,4.0417334E5,-1.5877445E4,-3.9961646E2,-1.5938974E4,4.4641055E3,3.2E2,4.6E1,7E0,-1.4118071E4,-1.3184177E4,5.7306426E4,2E0,3.8E2,4.2E1,8E0,2.16E3,4.3833883E4,-1.5550104E4,2.5E2,9.055736E3,1E0,-1.4385152E4,1.9742147E5,1E0,5.4E2,3.360272E4,3E3,-1.1707784E4,9.689449E3,-1.0831512E4,3.379592E3,-1.4286396E4,2.918051E3,1.207434E4,-8.652878E3,-1.1828618E4,2.0555611E4],"split_indices":[3,0,0,0,0,0,5,2,0,0,2,2,0,0,0,0,0,0,0,0,0,3,0,0,0,3,0,0,2,0,0,0,0,0,6,0,0,7,0,0,0,0,0,0,0,0,0,0,0,0,0],"split_type":[0,0,0,0,0,0,0,0,0,0,0,0,0,0,0,0,0,0,0,0,0,0,0,0,0,0,0,0,0,0,0,0,0,0,0,0,0,0,0,0,0,0,0,0,0,0,0,0,0,0,0],"sum_hessian":[3.27E2,4.5E1,2.82E2,3E1,1.5E1,2.75E2,7E0,2.9E1,1E0,1E0,1.4E1,2.58E2,1.7E1,6E0,1E0,2.8E1,1E0,1.3E1,1E0,1.91E2,6.7E1,1.2E1,5E0,3E0,3E0,1.65E2,2.6E1,9E0,5.8E1,1.1E1,1E0,1.57E2,8E0,3E0,2.3E1,8E0,1E0,5.6E1,2E0,2E0,9E0,7E0,1E0,1.8E1,5E0,5.5E1,1E0,1E0,1E0,5E0,4E0],"tree_param":{"num_deleted":"0","num_feature":"13","num_nodes":"51","size_leaf_vector":"1"}},{"base_weights":[5.2142547E4,1.5196486E6,-1.857357E5,-3.8798247E5,5.120706E6,-2.8453903E5,3.258547E6,-4.0051244E5,-2.2364085E2,1.6197839E6,-3.7228334E5,-3.169856E5,1.9994119E5,6.622011E5,3.966927E5,-1.5309977E4,-3.9222E2,-1.5391104E4,4.381481E3,-3.6183962E5,-1.8758038E5,4.4743947E5,-1.3682564E4,-1.2818147E4,5.5715434E4,-3.951258E5,-1.4378986E5,7.0866944E5,-3.33829E5,2.9101997E5,4.3022582E4,-1.4913754E4,-2.1494098E5,8.804323E3,-2.0140444E5,-1.3911822E4,1.9376747E5,-3.8776588E5,-1.4616738E5,3.277347E4,8.361557E4,-1.1328571E4,9.510111E3,-1.0451665E4,3.275341E3,-1.5397885E4,-8.351345E3,9.50132E3,-9.930464E3,-1.1463734E4,1.9946885E4],"categories":[],"categories_nodes":[],"categories_segments":[],"categories_sizes":[],"default_left":[0,0,0,0,0,0,0,0,0,0,0,0,0,0,0,0,0,0,0,0,0,0,0,0,0,0,0,0,0,0,0,0,0,0,0,0,0,0,0,0,0,0,0,0,0,0,0,0,0,0,0],"id":7,"left_children":[1,3,5,7,9,11,13,15,-1,-1,17,19,21,23,-1,-1,-1,-1,-1,25,27,29,-1,-1,-1,31,33,35,37,39,-1,-1,41,-1,43,-1,-1,45,47,-1,49,-1,-1,-1,-1,-1,-1,-1,-1,-1,-1],"loss_changes":[1.1513213E14,3.1798324E14,9.7574275E13,1.4593714E11,3.412018E15,4.417739E12,1.478106E14,1.4862097E11,0E0,0E0,3.6936706E11,1.4412572E12,2.7028024E12,6.471709E12,0E0,0E0,0E0,0E0,0E0,1.3367289E12,9.280771E12,1.115273E12,0E0,0E0,0E0,1.4559687E11,6.415718E11,5.105E13,5.50634E11,1.405198E12,0E0,0E0,4.6547734E11,0E0,5.8812406E11,0E0,0E0,1.1651619E11,8.0666087E11,0E0,1.9573564E12,0E0,0E0,0E0,0E0,0E0,0E0,0E0,0E0,0E0,0E0],"parents":[2147483647,0,0,1,1,2,2,3,3,4,4,5,5,6,6,7,7,10,10,11,11,12,12,13,13,19,19,20,20,21,21,25,25,26,26,27,27,28,28,29,29,32,32,34,34,37,37,38,38,40,40],"right_children":[2,4,6,8,10,12,14,16,-1,-1,18,20,22,24,-1,-1,-1,-1,-1,26,28,30,-1,-1,-1,32,34,36,38,40,-1,-1,42,-1,44,-1,-1,46,48,-1,50,-1,-1,-1,-1,-1,-1,-1,-1,-1,-1],"split_conditions":[1E0,1.65E2,5E3,1.33E2,1.78E2,1.821E3,1E0,3E0,-2.2364085E2,1.6197839E6,2E0,2E0,3.2E3,5.5E3,3.966927E5,-1.5309977E4,-3.9222E2,-1.5391104E4,4.381481E3,3.2E2,4.6E1,7E0,-1.3682564E4,-1.2818147E4,5.5715434E4,2E0,3.8E2,4.2E1,3E0,2.16E3,4.3022582E4,-1.4913754E4,2.5E2,8.804323E3,1E0,-1.3911822E4,1.9376747E5,1E0,2.2E2,3.277347E4,3E3,-1.1328571E4,9.510111E3,-1.0451665E4,3.275341E3,-1.5397885E4,-8.351345E3,9.50132E3,-9.930464E3,-1.1463734E4,1.9946885E4],"split_indices":[3,0,0,0,0,0,5,2,0,0,2,2,0,0,0,0,0,0,0,0,0,3,0,0,0,3,0,0,3,0,0,0,0,0,6,0,0,11,0,0,0,0,0,0,0,0,0,0,0,0,0],"split_type":[0,0,0,0,0,0,0,0,0,0,0,0,0,0,0,0,0,0,0,0,0,0,0,0,0,0,0,0,0,0,0,0,0,0,0,0,0,0,0,0,0,0,0,0,0,0,0,0,0,0,0],"sum_hessian":[3.28E2,4.5E1,2.83E2,3E1,1.5E1,2.76E2,7E0,2.9E1,1E0,1E0,1.4E1,2.59E2,1.7E1,6E0,1E0,2.8E1,1E0,1.3E1,1E0,1.91E2,6.8E1,1.2E1,5E0,3E0,3E0,1.65E2,2.6E1,9E0,5.9E1,1.1E1,1E0,1.57E2,8E0,3E0,2.3E1,8E0,1E0,4.5E1,1.4E1,2E0,9E0,7E0,1E0,1.8E1,5E0,3.7E1,8E0,3E0,1.1E1,5E0,4E0],"tree_param":{"num_deleted":"0","num_feature":"13","num_nodes":"51","size_leaf_vector":"1"}},{"base_weights":[4.9912793E4,1.5409708E6,-1.8652214E5,1.8989118E6,-1.3025194E4,-2.700025E5,2.394267E6,2.1489465E6,-1.8110642E5,-3.0581062E5,-1.6025564E5,6.4015797E4,3.893505E5,2.397335E6,-1.1597469E4,-8.187553E3,-3.8496002E2,-3.1887103E5,-1.5979869E5,-2.8251508E4,-2.7067356E5,-1.4320262E4,6.116013E5,2.6769122E6,-1.5904006E5,-1.205876E4,-7.4224883E3,-1.07499E5,-1.2180379E4,1.4343603E5,-2.7150147E5,-3.9623534E5,-1.8091939E5,3.6173973E4,-8.981601E3,2.7920865E6,-8.010313E3,-1.0716518E4,4.3003857E3,-1.4226955E5,7.6636265E3,2.4389698E5,-1.1822581E4,-1.2415454E4,-1.3040606E5,-1.5119674E4,-4.168276E3,-7.7047875E4,-3.1863472E5,1.0767652E5,-4.504798E3,-3.3851633E3,-1.1662956E4,1.2257304E4,-1.0125878E4,-2.2837888E3,-8.772273E3,-1.857951E3,-8.384982E3,-1.2648847E4,-2.0547837E3],"categories":[],"categories_nodes":[],"categories_segments":[],"categories_sizes":[],"default_left":[0,0,0,0,0,0,0,0,0,0,0,0,0,0,0,0,0,0,0,0,0,0,0,0,0,0,0,0,0,0,0,0,0,0,0,0,0,0,0,0,0,0,0,0,0,0,0,0,0,0,0,0,0,0,0,0,0,0,0,0,0],"id":8,"left_children":[1,3,5,7,-1,9,11,13,15,17,19,21,-1,23,-1,-1,-1,25,27,29,31,-1,33,35,37,-1,-1,39,-1,41,43,45,47,-1,-1,49,-1,-1,-1,51,-1,53,-1,-1,55,-1,-1,57,59,-1,-1,-1,-1,-1,-1,-1,-1,-1,-1,-1,-1],"loss_changes":[1.1591995E14,3.1156817E13,6.18329E13,2.0152096E13,0E0,1.035624E12,1.6970261E14,2.15453E13,3.1906775E10,3.4378822E11,1.01264654E12,2.2117273E12,0E0,2.2581562E13,0E0,0E0,0E0,8.8831164E10,1.32809425E11,1.4171216E12,3.5656198E11,0E0,1.486421E12,9.934746E12,1.7725191E11,0E0,0E0,2.0443536E11,0E0,1.00779904E12,8.247961E10,5.979767E9,3.1876278E11,0E0,0E0,9.538871E12,0E0,0E0,0E0,1.0291495E11,0E0,8.5788983E11,0E0,0E0,2.9315588E10,0E0,0E0,4.8843006E10,4.1731555E10,0E0,0E0,0E0,0E0,0E0,0E0,0E0,0E0,0E0,0E0,0E0,0E0],"parents":[2147483647,0,0,1,1,2,2,3,3,5,5,6,6,7,7,8,8,9,9,10,10,11,11,13,13,17,17,18,18,19,19,20,20,22,22,23,23,24,24,27,27,29,29,30,30,31,31,32,32,35,35,39,39,41,41,44,44,47,47,48,48],"right_children":[2,4,6,8,-1,10,12,14,16,18,20,22,-1,24,-1,-1,-1,26,28,30,32,-1,34,36,38,-1,-1,40,-1,42,44,46,48,-1,-1,50,-1,-1,-1,52,-1,54,-1,-1,56,-1,-1,58,60,-1,-1,-1,-1,-1,-1,-1,-1,-1,-1,-1,-1],"split_conditions":[1E0,1E0,5E0,1E0,-1.3025194E4,2E0,1E0,1E0,2E0,2E0,3E0,5E0,3.893505E5,2E0,-1.1597469E4,-8.187553E3,-3.8496002E2,1E0,1E0,2E0,2E0,-1.4320262E4,1E0,1E0,3E0,-1.205876E4,-7.4224883E3,1E0,-1.2180379E4,1E0,1E0,1E0,4E0,3.6173973E4,-8.981601E3,1E0,-8.010313E3,-1.0716518E4,4.3003857E3,3E0,7.6636265E3,1E0,-1.1822581E4,-1.2415454E4,1E0,-1.5119674E4,-4.168276E3,1E0,1E0,1.0767652E5,-4.504798E3,-3.3851633E3,-1.1662956E4,1.2257304E4,-1.0125878E4,-2.2837888E3,-8.772273E3,-1.857951E3,-8.384982E3,-1.2648847E4,-2.0547837E3],"split_indices":[3,6,3,4,0,2,5,9,2,3,2,2,0,2,0,0,0,4,6,3,3,0,4,11,2,0,0,4,0,6,11,8,2,0,0,8,0,0,0,3,0,8,0,0,5,0,0,4,4,0,0,0,0,0,0,0,0,0,0,0,0],"split_type":[0,0,0,0,0,0,0,0,0,0,0,0,0,0,0,0,0,0,0,0,0,0,0,0,0,0,0,0,0,0,0,0,0,0,0,0,0,0,0,0,0,0,0,0,0,0,0,0,0,0,0,0,0,0,0,0,0,0,0,0,0],"sum_hessian":[3.27E2,4.4E1,2.83E2,3.7E1,7E0,2.75E2,8E0,3.3E1,4E0,2.06E2,6.9E1,7E0,1E0,3E1,3E0,3E0,1E0,1.88E2,1.8E1,3.2E1,3.7E1,4E0,3E0,2.7E1,3E0,1.76E2,1.2E1,1.5E1,3E0,1.9E1,1.3E1,1.4E1,2.3E1,2E0,1E0,2.6E1,1E0,2E0,1E0,1.4E1,1E0,1.6E1,3E0,8E0,5E0,1.3E1,1E0,1.4E1,9E0,2.5E1,1E0,1.2E1,2E0,1.4E1,2E0,4E0,1E0,1.3E1,1E0,8E0,1E0],"tree_param":{"num_deleted":"0","num_feature":"13","num_nodes":"61","size_leaf_vector":"1"}},{"base_weights":[5.299511E4,1.4410875E6,-1.704498E5,-4.215329E5,4.9598465E6,-2.6511362E5,3.152257E6,-4.3546162E5,-6.796216E1,1.587811E6,-4.2870247E5,-2.964072E5,2.051102E5,6.530185E5,3.821442E5,-1.6928096E4,-8.643324E4,-1.7605795E4,4.220792E3,-3.3785625E5,-1.7789181E5,4.4464328E5,-1.2884274E4,-1.2106566E4,5.4409004E4,-4.4214204E3,-3.778354E2,-3.6954803E5,-1.29323445E5,6.940961E5,-3.179244E5,2.9459047E5,4.155677E4,-1.3942095E4,-2.0320028E5,8.653874E3,-1.8445233E5,-1.3663842E4,1.8995425E5,-3.685568E5,-1.3808127E5,4.5501172E5,-1.2524494E4,-1.0811298E4,9.396748E3,-9.745048E3,3.5477898E3,-1.4633972E4,-7.832309E3,9.289119E3,-9.485574E3,2.081332E4,-9.443973E3],"categories":[],"categories_nodes":[],"categories_segments":[],"categories_sizes":[],"default_left":[0,0,0,0,0,0,0,0,0,0,0,0,0,0,0,0,0,0,0,0,0,0,0,0,0,0,0,0,0,0,0,0,0,0,0,0,0,0,0,0,0,0,0,0,0,0,0,0,0,0,0,0,0],"id":9,"left_children":[1,3,5,7,9,11,13,15,-1,-1,17,19,21,23,-1,-1,25,-1,-1,27,29,31,-1,-1,-1,-1,-1,33,35,37,39,41,-1,-1,43,-1,45,-1,-1,47,49,51,-1,-1,-1,-1,-1,-1,-1,-1,-1,-1,-1],"loss_changes":[1.029093E14,3.035799E14,9.079417E13,1.804206E11,3.2889528E15,4.1662756E12,1.3663903E14,1.8919614E11,0E0,0E0,4.3612425E11,1.2269325E12,2.5398238E12,6.084498E12,0E0,0E0,6.3294177E9,0E0,0E0,1.2277042E12,8.76814E12,9.918373E11,0E0,0E0,0E0,0E0,0E0,1.2047509E11,5.835946E11,4.907384E13,5.0456848E11,1.3723841E12,0E0,0E0,4.396701E11,0E0,5.553642E11,0E0,0E0,1.1387955E11,7.5385143E11,9.050784E11,0E0,0E0,0E0,0E0,0E0,0E0,0E0,0E0,0E0,0E0,0E0],"parents":[2147483647,0,0,1,1,2,2,3,3,4,4,5,5,6,6,7,7,10,10,11,11,12,12,13,13,16,16,19,19,20,20,21,21,27,27,28,28,29,29,30,30,31,31,34,34,36,36,39,39,40,40,41,41],"right_children":[2,4,6,8,10,12,14,16,-1,-1,18,20,22,24,-1,-1,26,-1,-1,28,30,32,-1,-1,-1,-1,-1,34,36,38,40,42,-1,-1,44,-1,46,-1,-1,48,50,52,-1,-1,-1,-1,-1,-1,-1,-1,-1,-1,-1],"split_conditions":[1E0,1.65E2,5E3,1.33E2,1.78E2,1.821E3,1E0,1E0,-6.796216E1,1.587811E6,2E0,2E0,3.2E3,5.5E3,3.821442E5,-1.6928096E4,1.8E1,-1.7605795E4,4.220792E3,3.2E2,4.6E1,7E0,-1.2884274E4,-1.2106566E4,5.4409004E4,-4.4214204E3,-3.778354E2,2E0,3.8E2,4.2E1,3E0,2E0,4.155677E4,-1.3942095E4,2.5E2,8.653874E3,1E0,-1.3663842E4,1.8995425E5,1E0,2.2E2,1E0,-1.2524494E4,-1.0811298E4,9.396748E3,-9.745048E3,3.5477898E3,-1.4633972E4,-7.832309E3,9.289119E3,-9.485574E3,2.081332E4,-9.443973E3],"split_indices":[3,0,0,0,0,0,5,8,0,0,2,2,0,0,0,0,0,0,0,0,0,3,0,0,0,0,0,3,0,0,3,2,0,0,0,0,6,0,0,11,0,6,0,0,0,0,0,0,0,0,0,0,0],"split_type":[0,0,0,0,0,0,0,0,0,0,0,0,0,0,0,0,0,0,0,0,0,0,0,0,0,0,0,0,0,0,0,0,0,0,0,0,0,0,0,0,0,0,0,0,0,0,0,0,0,0,0,0,0],"sum_hessian":[3.3E2,4.5E1,2.85E2,3E1,1.5E1,2.78E2,7E0,2.9E1,1E0,1E0,1.4E1,2.61E2,1.7E1,6E0,1E0,2.7E1,2E0,1.3E1,1E0,1.92E2,6.9E1,1.2E1,5E0,3E0,3E0,1E0,1E0,1.66E2,2.6E1,9E0,6E1,1.1E1,1E0,1.58E2,8E0,3E0,2.3E1,8E0,1E0,4.6E1,1.4E1,9E0,2E0,7E0,1E0,1.8E1,5E0,3.8E1,8E0,3E0,1.1E1,8E0,1E0],"tree_param":{"num_deleted":"0","num_feature":"13","num_nodes":"53","size_leaf_vector":"1"}},{"base_weights":[5.8930035E4,1.4214955E6,-1.611996E5,-4.066321E5,4.8746495E6,-2.5413989E5,3.0886255E6,-4.2006634E5,-6.6704735E1,1.558423E6,-4.137255E5,-2.844204E5,1.9904636E5,6.348889E5,3.7507128E5,-1.6323847E4,-8.48335E4,-1.700063E4,4.1426714E3,-3.2541662E5,-1.6562772E5,4.3129172E5,-1.2486825E4,-1.1770454E4,5.2898457E4,-4.339587E3,-3.7084265E2,-3.559604E5,-1.2444528E5,6.860318E5,-3.048105E5,2.8358934E5,4.0787617E4,-1.3429244E4,-1.9583558E5,8.413618E3,-1.7788266E5,-1.3214245E4,1.8643848E5,-3.542149E5,-1.32983E5,3.1748639E4,8.300441E4,-1.046112E4,9.222828E3,-9.4033E3,3.4383489E3,-1.407843E4,-7.5745947E3,9.031227E3,-9.163708E3,-1.1199447E4,1.9584496E4],"categories":[],"categories_nodes":[],"categories_segments":[],"categories_sizes":[],"default_left":[0,0,0,0,0,0,0,0,0,0,0,0,0,0,0,0,0,0,0,0,0,0,0,0,0,0,0,0,0,0,0,0,0,0,0,0,0,0,0,0,0,0,0,0,0,0,0,0,0,0,0,0,0],"id":10,"left_children":[1,3,5,7,9,11,13,15,-1,-1,17,19,21,23,-1,-1,25,-1,-1,27,29,31,-1,-1,-1,-1,-1,33,35,37,39,41,-1,-1,43,-1,45,-1,-1,47,49,-1,51,-1,-1,-1,-1,-1,-1,-1,-1,-1,-1],"loss_changes":[9.9209684E13,2.9237128E14,8.686626E13,1.6783927E11,3.1672152E15,3.871525E12,1.3183542E14,1.729364E11,0E0,0E0,4.1045564E11,1.217187E12,2.387747E12,5.751342E12,0E0,0E0,6.097287E9,0E0,0E0,1.1404187E12,8.3881173E12,9.751033E11,0E0,0E0,0E0,0E0,0E0,1.1145524E11,5.4791838E11,4.71743E13,4.6223747E11,1.3106466E12,0E0,0E0,4.1790246E11,0E0,5.184091E11,0E0,0E0,1.0182879E11,7.082214E11,0E0,1.8798738E12,0E0,0E0,0E0,0E0,0E0,0E0,0E0,0E0,0E0,0E0],"parents":[2147483647,0,0,1,1,2,2,3,3,4,4,5,5,6,6,7,7,10,10,11,11,12,12,13,13,16,16,19,19,20,20,21,21,27,27,28,28,29,29,30,30,31,31,34,34,36,36,39,39,40,40,42,42],"right_children":[2,4,6,8,10,12,14,16,-1,-1,18,20,22,24,-1,-1,26,-1,-1,28,30,32,-1,-1,-1,-1,-1,34,36,38,40,42,-1,-1,44,-1,46,-1,-1,48,50,-1,52,-1,-1,-1,-1,-1,-1,-1,-1,-1,-1],"split_conditions":[1E0,1.65E2,5E3,1.33E2,1.78E2,1.821E3,1E0,1E0,-6.6704735E1,1.558423E6,2E0,2E0,3.2E3,5.5E3,3.7507128E5,-1.6323847E4,1.8E1,-1.700063E4,4.1426714E3,3.2E2,4.6E1,7E0,-1.2486825E4,-1.1770454E4,5.2898457E4,-4.339587E3,-3.7084265E2,2E0,3.8E2,4.2E1,3E0,2.16E3,4.0787617E4,-1.3429244E4,2.5E2,8.413618E3,1E0,-1.3214245E4,1.8643848E5,1E0,2.2E2,3.1748639E4,3E3,-1.046112E4,9.222828E3,-9.4033E3,3.4383489E3,-1.407843E4,-7.5745947E3,9.031227E3,-9.163708E3,-1.1199447E4,1.9584496E4],"split_indices":[3,0,0,0,0,0,5,8,0,0,2,2,0,0,0,0,0,0,0,0,0,3,0,0,0,0,0,3,0,0,3,0,0,0,0,0,6,0,0,11,0,0,0,0,0,0,0,0,0,0,0,0,0],"split_type":[0,0,0,0,0,0,0,0,0,0,0,0,0,0,0,0,0,0,0,0,0,0,0,0,0,0,0,0,0,0,0,0,0,0,0,0,0,0,0,0,0,0,0,0,0,0,0,0,0,0,0,0,0],"sum_hessian":[3.29E2,4.5E1,2.84E2,3E1,1.5E1,2.77E2,7E0,2.9E1,1E0,1E0,1.4E1,2.6E2,1.7E1,6E0,1E0,2.7E1,2E0,1.3E1,1E0,1.92E2,6.8E1,1.2E1,5E0,3E0,3E0,1E0,1E0,1.66E2,2.6E1,9E0,5.9E1,1.1E1,1E0,1.58E2,8E0,3E0,2.3E1,8E0,1E0,4.5E1,1.4E1,2E0,9E0,7E0,1E0,1.8E1,5E0,3.7E1,8E0,3E0,1.1E1,5E0,4E0],"tree_param":{"num_deleted":"0","num_feature":"13","num_nodes":"53","size_leaf_vector":"1"}},{"base_weights":[6.324676E4,1.441873E6,-1.538911E5,1.7729275E6,-1.150748E4,-2.3174244E5,2.2679492E6,2.0054248E6,-1.6263947E5,-2.6140352E5,-1.3987228E5,6.522905E4,3.6812925E5,2.2355838E6,-1.0352324E4,-7.343553E3,-3.6397943E2,-2.7147038E5,-1.4644711E5,-1.5409838E4,-2.4427723E5,-1.3445782E4,5.844982E5,2.4951422E6,-1.4022181E5,-2.7717575E5,-6.368021E3,-9.438408E4,-1.177466E4,1.4335614E5,-2.4111767E5,-3.580523E5,-1.6298961E5,3.4495332E4,-8.470193E3,9.6099164E4,-4.2592676E3,-9.631462E3,4.065996E3,-1.060065E4,-7.4903975E3,-1.29045945E5,7.8761924E3,2.3743242E5,-1.0820349E4,-1.1069726E4,-1.1404201E5,-1.3657049E4,-3.805968E3,-6.856759E4,-2.8832366E5,-2.995826E3,-1.0902593E4,1.1850631E4,-9.448539E3,-1.7268679E3,-8.347328E3,-1.6197019E3,-7.6983647E3,-1.1487308E4,-1.671582E3],"categories":[],"categories_nodes":[],"categories_segments":[],"categories_sizes":[],"default_left":[0,0,0,0,0,0,0,0,0,0,0,0,0,0,0,0,0,0,0,0,0,0,0,0,0,0,0,0,0,0,0,0,0,0,0,0,0,0,0,0,0,0,0,0,0,0,0,0,0,0,0,0,0,0,0,0,0,0,0,0,0],"id":11,"left_children":[1,3,5,7,-1,9,11,13,15,17,19,21,-1,23,-1,-1,-1,25,27,29,31,-1,33,35,37,39,-1,41,-1,43,45,47,49,-1,-1,-1,-1,-1,-1,-1,-1,51,-1,53,-1,-1,55,-1,-1,57,59,-1,-1,-1,-1,-1,-1,-1,-1,-1,-1],"loss_changes":[9.900804E13,2.6662545E13,5.444902E13,1.7426696E13,0E0,7.2097884E11,1.5154198E14,1.8506955E13,2.5358582E10,2.0210778E11,9.058504E11,1.9922017E12,0E0,1.9466335E13,0E0,0E0,0E0,6.0681093E10,1.3976381E11,1.2171117E12,2.9308433E11,0E0,1.343346E12,7.675694E12,1.4857781E11,6.522667E10,0E0,1.9780303E11,0E0,8.8911485E11,6.895062E10,3.748397E9,2.6425334E11,0E0,0E0,0E0,0E0,0E0,0E0,0E0,0E0,9.559664E10,0E0,7.74436E11,0E0,0E0,3.454799E10,0E0,0E0,4.2782376E10,3.9485833E10,0E0,0E0,0E0,0E0,0E0,0E0,0E0,0E0,0E0,0E0],"parents":[2147483647,0,0,1,1,2,2,3,3,5,5,6,6,7,7,8,8,9,9,10,10,11,11,13,13,17,17,18,18,19,19,20,20,22,22,23,23,24,24,25,25,27,27,29,29,30,30,31,31,32,32,41,41,43,43,46,46,49,49,50,50],"right_children":[2,4,6,8,-1,10,12,14,16,18,20,22,-1,24,-1,-1,-1,26,28,30,32,-1,34,36,38,40,-1,42,-1,44,46,48,50,-1,-1,-1,-1,-1,-1,-1,-1,52,-1,54,-1,-1,56,-1,-1,58,60,-1,-1,-1,-1,-1,-1,-1,-1,-1,-1],"split_conditions":[1E0,1E0,5E0,1E0,-1.150748E4,2E0,1E0,1E0,2E0,2E0,3E0,5E0,3.6812925E5,2E0,-1.0352324E4,-7.343553E3,-3.6397943E2,1E0,1E0,2E0,2E0,-1.3445782E4,1E0,1E0,3E0,1E0,-6.368021E3,1E0,-1.177466E4,1E0,1E0,1E0,4E0,3.4495332E4,-8.470193E3,9.6099164E4,-4.2592676E3,-9.631462E3,4.065996E3,-1.060065E4,-7.4903975E3,3E0,7.8761924E3,1E0,-1.0820349E4,-1.1069726E4,3E0,-1.3657049E4,-3.805968E3,1E0,1E0,-2.995826E3,-1.0902593E4,1.1850631E4,-9.448539E3,-1.7268679E3,-8.347328E3,-1.6197019E3,-7.6983647E3,-1.1487308E4,-1.671582E3],"split_indices":[3,6,3,4,0,2,5,9,2,3,2,2,0,2,0,0,0,4,6,3,3,0,4,8,2,6,0,4,0,6,11,8,2,0,0,0,0,0,0,0,0,3,0,9,0,0,3,0,0,4,4,0,0,0,0,0,0,0,0,0,0],"split_type":[0,0,0,0,0,0,0,0,0,0,0,0,0,0,0,0,0,0,0,0,0,0,0,0,0,0,0,0,0,0,0,0,0,0,0,0,0,0,0,0,0,0,0,0,0,0,0,0,0,0,0,0,0,0,0,0,0,0,0,0,0],"sum_hessian":[3.29E2,4.4E1,2.85E2,3.7E1,7E0,2.77E2,8E0,3.3E1,4E0,2.08E2,6.9E1,7E0,1E0,3E1,3E0,3E0,1E0,1.9E2,1.8E1,3.2E1,3.7E1,4E0,3E0,2.7E1,3E0,1.78E2,1.2E1,1.5E1,3E0,1.9E1,1.3E1,1.4E1,2.3E1,2E0,1E0,2.6E1,1E0,2E0,1E0,1.56E2,2.2E1,1.4E1,1E0,1.6E1,3E0,8E0,5E0,1.3E1,1E0,1.4E1,9E0,1.2E1,2E0,1.4E1,2E0,4E0,1E0,1.3E1,1E0,8E0,1E0],"tree_param":{"num_deleted":"0","num_feature":"13","num_nodes":"61","size_leaf_vector":"1"}},{"base_weights":[-1.8972389E5,-2.67829E5,2.9874858E6,-2.9464244E5,2.0287866E5,6.254723E5,3.613157E5,-3.3733862E5,-1.5622552E5,4.2758978E5,-1.1764337E4,-1.112304E4,5.164104E4,-4.8607847E5,-3.0399316E5,5.759765E5,-2.7963172E5,2.858525E5,3.939424E4,-5.1169175E5,-1.9932452E5,-3.3320953E5,-1.120256E5,-1.310064E4,1.8276845E5,-2.9654694E5,4.823328E4,4.4036647E5,-1.2011227E4,-5.1963138E5,-4.1804346E3,-9.258232E3,7.044808E1,-1.2567226E4,-1.8508553E5,8.263204E3,-1.632333E5,-3.036627E5,2.4134692E3,-1.3508975E5,1.1071845E4,5.4628494E5,-9.493022E3,-2.0390777E4,-1.1534957E4,-9.98463E3,9.107575E3,-8.774485E3,3.6162073E3,-2.0269875E3,-1.1523465E4,-3.5724234E2,-7.143695E3,6.5132256E3,4.5468055E4],"categories":[],"categories_nodes":[],"categories_segments":[],"categories_sizes":[],"default_left":[0,0,0,0,0,0,0,0,0,0,0,0,0,0,0,0,0,0,0,0,0,0,0,0,0,0,0,0,0,0,0,0,0,0,0,0,0,0,0,0,0,0,0,0,0,0,0,0,0,0,0,0,0,0,0],"id":12,"left_children":[1,3,5,7,9,11,-1,13,15,17,-1,-1,-1,19,21,23,25,27,-1,29,31,33,35,-1,-1,37,39,41,-1,43,-1,-1,-1,-1,45,-1,47,49,-1,51,-1,53,-1,-1,-1,-1,-1,-1,-1,-1,-1,-1,-1,-1,-1],"loss_changes":[8.269173E13,4.136454E12,1.2188398E14,1.755721E12,2.2419674E12,5.407432E12,0E0,1.0078661E12,6.8475735E12,8.688333E11,0E0,0E0,0E0,1.9914136E11,1.0451325E12,4.635935E13,3.6924136E11,1.2745447E12,0E0,5.845916E10,5.1570377E10,9.2725576E10,4.9996077E11,0E0,0E0,1.7681823E11,2.2436497E11,8.78152E11,0E0,6.2121837E10,0E0,0E0,0E0,0E0,3.9479535E11,0E0,4.8533996E11,9.7033126E10,0E0,1.9924111E10,0E0,2.057033E12,0E0,0E0,0E0,0E0,0E0,0E0,0E0,0E0,0E0,0E0,0E0,0E0,0E0],"parents":[2147483647,0,0,1,1,2,2,3,3,4,4,5,5,7,7,8,8,9,9,13,13,14,14,15,15,16,16,17,17,19,19,20,20,21,21,22,22,25,25,26,26,27,27,29,29,34,34,36,36,37,37,39,39,41,41],"right_children":[2,4,6,8,10,12,-1,14,16,18,-1,-1,-1,20,22,24,26,28,-1,30,32,34,36,-1,-1,38,40,42,-1,44,-1,-1,-1,-1,46,-1,48,50,-1,52,-1,54,-1,-1,-1,-1,-1,-1,-1,-1,-1,-1,-1,-1,-1],"split_conditions":[5E3,1.821E3,1E0,2E0,3.2E3,5.5E3,3.613157E5,1E0,4.6E1,7E0,-1.1764337E4,-1.112304E4,5.164104E4,1E0,3.2E2,4.2E1,8E0,2E0,3.939424E4,1E0,1.03E2,2E0,3.8E2,-1.310064E4,1.8276845E5,1E0,2E0,1E0,-1.2011227E4,1E0,-4.1804346E3,-9.258232E3,7.044808E1,-1.2567226E4,2.5E2,8.263204E3,1E0,1E0,2.4134692E3,1.2E2,1.1071845E4,3E3,-9.493022E3,-2.0390777E4,-1.1534957E4,-9.98463E3,9.107575E3,-8.774485E3,3.6162073E3,-2.0269875E3,-1.1523465E4,-3.5724234E2,-7.143695E3,6.5132256E3,4.5468055E4],"split_indices":[0,0,5,2,0,0,0,3,0,3,0,0,0,4,0,0,2,2,0,8,0,3,0,0,0,7,3,6,0,6,0,0,0,0,0,0,6,3,0,0,0,0,0,0,0,0,0,0,0,0,0,0,0,0,0],"split_type":[0,0,0,0,0,0,0,0,0,0,0,0,0,0,0,0,0,0,0,0,0,0,0,0,0,0,0,0,0,0,0,0,0,0,0,0,0,0,0,0,0,0,0,0,0,0,0,0,0,0,0,0,0,0,0],"sum_hessian":[3.29E2,3.22E2,7E0,3.05E2,1.7E1,6E0,1E0,2.32E2,7.3E1,1.2E1,5E0,3E0,3E0,4E1,1.92E2,1E1,6.3E1,1.1E1,1E0,3.6E1,4E0,1.66E2,2.6E1,9E0,1E0,6E1,3E0,9E0,2E0,3.5E1,1E0,3E0,1E0,1.58E2,8E0,3E0,2.3E1,5.9E1,1E0,2E0,1E0,8E0,1E0,2.9E1,6E0,7E0,1E0,1.8E1,5E0,2E0,5.7E1,1E0,1E0,6E0,2E0],"tree_param":{"num_deleted":"0","num_feature":"13","num_nodes":"55","size_leaf_vector":"1"}},{"base_weights":[7.169598E4,1.3648234E6,-1.3800667E5,-4.2275025E5,4.7429455E6,-2.2603219E5,2.9271272E6,-4.3696647E5,6.914439E1,1.5281778E6,-4.4526753E5,-2.5456022E5,1.9859683E5,6.081075E5,3.546283E5,-4.5958447E5,-8.020971E4,-1.823528E4,4.0282573E3,-2.9195022E5,-1.4890234E5,4.1713634E5,-1.1401437E4,-1.0814234E4,5.0207344E4,-1.803932E4,-8.68106E3,-4.1030605E3,-3.5063016E2,-3.2032044E5,-1.07763734E5,6.639194E5,-2.7971078E5,2.778108E5,3.866511E4,-1.2083095E4,-1.7833166E5,8.0337954E3,-1.574058E5,-1.2556438E4,1.7938567E5,-3.256965E5,-1.16974805E5,3.1066012E4,8.160242E4,-9.6612295E3,8.939008E3,-8.507657E3,3.634118E3,-1.2970755E4,-6.7542036E3,9.016408E3,-8.418048E3,-1.0634243E4,1.8802455E4],"categories":[],"categories_nodes":[],"categories_segments":[],"categories_sizes":[],"default_left":[0,0,0,0,0,0,0,0,0,0,0,0,0,0,0,0,0,0,0,0,0,0,0,0,0,0,0,0,0,0,0,0,0,0,0,0,0,0,0,0,0,0,0,0,0,0,0,0,0,0,0,0,0,0,0],"id":13,"left_children":[1,3,5,7,9,11,13,15,-1,-1,17,19,21,23,-1,25,27,-1,-1,29,31,33,-1,-1,-1,-1,-1,-1,-1,35,37,39,41,43,-1,-1,45,-1,47,-1,-1,49,51,-1,53,-1,-1,-1,-1,-1,-1,-1,-1,-1,-1],"loss_changes":[8.940401E13,2.7978261E14,7.728766E13,1.8794624E11,3.0516296E15,3.4060863E12,1.1760186E14,2.0521E11,0E0,0E0,4.471558E11,9.8366915E11,2.1213054E12,5.111349E12,0E0,6.0532195E10,5.450742E9,0E0,0E0,9.635344E11,7.6283815E12,8.461607E11,0E0,0E0,0E0,0E0,0E0,0E0,0E0,8.468195E10,4.6949374E11,4.3595625E13,4.1839703E11,1.2533903E12,0E0,0E0,3.7535187E11,0E0,4.6681208E11,0E0,0E0,1.0236618E11,6.52651E11,0E0,1.7186044E12,0E0,0E0,0E0,0E0,0E0,0E0,0E0,0E0,0E0,0E0],"parents":[2147483647,0,0,1,1,2,2,3,3,4,4,5,5,6,6,7,7,10,10,11,11,12,12,13,13,15,15,16,16,19,19,20,20,21,21,29,29,30,30,31,31,32,32,33,33,36,36,38,38,41,41,42,42,44,44],"right_children":[2,4,6,8,10,12,14,16,-1,-1,18,20,22,24,-1,26,28,-1,-1,30,32,34,-1,-1,-1,-1,-1,-1,-1,36,38,40,42,44,-1,-1,46,-1,48,-1,-1,50,52,-1,54,-1,-1,-1,-1,-1,-1,-1,-1,-1,-1],"split_conditions":[1E0,1.65E2,5E3,1.33E2,1.78E2,1.821E3,1E0,1E0,6.914439E1,1.5281778E6,2E0,2E0,3.2E3,5.5E3,3.546283E5,1E0,1.8E1,-1.823528E4,4.0282573E3,3.2E2,4.6E1,7E0,-1.1401437E4,-1.0814234E4,5.0207344E4,-1.803932E4,-8.68106E3,-4.1030605E3,-3.5063016E2,2E0,3.8E2,4.2E1,3E0,2.16E3,3.866511E4,-1.2083095E4,2.5E2,8.0337954E3,1E3,-1.2556438E4,1.7938567E5,1E0,2.2E2,3.1066012E4,3E3,-9.6612295E3,8.939008E3,-8.507657E3,3.634118E3,-1.2970755E4,-6.7542036E3,9.016408E3,-8.418048E3,-1.0634243E4,1.8802455E4],"split_indices":[3,0,0,0,0,0,5,8,0,0,2,2,0,0,0,6,0,0,0,0,0,3,0,0,0,0,0,0,0,3,0,0,3,0,0,0,0,0,0,0,0,11,0,0,0,0,0,0,0,0,0,0,0,0,0],"split_type":[0,0,0,0,0,0,0,0,0,0,0,0,0,0,0,0,0,0,0,0,0,0,0,0,0,0,0,0,0,0,0,0,0,0,0,0,0,0,0,0,0,0,0,0,0,0,0,0,0,0,0,0,0,0,0],"sum_hessian":[3.28E2,4.5E1,2.83E2,3E1,1.5E1,2.76E2,7E0,2.9E1,1E0,1E0,1.4E1,2.59E2,1.7E1,6E0,1E0,2.7E1,2E0,1.3E1,1E0,1.9E2,6.9E1,1.2E1,5E0,3E0,3E0,2.3E1,4E0,1E0,1E0,1.64E2,2.6E1,9E0,6E1,1.1E1,1E0,1.56E2,8E0,3E0,2.3E1,8E0,1E0,4.6E1,1.4E1,2E0,9E0,7E0,1E0,1.8E1,5E0,3.8E1,8E0,3E0,1.1E1,5E0,4E0],"tree_param":{"num_deleted":"0","num_feature":"13","num_nodes":"55","size_leaf_vector":"1"}},{"base_weights":[7.2730234E4,1.3465376E6,-1.3240219E5,-4.081047E5,4.6619985E6,-2.179614E5,2.8680262E6,-4.218304E5,6.786498E1,1.4998932E6,-4.297322E5,-2.4549675E5,1.949397E5,5.9122475E5,3.4806462E5,-4.435263E5,-7.872515E4,-1.7608479E4,3.9537002E3,-2.8202344E5,-1.4128038E5,4.0768747E5,-1.10497295E4,-1.0514E4,4.8813445E4,-1.739938E4,-8.423981E3,-4.027119E3,-3.4414062E2,-3.0917225E5,-1.0365759E5,6.56026E5,-2.6967028E5,2.7079662E5,3.7949477E4,-1.1660482E4,-1.718106E5,7.8107544E3,-1.5178216E5,-1.214328E4,1.7606552E5,-3.1405988E5,-1.1260485E5,4.2071397E5,-1.1815601E4,-9.348303E3,8.773561E3,-8.239388E3,3.6172788E3,-1.2502928E4,-6.5319624E3,8.766086E3,-8.1324033E3,1.9451842E4,-9.665326E3],"categories":[],"categories_nodes":[],"categories_segments":[],"categories_sizes":[],"default_left":[0,0,0,0,0,0,0,0,0,0,0,0,0,0,0,0,0,0,0,0,0,0,0,0,0,0,0,0,0,0,0,0,0,0,0,0,0,0,0,0,0,0,0,0,0,0,0,0,0,0,0,0,0,0,0],"id":14,"left_children":[1,3,5,7,9,11,13,15,-1,-1,17,19,21,23,-1,25,27,-1,-1,29,31,33,-1,-1,-1,-1,-1,-1,-1,35,37,39,41,43,-1,-1,45,-1,47,-1,-1,49,51,53,-1,-1,-1,-1,-1,-1,-1,-1,-1,-1,-1],"loss_changes":[8.666832E13,2.6950519E14,7.404541E13,1.752008E11,2.9385978E15,3.2199116E12,1.134682E14,1.8840237E11,0E0,0E0,4.2064386E11,9.575051E11,2.0113185E12,4.831478E12,0E0,5.333739E10,5.2508385E9,0E0,0E0,9.025398E11,7.3425365E12,8.212763E11,0E0,0E0,0E0,0E0,0E0,0E0,0E0,7.963201E10,4.408867E11,4.191027E13,3.8993134E11,1.195686E12,0E0,0E0,3.5689464E11,0E0,4.4571178E11,0E0,0E0,9.3682926E10,6.133045E11,8.5154254E11,0E0,0E0,0E0,0E0,0E0,0E0,0E0,0E0,0E0,0E0,0E0],"parents":[2147483647,0,0,1,1,2,2,3,3,4,4,5,5,6,6,7,7,10,10,11,11,12,12,13,13,15,15,16,16,19,19,20,20,21,21,29,29,30,30,31,31,32,32,33,33,36,36,38,38,41,41,42,42,43,43],"right_children":[2,4,6,8,10,12,14,16,-1,-1,18,20,22,24,-1,26,28,-1,-1,30,32,34,-1,-1,-1,-1,-1,-1,-1,36,38,40,42,44,-1,-1,46,-1,48,-1,-1,50,52,54,-1,-1,-1,-1,-1,-1,-1,-1,-1,-1,-1],"split_conditions":[1E0,1.65E2,5E3,1.33E2,1.78E2,1.821E3,1E0,1E0,6.786498E1,1.4998932E6,2E0,2E0,3.2E3,5.5E3,3.4806462E5,1E0,1.8E1,-1.7608479E4,3.9537002E3,3.2E2,4.6E1,7E0,-1.10497295E4,-1.0514E4,4.8813445E4,-1.739938E4,-8.423981E3,-4.027119E3,-3.4414062E2,2E0,3.8E2,4.2E1,3E0,2E0,3.7949477E4,-1.1660482E4,2.5E2,7.8107544E3,1E0,-1.214328E4,1.7606552E5,1E0,2.2E2,1E0,-1.1815601E4,-9.348303E3,8.773561E3,-8.239388E3,3.6172788E3,-1.2502928E4,-6.5319624E3,8.766086E3,-8.1324033E3,1.9451842E4,-9.665326E3],"split_indices":[3,0,0,0,0,0,5,8,0,0,2,2,0,0,0,6,0,0,0,0,0,3,0,0,0,0,0,0,0,3,0,0,3,2,0,0,0,0,6,0,0,11,0,6,0,0,0,0,0,0,0,0,0,0,0],"split_type":[0,0,0,0,0,0,0,0,0,0,0,0,0,0,0,0,0,0,0,0,0,0,0,0,0,0,0,0,0,0,0,0,0,0,0,0,0,0,0,0,0,0,0,0,0,0,0,0,0,0,0,0,0,0,0],"sum_hessian":[3.3E2,4.5E1,2.85E2,3E1,1.5E1,2.78E2,7E0,2.9E1,1E0,1E0,1.4E1,2.61E2,1.7E1,6E0,1E0,2.7E1,2E0,1.3E1,1E0,1.92E2,6.9E1,1.2E1,5E0,3E0,3E0,2.3E1,4E0,1E0,1E0,1.66E2,2.6E1,9E0,6E1,1.1E1,1E0,1.58E2,8E0,3E0,2.3E1,8E0,1E0,4.6E1,1.4E1,9E0,2E0,7E0,1E0,1.8E1,5E0,3.8E1,8E0,3E0,1.1E1,8E0,1E0],"tree_param":{"num_deleted":"0","num_feature":"13","num_nodes":"55","size_leaf_vector":"1"}},{"base_weights":[7.814566E4,1.3644075E6,-1.2522251E5,-3.9729003E5,4.582315E6,-2.0924339E5,2.8101558E6,-4.4077516E5,-1.4988708E5,1.4721325E6,-4.147351E5,-2.3591402E5,1.8910531E5,5.748107E5,3.4162247E5,-1.6666656E4,-3.9525828E3,-8.186986E3,-4.8835625E3,-1.7003223E4,3.8805232E3,-2.7185175E5,-1.3397172E5,3.9535922E5,-1.0708873E4,-1.0222103E4,4.7458246E4,-3.3777136E2,6.660872E1,-2.9821428E5,-9.97024E4,6.48134E5,-2.5998952E5,2.6060344E5,3.7247086E4,-1.1248953E4,-1.6551453E5,-3.867034E4,-1.3344996E4,-1.1743718E4,1.728068E5,-3.0283928E5,-1.083943E5,2.9819332E4,7.105716E4,-9.045512E3,8.611175E3,-5.519449E3,4.4252125E4,-1.2051974E4,-6.3170337E3,8.522716E3,-7.856452E3,-1.0713338E4,1.811666E4],"categories":[],"categories_nodes":[],"categories_segments":[],"categories_sizes":[],"default_left":[0,0,0,0,0,0,0,0,0,0,0,0,0,0,0,0,0,0,0,0,0,0,0,0,0,0,0,0,0,0,0,0,0,0,0,0,0,0,0,0,0,0,0,0,0,0,0,0,0,0,0,0,0,0,0],"id":15,"left_children":[1,3,5,7,9,11,13,15,17,-1,19,21,23,25,-1,-1,-1,-1,27,-1,-1,29,31,33,-1,-1,-1,-1,-1,35,37,39,41,43,-1,-1,45,47,-1,-1,-1,49,51,-1,53,-1,-1,-1,-1,-1,-1,-1,-1,-1,-1],"loss_changes":[8.623222E13,2.5692454E14,7.087844E13,2.5668302E11,2.8297703E15,2.998143E12,1.0947804E14,3.097808E10,6.0935766E10,0E0,3.957402E11,9.197721E11,1.8904727E12,4.566931E12,0E0,0E0,0E0,0E0,1.0145031E8,0E0,0E0,8.4162065E11,7.0676555E12,8.0788796E11,0E0,0E0,0E0,0E0,0E0,7.46324E10,4.1583385E11,4.0291147E13,3.634186E11,1.1822854E12,0E0,0E0,3.3937234E11,3.312933E12,0E0,0E0,0E0,8.571611E10,5.7634075E11,0E0,1.6497092E12,0E0,0E0,0E0,0E0,0E0,0E0,0E0,0E0,0E0,0E0],"parents":[2147483647,0,0,1,1,2,2,3,3,4,4,5,5,6,6,7,7,8,8,10,10,11,11,12,12,13,13,18,18,21,21,22,22,23,23,29,29,30,30,31,31,32,32,33,33,36,36,37,37,41,41,42,42,44,44],"right_children":[2,4,6,8,10,12,14,16,18,-1,20,22,24,26,-1,-1,-1,-1,28,-1,-1,30,32,34,-1,-1,-1,-1,-1,36,38,40,42,44,-1,-1,46,48,-1,-1,-1,50,52,-1,54,-1,-1,-1,-1,-1,-1,-1,-1,-1,-1],"split_conditions":[1E0,1.65E2,5E3,1E0,1.78E2,1.821E3,1E0,1E0,1.03E2,1.4721325E6,2E0,2E0,3.2E3,5.5E3,3.4162247E5,-1.6666656E4,-3.9525828E3,-8.186986E3,1.2E2,-1.7003223E4,3.8805232E3,3.2E2,4.6E1,7E0,-1.0708873E4,-1.0222103E4,4.7458246E4,-3.3777136E2,6.660872E1,2E0,1.02E3,4.2E1,3E0,2.16E3,3.7247086E4,-1.1248953E4,2.5E2,1E3,-1.3344996E4,-1.1743718E4,1.728068E5,1E0,2.2E2,2.9819332E4,3E3,-9.045512E3,8.611175E3,-5.519449E3,4.4252125E4,-1.2051974E4,-6.3170337E3,8.522716E3,-7.856452E3,-1.0713338E4,1.811666E4],"split_indices":[3,0,0,4,0,0,5,8,0,0,2,2,0,0,0,0,0,0,0,0,0,0,0,3,0,0,0,0,0,3,0,0,3,0,0,0,0,0,0,0,0,11,0,0,0,0,0,0,0,0,0,0,0,0,0],"split_type":[0,0,0,0,0,0,0,0,0,0,0,0,0,0,0,0,0,0,0,0,0,0,0,0,0,0,0,0,0,0,0,0,0,0,0,0,0,0,0,0,0,0,0,0,0,0,0,0,0,0,0,0,0,0,0],"sum_hessian":[3.28E2,4.4E1,2.84E2,2.9E1,1.5E1,2.77E2,7E0,2.4E1,5E0,1E0,1.4E1,2.6E2,1.7E1,6E0,1E0,2.3E1,1E0,3E0,2E0,1.3E1,1E0,1.91E2,6.9E1,1.2E1,5E0,3E0,3E0,1E0,1E0,1.65E2,2.6E1,9E0,6E1,1.1E1,1E0,1.57E2,8E0,2.2E1,4E0,8E0,1E0,4.6E1,1.4E1,2E0,9E0,7E0,1E0,2.1E1,1E0,3.8E1,8E0,3E0,1.1E1,5E0,4E0],"tree_param":{"num_deleted":"0","num_feature":"13","num_nodes":"55","size_leaf_vector":"1"}},{"base_weights":[7.943268E4,1.3103869E6,-1.1883069E5,-3.8013794E5,4.5038795E6,-2.007652E5,2.7534895E6,-4.1960716E5,-1.4574839E5,1.4448855E6,-4.0025762E5,-2.2654636E5,1.8564745E5,5.5885225E5,3.3529956E5,-4.2800734E5,-3.879426E3,-7.959692E3,-4.7931875E3,-1.641877E4,3.808701E3,-2.6149033E5,-1.26964484E5,3.864526E5,-1.037853E4,-9.938308E3,4.614067E4,-4.4749028E5,-7.916074E3,-3.315201E2,6.537559E1,-2.8683056E5,-9.507143E4,6.402483E5,-2.5065569E5,2.5405855E5,3.6557695E4,-1.7485059E4,-8.0522207E3,-1.0817776E4,-1.5943594E5,7.747141E3,-1.4183631E5,-1.1357301E4,1.6960839E5,-2.920199E5,-1.0433745E5,2.908345E4,6.916714E4,-8.752528E3,8.451794E3,-6.9477153E3,8.947014E3,-1.1617284E4,-6.1091777E3,8.286103E3,-7.589865E3,-1.0382859E4,1.7580158E4],"categories":[],"categories_nodes":[],"categories_segments":[],"categories_sizes":[],"default_left":[0,0,0,0,0,0,0,0,0,0,0,0,0,0,0,0,0,0,0,0,0,0,0,0,0,0,0,0,0,0,0,0,0,0,0,0,0,0,0,0,0,0,0,0,0,0,0,0,0,0,0,0,0,0,0,0,0,0,0],"id":16,"left_children":[1,3,5,7,9,11,13,15,17,-1,19,21,23,25,-1,27,-1,-1,29,-1,-1,31,33,35,-1,-1,-1,37,-1,-1,-1,39,41,43,45,47,-1,-1,-1,-1,49,-1,51,-1,-1,53,55,-1,57,-1,-1,-1,-1,-1,-1,-1,-1,-1,-1],"loss_changes":[8.09373E13,2.5005128E14,6.7860664E13,2.2562891E11,2.7249892E15,2.821503E12,1.0562639E14,2.3900193E10,5.7560998E10,0E0,3.723441E11,8.7850326E11,1.7927729E12,4.3168694E12,0E0,8.6151E9,0E0,0E0,9.7729624E7,0E0,0E0,7.866302E11,6.803305E12,7.837264E11,0E0,0E0,0E0,2.3027778E10,0E0,0E0,0E0,6.8440556E10,4.139814E11,3.873562E13,3.3872386E11,1.1251569E12,0E0,0E0,0E0,0E0,3.2273623E11,0E0,4.6743765E11,0E0,0E0,7.840832E10,5.4161474E11,0E0,1.5519494E12,0E0,0E0,0E0,0E0,0E0,0E0,0E0,0E0,0E0,0E0],"parents":[2147483647,0,0,1,1,2,2,3,3,4,4,5,5,6,6,7,7,8,8,10,10,11,11,12,12,13,13,15,15,18,18,21,21,22,22,23,23,27,27,31,31,32,32,33,33,34,34,35,35,40,40,42,42,45,45,46,46,48,48],"right_children":[2,4,6,8,10,12,14,16,18,-1,20,22,24,26,-1,28,-1,-1,30,-1,-1,32,34,36,-1,-1,-1,38,-1,-1,-1,40,42,44,46,48,-1,-1,-1,-1,50,-1,52,-1,-1,54,56,-1,58,-1,-1,-1,-1,-1,-1,-1,-1,-1,-1],"split_conditions":[1E0,1.65E2,5E3,1E0,1.78E2,1.821E3,1E0,1E0,1.03E2,1.4448855E6,2E0,2E0,3.2E3,5.5E3,3.3529956E5,1E0,-3.879426E3,-7.959692E3,1.2E2,-1.641877E4,3.808701E3,3.2E2,4.6E1,7E0,-1.037853E4,-9.938308E3,4.614067E4,1E0,-7.916074E3,-3.315201E2,6.537559E1,2E0,3.8E2,4.2E1,3E0,2.16E3,3.6557695E4,-1.7485059E4,-8.0522207E3,-1.0817776E4,2.5E2,7.747141E3,1E0,-1.1357301E4,1.6960839E5,1E0,2.2E2,2.908345E4,3E3,-8.752528E3,8.451794E3,-6.9477153E3,8.947014E3,-1.1617284E4,-6.1091777E3,8.286103E3,-7.589865E3,-1.0382859E4,1.7580158E4],"split_indices":[3,0,0,4,0,0,5,8,0,0,2,2,0,0,0,6,0,0,0,0,0,0,0,3,0,0,0,9,0,0,0,3,0,0,3,0,0,0,0,0,0,0,4,0,0,11,0,0,0,0,0,0,0,0,0,0,0,0,0],"split_type":[0,0,0,0,0,0,0,0,0,0,0,0,0,0,0,0,0,0,0,0,0,0,0,0,0,0,0,0,0,0,0,0,0,0,0,0,0,0,0,0,0,0,0,0,0,0,0,0,0,0,0,0,0,0,0,0,0,0,0],"sum_hessian":[3.3E2,4.5E1,2.85E2,3E1,1.5E1,2.78E2,7E0,2.5E1,5E0,1E0,1.4E1,2.61E2,1.7E1,6E0,1E0,2.4E1,1E0,3E0,2E0,1.3E1,1E0,1.92E2,6.9E1,1.2E1,5E0,3E0,3E0,2.1E1,3E0,1E0,1E0,1.66E2,2.6E1,9E0,6E1,1.1E1,1E0,1.8E1,3E0,1.58E2,8E0,3E0,2.3E1,8E0,1E0,4.6E1,1.4E1,2E0,9E0,7E0,1E0,2.1E1,2E0,3.8E1,8E0,3E0,1.1E1,5E0,4E0],"tree_param":{"num_deleted":"0","num_feature":"13","num_nodes":"59","size_leaf_vector":"1"}},{"base_weights":[8.4542625E4,1.3162496E6,-1.109199E5,-3.67536E5,4.708323E6,-1.9164355E5,2.6980012E6,-3.7990275E5,6.4165596E1,1.4181428E6,-1.5854408E4,-2.1679106E5,1.8224531E5,5.43337E5,3.2909366E5,-3.9906356E5,-7.4434305E4,-2.5103861E5,-1.2024719E5,3.7775022E5,-1.0058378E4,-9.662393E3,4.4859684E4,-4.2331328E5,-7.508989E3,-3.8076235E3,-3.2538455E2,-2.75674E5,-9.119118E4,6.323734E5,-2.4165634E5,4.5491612E5,-1.0147133E4,-1.641718E4,-7.8286685E3,-1.0398751E4,-1.535675E5,-3.2208078E4,-1.2744055E4,-1.09836E4,1.6646919E5,-2.8158734E5,-1.00428766E5,5.285458E5,-6.570719E3,-8.469035E3,8.295363E3,-5.2065938E3,4.356168E4,-1.1198273E4,-5.9081606E3,8.056056E3,-7.3323237E3,1.4345518E4,3.5881066E4],"categories":[],"categories_nodes":[],"categories_segments":[],"categories_sizes":[],"default_left":[0,0,0,0,0,0,0,0,0,0,0,0,0,0,0,0,0,0,0,0,0,0,0,0,0,0,0,0,0,0,0,0,0,0,0,0,0,0,0,0,0,0,0,0,0,0,0,0,0,0,0,0,0,0,0],"id":17,"left_children":[1,3,5,7,9,11,13,15,-1,-1,-1,17,19,21,-1,23,25,27,29,31,-1,-1,-1,33,-1,-1,-1,35,37,39,41,43,-1,-1,-1,-1,45,47,-1,-1,-1,49,51,53,-1,-1,-1,-1,-1,-1,-1,-1,-1,-1,-1],"loss_changes":[7.911284E13,2.5874906E14,6.4913016E13,1.4222492E11,2.605436E15,2.6439687E12,1.0190857E14,1.4588654E11,0E0,0E0,0E0,8.29475E11,1.7001973E12,4.0805005E12,0E0,4.7356314E10,4.6940406E9,7.2699976E11,6.5490686E12,7.786303E11,0E0,0E0,0E0,8.846049E9,0E0,0E0,0E0,6.251086E10,3.9195902E11,3.7241125E13,3.157215E11,6.525996E11,0E0,0E0,0E0,0E0,3.0694028E11,3.181096E12,0E0,0E0,0E0,7.170582E10,5.089902E11,3.0802025E11,0E0,0E0,0E0,0E0,0E0,0E0,0E0,0E0,0E0,0E0,0E0],"parents":[2147483647,0,0,1,1,2,2,3,3,4,4,5,5,6,6,7,7,11,11,12,12,13,13,15,15,16,16,17,17,18,18,19,19,23,23,27,27,28,28,29,29,30,30,31,31,36,36,37,37,41,41,42,42,43,43],"right_children":[2,4,6,8,10,12,14,16,-1,-1,-1,18,20,22,-1,24,26,28,30,32,-1,-1,-1,34,-1,-1,-1,36,38,40,42,44,-1,-1,-1,-1,46,48,-1,-1,-1,50,52,54,-1,-1,-1,-1,-1,-1,-1,-1,-1,-1,-1],"split_conditions":[1E0,1.65E2,5E3,1.33E2,1.78E2,1.821E3,1E0,1E0,6.4165596E1,1.4181428E6,-1.5854408E4,2E0,3.2E3,5.5E3,3.2909366E5,1E0,1.8E1,3.2E2,4.6E1,1E0,-1.0058378E4,-9.662393E3,4.4859684E4,1E0,-7.508989E3,-3.8076235E3,-3.2538455E2,2E0,1.02E3,4.2E1,3E0,8E0,-1.0147133E4,-1.641718E4,-7.8286685E3,-1.0398751E4,2.5E2,1E3,-1.2744055E4,-1.09836E4,1.6646919E5,1E0,2.2E2,3E0,-6.570719E3,-8.469035E3,8.295363E3,-5.2065938E3,4.356168E4,-1.1198273E4,-5.9081606E3,8.056056E3,-7.3323237E3,1.4345518E4,3.5881066E4],"split_indices":[3,0,0,0,0,0,5,8,0,0,0,2,0,0,0,6,0,0,0,6,0,0,0,9,0,0,0,3,0,0,3,2,0,0,0,0,0,0,0,0,0,11,0,2,0,0,0,0,0,0,0,0,0,0,0],"split_type":[0,0,0,0,0,0,0,0,0,0,0,0,0,0,0,0,0,0,0,0,0,0,0,0,0,0,0,0,0,0,0,0,0,0,0,0,0,0,0,0,0,0,0,0,0,0,0,0,0,0,0,0,0,0,0],"sum_hessian":[3.27E2,4.4E1,2.83E2,3E1,1.4E1,2.76E2,7E0,2.9E1,1E0,1E0,1.3E1,2.59E2,1.7E1,6E0,1E0,2.7E1,2E0,1.9E2,6.9E1,1.2E1,5E0,3E0,3E0,2.3E1,4E0,1E0,1E0,1.64E2,2.6E1,9E0,6E1,1.1E1,1E0,2E1,3E0,1.56E2,8E0,2.2E1,4E0,8E0,1E0,4.6E1,1.4E1,1E1,1E0,7E0,1E0,2.1E1,1E0,3.8E1,8E0,3E0,1.1E1,9E0,1E0],"tree_param":{"num_deleted":"0","num_feature":"13","num_nodes":"55","size_leaf_vector":"1"}},{"base_weights":[8.640657E4,1.2744122E6,-1.056449E5,-3.550865E5,4.3519155E6,-1.8438172E5,2.6436655E6,-3.9222847E5,-1.3495677E5,1.3918951E6,-3.714845E5,-2.085845E5,1.7680194E5,5.282525E5,3.230026E5,-3.9984103E5,-3.73715E3,-7.3653604E3,-4.6174165E3,-1.5309445E4,4.0316501E3,-2.4205177E5,-1.13808805E5,3.663446E5,-9.748103E3,-9.394138E3,4.3614254E4,-4.175865E5,-7.4878306E3,-3.1936234E2,6.2977577E1,-2.5194427E5,1.0660648E5,6.245133E5,-2.329795E5,2.3831147E5,3.521696E4,-1.6296147E4,-7.611323E3,-2.658315E5,-1.1516058E5,4.2755414E4,-1.2366656E4,-1.0622195E4,1.633881E5,-2.7152778E5,-9.666295E4,3.8160622E5,-1.1800105E4,-1.0078697E4,-4.4822646E3,-1.1703352E3,-1.0768419E4,-1.0454859E4,-6.2507397E3,7.8323975E3,-7.083521E3,1.790867E4,-9.959324E3],"categories":[],"categories_nodes":[],"categories_segments":[],"categories_sizes":[],"default_left":[0,0,0,0,0,0,0,0,0,0,0,0,0,0,0,0,0,0,0,0,0,0,0,0,0,0,0,0,0,0,0,0,0,0,0,0,0,0,0,0,0,0,0,0,0,0,0,0,0,0,0,0,0,0,0,0,0,0,0],"id":18,"left_children":[1,3,5,7,9,11,13,15,17,-1,19,21,23,25,-1,27,-1,-1,29,-1,-1,31,33,35,-1,-1,-1,37,-1,-1,-1,39,41,43,45,47,-1,-1,-1,49,51,-1,-1,-1,-1,53,55,57,-1,-1,-1,-1,-1,-1,-1,-1,-1,-1,-1],"loss_changes":[7.542686E13,2.3222553E14,6.2181958E13,2.005239E11,2.5267824E15,2.467056E12,9.832002E13,1.7282892E10,4.9143554E10,0E0,3.483697E11,8.003141E11,1.5981386E12,3.8570736E12,0E0,3.1756124E9,0E0,0E0,9.069267E7,0E0,0E0,6.890864E11,6.304544E12,7.470137E11,0E0,0E0,0E0,1.5091106E10,0E0,0E0,0E0,3.2460243E11,3.157997E12,3.5805234E13,2.9429386E11,1.079577E12,0E0,0E0,0E0,1.2457188E11,2.6976856E11,0E0,0E0,0E0,0E0,4.9325015E9,4.7833966E11,7.950589E11,0E0,0E0,0E0,0E0,0E0,0E0,0E0,0E0,0E0,0E0,0E0],"parents":[2147483647,0,0,1,1,2,2,3,3,4,4,5,5,6,6,7,7,8,8,10,10,11,11,12,12,13,13,15,15,18,18,21,21,22,22,23,23,27,27,31,31,32,32,33,33,34,34,35,35,39,39,40,40,45,45,46,46,47,47],"right_children":[2,4,6,8,10,12,14,16,18,-1,20,22,24,26,-1,28,-1,-1,30,-1,-1,32,34,36,-1,-1,-1,38,-1,-1,-1,40,42,44,46,48,-1,-1,-1,50,52,-1,-1,-1,-1,54,56,58,-1,-1,-1,-1,-1,-1,-1,-1,-1,-1,-1],"split_conditions":[1E0,1.65E2,5E3,1E0,1.78E2,1.821E3,1E0,1E0,1.03E2,1.3918951E6,2E0,2E0,3.2E3,5.5E3,3.230026E5,1E0,-3.73715E3,-7.3653604E3,1.2E2,-1.5309445E4,4.0316501E3,1E3,4.6E1,7E0,-9.748103E3,-9.394138E3,4.3614254E4,1E0,-7.4878306E3,-3.1936234E2,6.2977577E1,2E0,1.02E3,4.2E1,3E0,2E0,3.521696E4,-1.6296147E4,-7.611323E3,4.5E2,4.9E2,4.2755414E4,-1.2366656E4,-1.0622195E4,1.633881E5,1E0,2.2E2,1E0,-1.1800105E4,-1.0078697E4,-4.4822646E3,-1.1703352E3,-1.0768419E4,-1.0454859E4,-6.2507397E3,7.8323975E3,-7.083521E3,1.790867E4,-9.959324E3],"split_indices":[3,0,0,4,0,0,5,8,0,0,2,2,0,0,0,6,0,0,0,0,0,0,0,3,0,0,0,9,0,0,0,3,0,0,3,2,0,0,0,0,0,0,0,0,0,8,0,6,0,0,0,0,0,0,0,0,0,0,0],"split_type":[0,0,0,0,0,0,0,0,0,0,0,0,0,0,0,0,0,0,0,0,0,0,0,0,0,0,0,0,0,0,0,0,0,0,0,0,0,0,0,0,0,0,0,0,0,0,0,0,0,0,0,0,0,0,0,0,0,0,0],"sum_hessian":[3.29E2,4.5E1,2.84E2,3E1,1.5E1,2.77E2,7E0,2.5E1,5E0,1E0,1.4E1,2.6E2,1.7E1,6E0,1E0,2.4E1,1E0,3E0,2E0,1.3E1,1E0,1.91E2,6.9E1,1.2E1,5E0,3E0,3E0,2.1E1,3E0,1E0,1E0,1.86E2,5E0,9E0,6E1,1.1E1,1E0,1.8E1,3E0,1.68E2,1.8E1,1E0,4E0,8E0,1E0,4.6E1,1.4E1,9E0,2E0,1.6E2,8E0,1.3E1,5E0,4E1,6E0,3E0,1.1E1,8E0,1E0],"tree_param":{"num_deleted":"0","num_feature":"13","num_nodes":"59","size_leaf_vector":"1"}},{"base_weights":[8.923009E4,1.256321E6,-1.0011995E5,-3.433214E5,4.277108E6,-1.7746472E5,2.5904578E6,-3.790606E5,-1.3123134E5,1.3661331E6,-3.584851E5,-2.0093838E5,1.7145823E5,5.1358672E5,3.170243E5,-3.8629588E5,-3.6679807E3,-7.160877E3,-4.5319585E3,-1.4783214E4,3.9570305E3,-2.340789E5,-1.07641516E5,3.5519638E5,-9.447397E3,-9.13333E3,4.24034E4,-4.0321538E5,-7.2799478E3,-3.1345117E2,6.1811543E1,-2.4384634E5,1.0772499E5,6.1667225E5,-2.2461688E5,2.2916895E5,3.4565145E4,-4.2479503E5,-7.4000117E3,-2.5735967E5,-1.1152603E5,4.1964074E4,-1.2000436E4,-1.0272683E4,1.6036403E5,-2.377482E5,1.0850502E5,2.7569758E4,5.1567156E4,-1.6395363E4,-6.6824604E3,-9.7592E3,-4.3347803E3,-1.1301073E3,-1.0436239E4,-9.655077E3,-5.3650024E3,1.1725949E4,-5.7011445E3,-1.0745204E4,1.6711973E4],"categories":[],"categories_nodes":[],"categories_segments":[],"categories_sizes":[],"default_left":[0,0,0,0,0,0,0,0,0,0,0,0,0,0,0,0,0,0,0,0,0,0,0,0,0,0,0,0,0,0,0,0,0,0,0,0,0,0,0,0,0,0,0,0,0,0,0,0,0,0,0,0,0,0,0,0,0,0,0,0,0],"id":19,"left_children":[1,3,5,7,9,11,13,15,17,-1,19,21,23,25,-1,27,-1,-1,29,-1,-1,31,33,35,-1,-1,-1,37,-1,-1,-1,39,41,43,45,47,-1,49,-1,51,53,-1,-1,-1,-1,55,57,-1,59,-1,-1,-1,-1,-1,-1,-1,-1,-1,-1,-1,-1],"loss_changes":[7.283108E13,2.2374864E14,5.956071E13,1.8523305E11,2.4332616E15,2.3032187E12,9.4856316E13,1.4390133E10,4.6420214E10,0E0,3.280436E11,7.7869875E11,1.501791E12,3.6458804E12,0E0,9.133097E8,0E0,0E0,8.736619E7,0E0,0E0,6.6393106E11,6.0693954E12,7.3390857E11,0E0,0E0,0E0,1.1600658E10,0E0,0E0,0E0,3.0388257E11,3.0261437E12,3.4425595E13,2.9263135E11,1.0604862E12,0E0,4.1353216E9,0E0,1.1712699E11,2.536346E11,0E0,0E0,0E0,0E0,8.858318E10,2.12809E11,0E0,1.4980845E12,0E0,0E0,0E0,0E0,0E0,0E0,0E0,0E0,0E0,0E0,0E0,0E0],"parents":[2147483647,0,0,1,1,2,2,3,3,4,4,5,5,6,6,7,7,8,8,10,10,11,11,12,12,13,13,15,15,18,18,21,21,22,22,23,23,27,27,31,31,32,32,33,33,34,34,35,35,37,37,39,39,40,40,45,45,46,46,48,48],"right_children":[2,4,6,8,10,12,14,16,18,-1,20,22,24,26,-1,28,-1,-1,30,-1,-1,32,34,36,-1,-1,-1,38,-1,-1,-1,40,42,44,46,48,-1,50,-1,52,54,-1,-1,-1,-1,56,58,-1,60,-1,-1,-1,-1,-1,-1,-1,-1,-1,-1,-1,-1],"split_conditions":[1E0,1.65E2,5E3,1E0,1.78E2,1.821E3,1E0,1E0,1.03E2,1.3661331E6,2E0,2E0,3.2E3,5.5E3,3.170243E5,1E0,-3.6679807E3,-7.160877E3,1.2E2,-1.4783214E4,3.9570305E3,1E3,4.6E1,7E0,-9.447397E3,-9.13333E3,4.24034E4,1E0,-7.2799478E3,-3.1345117E2,6.1811543E1,2E0,1.02E3,4.2E1,8E0,2.16E3,3.4565145E4,2E0,-7.4000117E3,4.5E2,4.9E2,4.1964074E4,-1.2000436E4,-1.0272683E4,1.6036403E5,3E0,5.4E2,2.7569758E4,3E3,-1.6395363E4,-6.6824604E3,-9.7592E3,-4.3347803E3,-1.1301073E3,-1.0436239E4,-9.655077E3,-5.3650024E3,1.1725949E4,-5.7011445E3,-1.0745204E4,1.6711973E4],"split_indices":[3,0,0,4,0,0,5,8,0,0,2,2,0,0,0,6,0,0,0,0,0,0,0,3,0,0,0,9,0,0,0,3,0,0,2,0,0,2,0,0,0,0,0,0,0,3,0,0,0,0,0,0,0,0,0,0,0,0,0,0,0],"split_type":[0,0,0,0,0,0,0,0,0,0,0,0,0,0,0,0,0,0,0,0,0,0,0,0,0,0,0,0,0,0,0,0,0,0,0,0,0,0,0,0,0,0,0,0,0,0,0,0,0,0,0,0,0,0,0,0,0,0,0,0,0],"sum_hessian":[3.28E2,4.5E1,2.83E2,3E1,1.5E1,2.76E2,7E0,2.5E1,5E0,1E0,1.4E1,2.59E2,1.7E1,6E0,1E0,2.4E1,1E0,3E0,2E0,1.3E1,1E0,1.9E2,6.9E1,1.2E1,5E0,3E0,3E0,2.1E1,3E0,1E0,1E0,1.85E2,5E0,9E0,6E1,1.1E1,1E0,1.8E1,3E0,1.67E2,1.8E1,1E0,4E0,8E0,1E0,5.8E1,2E0,2E0,9E0,1.6E1,2E0,1.59E2,8E0,1.3E1,5E0,4.5E1,1.3E1,1E0,1E0,5E0,4E0],"tree_param":{"num_deleted":"0","num_feature":"13","num_nodes":"61","size_leaf_vector":"1"}},{"base_weights":[9.2147805E4,1.2382174E6,-9.380765E4,-3.3218806E5,4.2034895E6,-1.6948808E5,2.5383535E6,-3.6662216E5,-1.2760897E5,1.340848E6,-3.4593675E5,-1.9222638E5,1.6836992E5,4.9932816E5,3.1115666E5,-1.3826116E4,-3.600092E3,-6.9620713E3,-4.4480835E3,-5.912095E4,-1.4270611E4,-1.1684112E5,-2.1524175E5,3.4728662E5,-9.155969E3,-8.879764E3,4.1226164E4,-3.076499E2,6.0667484E1,-7.1665176E3,3.8837925E3,-2.5303664E5,8.511327E5,-1.0039212E4,-1.7249255E5,4.2163106E5,-1.0084307E4,-9.706393E3,-6.8176664E4,4.569655E4,-7.3759697E3,-1.840989E5,5.75484E3,2.933284E5,3.3925395E4,-2.0178401E2,-3.23041E3,-7.0350684E3,3.2396265E3,2.2839775E3,-7.1418125E3,1.7131918E4,-1.1582526E4],"categories":[],"categories_nodes":[],"categories_segments":[],"categories_sizes":[],"default_left":[0,0,0,0,0,0,0,0,0,0,0,0,0,0,0,0,0,0,0,0,0,0,0,0,0,0,0,0,0,0,0,0,0,0,0,0,0,0,0,0,0,0,0,0,0,0,0,0,0,0,0,0,0],"id":20,"left_children":[1,3,5,7,9,11,13,15,17,-1,19,21,23,25,-1,-1,-1,-1,27,29,-1,31,33,35,-1,-1,-1,-1,-1,-1,-1,37,39,-1,41,43,-1,-1,45,-1,-1,47,49,51,-1,-1,-1,-1,-1,-1,-1,-1,-1],"loss_changes":[7.023194E13,2.1560357E14,5.70039E13,1.71595E11,2.343216E15,2.1603665E12,9.151317E13,1.1890328E10,4.384749E10,0E0,1.474809E11,4.259557E11,1.4247083E12,3.446251E12,0E0,0E0,0E0,0E0,8.416218E7,8.649238E10,0E0,8.520891E12,4.26912E11,7.137978E11,0E0,0E0,0E0,0E0,0E0,0E0,0E0,7.712932E10,3.467237E12,0E0,2.3897152E11,4.9305577E11,0E0,0E0,4.3143864E9,0E0,0E0,1.911866E11,1.0083018E11,1.2750071E12,0E0,0E0,0E0,0E0,0E0,0E0,0E0,0E0,0E0],"parents":[2147483647,0,0,1,1,2,2,3,3,4,4,5,5,6,6,7,7,8,8,10,10,11,11,12,12,13,13,18,18,19,19,21,21,22,22,23,23,31,31,32,32,34,34,35,35,38,38,41,41,42,42,43,43],"right_children":[2,4,6,8,10,12,14,16,18,-1,20,22,24,26,-1,-1,-1,-1,28,30,-1,32,34,36,-1,-1,-1,-1,-1,-1,-1,38,40,-1,42,44,-1,-1,46,-1,-1,48,50,52,-1,-1,-1,-1,-1,-1,-1,-1,-1],"split_conditions":[1E0,1.65E2,5E3,1E0,1.78E2,1.821E3,1E0,1E0,1.03E2,1.340848E6,2.29E2,4.6E1,3.2E3,5.5E3,3.1115666E5,-1.3826116E4,-3.600092E3,-6.9620713E3,1.2E2,1.9E2,-1.4270611E4,4.5E1,1.45E2,1E0,-9.155969E3,-8.879764E3,4.1226164E4,-3.076499E2,6.0667484E1,-7.1665176E3,3.8837925E3,4.2E1,1E0,-1.0039212E4,1E0,7E0,-1.0084307E4,-9.706393E3,4.4E1,4.569655E4,-7.3759697E3,5E0,4E0,2E0,3.3925395E4,-2.0178401E2,-3.23041E3,-7.0350684E3,3.2396265E3,2.2839775E3,-7.1418125E3,1.7131918E4,-1.1582526E4],"split_indices":[3,0,0,4,0,0,5,8,0,0,0,0,0,0,0,0,0,0,0,0,0,0,0,6,0,0,0,0,0,0,0,0,9,0,4,3,0,0,0,0,0,3,3,3,0,0,0,0,0,0,0,0,0],"split_type":[0,0,0,0,0,0,0,0,0,0,0,0,0,0,0,0,0,0,0,0,0,0,0,0,0,0,0,0,0,0,0,0,0,0,0,0,0,0,0,0,0,0,0,0,0,0,0,0,0,0,0,0,0],"sum_hessian":[3.28E2,4.5E1,2.83E2,3E1,1.5E1,2.76E2,7E0,2.5E1,5E0,1E0,1.4E1,2.59E2,1.7E1,6E0,1E0,2.4E1,1E0,3E0,2E0,2E0,1.2E1,6.2E1,1.97E2,1.2E1,5E0,3E0,3E0,1E0,1E0,1E0,1E0,5.5E1,7E0,8.3E1,1.14E2,1.1E1,1E0,5.2E1,3E0,5E0,2E0,1.07E2,7E0,1E1,1E0,1E0,2E0,1.05E2,2E0,6E0,1E0,8E0,2E0],"tree_param":{"num_deleted":"0","num_feature":"13","num_nodes":"53","size_leaf_vector":"1"}},{"base_weights":[9.346014E4,1.2206139E6,-8.943611E4,-3.2068612E5,4.1305945E6,-1.6353244E5,2.4873288E6,-3.5372112E5,-1.2408678E5,1.3160309E6,-3.343014E5,-1.8552767E5,1.6326152E5,4.854654E5,3.053976E5,-3.602336E5,-3.5334595E3,-6.7687847E3,-4.365771E3,-3.728911E5,3.8119087E3,-2.1844895E5,-9.1231805E4,3.366919E5,-8.873529E3,-8.633236E3,4.0081613E4,-3.7647722E5,-6.6939844E3,-3.019562E2,5.9544247E1,-1.4987075E4,-7.097198E3,-2.2796664E5,1.1459383E5,6.1204944E5,-2.0692481E5,2.1483E5,3.3297484E4,-3.9718656E5,-6.810716E3,-2.408874E5,-1.0104153E5,4.131759E4,-1.1436725E4,-9.615289E3,1.5655014E5,-2.4488458E5,-6.4708125E4,2.646661E4,4.330075E4,-1.534246E4,-6.1763486E3,-9.136475E3,-3.9989958E3,-8.3437036E2,-9.897292E3,-9.801674E3,-4.865032E3,7.9592095E3,-5.9428267E3,-1.0765065E4,1.6123811E4],"categories":[],"categories_nodes":[],"categories_segments":[],"categories_sizes":[],"default_left":[0,0,0,0,0,0,0,0,0,0,0,0,0,0,0,0,0,0,0,0,0,0,0,0,0,0,0,0,0,0,0,0,0,0,0,0,0,0,0,0,0,0,0,0,0,0,0,0,0,0,0,0,0,0,0,0,0,0,0,0,0,0,0],"id":21,"left_children":[1,3,5,7,9,11,13,15,17,-1,19,21,23,25,-1,27,-1,-1,29,31,-1,33,35,37,-1,-1,-1,39,-1,-1,-1,-1,-1,41,43,45,47,49,-1,51,-1,53,55,-1,-1,-1,-1,57,59,-1,61,-1,-1,-1,-1,-1,-1,-1,-1,-1,-1,-1,-1],"loss_changes":[6.793324E13,2.0764165E14,5.4630545E13,1.5744211E11,2.256579E15,2.02134E12,8.828645E13,9.344647E9,4.141705E10,0E0,2.9151606E11,7.8719956E11,1.3386995E12,3.2575523E12,0E0,4.771807E9,0E0,0E0,8.10755E7,3.4815345E9,0E0,6.34724E11,5.740814E12,6.9838766E11,0E0,0E0,0E0,1.4620819E10,0E0,0E0,0E0,0E0,0E0,2.8233433E11,2.8901885E12,3.2632373E13,3.0806455E11,9.985334E11,0E0,6.484132E9,0E0,1.0649338E11,2.4205833E11,0E0,0E0,0E0,0E0,7.133515E10,4.098196E11,0E0,1.4373265E12,0E0,0E0,0E0,0E0,0E0,0E0,0E0,0E0,0E0,0E0,0E0,0E0],"parents":[2147483647,0,0,1,1,2,2,3,3,4,4,5,5,6,6,7,7,8,8,10,10,11,11,12,12,13,13,15,15,18,18,19,19,21,21,22,22,23,23,27,27,33,33,34,34,35,35,36,36,37,37,39,39,41,41,42,42,47,47,48,48,50,50],"right_children":[2,4,6,8,10,12,14,16,18,-1,20,22,24,26,-1,28,-1,-1,30,32,-1,34,36,38,-1,-1,-1,40,-1,-1,-1,-1,-1,42,44,46,48,50,-1,52,-1,54,56,-1,-1,-1,-1,58,60,-1,62,-1,-1,-1,-1,-1,-1,-1,-1,-1,-1,-1,-1],"split_conditions":[1E0,1.65E2,5E3,1E0,1.78E2,1.821E3,1E0,1E0,1.03E2,1.3160309E6,2E0,2E0,3.2E3,5.5E3,3.053976E5,1E0,-3.5334595E3,-6.7687847E3,1.2E2,1E0,3.8119087E3,1E3,4.6E1,7E0,-8.873529E3,-8.633236E3,4.0081613E4,1E0,-6.6939844E3,-3.019562E2,5.9544247E1,-1.4987075E4,-7.097198E3,2E0,1.02E3,4.2E1,3E0,2.16E3,3.3297484E4,2E0,-6.810716E3,4.5E2,4.9E2,4.131759E4,-1.1436725E4,-9.615289E3,1.5655014E5,1E0,2.2E2,2.646661E4,3E3,-1.534246E4,-6.1763486E3,-9.136475E3,-3.9989958E3,-8.3437036E2,-9.897292E3,-9.801674E3,-4.865032E3,7.9592095E3,-5.9428267E3,-1.0765065E4,1.6123811E4],"split_indices":[3,0,0,4,0,0,5,8,0,0,2,2,0,0,0,6,0,0,0,6,0,0,0,3,0,0,0,9,0,0,0,0,0,3,0,0,3,0,0,2,0,0,0,0,0,0,0,11,0,0,0,0,0,0,0,0,0,0,0,0,0,0,0],"split_type":[0,0,0,0,0,0,0,0,0,0,0,0,0,0,0,0,0,0,0,0,0,0,0,0,0,0,0,0,0,0,0,0,0,0,0,0,0,0,0,0,0,0,0,0,0,0,0,0,0,0,0,0,0,0,0,0,0,0,0,0,0,0,0],"sum_hessian":[3.28E2,4.5E1,2.83E2,3E1,1.5E1,2.76E2,7E0,2.5E1,5E0,1E0,1.4E1,2.59E2,1.7E1,6E0,1E0,2.4E1,1E0,3E0,2E0,1.3E1,1E0,1.91E2,6.8E1,1.2E1,5E0,3E0,3E0,2.1E1,3E0,1E0,1E0,1E1,3E0,1.86E2,5E0,9E0,5.9E1,1.1E1,1E0,1.8E1,3E0,1.68E2,1.8E1,1E0,4E0,8E0,1E0,4.6E1,1.3E1,2E0,9E0,1.6E1,2E0,1.6E2,8E0,1.3E1,5E0,3.8E1,8E0,3E0,1E1,5E0,4E0],"tree_param":{"num_deleted":"0","num_feature":"13","num_nodes":"63","size_leaf_vector":"1"}},{"base_weights":[9.53483E4,1.2390476E6,-8.493778E4,-3.0612284E5,4.0588018E6,-1.5695733E5,2.437361E6,-3.3838856E5,-1.2066199E5,1.2916731E6,-3.2314472E5,-1.781575E5,1.60343E5,4.7198753E5,2.9974512E5,-3.4468072E5,-3.4680603E3,-6.5808643E3,-4.284979E3,-3.6066522E5,3.7413555E3,-2.092884E5,-8.978007E4,3.29238E5,-8.599803E3,-8.393554E3,3.8968836E4,-3.604323E5,-6.50814E3,-2.963678E2,5.8441833E1,-1.4482733E4,-6.90016E3,-2.1853539E5,1.15332055E5,6.040867E5,-2.0205692E5,4.0258166E5,-1.0196089E4,-3.8075316E5,-6.621631E3,-2.3073645E5,-9.786609E4,4.0552863E4,-1.1098042E4,-9.298907E3,1.5365262E5,-2.1465258E5,1.1301007E5,4.6677516E5,-5.618203E3,-1.4726668E4,-6.0239287E3,-8.748114E3,-3.8674124E3,-8.056904E2,-9.591985E3,-8.135102E3,1.516687E3,1.1558951E4,-5.2840015E3,1.2470266E4,3.26812E4],"categories":[],"categories_nodes":[],"categories_segments":[],"categories_sizes":[],"default_left":[0,0,0,0,0,0,0,0,0,0,0,0,0,0,0,0,0,0,0,0,0,0,0,0,0,0,0,0,0,0,0,0,0,0,0,0,0,0,0,0,0,0,0,0,0,0,0,0,0,0,0,0,0,0,0,0,0,0,0,0,0,0,0],"id":22,"left_children":[1,3,5,7,9,11,13,15,17,-1,19,21,23,25,-1,27,-1,-1,29,31,-1,33,35,37,-1,-1,-1,39,-1,-1,-1,-1,-1,41,43,45,47,49,-1,51,-1,53,55,-1,-1,-1,-1,57,59,61,-1,-1,-1,-1,-1,-1,-1,-1,-1,-1,-1,-1,-1],"loss_changes":[6.814895E13,1.9730754E14,5.2335833E13,1.3868964E11,2.1731669E15,1.9053507E12,8.517219E13,6.20023E9,3.9121043E10,0E0,2.7520454E11,7.020421E11,1.2702273E12,3.079186E12,0E0,4.6845133E8,0E0,0E0,7.810205E7,1.6737894E9,0E0,6.0454443E11,5.5754217E12,6.874323E11,0E0,0E0,0E0,9.365619E9,0E0,0E0,0E0,0E0,0E0,2.5420943E11,2.7699388E12,3.1378018E13,2.6633516E11,4.978758E11,0E0,2.2927114E9,0E0,9.529668E10,2.2752418E11,0E0,0E0,0E0,0E0,8.612925E10,1.9745127E11,2.9711873E11,0E0,0E0,0E0,0E0,0E0,0E0,0E0,0E0,0E0,0E0,0E0,0E0,0E0],"parents":[2147483647,0,0,1,1,2,2,3,3,4,4,5,5,6,6,7,7,8,8,10,10,11,11,12,12,13,13,15,15,18,18,19,19,21,21,22,22,23,23,27,27,33,33,34,34,35,35,36,36,37,37,39,39,41,41,42,42,47,47,48,48,49,49],"right_children":[2,4,6,8,10,12,14,16,18,-1,20,22,24,26,-1,28,-1,-1,30,32,-1,34,36,38,-1,-1,-1,40,-1,-1,-1,-1,-1,42,44,46,48,50,-1,52,-1,54,56,-1,-1,-1,-1,58,60,62,-1,-1,-1,-1,-1,-1,-1,-1,-1,-1,-1,-1,-1],"split_conditions":[1E0,1.65E2,5E3,1E0,1.78E2,1.821E3,1E0,1E0,1.03E2,1.2916731E6,2E0,2E0,3.2E3,5.5E3,2.9974512E5,1E0,-3.4680603E3,-6.5808643E3,1.2E2,1E0,3.7413555E3,1E3,4.6E1,1E0,-8.599803E3,-8.393554E3,3.8968836E4,1E0,-6.50814E3,-2.963678E2,5.8441833E1,-1.4482733E4,-6.90016E3,2E0,1.02E3,4.2E1,8E0,8E0,-1.0196089E4,2E0,-6.621631E3,4.5E2,4.9E2,4.0552863E4,-1.1098042E4,-9.298907E3,1.5365262E5,1E0,5.4E2,3E0,-5.618203E3,-1.4726668E4,-6.0239287E3,-8.748114E3,-3.8674124E3,-8.056904E2,-9.591985E3,-8.135102E3,1.516687E3,1.1558951E4,-5.2840015E3,1.2470266E4,3.26812E4],"split_indices":[3,0,0,4,0,0,5,8,0,0,2,2,0,0,0,6,0,0,0,6,0,0,0,6,0,0,0,9,0,0,0,0,0,3,0,0,2,2,0,2,0,0,0,0,0,0,0,7,0,2,0,0,0,0,0,0,0,0,0,0,0,0,0],"split_type":[0,0,0,0,0,0,0,0,0,0,0,0,0,0,0,0,0,0,0,0,0,0,0,0,0,0,0,0,0,0,0,0,0,0,0,0,0,0,0,0,0,0,0,0,0,0,0,0,0,0,0,0,0,0,0,0,0,0,0,0,0,0,0],"sum_hessian":[3.29E2,4.4E1,2.85E2,2.9E1,1.5E1,2.78E2,7E0,2.4E1,5E0,1E0,1.4E1,2.61E2,1.7E1,6E0,1E0,2.3E1,1E0,3E0,2E0,1.3E1,1E0,1.92E2,6.9E1,1.2E1,5E0,3E0,3E0,2E1,3E0,1E0,1E0,1E1,3E0,1.87E2,5E0,9E0,6E1,1.1E1,1E0,1.7E1,3E0,1.69E2,1.8E1,1E0,4E0,8E0,1E0,5.8E1,2E0,1E1,1E0,1.5E1,2E0,1.61E2,8E0,1.3E1,5E0,5.7E1,1E0,1E0,1E0,9E0,1E0],"tree_param":{"num_deleted":"0","num_feature":"13","num_nodes":"63","size_leaf_vector":"1"}},{"base_weights":[9.550195E4,1.1848394E6,-8.00401E4,-3.002687E5,3.988184E6,-1.5053364E5,2.388427E6,-3.3093606E5,-1.173319E5,1.2677661E6,-3.1235897E5,-1.7098839E5,1.5555966E5,4.5888384E5,2.941973E5,-3.368172E5,-3.4038716E3,-6.3981606E3,-4.2056665E3,-3.488418E5,3.6721082E3,-2.0150778E5,-8.43994E4,3.1930728E5,-8.33452E3,-8.1605244E3,3.788695E4,-3.5166797E5,-6.3274565E3,-2.9088232E2,5.736024E1,-1.3995363E4,-6.708593E3,-2.1056825E5,1.15971914E5,5.961605E5,-1.94583E5,2.0149488E5,3.2076316E4,-3.7058094E5,-6.4377964E3,-2.2226947E5,-9.4790625E4,3.980229E4,-1.0769389E4,-8.992936E3,1.5080873E5,-2.0681895E5,1.1091843E5,2.5505723E4,3.508598E4,-1.4294863E4,-5.8752705E3,-8.461086E3,-4.0859695E3,-8.73215E3,-4.264209E2,-7.839157E3,1.4886154E3,1.1345013E4,-5.186202E3,-1.0706069E4,1.5444842E4],"categories":[],"categories_nodes":[],"categories_segments":[],"categories_sizes":[],"default_left":[0,0,0,0,0,0,0,0,0,0,0,0,0,0,0,0,0,0,0,0,0,0,0,0,0,0,0,0,0,0,0,0,0,0,0,0,0,0,0,0,0,0,0,0,0,0,0,0,0,0,0,0,0,0,0,0,0,0,0,0,0,0,0],"id":23,"left_children":[1,3,5,7,9,11,13,15,17,-1,19,21,23,25,-1,27,-1,-1,29,31,-1,33,35,37,-1,-1,-1,39,-1,-1,-1,-1,-1,41,43,45,47,49,-1,51,-1,53,55,-1,-1,-1,-1,57,59,-1,61,-1,-1,-1,-1,-1,-1,-1,-1,-1,-1,-1,-1],"loss_changes":[6.3390156E13,1.9270793E14,5.0126685E13,1.35086735E11,2.0928472E15,1.7734351E12,8.216652E13,5.57056E9,3.6952056E10,0E0,2.5982809E11,6.7536526E11,1.194029E12,2.9105854E12,0E0,1.4758707E9,0E0,0E0,7.523769E7,8.729395E7,0E0,5.795883E11,5.36506E12,6.6350114E11,0E0,0E0,0E0,9.511109E9,0E0,0E0,0E0,0E0,0E0,2.3362221E11,2.654796E12,3.0172613E13,2.5096408E11,9.493795E11,0E0,1.4588314E9,0E0,9.4662296E10,2.2053138E11,0E0,0E0,0E0,0E0,8.069972E10,1.9020985E11,0E0,1.3600074E12,0E0,0E0,0E0,0E0,0E0,0E0,0E0,0E0,0E0,0E0,0E0,0E0],"parents":[2147483647,0,0,1,1,2,2,3,3,4,4,5,5,6,6,7,7,8,8,10,10,11,11,12,12,13,13,15,15,18,18,19,19,21,21,22,22,23,23,27,27,33,33,34,34,35,35,36,36,37,37,39,39,41,41,42,42,47,47,48,48,50,50],"right_children":[2,4,6,8,10,12,14,16,18,-1,20,22,24,26,-1,28,-1,-1,30,32,-1,34,36,38,-1,-1,-1,40,-1,-1,-1,-1,-1,42,44,46,48,50,-1,52,-1,54,56,-1,-1,-1,-1,58,60,-1,62,-1,-1,-1,-1,-1,-1,-1,-1,-1,-1,-1,-1],"split_conditions":[1E0,1.65E2,5E3,1E0,1.78E2,1.821E3,1E0,1E0,1.03E2,1.2677661E6,2E0,2E0,3.2E3,5.5E3,2.941973E5,1E0,-3.4038716E3,-6.3981606E3,1.2E2,1E0,3.6721082E3,1E3,4.6E1,7E0,-8.33452E3,-8.1605244E3,3.788695E4,1E0,-6.3274565E3,-2.9088232E2,5.736024E1,-1.3995363E4,-6.708593E3,2E0,1.02E3,4.2E1,8E0,2.16E3,3.2076316E4,2E0,-6.4377964E3,1E0,1.6E2,3.980229E4,-1.0769389E4,-8.992936E3,1.5080873E5,1E0,5.4E2,2.5505723E4,3E3,-1.4294863E4,-5.8752705E3,-8.461086E3,-4.0859695E3,-8.73215E3,-4.264209E2,-7.839157E3,1.4886154E3,1.1345013E4,-5.186202E3,-1.0706069E4,1.5444842E4],"split_indices":[3,0,0,4,0,0,5,8,0,0,2,2,0,0,0,6,0,0,0,6,0,0,0,3,0,0,0,9,0,0,0,0,0,3,0,0,2,0,0,2,0,4,0,0,0,0,0,7,0,0,0,0,0,0,0,0,0,0,0,0,0,0,0],"split_type":[0,0,0,0,0,0,0,0,0,0,0,0,0,0,0,0,0,0,0,0,0,0,0,0,0,0,0,0,0,0,0,0,0,0,0,0,0,0,0,0,0,0,0,0,0,0,0,0,0,0,0,0,0,0,0,0,0,0,0,0,0,0,0],"sum_hessian":[3.3E2,4.5E1,2.85E2,3E1,1.5E1,2.78E2,7E0,2.5E1,5E0,1E0,1.4E1,2.61E2,1.7E1,6E0,1E0,2.4E1,1E0,3E0,2E0,1.3E1,1E0,1.92E2,6.9E1,1.2E1,5E0,3E0,3E0,2.1E1,3E0,1E0,1E0,1E1,3E0,1.87E2,5E0,9E0,6E1,1.1E1,1E0,1.8E1,3E0,1.69E2,1.8E1,1E0,4E0,8E0,1E0,5.8E1,2E0,2E0,9E0,1.6E1,2E0,1.59E2,1E1,6E0,1.2E1,5.7E1,1E0,1E0,1E0,5E0,4E0],"tree_param":{"num_deleted":"0","num_feature":"13","num_nodes":"63","size_leaf_vector":"1"}},{"base_weights":[9.8288E4,1.1672359E6,-7.4588805E4,-2.9053978E5,3.918724E6,-1.4381961E5,2.340505E6,-3.2008344E5,-1.1409391E5,1.2443016E6,-3.019318E5,-1.6372514E5,1.5280053E5,4.461439E5,2.8875216E5,-3.2566662E5,-3.3408708E3,-6.2205303E3,-4.1278335E3,-1.2489834E4,3.6041423E3,-1.936699E5,-7.925198E4,3.1228138E5,-8.07742E3,-7.9339653E3,3.68351E4,-3.3985972E5,-6.151788E3,-2.8549866E2,5.6298313E1,-2.0258678E5,1.1651779E5,5.88274E5,-1.8738325E5,3.846494E5,-1.0293235E4,-1.3249319E4,-6.259065E3,-2.1384744E5,-9.176379E4,3.9065605E4,-1.0450469E4,-8.697031E3,1.480175E5,-1.9927077E5,1.0886549E5,4.4572866E5,-5.3160654E3,-8.1148237E3,-3.4797498E3,-6.315732E2,-9.282942E3,-7.553978E3,1.4610631E3,1.1135033E4,-5.0902134E3,1.1852993E4,3.148263E4],"categories":[],"categories_nodes":[],"categories_segments":[],"categories_sizes":[],"default_left":[0,0,0,0,0,0,0,0,0,0,0,0,0,0,0,0,0,0,0,0,0,0,0,0,0,0,0,0,0,0,0,0,0,0,0,0,0,0,0,0,0,0,0,0,0,0,0,0,0,0,0,0,0,0,0,0,0,0,0],"id":24,"left_children":[1,3,5,7,9,11,13,15,17,-1,19,21,23,25,-1,27,-1,-1,29,-1,-1,31,33,35,-1,-1,-1,37,-1,-1,-1,39,41,43,45,47,-1,-1,-1,49,51,-1,-1,-1,-1,53,55,57,-1,-1,-1,-1,-1,-1,-1,-1,-1,-1,-1],"loss_changes":[6.106984E13,1.8564694E14,4.798829E13,1.2507886E11,2.0155048E15,1.6664347E12,7.926572E13,3.9706952E9,3.4903065E10,0E0,2.4533166E11,6.448585E11,1.1331801E12,2.7512162E12,0E0,1.0669261E8,0E0,0E0,7.2478264E7,0E0,0E0,5.5465896E11,5.1628637E12,6.6234915E11,0E0,0E0,0E0,7.35078E9,0E0,0E0,0E0,2.137412E11,2.5445385E12,2.9014215E13,2.3651497E11,4.5120107E11,0E0,0E0,0E0,8.8175804E10,2.2141198E11,0E0,0E0,0E0,0E0,7.5620155E10,1.8323402E11,2.8655472E11,0E0,0E0,0E0,0E0,0E0,0E0,0E0,0E0,0E0,0E0,0E0],"parents":[2147483647,0,0,1,1,2,2,3,3,4,4,5,5,6,6,7,7,8,8,10,10,11,11,12,12,13,13,15,15,18,18,21,21,22,22,23,23,27,27,31,31,32,32,33,33,34,34,35,35,39,39,40,40,45,45,46,46,47,47],"right_children":[2,4,6,8,10,12,14,16,18,-1,20,22,24,26,-1,28,-1,-1,30,-1,-1,32,34,36,-1,-1,-1,38,-1,-1,-1,40,42,44,46,48,-1,-1,-1,50,52,-1,-1,-1,-1,54,56,58,-1,-1,-1,-1,-1,-1,-1,-1,-1,-1,-1],"split_conditions":[1E0,1.65E2,5E3,1E0,1.78E2,1.821E3,1E0,1E0,1.03E2,1.2443016E6,2E0,2E0,3.2E3,5.5E3,2.8875216E5,1E0,-3.3408708E3,-6.2205303E3,1.2E2,-1.2489834E4,3.6041423E3,1E3,4.6E1,1E0,-8.07742E3,-7.9339653E3,3.68351E4,1E0,-6.151788E3,-2.8549866E2,5.6298313E1,2E0,1.02E3,4.2E1,8E0,8E0,-1.0293235E4,-1.3249319E4,-6.259065E3,4.5E2,4.9E2,3.9065605E4,-1.0450469E4,-8.697031E3,1.480175E5,1E0,5.4E2,3E0,-5.3160654E3,-8.1148237E3,-3.4797498E3,-6.315732E2,-9.282942E3,-7.553978E3,1.4610631E3,1.1135033E4,-5.0902134E3,1.1852993E4,3.148263E4],"split_indices":[3,0,0,4,0,0,5,8,0,0,2,2,0,0,0,6,0,0,0,0,0,0,0,6,0,0,0,9,0,0,0,3,0,0,2,2,0,0,0,0,0,0,0,0,0,7,0,2,0,0,0,0,0,0,0,0,0,0,0],"split_type":[0,0,0,0,0,0,0,0,0,0,0,0,0,0,0,0,0,0,0,0,0,0,0,0,0,0,0,0,0,0,0,0,0,0,0,0,0,0,0,0,0,0,0,0,0,0,0,0,0,0,0,0,0,0,0,0,0,0,0],"sum_hessian":[3.29E2,4.5E1,2.84E2,3E1,1.5E1,2.77E2,7E0,2.5E1,5E0,1E0,1.4E1,2.6E2,1.7E1,6E0,1E0,2.4E1,1E0,3E0,2E0,1.3E1,1E0,1.91E2,6.9E1,1.2E1,5E0,3E0,3E0,2.1E1,3E0,1E0,1E0,1.86E2,5E0,9E0,6E1,1.1E1,1E0,1.8E1,3E0,1.68E2,1.8E1,1E0,4E0,8E0,1E0,5.8E1,2E0,1E1,1E0,1.6E2,8E0,1.3E1,5E0,5.7E1,1E0,1E0,1E0,9E0,1E0],"tree_param":{"num_deleted":"0","num_feature":"13","num_nodes":"59","size_leaf_vector":"1"}},{"base_weights":[1.00691195E5,1.1801676E6,-7.010575E4,-2.8092844E5,4.1210882E6,-1.3787311E5,2.293573E6,-3.0935034E5,-1.10945445E5,1.2212714E6,-2.977094E5,-1.5707652E5,1.482359E5,4.3375772E5,2.8340778E5,-1.1646965E4,-3.2790361E3,-6.0478315E3,-4.0514375E3,-1.2412263E4,3.5374353E3,-1.8642688E5,-7.43287E4,3.0285444E5,-7.8282515E3,-7.713696E3,3.5812457E4,-2.8021448E2,5.525605E1,-1.9516473E5,1.1697383E5,5.804299E5,-1.8044767E5,3.735791E5,-1.0102723E4,-2.039921E5,-6.1322133E4,3.834256E4,-1.0140992E4,-8.410864E3,1.452779E5,-1.9199762E5,1.0685054E5,2.5576838E5,3.0899934E4,-7.848105E3,-4.329938E3,-6.744763E3,6.2386646E3,-8.939472E3,-5.688241E3,1.0928939E4,-4.996001E3,1.5433909E4,-1.1586493E4],"categories":[],"categories_nodes":[],"categories_segments":[],"categories_sizes":[],"default_left":[0,0,0,0,0,0,0,0,0,0,0,0,0,0,0,0,0,0,0,0,0,0,0,0,0,0,0,0,0,0,0,0,0,0,0,0,0,0,0,0,0,0,0,0,0,0,0,0,0,0,0,0,0,0,0],"id":25,"left_children":[1,3,5,7,9,11,13,15,17,-1,19,21,23,25,-1,-1,-1,-1,27,-1,-1,29,31,33,-1,-1,-1,-1,-1,35,37,39,41,43,-1,45,47,-1,-1,-1,-1,49,51,53,-1,-1,-1,-1,-1,-1,-1,-1,-1,-1,-1],"loss_changes":[6.0740887E13,1.9452127E14,4.59676E13,1.1544743E11,1.9234514E15,1.5506908E12,7.646617E13,2.4788337E9,3.296745E10,0E0,2.3907585E11,6.2002876E11,1.06517535E12,2.6005739E12,0E0,0E0,0E0,0E0,6.982E7,0E0,0E0,5.3183408E11,4.968498E12,6.313371E11,0E0,0E0,0E0,0E0,0E0,2.084265E11,2.4389545E12,2.7900955E13,2.2293014E11,4.3846612E11,0E0,9.735189E10,3.91929E11,0E0,0E0,0E0,0E0,7.483595E10,1.7651399E11,1.1388773E12,0E0,0E0,0E0,0E0,0E0,0E0,0E0,0E0,0E0,0E0,0E0],"parents":[2147483647,0,0,1,1,2,2,3,3,4,4,5,5,6,6,7,7,8,8,10,10,11,11,12,12,13,13,18,18,21,21,22,22,23,23,29,29,30,30,31,31,32,32,33,33,35,35,36,36,41,41,42,42,43,43],"right_children":[2,4,6,8,10,12,14,16,18,-1,20,22,24,26,-1,-1,-1,-1,28,-1,-1,30,32,34,-1,-1,-1,-1,-1,36,38,40,42,44,-1,46,48,-1,-1,-1,-1,50,52,54,-1,-1,-1,-1,-1,-1,-1,-1,-1,-1,-1],"split_conditions":[1E0,1.65E2,5E3,1E0,1.78E2,1.821E3,1E0,1E0,1.03E2,1.2212714E6,2E0,2E0,3.2E3,5.5E3,2.8340778E5,-1.1646965E4,-3.2790361E3,-6.0478315E3,1.2E2,-1.2412263E4,3.5374353E3,1E3,4.6E1,1E0,-7.8282515E3,-7.713696E3,3.5812457E4,-2.8021448E2,5.525605E1,1E0,1.02E3,4.2E1,8E0,7E0,-1.0102723E4,2E0,1.03E2,3.834256E4,-1.0140992E4,-8.410864E3,1.452779E5,2E0,5.4E2,2E0,3.0899934E4,-7.848105E3,-4.329938E3,-6.744763E3,6.2386646E3,-8.939472E3,-5.688241E3,1.0928939E4,-4.996001E3,1.5433909E4,-1.1586493E4],"split_indices":[3,0,0,4,0,0,5,8,0,0,2,2,0,0,0,0,0,0,0,0,0,0,0,6,0,0,0,0,0,4,0,0,2,3,0,3,0,0,0,0,0,3,0,2,0,0,0,0,0,0,0,0,0,0,0],"split_type":[0,0,0,0,0,0,0,0,0,0,0,0,0,0,0,0,0,0,0,0,0,0,0,0,0,0,0,0,0,0,0,0,0,0,0,0,0,0,0,0,0,0,0,0,0,0,0,0,0,0,0,0,0,0,0],"sum_hessian":[3.28E2,4.4E1,2.84E2,3E1,1.4E1,2.77E2,7E0,2.5E1,5E0,1E0,1.3E1,2.6E2,1.7E1,6E0,1E0,2.4E1,1E0,3E0,2E0,1.2E1,1E0,1.91E2,6.9E1,1.2E1,5E0,3E0,3E0,1E0,1E0,1.86E2,5E0,9E0,6E1,1.1E1,1E0,1.74E2,1.2E1,1E0,4E0,8E0,1E0,5.8E1,2E0,1E1,1E0,1.58E2,1.6E1,8E0,4E0,2.3E1,3.5E1,1E0,1E0,8E0,2E0],"tree_param":{"num_deleted":"0","num_feature":"13","num_nodes":"55","size_leaf_vector":"1"}},{"base_weights":[1.0244689E5,1.1335432E6,-6.49224E4,-2.7121312E5,3.7844122E6,-1.3147597E5,2.24761E6,-2.9847316E5,-1.0788403E5,1.1986675E6,-2.808261E5,-1.5001975E5,1.436829E5,4.2171538E5,2.781623E5,-3.0345672E5,-3.218346E3,-5.8799263E3,-3.9764583E3,-3.142842E5,3.4719626E3,-1.7865392E5,-6.974624E4,5.5746766E4,3.0328021E4,-7.499543E3,3.48182E4,-3.1704828E5,-5.657645E3,-2.7502863E2,5.4233456E1,-1.2686391E4,-5.830991E3,-1.9925912E5,-4.0226293E4,5.7263075E5,-1.7391056E5,2.4202904E4,-6.758657E4,-3.3433875E5,-5.7619434E3,-7.8386904E3,-1.5978797E5,1.2878421E4,-9.84068E3,-8.134113E3,1.4258903E5,-1.8513836E5,1.048729E5,-1.4458846E4,4.571664E4,-1.292946E4,-5.1158887E3,-6.415893E3,6.9922876E2,-3.084663E3,3.7632895E4,-5.64423E3,-8.928707E3,1.0726661E4,-4.903532E3,9.404022E3,-7.586769E3],"categories":[],"categories_nodes":[],"categories_segments":[],"categories_sizes":[],"default_left":[0,0,0,0,0,0,0,0,0,0,0,0,0,0,0,0,0,0,0,0,0,0,0,0,0,0,0,0,0,0,0,0,0,0,0,0,0,0,0,0,0,0,0,0,0,0,0,0,0,0,0,0,0,0,0,0,0,0,0,0,0,0,0],"id":26,"left_children":[1,3,5,7,9,11,13,15,17,-1,19,21,23,25,-1,27,-1,-1,29,31,-1,33,35,37,-1,-1,-1,39,-1,-1,-1,-1,-1,41,43,45,47,-1,49,51,-1,-1,53,55,-1,-1,-1,57,59,-1,61,-1,-1,-1,-1,-1,-1,-1,-1,-1,-1,-1,-1],"loss_changes":[5.68504E13,1.7232234E14,4.400517E13,1.05822814E11,1.8691569E15,1.4349443E12,7.376441E13,1.0252452E9,3.1138939E10,0E0,2.1748869E11,5.8516675E11,1.0237254E12,2.4581799E12,0E0,2.7210547E9,0E0,0E0,6.725963E7,8.416264E9,0E0,5.3677916E11,4.78348E12,1.2981739E12,0E0,0E0,0E0,9.34989E9,0E0,0E0,0E0,0E0,0E0,4.8064627E10,3.1493603E11,2.683104E13,2.1035365E11,0E0,5.66833E11,7.421821E9,0E0,0E0,1.0968079E11,2.209276E12,0E0,0E0,0E0,7.126568E10,1.7004044E11,0E0,6.787296E11,0E0,0E0,0E0,0E0,0E0,0E0,0E0,0E0,0E0,0E0,0E0,0E0],"parents":[2147483647,0,0,1,1,2,2,3,3,4,4,5,5,6,6,7,7,8,8,10,10,11,11,12,12,13,13,15,15,18,18,19,19,21,21,22,22,23,23,27,27,33,33,34,34,35,35,36,36,38,38,39,39,42,42,43,43,47,47,48,48,50,50],"right_children":[2,4,6,8,10,12,14,16,18,-1,20,22,24,26,-1,28,-1,-1,30,32,-1,34,36,38,-1,-1,-1,40,-1,-1,-1,-1,-1,42,44,46,48,-1,50,52,-1,-1,54,56,-1,-1,-1,58,60,-1,62,-1,-1,-1,-1,-1,-1,-1,-1,-1,-1,-1,-1],"split_conditions":[1E0,1.65E2,5E3,1E0,1.78E2,1.821E3,1E0,1E0,1.03E2,1.1986675E6,2E0,2E0,8E0,5.5E3,2.781623E5,1E0,-3.218346E3,-5.8799263E3,1.2E2,1E0,3.4719626E3,3.2E2,4.6E1,2.16E3,3.0328021E4,-7.499543E3,3.48182E4,1E0,-5.657645E3,-2.7502863E2,5.4233456E1,-1.2686391E4,-5.830991E3,1.44E2,1.02E3,4.2E1,8E0,2.4202904E4,2.465E3,2E0,-5.7619434E3,-7.8386904E3,2E0,1E3,-9.84068E3,-8.134113E3,1.4258903E5,3.46E2,5.4E2,-1.4458846E4,3.2E3,-1.292946E4,-5.1158887E3,-6.415893E3,6.9922876E2,-3.084663E3,3.7632895E4,-5.64423E3,-8.928707E3,1.0726661E4,-4.903532E3,9.404022E3,-7.586769E3],"split_indices":[3,0,0,4,0,0,5,8,0,0,2,2,3,0,0,6,0,0,0,6,0,0,0,0,0,0,0,9,0,0,0,0,0,0,0,0,2,0,0,2,0,0,3,0,0,0,0,0,0,0,0,0,0,0,0,0,0,0,0,0,0,0,0],"split_type":[0,0,0,0,0,0,0,0,0,0,0,0,0,0,0,0,0,0,0,0,0,0,0,0,0,0,0,0,0,0,0,0,0,0,0,0,0,0,0,0,0,0,0,0,0,0,0,0,0,0,0,0,0,0,0,0,0,0,0,0,0,0,0],"sum_hessian":[3.28E2,4.5E1,2.83E2,3E1,1.5E1,2.76E2,7E0,2.5E1,5E0,1E0,1.4E1,2.59E2,1.7E1,6E0,1E0,2.4E1,1E0,3E0,2E0,1.3E1,1E0,1.9E2,6.9E1,1.6E1,1E0,3E0,3E0,2.1E1,3E0,1E0,1E0,1E1,3E0,1.65E2,2.5E1,9E0,6E1,2E0,1.4E1,1.8E1,3E0,1.22E2,4.3E1,2.1E1,4E0,8E0,1E0,5.8E1,2E0,3E0,1.1E1,1.6E1,2E0,4E1,3E0,2E1,1E0,3.9E1,1.9E1,1E0,1E0,6E0,5E0],"tree_param":{"num_deleted":"0","num_feature":"13","num_nodes":"63","size_leaf_vector":"1"}},{"base_weights":[1.0227846E5,1.1164706E6,-6.1774582E4,-2.624247E5,3.7183008E6,-1.2671409E5,2.2025952E6,-1.0686144E4,-1.0490728E5,1.176482E6,-2.7143378E5,-1.4467036E5,1.4069139E5,4.1000734E5,2.7301394E5,-5.716683E3,-3.902875E3,-3.03973E5,3.4077021E3,-1.7282894E5,-6.5368652E4,5.4363277E4,2.9766695E4,-7.291335E3,9.144851E5,-2.6993878E2,5.3229366E1,-1.2259469E4,-5.669107E3,-1.8122434E5,1.1763239E5,5.648792E5,-1.6761634E5,2.3605625E4,-6.592747E4,3.8237383E4,1.0347021E4,-1.8972845E5,-5.2805664E4,3.6936367E4,-9.549262E3,-7.8664673E3,1.3994992E5,-1.9971327E5,-5.5871594E4,-1.4057427E4,4.4175793E4,-7.2963784E3,-4.0549275E3,-6.2649087E3,6.194589E3,-8.1005903E3,-3.5042695E3,8.447003E3,-5.4009204E3,9.105645E3,-7.352736E3],"categories":[],"categories_nodes":[],"categories_segments":[],"categories_sizes":[],"default_left":[0,0,0,0,0,0,0,0,0,0,0,0,0,0,0,0,0,0,0,0,0,0,0,0,0,0,0,0,0,0,0,0,0,0,0,0,0,0,0,0,0,0,0,0,0,0,0,0,0,0,0,0,0,0,0,0,0],"id":27,"left_children":[1,3,5,7,9,11,13,-1,15,-1,17,19,21,23,-1,-1,25,27,-1,29,31,33,-1,-1,35,-1,-1,-1,-1,37,39,41,43,-1,45,-1,-1,47,49,-1,-1,-1,-1,51,53,-1,55,-1,-1,-1,-1,-1,-1,-1,-1,-1,-1],"loss_changes":[5.4974797E13,1.6600773E14,4.2187518E13,9.792874E10,1.8001044E15,1.355199E12,7.115707E13,0E0,2.9411623E10,0E0,2.0539887E11,5.715216E11,9.872131E11,2.3235826E12,0E0,0E0,6.479294E7,6.737625E9,0E0,4.8951774E11,4.60558E12,1.2349236E12,0E0,0E0,1.2191269E10,0E0,0E0,0E0,0E0,1.94201E11,2.241007E12,2.5802752E13,2.0762801E11,0E0,5.3507817E11,0E0,0E0,8.197033E10,3.6156198E11,0E0,0E0,0E0,0E0,7.368671E10,4.169164E11,0E0,6.368685E11,0E0,0E0,0E0,0E0,0E0,0E0,0E0,0E0,0E0,0E0],"parents":[2147483647,0,0,1,1,2,2,3,3,4,4,5,5,6,6,8,8,10,10,11,11,12,12,13,13,16,16,17,17,19,19,20,20,21,21,24,24,29,29,30,30,31,31,32,32,34,34,37,37,38,38,43,43,44,44,46,46],"right_children":[2,4,6,8,10,12,14,-1,16,-1,18,20,22,24,-1,-1,26,28,-1,30,32,34,-1,-1,36,-1,-1,-1,-1,38,40,42,44,-1,46,-1,-1,48,50,-1,-1,-1,-1,52,54,-1,56,-1,-1,-1,-1,-1,-1,-1,-1,-1,-1],"split_conditions":[1E0,1.65E2,5E3,1E0,1.78E2,1.821E3,1E0,-1.0686144E4,1.03E2,1.176482E6,2E0,2E0,8E0,5.5E3,2.7301394E5,-5.716683E3,1.2E2,1E0,3.4077021E3,1E3,4.6E1,2.16E3,2.9766695E4,-7.291335E3,6.263E3,-2.6993878E2,5.3229366E1,-1.2259469E4,-5.669107E3,1E0,1.02E3,4.2E1,3E0,2.3605625E4,2.465E3,3.8237383E4,1.0347021E4,2E0,1.03E2,3.6936367E4,-9.549262E3,-7.8664673E3,1.3994992E5,1E0,2.2E2,-1.4057427E4,3.2E3,-7.2963784E3,-4.0549275E3,-6.2649087E3,6.194589E3,-8.1005903E3,-3.5042695E3,8.447003E3,-5.4009204E3,9.105645E3,-7.352736E3],"split_indices":[3,0,0,4,0,0,5,0,0,0,2,2,3,0,0,0,0,6,0,0,0,0,0,0,0,0,0,0,0,4,0,0,3,0,0,0,0,3,0,0,0,0,0,11,0,0,0,0,0,0,0,0,0,0,0,0,0],"split_type":[0,0,0,0,0,0,0,0,0,0,0,0,0,0,0,0,0,0,0,0,0,0,0,0,0,0,0,0,0,0,0,0,0,0,0,0,0,0,0,0,0,0,0,0,0,0,0,0,0,0,0,0,0,0,0,0,0],"sum_hessian":[3.29E2,4.5E1,2.84E2,3E1,1.5E1,2.77E2,7E0,2.5E1,5E0,1E0,1.4E1,2.6E2,1.7E1,6E0,1E0,3E0,2E0,1.3E1,1E0,1.91E2,6.9E1,1.6E1,1E0,3E0,3E0,1E0,1E0,1E1,3E0,1.86E2,5E0,9E0,6E1,2E0,1.4E1,2E0,1E0,1.74E2,1.2E1,1E0,4E0,8E0,1E0,4.6E1,1.4E1,3E0,1.1E1,1.58E2,1.6E1,8E0,4E0,3.8E1,8E0,3E0,1.1E1,6E0,5E0],"tree_param":{"num_deleted":"0","num_feature":"13","num_nodes":"57","size_leaf_vector":"1"}},{"base_weights":[1.0346364E5,1.1000409E6,-5.775046E4,1.3299948E6,-5.8667974E3,-1.12990875E5,1.6488434E6,1.4963391E6,-1.00415125E5,-1.3483105E5,-4.519975E4,4.523663E4,2.6796084E5,1.654536E6,-5.3052993E3,-4.513869E3,-2.6494263E2,-1.4214208E5,-3.0798986E4,5.886946E4,-1.3164752E5,-1.0796515E4,4.550523E5,1.8326708E6,-5.057477E4,-1.4480652E5,-1.0572573E5,-5.947016E4,1.0370909E5,1.769563E5,-1.0559621E5,-2.0644922E5,-7.941113E4,2.6562564E4,-6.1544526E3,1.9067602E6,-4.476017E3,-4.7259263E3,3.3446309E3,-5.6415815E3,-3.207277E3,-6.4178895E4,-1.0298811E4,-3.2840793E4,-5.0819893E3,8.1129214E3,-2.3544136E3,2.5394417E5,-6.486656E3,-5.6535835E3,-1.7297443E4,-7.951996E3,-1.652092E3,-2.130524E4,-1.5862884E5,7.341615E4,-2.9609941E3,-7.9644574E2,-8.427304E3,-5.2047205E2,-4.0838213E3,1.1879777E4,-5.3042104E3,1.6860867E3,-6.1361177E3,-1.5092114E2,-4.8584814E3,-8.308709E3,-2.8626973E3],"categories":[],"categories_nodes":[],"categories_segments":[],"categories_sizes":[],"default_left":[0,0,0,0,0,0,0,0,0,0,0,0,0,0,0,0,0,0,0,0,0,0,0,0,0,0,0,0,0,0,0,0,0,0,0,0,0,0,0,0,0,0,0,0,0,0,0,0,0,0,0,0,0,0,0,0,0,0,0,0,0,0,0,0,0,0,0,0,0],"id":28,"left_children":[1,3,5,7,-1,9,11,13,15,17,19,21,-1,23,-1,-1,-1,25,27,29,31,-1,33,35,37,39,41,43,45,47,49,51,53,-1,-1,55,-1,-1,-1,-1,-1,57,-1,59,-1,-1,-1,61,-1,-1,63,-1,-1,65,67,-1,-1,-1,-1,-1,-1,-1,-1,-1,-1,-1,-1,-1,-1],"loss_changes":[5.3082092E13,1.3523363E13,2.7054091E13,9.42994E12,0E0,4.0402367E11,8.035007E13,9.315742E12,9.164165E9,1.545837E11,6.28512E11,1.2372569E12,0E0,9.812356E12,0E0,0E0,0E0,3.6107715E9,6.4015167E10,6.4016535E11,1.3208571E11,0E0,7.717418E11,4.428036E12,5.499441E10,6.590405E10,1.03974896E11,2.24304E10,7.189253E10,5.596733E11,5.562309E10,1.0730209E10,1.07092754E11,0E0,0E0,4.416812E12,0E0,0E0,0E0,0E0,0E0,9.97213E10,0E0,1.4455429E10,0E0,0E0,0E0,4.7171364E11,0E0,0E0,6.353412E10,0E0,0E0,2.787704E10,3.615572E10,0E0,0E0,0E0,0E0,0E0,0E0,0E0,0E0,0E0,0E0,0E0,0E0,0E0,0E0],"parents":[2147483647,0,0,1,1,2,2,3,3,5,5,6,6,7,7,8,8,9,9,10,10,11,11,13,13,17,17,18,18,19,19,20,20,22,22,23,23,24,24,25,25,26,26,27,27,28,28,29,29,30,30,31,31,32,32,35,35,41,41,43,43,47,47,50,50,53,53,54,54],"right_children":[2,4,6,8,-1,10,12,14,16,18,20,22,-1,24,-1,-1,-1,26,28,30,32,-1,34,36,38,40,42,44,46,48,50,52,54,-1,-1,56,-1,-1,-1,-1,-1,58,-1,60,-1,-1,-1,62,-1,-1,64,-1,-1,66,68,-1,-1,-1,-1,-1,-1,-1,-1,-1,-1,-1,-1,-1,-1],"split_conditions":[1E0,1E0,5E0,1E0,-5.8667974E3,2E0,1E0,1E0,2E0,1E0,3E0,5E0,2.6796084E5,2E0,-5.3052993E3,-4.513869E3,-2.6494263E2,2E0,2E0,2E0,2E0,-1.0796515E4,1E0,1E0,3E0,1E0,1E0,1E0,1E0,1E0,1E0,1E0,4E0,2.6562564E4,-6.1544526E3,1E0,-4.476017E3,-4.7259263E3,3.3446309E3,-5.6415815E3,-3.207277E3,3E0,-1.0298811E4,1E0,-5.0819893E3,8.1129214E3,-2.3544136E3,1E0,-6.486656E3,-5.6535835E3,1E0,-7.951996E3,-1.652092E3,1E0,5E0,7.341615E4,-2.9609941E3,-7.9644574E2,-8.427304E3,-5.2047205E2,-4.0838213E3,1.1879777E4,-5.3042104E3,1.6860867E3,-6.1361177E3,-1.5092114E2,-4.8584814E3,-8.308709E3,-2.8626973E3],"split_indices":[3,6,3,4,0,2,5,9,2,4,2,2,0,2,0,0,0,3,3,3,3,0,4,11,2,6,6,9,6,6,11,8,2,0,0,8,0,0,0,0,0,3,0,6,0,0,0,8,0,0,5,0,0,4,2,0,0,0,0,0,0,0,0,0,0,0,0,0,0],"split_type":[0,0,0,0,0,0,0,0,0,0,0,0,0,0,0,0,0,0,0,0,0,0,0,0,0,0,0,0,0,0,0,0,0,0,0,0,0,0,0,0,0,0,0,0,0,0,0,0,0,0,0,0,0,0,0,0,0,0,0,0,0,0,0,0,0,0,0,0,0],"sum_hessian":[3.29E2,4.5E1,2.84E2,3.8E1,7E0,2.76E2,8E0,3.4E1,4E0,2.08E2,6.8E1,7E0,1E0,3.1E1,3E0,3E0,1E0,1.94E2,1.4E1,3.1E1,3.7E1,4E0,3E0,2.8E1,3E0,1.78E2,1.6E1,1.2E1,2E0,1.8E1,1.3E1,1.4E1,2.3E1,2E0,1E0,2.7E1,1E0,2E0,1E0,1.56E2,2.2E1,1.4E1,2E0,1E1,2E0,1E0,1E0,1.5E1,3E0,8E0,5E0,1.3E1,1E0,1.4E1,9E0,2.6E1,1E0,1.2E1,2E0,9E0,1E0,1.3E1,2E0,4E0,1E0,1.3E1,1E0,4E0,5E0],"tree_param":{"num_deleted":"0","num_feature":"13","num_nodes":"69","size_leaf_vector":"1"}},{"base_weights":[9.938588E4,1.0603782E6,-5.5526816E4,-2.8650997E5,3.6037002E6,-1.1802517E5,2.1310442E6,-3.1882328E5,-9.873393E4,1.1533482E6,-3.1034788E5,-1.3539398E5,1.4134445E5,4.0551678E5,2.6300128E5,-3.3672528E5,-5.0410176E3,-5.420134E3,-2.2377083E3,-3.4518434E5,3.2827268E3,-1.6185242E5,-6.0510098E4,5.8368254E4,2.8724121E4,-6.884575E3,8.9563825E5,-3.593658E5,-5.1580093E3,-2.6003903E2,1.3578897E2,-1.4317506E4,-5.3488384E3,-1.7004208E5,1.2173236E5,5.4995725E5,-1.5959473E5,2.3162309E4,-5.8993297E4,3.7365234E4,1.0259932E4,-3.7854228E5,-4.6092993E3,-1.7792811E5,-5.0197195E4,3.631209E4,-9.117428E3,-7.8557285E3,1.3713977E5,-1.9028138E5,-5.2803617E4,-1.3536244E4,4.8150336E4,-1.4494882E4,-2.9061904E3,-6.8400625E3,-3.8112932E3,-5.996576E3,5.9626406E3,-7.730622E3,-3.2841763E3,8.216682E3,-5.182187E3,6.9637812E3,-1.0321357E4],"categories":[],"categories_nodes":[],"categories_segments":[],"categories_sizes":[],"default_left":[0,0,0,0,0,0,0,0,0,0,0,0,0,0,0,0,0,0,0,0,0,0,0,0,0,0,0,0,0,0,0,0,0,0,0,0,0,0,0,0,0,0,0,0,0,0,0,0,0,0,0,0,0,0,0,0,0,0,0,0,0,0,0,0,0],"id":29,"left_children":[1,3,5,7,9,11,13,15,17,-1,19,21,23,25,-1,27,-1,-1,29,31,-1,33,35,37,-1,-1,39,41,-1,-1,-1,-1,-1,43,45,47,49,-1,51,-1,-1,53,-1,55,57,-1,-1,-1,-1,59,61,-1,63,-1,-1,-1,-1,-1,-1,-1,-1,-1,-1,-1,-1],"loss_changes":[4.933482E13,1.5860875E14,3.9335445E13,1.5661924E11,1.735202E15,1.2760155E12,6.5778615E13,3.9155663E10,2.7283018E10,0E0,2.3912317E11,5.093096E11,9.0256664E11,2.1959245E12,0E0,5.2709294E10,0E0,0E0,1.10587416E8,6.0983607E10,0E0,4.6893525E11,4.3219262E12,1.1688627E12,0E0,0E0,1.6732652E9,4.2935517E10,0E0,0E0,0E0,0E0,0E0,1.6874734E11,2.1389623E12,2.4831483E13,1.8985334E11,0E0,5.104937E11,0E0,0E0,3.963198E10,0E0,7.139911E10,3.3315537E11,0E0,0E0,0E0,0E0,7.005589E10,3.9044144E11,0E0,6.016711E11,0E0,0E0,0E0,0E0,0E0,0E0,0E0,0E0,0E0,0E0,0E0,0E0],"parents":[2147483647,0,0,1,1,2,2,3,3,4,4,5,5,6,6,7,7,8,8,10,10,11,11,12,12,13,13,15,15,18,18,19,19,21,21,22,22,23,23,26,26,27,27,33,33,34,34,35,35,36,36,38,38,41,41,43,43,44,44,49,49,50,50,52,52],"right_children":[2,4,6,8,10,12,14,16,18,-1,20,22,24,26,-1,28,-1,-1,30,32,-1,34,36,38,-1,-1,40,42,-1,-1,-1,-1,-1,44,46,48,50,-1,52,-1,-1,54,-1,56,58,-1,-1,-1,-1,60,62,-1,64,-1,-1,-1,-1,-1,-1,-1,-1,-1,-1,-1,-1],"split_conditions":[1E0,1.65E2,5E3,1E0,1.78E2,1.821E3,1E0,1E0,1.03E2,1.1533482E6,2E0,2E0,8E0,5.5E3,2.6300128E5,1E0,-5.0410176E3,-5.420134E3,1.2E2,1E0,3.2827268E3,1E3,4.6E1,2.16E3,2.8724121E4,-6.884575E3,6.263E3,2E0,-5.1580093E3,-2.6003903E2,1.3578897E2,-1.4317506E4,-5.3488384E3,1E0,1.02E3,4.2E1,3E0,2.3162309E4,2.465E3,3.7365234E4,1.0259932E4,1E0,-4.6092993E3,2E0,1.03E2,3.631209E4,-9.117428E3,-7.8557285E3,1.3713977E5,1E0,2.2E2,-1.3536244E4,2E0,-1.4494882E4,-2.9061904E3,-6.8400625E3,-3.8112932E3,-5.996576E3,5.9626406E3,-7.730622E3,-3.2841763E3,8.216682E3,-5.182187E3,6.9637812E3,-1.0321357E4],"split_indices":[3,0,0,4,0,0,5,6,0,0,2,2,3,0,0,9,0,0,0,6,0,0,0,0,0,0,0,2,0,0,0,0,0,4,0,0,3,0,0,0,0,8,0,3,0,0,0,0,0,11,0,0,2,0,0,0,0,0,0,0,0,0,0,0,0],"split_type":[0,0,0,0,0,0,0,0,0,0,0,0,0,0,0,0,0,0,0,0,0,0,0,0,0,0,0,0,0,0,0,0,0,0,0,0,0,0,0,0,0,0,0,0,0,0,0,0,0,0,0,0,0,0,0,0,0,0,0,0,0,0,0,0,0],"sum_hessian":[3.3E2,4.5E1,2.85E2,3E1,1.5E1,2.78E2,7E0,2.5E1,5E0,1E0,1.4E1,2.61E2,1.7E1,6E0,1E0,2.2E1,3E0,3E0,2E0,1.3E1,1E0,1.92E2,6.9E1,1.6E1,1E0,3E0,3E0,1.9E1,3E0,1E0,1E0,1E1,3E0,1.87E2,5E0,9E0,6E1,2E0,1.4E1,2E0,1E0,1.7E1,2E0,1.75E2,1.2E1,1E0,4E0,8E0,1E0,4.6E1,1.4E1,3E0,1.1E1,1.6E1,1E0,1.59E2,1.6E1,8E0,4E0,3.8E1,8E0,3E0,1.1E1,8E0,3E0],"tree_param":{"num_deleted":"0","num_feature":"13","num_nodes":"65","size_leaf_vector":"1"}},{"base_weights":[1.0232948E5,1.0733961E6,-5.1897027E4,-2.7863244E5,3.5413622E6,-1.1357319E5,2.090127E6,-3.0826022E5,-6.8841484E4,1.1320015E6,-2.9995194E5,-1.3055687E5,1.3805634E5,3.9632584E5,2.5813353E5,-3.2544194E5,-4.901065E3,-4.165882E3,-2.1962917E3,-3.3381138E5,3.221968E3,-1.5577558E5,-5.706029E4,5.6576383E4,2.819248E4,-6.69344E3,3.2367365E4,-3.3908706E5,-4.495551E3,-2.5522565E2,1.3327528E2,-1.3835694E4,-5.2003394E3,-1.6380445E5,1.2175865E5,5.425278E5,-1.5771827E5,2.259071E4,-5.7935785E4,-1.2894364E4,-2.8524011E3,-1.8558689E5,-1.1973023E5,3.5640008E4,-8.847427E3,-7.597243E3,1.346015E5,-1.6880662E5,1.055331E5,-2.797526E5,8.094788E4,-4.59939E3,-7.0075757E3,-5.196955E3,5.7860654E3,-4.8234917E3,-8.84532E3,1.023237E4,-4.372583E3,-1.5486942E4,7.650502E3,1.4293281E4,-6.9169805E3],"categories":[],"categories_nodes":[],"categories_segments":[],"categories_sizes":[],"default_left":[0,0,0,0,0,0,0,0,0,0,0,0,0,0,0,0,0,0,0,0,0,0,0,0,0,0,0,0,0,0,0,0,0,0,0,0,0,0,0,0,0,0,0,0,0,0,0,0,0,0,0,0,0,0,0,0,0,0,0,0,0,0,0],"id":30,"left_children":[1,3,5,7,9,11,13,15,17,-1,19,21,23,25,-1,27,-1,-1,29,31,-1,33,35,37,-1,-1,-1,39,-1,-1,-1,-1,-1,41,43,45,47,-1,49,-1,-1,51,53,-1,-1,-1,-1,55,57,59,61,-1,-1,-1,-1,-1,-1,-1,-1,-1,-1,-1,-1],"loss_changes":[4.917837E13,1.5114097E14,3.7757133E13,1.6524798E11,1.6710283E15,1.2018104E12,6.3406183E13,3.54728E10,1.431415E10,0E0,2.2560493E11,4.7301893E11,8.714362E11,2.089501E12,0E0,2.284113E10,0E0,0E0,1.0653119E8,5.562997E10,0E0,4.5000425E11,4.1895927E12,1.1132524E12,0E0,0E0,0E0,2.4051188E10,0E0,0E0,0E0,0E0,0E0,1.5826787E11,2.050643E12,2.387967E13,1.9003723E11,0E0,4.847464E11,0E0,0E0,4.7702344E9,3.926957E11,0E0,0E0,0E0,0E0,1.2280686E11,1.4731408E11,4.9104054E11,8.8944266E11,0E0,0E0,0E0,0E0,0E0,0E0,0E0,0E0,0E0,0E0,0E0,0E0],"parents":[2147483647,0,0,1,1,2,2,3,3,4,4,5,5,6,6,7,7,8,8,10,10,11,11,12,12,13,13,15,15,18,18,19,19,21,21,22,22,23,23,27,27,33,33,34,34,35,35,36,36,38,38,41,41,42,42,47,47,48,48,49,49,50,50],"right_children":[2,4,6,8,10,12,14,16,18,-1,20,22,24,26,-1,28,-1,-1,30,32,-1,34,36,38,-1,-1,-1,40,-1,-1,-1,-1,-1,42,44,46,48,-1,50,-1,-1,52,54,-1,-1,-1,-1,56,58,60,62,-1,-1,-1,-1,-1,-1,-1,-1,-1,-1,-1,-1],"split_conditions":[1E0,1.65E2,5E3,1E0,1.78E2,1.821E3,1E0,1E0,1.03E2,1.1320015E6,2E0,2E0,8E0,5.5E3,2.5813353E5,2E0,-4.901065E3,-4.165882E3,1.2E2,1E0,3.221968E3,1E3,4.6E1,2.16E3,2.819248E4,-6.69344E3,3.2367365E4,1E0,-4.495551E3,-2.5522565E2,1.3327528E2,-1.3835694E4,-5.2003394E3,1.44E2,1.02E3,4.2E1,8E0,2.259071E4,3E3,-1.2894364E4,-2.8524011E3,2.1E1,1E0,3.5640008E4,-8.847427E3,-7.597243E3,1.346015E5,3.46E2,5.4E2,1E0,3.2E3,-4.59939E3,-7.0075757E3,-5.196955E3,5.7860654E3,-4.8234917E3,-8.84532E3,1.023237E4,-4.372583E3,-1.5486942E4,7.650502E3,1.4293281E4,-6.9169805E3],"split_indices":[3,0,0,4,0,0,5,6,0,0,2,2,3,0,0,2,0,0,0,6,0,0,0,0,0,0,0,8,0,0,0,0,0,0,0,0,2,0,0,0,0,0,4,0,0,0,0,0,0,4,0,0,0,0,0,0,0,0,0,0,0,0,0],"split_type":[0,0,0,0,0,0,0,0,0,0,0,0,0,0,0,0,0,0,0,0,0,0,0,0,0,0,0,0,0,0,0,0,0,0,0,0,0,0,0,0,0,0,0,0,0,0,0,0,0,0,0,0,0,0,0,0,0,0,0,0,0,0,0],"sum_hessian":[3.27E2,4.4E1,2.83E2,2.9E1,1.5E1,2.76E2,7E0,2.5E1,4E0,1E0,1.4E1,2.59E2,1.7E1,6E0,1E0,2.2E1,3E0,2E0,2E0,1.3E1,1E0,1.92E2,6.7E1,1.6E1,1E0,3E0,3E0,2E1,2E0,1E0,1E0,1E1,3E0,1.87E2,5E0,9E0,5.8E1,2E0,1.4E1,1.9E1,1E0,1.23E2,6.4E1,1E0,4E0,8E0,1E0,5.6E1,2E0,5E0,9E0,9E0,1.14E2,6E1,4E0,3.8E1,1.8E1,1E0,1E0,4E0,1E0,4E0,5E0],"tree_param":{"num_deleted":"0","num_feature":"13","num_nodes":"63","size_leaf_vector":"1"}},{"base_weights":[1.01468266E5,1.02986756E6,-4.820948E4,-2.6795566E5,3.4800332E6,-1.0814972E5,2.0482325E6,-2.9781638E5,-9.3899875E4,1.1110498E6,-2.8990288E5,-1.2449283E5,1.3574164E5,3.8532272E5,2.5335584E5,-3.1478338E5,-4.6568247E3,-5.153999E3,-2.155625E3,-3.228144E5,3.1623347E3,-1.4992748E5,-5.2587367E4,5.578389E4,2.767068E4,-6.5076123E3,8.501151E5,-3.36256E5,-4.764998E3,-2.5050136E2,1.3080902E2,-1.3370099E4,-5.0559634E3,-1.577995E5,1.2171694E5,5.351455E5,-1.4807492E5,2.2033215E4,-5.582184E4,3.5644367E4,9.470964E3,-3.5387638E5,-4.38461E3,-1.6517489E5,-4.5809625E4,3.4980363E4,-8.585422E3,-7.347263E3,1.3211023E5,-1.7764839E5,-4.5539754E4,-2.7070306E5,7.868908E4,-1.3540651E4,-2.7996074E3,-6.3557886E3,-3.4816797E3,-5.5686865E3,5.614719E3,-7.2324414E3,-3.0008586E3,8.122477E3,-4.814677E3,-1.5028317E4,7.508903E3,1.3870006E4,-6.7036084E3],"categories":[],"categories_nodes":[],"categories_segments":[],"categories_sizes":[],"default_left":[0,0,0,0,0,0,0,0,0,0,0,0,0,0,0,0,0,0,0,0,0,0,0,0,0,0,0,0,0,0,0,0,0,0,0,0,0,0,0,0,0,0,0,0,0,0,0,0,0,0,0,0,0,0,0,0,0,0,0,0,0,0,0,0,0,0,0],"id":31,"left_children":[1,3,5,7,9,11,13,15,17,-1,19,21,23,25,-1,27,-1,-1,29,31,-1,33,35,37,-1,-1,39,41,-1,-1,-1,-1,-1,43,45,47,49,-1,51,-1,-1,53,-1,55,57,-1,-1,-1,-1,59,61,63,65,-1,-1,-1,-1,-1,-1,-1,-1,-1,-1,-1,-1,-1,-1],"loss_changes":[4.6045644E13,1.4720705E14,3.6160626E13,1.3315552E11,1.6092355E15,1.1289771E12,6.1166164E13,3.628204E10,2.4654246E10,0E0,2.1286892E11,4.7128484E11,8.387844E11,1.975091E12,0E0,4.8604643E10,0E0,0E0,1.0262427E8,5.071438E10,0E0,4.3191606E11,4.0077238E12,1.0566929E12,0E0,0E0,2.1769748E10,3.4841035E10,0E0,0E0,0E0,0E0,0E0,1.4771552E11,1.9660442E12,2.2964871E13,1.768814E11,0E0,4.5485942E11,0E0,0E0,