{"learner":{"attributes":{"scikit_learn":"{\"_estimator_type\": \"regressor\"}"},"feature_names":["surface_numeric","pieces","chambres","sallesdebain","meuble","neuf","parking","ascenseur","balcon_terrasse","climatisation","chauffage","jardin","piscine"],"feature_types":["float","float","float","float","float","float","float","float","float","float","float","float","float"],"gradient_booster":{"model":{"cats":{"enc":[],"feature_segments":[],"sorted_idx":[]},"gbtree_model_param":{"num_parallel_tree":"1","num_trees":"364"},"iteration_indptr":[0,1,2,3,4,5,6,7,8,9,10,11,12,13,14,15,16,17,18,19,20,21,22,23,24,25,26,27,28,29,30,31,32,33,34,35,36,37,38,39,40,41,42,43,44,45,46,47,48,49,50,51,52,53,54,55,56,57,58,59,60,61,62,63,64,65,66,67,68,69,70,71,72,73,74,75,76,77,78,79,80,81,82,83,84,85,86,87,88,89,90,91,92,93,94,95,96,97,98,99,100,101,102,103,104,105,106,107,108,109,110,111,112,113,114,115,116,117,118,119,120,121,122,123,124,125,126,127,128,129,130,131,132,133,134,135,136,137,138,139,140,141,142,143,144,145,146,147,148,149,150,151,152,153,154,155,156,157,158,159,160,161,162,163,164,165,166,167,168,169,170,171,172,173,174,175,176,177,178,179,180,181,182,183,184,185,186,187,188,189,190,191,192,193,194,195,196,197,198,199,200,201,202,203,204,205,206,207,208,209,210,211,212,213,214,215,216,217,218,219,220,221,222,223,224,225,226,227,228,229,230,231,232,233,234,235,236,237,238,239,240,241,242,243,244,245,246,247,248,249,250,251,252,253,254,255,256,257,258,259,260,261,262,263,264,265,266,267,268,269,270,271,272,273,274,275,276,277,278,279,280,281,282,283,284,285,286,287,288,289,290,291,292,293,294,295,296,297,298,299,300,301,302,303,304,305,306,307,308,309,310,311,312,313,314,315,316,317,318,319,320,321,322,323,324,325,326,327,328,329,330,331,332,333,334,335,336,337,338,339,340,341,342,343,344,345,346,347,348,349,350,351,352,353,354,355,356,357,358,359,360,361,362,363,364],"tree_info":[0,0,0,0,0,0,0,0,0,0,0,0,0,0,0,0,0,0,0,0,0,0,0,0,0,0,0,0,0,0,0,0,0,0,0,0,0,0,0,0,0,0,0,0,0,0,0,0,0,0,0,0,0,0,0,0,0,0,0,0,0,0,0,0,0,0,0,0,0,0,0,0,0,0,0,0,0,0,0,0,0,0,0,0,0,0,0,0,0,0,0,0,0,0,0,0,0,0,0,0,0,0,0,0,0,0,0,0,0,0,0,0,0,0,0,0,0,0,0,0,0,0,0,0,0,0,0,0,0,0,0,0,0,0,0,0,0,0,0,0,0,0,0,0,0,0,0,0,0,0,0,0,0,0,0,0,0,0,0,0,0,0,0,0,0,0,0,0,0,0,0,0,0,0,0,0,0,0,0,0,0,0,0,0,0,0,0,0,0,0,0,0,0,0,0,0,0,0,0,0,0,0,0,0,0,0,0,0,0,0,0,0,0,0,0,0,0,0,0,0,0,0,0,0,0,0,0,0,0,0,0,0,0,0,0,0,0,0,0,0,0,0,0,0,0,0,0,0,0,0,0,0,0,0,0,0,0,0,0,0,0,0,0,0,0,0,0,0,0,0,0,0,0,0,0,0,0,0,0,0,0,0,0,0,0,0,0,0,0,0,0,0,0,0,0,0,0,0,0,0,0,0,0,0,0,0,0,0,0,0,0,0,0,0,0,0,0,0,0,0,0,0,0,0,0,0,0,0,0,0,0,0,0,0,0,0,0,0,0,0,0,0,0,0,0,0,0,0,0,0,0,0,0,0,0,0,0,0,0,0,0,0,0,0],"trees":[{"base_weights":[3.1602192E6,-5.2749895E6,3.0279306E8,9.850135E8,-1.15406456E8,-5.265125E6,-1.1020858E7,1.2346434E8,-4.4469765E6,-3.5539005E6,1.6440489E7],"categories":[],"categories_nodes":[],"categories_segments":[],"categories_sizes":[],"default_left":[0,0,0,0,0,0,0,0,0,0,0],"id":0,"left_children":[1,-1,3,-1,5,-1,7,9,-1,-1,-1],"loss_changes":[6.6201204E19,0E0,4.751883E21,0E0,8.6082415E16,0E0,1.1849772E17,2.248011E17,0E0,0E0,0E0],"parents":[2147483647,0,0,2,2,4,4,6,6,7,7],"right_children":[2,-1,4,-1,6,-1,8,10,-1,-1,-1],"split_conditions":[9.12E2,-5.2749895E6,9.26E2,9.850135E8,1E0,-5.265125E6,1.918E3,1.678E3,-4.4469765E6,-3.5539005E6,1.6440489E7],"split_indices":[0,0,0,0,6,0,0,0,0,0,0],"split_type":[0,0,0,0,0,0,0,0,0,0,0],"sum_hessian":[1.833E3,1.308E3,5.25E2,9E0,5.16E2,5.08E2,8E0,3E0,5E0,2E0,1E0],"tree_param":{"num_deleted":"0","num_feature":"13","num_nodes":"11","size_leaf_vector":"1"}},{"base_weights":[2.3841665E6,-5.0550885E6,2.8611126E8,9.451282E8,-1.0986998E8,-5.0120625E6,-2.0048852E7,1.2113118E8,-4.4028035E6,-3.4473038E6,1.6070651E7],"categories":[],"categories_nodes":[],"categories_segments":[],"categories_sizes":[],"default_left":[0,0,0,0,0,0,0,0,0,0,0],"id":1,"left_children":[1,-1,3,-1,5,-1,7,9,-1,-1,-1],"loss_changes":[6.025926E19,0E0,4.3755997E21,0E0,6.981459E16,0E0,1.2170622E17,2.1409775E17,0E0,0E0,0E0],"parents":[2147483647,0,0,2,2,4,4,6,6,7,7],"right_children":[2,-1,4,-1,6,-1,8,10,-1,-1,-1],"split_conditions":[9.12E2,-5.0550885E6,9.26E2,9.451282E8,1E0,-5.0120625E6,1.918E3,1.678E3,-4.4028035E6,-3.4473038E6,1.6070651E7],"split_indices":[0,0,0,0,6,0,0,0,0,0,0],"split_type":[0,0,0,0,0,0,0,0,0,0,0],"sum_hessian":[1.849E3,1.317E3,5.32E2,9E0,5.23E2,5.14E2,9E0,3E0,6E0,2E0,1E0],"tree_param":{"num_deleted":"0","num_feature":"13","num_nodes":"11","size_leaf_vector":"1"}},{"base_weights":[-1.1477295E8,-4.8047355E6,-1.3432514E8,-8.192243E7,-1.0487694E8,-4.7858015E6,-8.186392E6,1.1883717E8,-4.116899E6,-3.343905E6,1.5709131E7],"categories":[],"categories_nodes":[],"categories_segments":[],"categories_sizes":[],"default_left":[0,0,0,0,0,0,0,0,0,0,0],"id":2,"left_children":[1,-1,3,-1,5,-1,7,9,-1,-1,-1],"loss_changes":[2.719774E17,0E0,2.6032226E19,0E0,7.42863E16,0E0,1.06124235E17,2.0390742E17,0E0,0E0,0E0],"parents":[2147483647,0,0,2,2,4,4,6,6,7,7],"right_children":[2,-1,4,-1,6,-1,8,10,-1,-1,-1],"split_conditions":[9.12E2,-4.8047355E6,9.26E2,-8.192243E7,1E0,-4.7858015E6,1.918E3,1.678E3,-4.116899E6,-3.343905E6,1.5709131E7],"split_indices":[0,0,0,0,6,0,0,0,0,0,0],"split_type":[0,0,0,0,0,0,0,0,0,0,0],"sum_hessian":[1.834E3,1.307E3,5.27E2,8E0,5.19E2,5.11E2,8E0,3E0,5E0,2E0,1E0],"tree_param":{"num_deleted":"0","num_feature":"13","num_nodes":"11","size_leaf_vector":"1"}},{"base_weights":[9.479839E6,-4.5885775E6,2.8802512E8,9.101751E8,-1.0051204E8,-4.58783E6,-1.6756777E7,1.1658182E8,-4.0742505E6,-3.243607E6,1.5355743E7],"categories":[],"categories_nodes":[],"categories_segments":[],"categories_sizes":[],"default_left":[0,0,0,0,0,0,0,0,0,0,0],"id":3,"left_children":[1,-1,3,-1,5,-1,7,9,-1,-1,-1],"loss_changes":[5.681778E19,0E0,4.0543473E21,0E0,6.11224E16,0E0,1.08960675E17,1.9420538E17,0E0,0E0,0E0],"parents":[2147483647,0,0,2,2,4,4,6,6,7,7],"right_children":[2,-1,4,-1,6,-1,8,10,-1,-1,-1],"split_conditions":[9.12E2,-4.5885775E6,9.26E2,9.101751E8,1E0,-4.58783E6,1.918E3,1.678E3,-4.0742505E6,-3.243607E6,1.5355743E7],"split_indices":[0,0,0,0,6,0,0,0,0,0,0],"split_type":[0,0,0,0,0,0,0,0,0,0,0],"sum_hessian":[1.828E3,1.306E3,5.22E2,9E0,5.13E2,5.04E2,9E0,3E0,6E0,2E0,1E0],"tree_param":{"num_deleted":"0","num_feature":"13","num_nodes":"11","size_leaf_vector":"1"}},{"base_weights":[1.0873981E7,-4.382688E6,2.803329E8,9.847396E8,-9.5619624E7,-4.3646825E6,-1.5199078E7,1.143647E8,-3.9171312E6,-3.146318E6,1.5010306E7],"categories":[],"categories_nodes":[],"categories_segments":[],"categories_sizes":[],"default_left":[0,0,0,0,0,0,0,0,0,0,0],"id":4,"left_children":[1,-1,3,-1,5,-1,7,9,-1,-1,-1],"loss_changes":[5.3540873E19,0E0,4.2749006E21,0E0,5.6518196E16,0E0,1.0306828E17,1.8496811E17,0E0,0E0,0E0],"parents":[2147483647,0,0,2,2,4,4,6,6,7,7],"right_children":[2,-1,4,-1,6,-1,8,10,-1,-1,-1],"split_conditions":[9.12E2,-4.382688E6,9.26E2,9.847396E8,1E0,-4.3646825E6,1.918E3,1.678E3,-3.9171312E6,-3.146318E6,1.5010306E7],"split_indices":[0,0,0,0,6,0,0,0,0,0,0],"split_type":[0,0,0,0,0,0,0,0,0,0,0],"sum_hessian":[1.833E3,1.308E3,5.25E2,8E0,5.17E2,5.08E2,9E0,3E0,6E0,2E0,1E0],"tree_param":{"num_deleted":"0","num_feature":"13","num_nodes":"11","size_leaf_vector":"1"}},{"base_weights":[8.358708E6,-4.1863848E6,2.6654173E8,8.33446E8,-9.128062E7,-4.168647E6,-4.3515225E6,1.1218528E8,-3.6585775E6,-3.0519462E6,1.467264E7],"categories":[],"categories_nodes":[],"categories_segments":[],"categories_sizes":[],"default_left":[0,0,0,0,0,0,0,0,0,0,0],"id":5,"left_children":[1,-1,3,-1,5,-1,7,9,-1,-1,-1],"loss_changes":[4.8277664E19,0E0,3.3989263E21,0E0,6.0627346E16,0E0,8.984692E16,1.7617315E17,0E0,0E0,0E0],"parents":[2147483647,0,0,2,2,4,4,6,6,7,7],"right_children":[2,-1,4,-1,6,-1,8,10,-1,-1,-1],"split_conditions":[9.12E2,-4.1863848E6,9.26E2,8.33446E8,1E0,-4.168647E6,1.918E3,1.678E3,-3.6585775E6,-3.0519462E6,1.467264E7],"split_indices":[0,0,0,0,6,0,0,0,0,0,0],"split_type":[0,0,0,0,0,0,0,0,0,0,0],"sum_hessian":[1.842E3,1.323E3,5.19E2,9E0,5.1E2,5.02E2,8E0,3E0,5E0,2E0,1E0],"tree_param":{"num_deleted":"0","num_feature":"13","num_nodes":"11","size_leaf_vector":"1"}},{"base_weights":[8.267687E6,-3.9977268E6,2.4877397E8,7.996979E8,-8.744462E7,-3.9924082E6,-1.2382297E7,1.10043096E8,-3.6249822E6,-2.9604058E6,1.4342569E7],"categories":[],"categories_nodes":[],"categories_segments":[],"categories_sizes":[],"default_left":[0,0,0,0,0,0,0,0,0,0,0],"id":6,"left_children":[1,-1,3,-1,5,-1,7,9,-1,-1,-1],"loss_changes":[4.3119015E19,0E0,3.13046E21,0E0,4.955444E16,0E0,9.2346255E16,1.677992E17,0E0,0E0,0E0],"parents":[2147483647,0,0,2,2,4,4,6,6,7,7],"right_children":[2,-1,4,-1,6,-1,8,10,-1,-1,-1],"split_conditions":[9.12E2,-3.9977268E6,9.26E2,7.996979E8,1E0,-3.9924082E6,1.918E3,1.678E3,-3.6249822E6,-2.9604058E6,1.4342569E7],"split_indices":[0,0,0,0,6,0,0,0,0,0,0],"split_type":[0,0,0,0,0,0,0,0,0,0,0],"sum_hessian":[1.844E3,1.314E3,5.3E2,9E0,5.21E2,5.12E2,9E0,3E0,6E0,2E0,1E0],"tree_param":{"num_deleted":"0","num_feature":"13","num_nodes":"11","size_leaf_vector":"1"}},{"base_weights":[8.441707E6,-3.818153E6,2.4177918E8,7.673164E8,-8.3262856E7,-3.8025738E6,-1.1049484E7,1.0793765E8,-3.4851882E6,-2.8716108E6,1.4019924E7],"categories":[],"categories_nodes":[],"categories_segments":[],"categories_sizes":[],"default_left":[0,0,0,0,0,0,0,0,0,0,0],"id":7,"left_children":[1,-1,3,-1,5,-1,7,9,-1,-1,-1],"loss_changes":[4.0167684E19,0E0,2.881439E21,0E0,4.6017036E16,0E0,8.738553E16,1.5982592E17,0E0,0E0,0E0],"parents":[2147483647,0,0,2,2,4,4,6,6,7,7],"right_children":[2,-1,4,-1,6,-1,8,10,-1,-1,-1],"split_conditions":[9.12E2,-3.818153E6,9.26E2,7.673164E8,1E0,-3.8025738E6,1.918E3,1.678E3,-3.4851882E6,-2.8716108E6,1.4019924E7],"split_indices":[0,0,0,0,6,0,0,0,0,0,0],"split_type":[0,0,0,0,0,0,0,0,0,0,0],"sum_hessian":[1.843E3,1.317E3,5.26E2,9E0,5.17E2,5.08E2,9E0,3E0,6E0,2E0,1E0],"tree_param":{"num_deleted":"0","num_feature":"13","num_nodes":"11","size_leaf_vector":"1"}},{"base_weights":[8.728103E6,1.2258705E7,-3.6294638E6,1.5743472E7,-3.6388095E6,1.7207368E7,-3.5797255E6,1.7622064E7,-3.2290418E6,1.7982878E7,-3.1909598E6,-3.1027382E6,1.8285578E7,1.8523788E7,-2.9000042E6,8.512928E5,-1.3300151E6],"categories":[],"categories_nodes":[],"categories_segments":[],"categories_sizes":[],"default_left":[0,0,0,0,0,0,0,0,0,0,0,0,0,0,0,0,0],"id":8,"left_children":[1,3,-1,5,-1,7,-1,9,-1,11,-1,-1,13,15,-1,-1,-1],"loss_changes":[5.814333E17,5.757445E17,0E0,2.3953225E17,0E0,6.332833E16,0E0,5.478949E16,0E0,4.51867E16,0E0,0E0,3.3991505E16,3.2288018E16,0E0,0E0,0E0],"parents":[2147483647,0,0,1,1,3,3,5,5,7,7,9,9,12,12,13,13],"right_children":[2,4,-1,6,-1,8,-1,10,-1,12,-1,-1,14,16,-1,-1,-1],"split_conditions":[1E0,1E0,-3.6294638E6,1E0,-3.6388095E6,3E0,-3.5797255E6,1E0,-3.2290418E6,2E0,-3.1909598E6,-3.1027382E6,1E0,1E0,-2.9000042E6,8.512928E5,-1.3300151E6],"split_indices":[11,4,0,5,0,2,0,12,0,2,0,0,8,6,0,0,0],"split_type":[0,0,0,0,0,0,0,0,0,0,0,0,0,0,0,0,0],"sum_hessian":[1.838E3,1.769E3,6.9E1,1.706E3,6.3E1,1.681E3,2.5E1,1.674E3,7E0,1.668E3,6E0,5E0,1.663E3,1.659E3,4E0,1.646E3,1.3E1],"tree_param":{"num_deleted":"0","num_feature":"13","num_nodes":"17","size_leaf_vector":"1"}},{"base_weights":[8.322187E6,-8.143409E7,2.3193066E8,-6.3569884E7,-3.674044E6,7.3621165E8,-7.993596E7,-3.301481E6,-1.5056698E6,-3.6526248E6,-8.358147E6,1.0744318E8,-3.299495E6,-2.7109612E6,1.3734456E7],"categories":[],"categories_nodes":[],"categories_segments":[],"categories_sizes":[],"default_left":[0,0,0,0,0,0,0,0,0,0,0,0,0,0,0],"id":9,"left_children":[1,3,5,7,-1,-1,9,-1,-1,-1,11,13,-1,-1,-1],"loss_changes":[3.69281E19,1.3633944E14,2.6525796E21,3.746371E15,0E0,0E0,4.5638254E16,0E0,0E0,0E0,8.312507E16,1.5109456E17,0E0,0E0,0E0],"parents":[2147483647,0,0,1,1,2,2,3,3,6,6,10,10,11,11],"right_children":[2,4,6,8,-1,-1,10,-1,-1,-1,12,14,-1,-1,-1],"split_conditions":[9.12E2,1.2E2,9.26E2,1.15E2,-3.674044E6,7.3621165E8,1E0,-3.301481E6,-1.5056698E6,-3.6526248E6,1.918E3,1.678E3,-3.299495E6,-2.7109612E6,1.3734456E7],"split_indices":[0,0,0,0,0,0,6,0,0,0,0,0,0,0,0],"split_type":[0,0,0,0,0,0,0,0,0,0,0,0,0,0,0],"sum_hessian":[1.838E3,1.312E3,5.26E2,2E1,1.292E3,9E0,5.17E2,1.4E1,6E0,5.08E2,9E0,3E0,6E0,2E0,1E0],"tree_param":{"num_deleted":"0","num_feature":"13","num_nodes":"15","size_leaf_vector":"1"}},{"base_weights":[1.2508387E7,-7.77666E7,2.3964466E8,-5.9979064E7,-3.5084995E6,8.19881E8,-7.632185E7,-3.1312478E6,-1.4476051E6,-3.4887002E6,-7.2096975E6,1.05365064E8,-3.1722535E6,-2.6296482E6,1.3425491E7],"categories":[],"categories_nodes":[],"categories_segments":[],"categories_sizes":[],"default_left":[0,0,0,0,0,0,0,0,0,0,0,0,0,0,0],"id":10,"left_children":[1,3,5,7,-1,-1,9,-1,-1,-1,11,13,-1,-1,-1],"loss_changes":[3.7562783E19,3.4029885E14,2.9618024E21,3.1088906E15,0E0,0E0,4.2689913E16,0E0,0E0,0E0,7.868721E16,1.4392888E17,0E0,0E0,0E0],"parents":[2147483647,0,0,1,1,2,2,3,3,6,6,10,10,11,11],"right_children":[2,4,6,8,-1,-1,10,-1,-1,-1,12,14,-1,-1,-1],"split_conditions":[9.12E2,1.2E2,9.26E2,1.15E2,-3.5084995E6,8.19881E8,1E0,-3.1312478E6,-1.4476051E6,-3.4887002E6,1.918E3,1.678E3,-3.1722535E6,-2.6296482E6,1.3425491E7],"split_indices":[0,0,0,0,0,0,6,0,0,0,0,0,0,0,0],"split_type":[0,0,0,0,0,0,0,0,0,0,0,0,0,0,0],"sum_hessian":[1.83E3,1.31E3,5.2E2,1.9E1,1.291E3,8E0,5.12E2,1.3E1,6E0,5.03E2,9E0,3E0,6E0,2E0,1E0],"tree_param":{"num_deleted":"0","num_feature":"13","num_nodes":"15","size_leaf_vector":"1"}},{"base_weights":[7.5793815E6,1.073247E7,-3.153129E6,1.3861716E7,-3.1636255E6,1.5086592E7,-3.1090075E6,1.5449012E7,-2.8200925E6,-2.75476E6,1.571525E7,1.5979988E7,-2.7160618E6,1.618827E7,-2.5378442E6,7.4323325E5,-1.077891E6],"categories":[],"categories_nodes":[],"categories_segments":[],"categories_sizes":[],"default_left":[0,0,0,0,0,0,0,0,0,0,0,0,0,0,0,0,0],"id":11,"left_children":[1,3,-1,5,-1,7,-1,9,-1,-1,11,13,-1,15,-1,-1,-1],"loss_changes":[4.5181503E17,4.5013903E17,0E0,1.744077E17,0E0,4.8374595E16,0E0,3.515654E16,0E0,0E0,3.4602284E16,2.6016404E16,0E0,2.2482608E16,0E0,0E0,0E0],"parents":[2147483647,0,0,1,1,3,3,5,5,7,7,10,10,11,11,13,13],"right_children":[2,4,-1,6,-1,8,-1,10,-1,-1,12,14,-1,16,-1,-1,-1],"split_conditions":[1E0,1E0,-3.153129E6,1E0,-3.1636255E6,3E0,-3.1090075E6,2E0,-2.8200925E6,-2.75476E6,1E0,1E0,-2.7160618E6,1E0,-2.5378442E6,7.4323325E5,-1.077891E6],"split_indices":[11,4,0,5,0,2,0,2,0,0,12,8,0,6,0,0,0],"split_type":[0,0,0,0,0,0,0,0,0,0,0,0,0,0,0,0,0],"sum_hessian":[1.841E3,1.77E3,7.1E1,1.705E3,6.5E1,1.681E3,2.4E1,1.674E3,7E0,5E0,1.669E3,1.664E3,5E0,1.66E3,4E0,1.647E3,1.3E1],"tree_param":{"num_deleted":"0","num_feature":"13","num_nodes":"17","size_leaf_vector":"1"}},{"base_weights":[7.454141E6,-7.4621064E7,2.1239346E8,-5.8254676E7,-3.3666748E6,6.731721E8,-7.3868616E7,-3.0286715E6,-1.3728481E6,-3.3780522E6,-4.944295E6,1.0465335E8,-3.008351E6,-2.4871638E6,1.3147723E7],"categories":[],"categories_nodes":[],"categories_segments":[],"categories_sizes":[],"default_left":[0,0,0,0,0,0,0,0,0,0,0,0,0,0,0],"id":12,"left_children":[1,3,5,7,-1,-1,9,-1,-1,-1,11,13,-1,-1,-1],"loss_changes":[3.088135E19,1.1269994E14,2.2178296E21,3.225194E15,0E0,0E0,4.2796016E16,0E0,0E0,0E0,7.486152E16,1.3615333E17,0E0,0E0,0E0],"parents":[2147483647,0,0,1,1,2,2,3,3,6,6,10,10,11,11],"right_children":[2,4,6,8,-1,-1,10,-1,-1,-1,12,14,-1,-1,-1],"split_conditions":[9.12E2,1.2E2,9.26E2,1.15E2,-3.3666748E6,6.731721E8,1E0,-3.0286715E6,-1.3728481E6,-3.3780522E6,1.918E3,1.678E3,-3.008351E6,-2.4871638E6,1.3147723E7],"split_indices":[0,0,0,0,0,0,6,0,0,0,0,0,0,0,0],"split_type":[0,0,0,0,0,0,0,0,0,0,0,0,0,0,0],"sum_hessian":[1.834E3,1.31E3,5.24E2,2E1,1.29E3,9E0,5.15E2,1.4E1,6E0,5.06E2,9E0,3E0,6E0,2E0,1E0],"tree_param":{"num_deleted":"0","num_feature":"13","num_nodes":"15","size_leaf_vector":"1"}},{"base_weights":[7.368884E6,-3.20581E6,2.0110434E8,6.459138E8,-6.993634E7,-3.1981572E6,-3.9566232E6,1.0261E8,-2.892337E6,-2.4125635E6,1.2851957E7],"categories":[],"categories_nodes":[],"categories_segments":[],"categories_sizes":[],"default_left":[0,0,0,0,0,0,0,0,0,0,0],"id":13,"left_children":[1,-1,3,-1,5,-1,7,9,-1,-1,-1],"loss_changes":[2.8071755E19,0E0,2.0421105E21,0E0,3.931936E16,0E0,7.088808E16,1.2970784E17,0E0,0E0,0E0],"parents":[2147483647,0,0,2,2,4,4,6,6,7,7],"right_children":[2,-1,4,-1,6,-1,8,10,-1,-1,-1],"split_conditions":[9.12E2,-3.20581E6,9.26E2,6.459138E8,1E0,-3.1981572E6,1.918E3,1.678E3,-2.892337E6,-2.4125635E6,1.2851957E7],"split_indices":[0,0,0,0,6,0,0,0,0,0,0],"split_type":[0,0,0,0,0,0,0,0,0,0,0],"sum_hessian":[1.841E3,1.31E3,5.31E2,9E0,5.22E2,5.13E2,9E0,3E0,6E0,2E0,1E0],"tree_param":{"num_deleted":"0","num_feature":"13","num_nodes":"11","size_leaf_vector":"1"}},{"base_weights":[1.2752914E7,-6.808981E7,2.12918E8,-5.279017E7,-3.0723132E6,7.3430925E8,-6.6825652E7,-2.766874E6,-1.196277E6,-3.0569618E6,-3.0239065E6,1.006033E8,-2.780797E6,-2.3402005E6,1.2562844E7],"categories":[],"categories_nodes":[],"categories_segments":[],"categories_sizes":[],"default_left":[0,0,0,0,0,0,0,0,0,0,0,0,0,0,0],"id":14,"left_children":[1,3,5,7,-1,-1,9,-1,-1,-1,11,13,-1,-1,-1],"loss_changes":[2.964354E19,3.2930373E14,2.3758447E21,3.1560708E15,0E0,0E0,3.6880644E16,0E0,0E0,0E0,6.7133788E16,1.2356944E17,0E0,0E0,0E0],"parents":[2147483647,0,0,1,1,2,2,3,3,6,6,10,10,11,11],"right_children":[2,4,6,8,-1,-1,10,-1,-1,-1,12,14,-1,-1,-1],"split_conditions":[9.12E2,1.2E2,9.26E2,1.15E2,-3.0723132E6,7.3430925E8,1E0,-2.766874E6,-1.196277E6,-3.0569618E6,1.918E3,1.678E3,-2.780797E6,-2.3402005E6,1.2562844E7],"split_indices":[0,0,0,0,0,0,6,0,0,0,0,0,0,0,0],"split_type":[0,0,0,0,0,0,0,0,0,0,0,0,0,0,0],"sum_hessian":[1.83E3,1.304E3,5.26E2,2E1,1.284E3,8E0,5.18E2,1.4E1,6E0,5.09E2,9E0,3E0,6E0,2E0,1E0],"tree_param":{"num_deleted":"0","num_feature":"13","num_nodes":"15","size_leaf_vector":"1"}},{"base_weights":[6.654925E6,-6.5024468E7,1.9054539E8,-5.005548E7,-2.9335832E6,5.900256E8,-2.8673932E6,-2.642157E6,-1.1501438E6],"categories":[],"categories_nodes":[],"categories_segments":[],"categories_sizes":[],"default_left":[0,0,0,0,0,0,0,0,0],"id":15,"left_children":[1,3,5,7,-1,-1,-1,-1,-1],"loss_changes":[2.4344806E19,2.9521887E14,1.7030877E21,2.745867E15,0E0,0E0,0E0,0E0,0E0],"parents":[2147483647,0,0,1,1,2,2,3,3],"right_children":[2,4,6,8,-1,-1,-1,-1,-1],"split_conditions":[9.12E2,1.2E2,9.26E2,1.15E2,-2.9335832E6,5.900256E8,-2.8673932E6,-2.642157E6,-1.1501438E6],"split_indices":[0,0,0,0,0,0,0,0,0],"split_type":[0,0,0,0,0,0,0,0,0],"sum_hessian":[1.845E3,1.328E3,5.17E2,1.9E1,1.309E3,9E0,5.08E2,1.3E1,6E0],"tree_param":{"num_deleted":"0","num_feature":"13","num_nodes":"9","size_leaf_vector":"1"}},{"base_weights":[7.236128E6,-6.209095E7,1.7935387E8,-4.7614436E7,-2.8015028E6,5.661342E8,-6.0912644E7,-2.5074402E6,-1.1057898E6,-2.7898082E6,7.789614E6,1.0078323E8,-2.4972142E6,-2.184003E6,1.2344739E7],"categories":[],"categories_nodes":[],"categories_segments":[],"categories_sizes":[],"default_left":[0,0,0,0,0,0,0,0,0,0,0,0,0,0,0],"id":16,"left_children":[1,3,5,7,-1,-1,9,-1,-1,-1,11,13,-1,-1,-1],"loss_changes":[2.18594E19,3.7658273E14,1.5683665E21,2.370109E15,0E0,0E0,3.937997E16,0E0,0E0,0E0,5.856737E16,1.1700968E17,0E0,0E0,0E0],"parents":[2147483647,0,0,1,1,2,2,3,3,6,6,10,10,11,11],"right_children":[2,4,6,8,-1,-1,10,-1,-1,-1,12,14,-1,-1,-1],"split_conditions":[9.12E2,1.2E2,9.26E2,1.15E2,-2.8015028E6,5.661342E8,1E0,-2.5074402E6,-1.1057898E6,-2.7898082E6,1.918E3,1.678E3,-2.4972142E6,-2.184003E6,1.2344739E7],"split_indices":[0,0,0,0,0,0,6,0,0,0,0,0,0,0,0],"split_type":[0,0,0,0,0,0,0,0,0,0,0,0,0,0,0],"sum_hessian":[1.83E3,1.305E3,5.25E2,1.9E1,1.286E3,9E0,5.16E2,1.3E1,6E0,5.08E2,8E0,3E0,5E0,2E0,1E0],"tree_param":{"num_deleted":"0","num_feature":"13","num_nodes":"15","size_leaf_vector":"1"}},{"base_weights":[7.4883485E6,-5.928843E7,1.7416011E8,-4.5171336E7,-2.6752785E6,5.4321024E8,-5.813878E7,-2.4344468E6,-1.5297877E7,-2.663891E6,8.374871E6,-1.4885598E6,-2.3050147E5,9.878904E7,-2.3979028E6,-2.1184958E6,1.2067035E7],"categories":[],"categories_nodes":[],"categories_segments":[],"categories_sizes":[],"default_left":[0,0,0,0,0,0,0,0,0,0,0,0,0,0,0,0,0],"id":17,"left_children":[1,3,5,7,-1,-1,9,-1,11,-1,13,-1,-1,15,-1,-1,-1],"loss_changes":[2.031109E19,5.0934876E14,1.4436376E21,4.5124E15,0E0,0E0,3.701506E16,0E0,9.1639046E14,0E0,5.544931E16,0E0,0E0,1.1148577E17,0E0,0E0,0E0],"parents":[2147483647,0,0,1,1,2,2,3,3,6,6,8,8,10,10,13,13],"right_children":[2,4,6,8,-1,-1,10,-1,12,-1,14,-1,-1,16,-1,-1,-1],"split_conditions":[9.12E2,1.2E2,9.26E2,1.15E2,-2.6752785E6,5.4321024E8,1E0,-2.4344468E6,2E0,-2.663891E6,1.918E3,-1.4885598E6,-2.3050147E5,1.678E3,-2.3979028E6,-2.1184958E6,1.2067035E7],"split_indices":[0,0,0,0,0,0,6,0,2,0,0,0,0,0,0,0,0],"split_type":[0,0,0,0,0,0,0,0,0,0,0,0,0,0,0,0,0],"sum_hessian":[1.823E3,1.302E3,5.21E2,1.9E1,1.283E3,9E0,5.12E2,1.4E1,5E0,5.04E2,8E0,1E0,4E0,3E0,5E0,2E0,1E0],"tree_param":{"num_deleted":"0","num_feature":"13","num_nodes":"17","size_leaf_vector":"1"}},{"base_weights":[6.5832035E6,-2.5496068E6,1.619228E8,5.2121446E8,-5.554976E7,-2.544323E6,1.7933752E6,9.683153E7,-2.3742052E6,-2.0549534E6,1.179558E7],"categories":[],"categories_nodes":[],"categories_segments":[],"categories_sizes":[],"default_left":[0,0,0,0,0,0,0,0,0,0,0],"id":18,"left_children":[1,-1,3,-1,5,-1,7,9,-1,-1,-1],"loss_changes":[1.8166806E19,0E0,1.329669E21,0E0,3.0315322E16,0E0,5.696618E16,1.0622431E17,0E0,0E0,0E0],"parents":[2147483647,0,0,2,2,4,4,6,6,7,7],"right_children":[2,-1,4,-1,6,-1,8,10,-1,-1,-1],"split_conditions":[9.12E2,-2.5496068E6,9.26E2,5.2121446E8,1E0,-2.544323E6,1.918E3,1.678E3,-2.3742052E6,-2.0549534E6,1.179558E7],"split_indices":[0,0,0,0,6,0,0,0,0,0,0],"split_type":[0,0,0,0,0,0,0,0,0,0,0],"sum_hessian":[1.847E3,1.313E3,5.34E2,9E0,5.25E2,5.16E2,9E0,3E0,6E0,2E0,1E0],"tree_param":{"num_deleted":"0","num_feature":"13","num_nodes":"11","size_leaf_vector":"1"}},{"base_weights":[1.3806505E7,-2.4333198E6,1.8253722E8,6.1612774E8,-5.303168E7,-2.4304038E6,2.4493295E6,9.491011E7,-2.2826465E6,-1.9933168E6,1.153023E7],"categories":[],"categories_nodes":[],"categories_segments":[],"categories_sizes":[],"default_left":[0,0,0,0,0,0,0,0,0,0,0],"id":19,"left_children":[1,-1,3,-1,5,-1,7,9,-1,-1,-1],"loss_changes":[2.0961534E19,0E0,1.6717854E21,0E0,2.8464707E16,0E0,5.399022E16,1.01212725E17,0E0,0E0,0E0],"parents":[2147483647,0,0,2,2,4,4,6,6,7,7],"right_children":[2,-1,4,-1,6,-1,8,10,-1,-1,-1],"split_conditions":[9.12E2,-2.4333198E6,9.26E2,6.1612774E8,1E0,-2.4304038E6,1.918E3,1.678E3,-2.2826465E6,-1.9933168E6,1.153023E7],"split_indices":[0,0,0,0,6,0,0,0,0,0,0],"split_type":[0,0,0,0,0,0,0,0,0,0,0],"sum_hessian":[1.828E3,1.304E3,5.24E2,8E0,5.16E2,5.07E2,9E0,3E0,6E0,2E0,1E0],"tree_param":{"num_deleted":"0","num_feature":"13","num_nodes":"11","size_leaf_vector":"1"}},{"base_weights":[5.91975E6,-5.168912E7,1.4761574E8,-4.0031804E7,-5.183813E7,4.7516102E8,-5.0641404E7,-2.1229772E6,-1.8981668E7,-5.21008E7,-2.0044638E6,-2.3207518E6,3.064558E6,-5.491187E5,-1.3416775E6,-2.3552562E6,-1.9937624E6,9.302421E7,-2.1946185E6,-1.9335288E6,1.127085E7],"categories":[],"categories_nodes":[],"categories_segments":[],"categories_sizes":[],"default_left":[0,0,0,0,0,0,0,0,0,0,0,0,0,0,0,0,0,0,0,0,0],"id":20,"left_children":[1,3,5,7,9,-1,11,-1,13,15,-1,-1,17,-1,-1,-1,-1,19,-1,-1,-1],"loss_changes":[1.5109081E19,2.1083135E14,1.1050764E21,2.2670362E15,1.591543E14,0E0,2.6736274E16,0E0,1.5021058E14,8.768605E13,0E0,0E0,5.1175665E16,0E0,0E0,0E0,0E0,9.6439075E16,0E0,0E0,0E0],"parents":[2147483647,0,0,1,1,2,2,3,3,4,4,6,6,8,8,9,9,12,12,17,17],"right_children":[2,4,6,8,10,-1,12,-1,14,16,-1,-1,18,-1,-1,-1,-1,20,-1,-1,-1],"split_conditions":[9.12E2,1.2E2,9.26E2,1.15E2,1E0,4.7516102E8,1E0,-2.1229772E6,1E0,1E0,-2.0044638E6,-2.3207518E6,1.918E3,-5.491187E5,-1.3416775E6,-2.3552562E6,-1.9937624E6,1.678E3,-2.1946185E6,-1.9335288E6,1.127085E7],"split_indices":[0,0,0,0,11,0,6,0,4,4,0,0,0,0,0,0,0,0,0,0,0],"split_type":[0,0,0,0,0,0,0,0,0,0,0,0,0,0,0,0,0,0,0,0,0],"sum_hessian":[1.849E3,1.315E3,5.34E2,2E1,1.295E3,9E0,5.25E2,1.4E1,6E0,1.244E3,5.1E1,5.16E2,9E0,5E0,1E0,1.2E3,4.4E1,3E0,6E0,2E0,1E0],"tree_param":{"num_deleted":"0","num_feature":"13","num_nodes":"21","size_leaf_vector":"1"}},{"base_weights":[6.102522E6,-4.933372E7,1.4510309E8,-3.7617636E7,-4.9476016E7,4.559208E8,-4.8377436E7,-2.0039386E6,-1.8397772E7,-4.97376E7,-1.9188971E6,-2.2183488E6,3.6409508E6,-1.3306268E6,-1.1605663E7,-2.2485518E6,-1.9073132E6,9.1173256E7,-2.1099855E6,-1.0198618E5,-1.3114956E6,-1.875534E6,1.1017305E7],"categories":[],"categories_nodes":[],"categories_segments":[],"categories_sizes":[],"default_left":[0,0,0,0,0,0,0,0,0,0,0,0,0,0,0,0,0,0,0,0,0,0,0],"id":21,"left_children":[1,3,5,7,9,-1,11,-1,13,15,-1,-1,17,-1,19,-1,-1,21,-1,-1,-1,-1,-1],"loss_changes":[1.4216413E19,3.3782495E14,1.0170207E21,1.8417206E15,1.9983624E14,0E0,2.51571E16,0E0,1.8818856E14,7.669094E13,0E0,0E0,4.8513412E16,0E0,9.169876E14,0E0,0E0,9.189199E16,0E0,0E0,0E0,0E0,0E0],"parents":[2147483647,0,0,1,1,2,2,3,3,4,4,6,6,8,8,9,9,12,12,14,14,17,17],"right_children":[2,4,6,8,10,-1,12,-1,14,16,-1,-1,18,-1,20,-1,-1,22,-1,-1,-1,-1,-1],"split_conditions":[9.12E2,1.2E2,9.26E2,1.15E2,1E0,4.559208E8,1E0,-2.0039386E6,2E0,1E0,-1.9188971E6,-2.2183488E6,1.918E3,-1.3306268E6,1E0,-2.2485518E6,-1.9073132E6,1.678E3,-2.1099855E6,-1.0198618E5,-1.3114956E6,-1.875534E6,1.1017305E7],"split_indices":[0,0,0,0,11,0,6,0,2,4,0,0,0,0,4,0,0,0,0,0,0,0,0],"split_type":[0,0,0,0,0,0,0,0,0,0,0,0,0,0,0,0,0,0,0,0,0,0,0],"sum_hessian":[1.843E3,1.318E3,5.25E2,1.9E1,1.299E3,9E0,5.16E2,1.3E1,6E0,1.245E3,5.4E1,5.07E2,9E0,1E0,5E0,1.2E3,4.5E1,3E0,6E0,4E0,1E0,2E0,1E0],"tree_param":{"num_deleted":"0","num_feature":"13","num_nodes":"23","size_leaf_vector":"1"}},{"base_weights":[5.8075495E6,-4.7143384E7,1.3703152E8,-4.7382976E7,-1.8341546E6,4.3745955E8,-4.6172256E7,-3.670513E7,-4.751613E7,-2.1173042E6,4.1803168E6,-1.9550905E6,-1.7962048E7,-2.1480582E6,-1.8233662E6,8.9356696E7,-2.028616E6,-1.3006934E6,-1.1319091E7,-1.8192789E6,1.0769464E7,-9.831546E4,-1.2819928E6],"categories":[],"categories_nodes":[],"categories_segments":[],"categories_sizes":[],"default_left":[0,0,0,0,0,0,0,0,0,0,0,0,0,0,0,0,0,0,0,0,0,0,0],"id":22,"left_children":[1,3,5,7,-1,-1,9,11,13,-1,15,-1,17,-1,-1,19,-1,-1,21,-1,-1,-1,-1],"loss_changes":[1.2881906E19,8.631166E13,9.3651594E20,5.7449483E13,0E0,0E0,2.3628024E16,1.7496816E15,5.140217E13,0E0,4.599491E16,0E0,1.8184892E14,0E0,0E0,8.7560665E16,0E0,0E0,8.789888E14,0E0,0E0,0E0,0E0],"parents":[2147483647,0,0,1,1,2,2,3,3,6,6,7,7,8,8,10,10,12,12,15,15,18,18],"right_children":[2,4,6,8,-1,-1,10,12,14,-1,16,-1,18,-1,-1,20,-1,-1,22,-1,-1,-1,-1],"split_conditions":[9.12E2,1E0,9.26E2,1.2E2,-1.8341546E6,4.3745955E8,1E0,1.15E2,1E0,-2.1173042E6,1.918E3,-1.9550905E6,2E0,-2.1480582E6,-1.8233662E6,1.678E3,-2.028616E6,-1.3006934E6,1E0,-1.8192789E6,1.0769464E7,-9.831546E4,-1.2819928E6],"split_indices":[0,11,0,0,0,0,6,0,4,0,0,0,2,0,0,0,0,0,4,0,0,0,0],"split_type":[0,0,0,0,0,0,0,0,0,0,0,0,0,0,0,0,0,0,0,0,0,0,0],"sum_hessian":[1.852E3,1.32E3,5.32E2,1.266E3,5.4E1,9E0,5.23E2,1.9E1,1.247E3,5.14E2,9E0,1.3E1,6E0,1.202E3,4.5E1,3E0,6E0,1E0,5E0,2E0,1E0,4E0,1E0],"tree_param":{"num_deleted":"0","num_feature":"13","num_nodes":"23","size_leaf_vector":"1"}},{"base_weights":[6.386E6,-4.5017816E7,1.3547416E8,-3.389741E7,-4.515511E7,4.197459E8,-4.4010572E7,-1.8679451E6,-9.196533E6,-2.0962632E6,-4.4019824E7,-2.0201879E6,1.088516E7,-1.2714335E6,2.6798E5,6.0510696E7,-2.029135E6,8.757397E7,-1.8921044E6,6.416477E5,-1.2531535E6,3.359176E6,-8.673005E5,-1.7647111E6,1.0527198E7],"categories":[],"categories_nodes":[],"categories_segments":[],"categories_sizes":[],"default_left":[0,0,0,0,0,0,0,0,0,0,0,0,0,0,0,0,0,0,0,0,0,0,0,0,0],"id":23,"left_children":[1,3,5,7,9,-1,11,-1,13,-1,15,-1,17,-1,19,21,-1,23,-1,-1,-1,-1,-1,-1,-1],"loss_changes":[1.2162561E19,4.7114073E14,8.618076E20,3.3828494E15,5.7449483E13,0E0,2.5586048E16,0E0,1.09010605E15,0E0,8.633159E16,0E0,4.022211E16,0E0,2.3648208E15,1.0472612E16,0E0,8.343475E16,0E0,0E0,0E0,0E0,0E0,0E0,0E0],"parents":[2147483647,0,0,1,1,2,2,3,3,4,4,6,6,8,8,10,10,12,12,14,14,15,15,17,17],"right_children":[2,4,6,8,10,-1,12,-1,14,-1,16,-1,18,-1,20,22,-1,24,-1,-1,-1,-1,-1,-1,-1],"split_conditions":[9.12E2,1.2E2,9.26E2,1.15E2,3.89E2,4.197459E8,1E0,-1.8679451E6,2E0,-2.0962632E6,3.93E2,-2.0201879E6,1.918E3,-1.2714335E6,1E0,1E0,-2.029135E6,1.678E3,-1.8921044E6,6.416477E5,-1.2531535E6,3.359176E6,-8.673005E5,-1.7647111E6,1.0527198E7],"split_indices":[0,0,0,0,0,0,6,0,2,0,0,0,0,0,4,4,0,0,0,0,0,0,0,0,0],"split_type":[0,0,0,0,0,0,0,0,0,0,0,0,0,0,0,0,0,0,0,0,0,0,0,0,0],"sum_hessian":[1.831E3,1.31E3,5.21E2,1.9E1,1.291E3,9E0,5.12E2,1.4E1,5E0,5.52E2,7.39E2,5.04E2,8E0,1E0,4E0,7E0,7.32E2,3E0,5E0,3E0,1E0,6E0,1E0,2E0,1E0],"tree_param":{"num_deleted":"0","num_feature":"13","num_nodes":"25","size_leaf_vector":"1"}},{"base_weights":[5.950664E6,-4.3099348E7,1.2722508E8,-1.949618E6,-1.6629621E6,4.0274947E8,-4.207031E7,-4.290819E7,5.11988E6,-1.9433811E6,-1.4681518E6,8.582453E7,-1.8774175E6,-1.71178E6,1.0290381E7],"categories":[],"categories_nodes":[],"categories_segments":[],"categories_sizes":[],"default_left":[0,0,0,0,0,0,0,0,0,0,0,0,0,0,0],"id":24,"left_children":[1,3,5,-1,-1,-1,7,9,11,-1,-1,13,-1,-1,-1],"loss_changes":[1.0968591E19,2.8284937E14,7.9366226E20,0E0,0E0,0E0,2.0859385E16,1.00399156E14,4.1390123E16,0E0,0E0,7.950447E16,0E0,0E0,0E0],"parents":[2147483647,0,0,1,1,2,2,6,6,7,7,8,8,11,11],"right_children":[2,4,6,-1,-1,-1,8,10,12,-1,-1,14,-1,-1,-1],"split_conditions":[9.12E2,1E0,9.26E2,-1.949618E6,-1.6629621E6,4.0274947E8,1E0,1E0,1.918E3,-1.9433811E6,-1.4681518E6,1.678E3,-1.8774175E6,-1.71178E6,1.0290381E7],"split_indices":[0,11,0,0,0,0,6,11,0,0,0,0,0,0,0],"split_type":[0,0,0,0,0,0,0,0,0,0,0,0,0,0,0],"sum_hessian":[1.842E3,1.312E3,5.3E2,1.258E3,5.4E1,9E0,5.21E2,5.12E2,9E0,4.95E2,1.7E1,3E0,6E0,2E0,1E0],"tree_param":{"num_deleted":"0","num_feature":"13","num_nodes":"15","size_leaf_vector":"1"}},{"base_weights":[5.630661E6,-4.107902E7,1.2287986E8,-4.129934E7,-1.5898634E6,3.8644128E8,-4.0171212E7,-4.1500492E7,-1.5882441E6,-4.099964E7,1.1420717E7,-3.0767448E7,-1.8728056E6,-4.12918E7,-1.4283819E6,8.410782E7,-1.751997E6,-1.713874E6,-9.766496E6,-1.869654E6,-1.3866579E6,-1.6604366E6,1.0058893E7,-1.1989739E6,-4.7699113E4],"categories":[],"categories_nodes":[],"categories_segments":[],"categories_sizes":[],"default_left":[0,0,0,0,0,0,0,0,0,0,0,0,0,0,0,0,0,0,0,0,0,0,0,0,0],"id":25,"left_children":[1,3,5,7,-1,-1,9,11,-1,13,15,17,-1,19,-1,21,-1,-1,23,-1,-1,-1,-1,-1,-1],"loss_changes":[1.0169751E19,2.2058952E14,7.306032E20,7.09185E13,0E0,0E0,2.2693164E16,3.7026054E14,0E0,7.2980084E13,3.622093E16,2.397322E15,0E0,8.266953E13,0E0,7.576049E16,0E0,0E0,8.536543E14,0E0,0E0,0E0,0E0,0E0,0E0],"parents":[2147483647,0,0,1,1,2,2,3,3,6,6,7,7,9,9,10,10,11,11,13,13,15,15,18,18],"right_children":[2,4,6,8,-1,-1,10,12,-1,14,16,18,-1,20,-1,22,-1,-1,24,-1,-1,-1,-1,-1,-1],"split_conditions":[9.12E2,1E0,9.26E2,1E0,-1.5898634E6,3.8644128E8,1E0,1.2E2,-1.5882441E6,1E0,1.918E3,1.15E2,-1.8728056E6,1E0,-1.4283819E6,1.678E3,-1.751997E6,-1.713874E6,2E0,-1.869654E6,-1.3866579E6,-1.6604366E6,1.0058893E7,-1.1989739E6,-4.7699113E4],"split_indices":[0,11,0,4,0,0,6,0,0,4,0,0,0,11,0,0,0,0,2,0,0,0,0,0,0],"split_type":[0,0,0,0,0,0,0,0,0,0,0,0,0,0,0,0,0,0,0,0,0,0,0,0,0],"sum_hessian":[1.855E3,1.327E3,5.28E2,1.272E3,5.5E1,9E0,5.19E2,1.225E3,4.7E1,5.11E2,8E0,1.7E1,1.208E3,4.92E2,1.9E1,3E0,5E0,1.2E1,5E0,4.77E2,1.5E1,2E0,1E0,1E0,4E0],"tree_param":{"num_deleted":"0","num_feature":"13","num_nodes":"25","size_leaf_vector":"1"}},{"base_weights":[5.4768555E6,-3.9358612E7,1.1780898E8,-3.957329E7,-1.5196105E6,3.707934E8,-3.834115E7,-3.977375E7,-1.5009769E6,-3.914369E7,1.1663492E7,-2.9547658E7,-1.7948331E6,-3.941881E7,-1.3673305E6,8.242332E7,-1.6850875E6,-1.6426962E6,-9.534868E6,-1.7846758E6,-1.3281696E6,-1.6106331E6,9.832612E6,-1.1720021E6,-4.598228E4],"categories":[],"categories_nodes":[],"categories_segments":[],"categories_sizes":[],"default_left":[0,0,0,0,0,0,0,0,0,0,0,0,0,0,0,0,0,0,0,0,0,0,0,0,0],"id":26,"left_children":[1,3,5,7,-1,-1,9,11,-1,13,15,17,-1,19,-1,21,-1,-1,23,-1,-1,-1,-1,-1,-1],"loss_changes":[9.357349E18,2.5522414E14,6.72625E20,2.5811035E14,0E0,0E0,2.1364542E16,3.1762142E14,0E0,3.7314676E13,3.4366735E16,2.1604319E15,0E0,4.329327E13,0E0,7.219392E16,0E0,0E0,8.168974E14,0E0,0E0,0E0,0E0,0E0,0E0],"parents":[2147483647,0,0,1,1,2,2,3,3,6,6,7,7,9,9,10,10,11,11,13,13,15,15,18,18],"right_children":[2,4,6,8,-1,-1,10,12,-1,14,16,18,-1,20,-1,22,-1,-1,24,-1,-1,-1,-1,-1,-1],"split_conditions":[9.12E2,1E0,9.26E2,1E0,-1.5196105E6,3.707934E8,1E0,1.2E2,-1.5009769E6,1E0,1.918E3,1.15E2,-1.7948331E6,1E0,-1.3673305E6,1.678E3,-1.6850875E6,-1.6426962E6,2E0,-1.7846758E6,-1.3281696E6,-1.6106331E6,9.832612E6,-1.1720021E6,-4.598228E4],"split_indices":[0,11,0,4,0,0,6,0,0,4,0,0,0,11,0,0,0,0,2,0,0,0,0,0,0],"split_type":[0,0,0,0,0,0,0,0,0,0,0,0,0,0,0,0,0,0,0,0,0,0,0,0,0],"sum_hessian":[1.856E3,1.327E3,5.29E2,1.272E3,5.5E1,9E0,5.2E2,1.227E3,4.5E1,5.12E2,8E0,1.7E1,1.21E3,4.93E2,1.9E1,3E0,5E0,1.2E1,5E0,4.78E2,1.5E1,2E0,1E0,1E0,4E0],"tree_param":{"num_deleted":"0","num_feature":"13","num_nodes":"25","size_leaf_vector":"1"}},{"base_weights":[5.940935E6,-3.7436564E7,1.1229826E8,-3.763717E7,-1.4524622E6,3.557792E8,-3.6683956E7,-3.7819476E7,-1.4521519E6,-1.6847935E6,6.286964E6,-2.794368E7,-3.792887E7,8.077049E7,-1.6724695E6,-1.5716554E6,-9.308878E6,-1.7616269E6,-3.6924084E7,-1.5623236E6,9.611421E6,-1.1456372E6,-4.4327176E4,3.4462568E6,-1.7125272E6],"categories":[],"categories_nodes":[],"categories_segments":[],"categories_sizes":[],"default_left":[0,0,0,0,0,0,0,0,0,0,0,0,0,0,0,0,0,0,0,0,0,0,0,0,0],"id":27,"left_children":[1,3,5,7,-1,-1,9,11,-1,-1,13,15,17,19,-1,-1,21,-1,23,-1,-1,-1,-1,-1,-1],"loss_changes":[8.488458E18,1.3606456E14,6.1930645E20,2.886218E12,0E0,0E0,1.7419219E16,2.4203E14,0E0,0E0,3.5373147E16,1.8887988E15,1.8829137E13,6.879628E16,0E0,0E0,7.817055E14,0E0,8.971135E16,0E0,0E0,0E0,0E0,0E0,0E0],"parents":[2147483647,0,0,1,1,2,2,3,3,6,6,7,7,10,10,11,11,12,12,13,13,16,16,18,18],"right_children":[2,4,6,8,-1,-1,10,12,-1,-1,14,16,18,20,-1,-1,22,-1,24,-1,-1,-1,-1,-1,-1],"split_conditions":[9.12E2,1E0,9.26E2,1E0,-1.4524622E6,3.557792E8,1E0,1.2E2,-1.4521519E6,-1.6847935E6,1.918E3,1.15E2,3.89E2,1.678E3,-1.6724695E6,-1.5716554E6,2E0,-1.7616269E6,3.93E2,-1.5623236E6,9.611421E6,-1.1456372E6,-4.4327176E4,3.4462568E6,-1.7125272E6],"split_indices":[0,11,0,4,0,0,6,0,0,0,0,0,0,0,0,0,2,0,0,0,0,0,0,0,0],"split_type":[0,0,0,0,0,0,0,0,0,0,0,0,0,0,0,0,0,0,0,0,0,0,0,0,0],"sum_hessian":[1.838E3,1.306E3,5.32E2,1.251E3,5.5E1,9E0,5.23E2,1.204E3,4.7E1,5.14E2,9E0,1.6E1,1.188E3,3E0,6E0,1.1E1,5E0,5.18E2,6.7E2,2E0,1E0,1E0,4E0,6E0,6.64E2],"tree_param":{"num_deleted":"0","num_feature":"13","num_nodes":"25","size_leaf_vector":"1"}},{"base_weights":[5.686132E6,7.1432445E6,-1.3648088E6,8.594268E6,-1.3759081E6,9.138766E6,-1.2819022E6,9.301074E6,-1.1737508E6,-1.3167168E6,9.433672E6,9.577728E6,-1.1815146E6,9.670224E6,-1.04106025E6,4.4117356E5,-2.6508497E5],"categories":[],"categories_nodes":[],"categories_segments":[],"categories_sizes":[],"default_left":[0,0,0,0,0,0,0,0,0,0,0,0,0,0,0,0,0],"id":28,"left_children":[1,3,-1,5,-1,7,-1,9,-1,-1,11,13,-1,15,-1,-1,-1],"loss_changes":[9.715979E16,9.748054E16,0E0,3.48115E16,0E0,9.888372E15,0E0,8.8674754E15,0E0,0E0,8.8644E15,5.2744775E15,0E0,3.569513E15,0E0,0E0,0E0],"parents":[2147483647,0,0,1,1,3,3,5,5,7,7,10,10,11,11,13,13],"right_children":[2,4,-1,6,-1,8,-1,10,-1,-1,12,14,-1,16,-1,-1,-1],"split_conditions":[1E0,1E0,-1.3648088E6,1E0,-1.3759081E6,3E0,-1.2819022E6,2E0,-1.1737508E6,-1.3167168E6,1E0,1E0,-1.1815146E6,1E0,-1.04106025E6,4.4117356E5,-2.6508497E5],"split_indices":[11,4,0,5,0,2,0,2,0,0,12,8,0,6,0,0,0],"split_type":[0,0,0,0,0,0,0,0,0,0,0,0,0,0,0,0,0],"sum_hessian":[1.846E3,1.775E3,7.1E1,1.71E3,6.5E1,1.686E3,2.4E1,1.679E3,7E0,5E0,1.674E3,1.668E3,6E0,1.664E3,4E0,1.65E3,1.4E1],"tree_param":{"num_deleted":"0","num_feature":"13","num_nodes":"17","size_leaf_vector":"1"}},{"base_weights":[5.467253E6,-3.604028E7,1.087942E8,-3.6296772E7,-1.3270204E6,3.4135507E8,-3.522931E7,-3.6521896E7,-1.3293476E6,-3.598661E7,6.9914255E6,-3.6678332E7,-1.2242578E6,-3.6311884E7,-1.1781188E6,7.962531E7,-1.5977498E6,-2.747727E7,-3.6787788E7,-1.6467361E6,-1.1435182E6,-1.4908528E6,9.401169E6,-1.5214411E6,-9.163047E6,-1.7122199E6,-3.5775696E7,-1.090245E6,-5.8610688E4,3.2963422E6,-1.6587415E6],"categories":[],"categories_nodes":[],"categories_segments":[],"categories_sizes":[],"default_left":[0,0,0,0,0,0,0,0,0,0,0,0,0,0,0,0,0,0,0,0,0,0,0,0,0,0,0,0,0,0,0],"id":29,"left_children":[1,3,5,7,-1,-1,9,11,-1,13,15,17,-1,19,-1,21,-1,23,25,-1,-1,-1,-1,-1,27,-1,29,-1,-1,-1,-1],"loss_changes":[7.9168427E18,1.140331E15,5.7003056E20,8.401643E14,0E0,0E0,1.6877778E16,7.759803E14,0E0,6.7826124E14,3.369989E16,1.9282685E14,0E0,6.20743E14,0E0,6.525799E16,0E0,1.7798559E15,1.5132029E14,0E0,0E0,0E0,0E0,0E0,6.7913123E14,0E0,8.274581E16,0E0,0E0,0E0,0E0],"parents":[2147483647,0,0,1,1,2,2,3,3,6,6,7,7,9,9,10,10,11,11,13,13,15,15,17,17,18,18,24,24,26,26],"right_children":[2,4,6,8,-1,-1,10,12,-1,14,16,18,-1,20,-1,22,-1,24,26,-1,-1,-1,-1,-1,28,-1,30,-1,-1,-1,-1],"split_conditions":[9.12E2,1E0,9.26E2,1E0,-1.3270204E6,3.4135507E8,1E0,1E0,-1.3293476E6,1E0,1.918E3,1.2E2,-1.2242578E6,1E0,-1.1781188E6,1.678E3,-1.5977498E6,1.15E2,3.89E2,-1.6467361E6,-1.1435182E6,-1.4908528E6,9.401169E6,-1.5214411E6,2E0,-1.7122199E6,3.93E2,-1.090245E6,-5.8610688E4,3.2963422E6,-1.6587415E6],"split_indices":[0,11,0,4,0,0,6,5,0,4,0,0,0,11,0,0,0,0,0,0,0,0,0,0,2,0,0,0,0,0,0],"split_type":[0,0,0,0,0,0,0,0,0,0,0,0,0,0,0,0,0,0,0,0,0,0,0,0,0,0,0,0,0,0,0],"sum_hessian":[1.844E3,1.316E3,5.28E2,1.262E3,5.4E1,9E0,5.19E2,1.217E3,4.5E1,5.1E2,9E0,1.194E3,2.3E1,4.91E2,1.9E1,3E0,6E0,1.7E1,1.177E3,4.76E2,1.5E1,2E0,1E0,1.2E1,5E0,5.06E2,6.71E2,1E0,4E0,6E0,6.65E2],"tree_param":{"num_deleted":"0","num_feature":"13","num_nodes":"31","size_leaf_vector":"1"}},{"base_weights":[5.312419E6,-3.441242E7,1.0431469E8,-3.4655012E7,-1.2686788E6,3.2753283E8,-3.3613024E7,-3.4880356E7,-1.2690015E6,-3.4379896E7,1.3833503E7,-3.502851E7,-1.1714719E6,-3.4687372E7,-1.127764E6,1.2116734E8,-1.5361342E6,-2.6389382E7,-3.5130612E7,-1.5729151E6,-1.0952854E6,-1.01247206E6,9.189684E6,-1.4582551E6,-8.942265E6,-1.6355649E6,-3.4142636E7,-1.0657192E6,-5.65011E4,3.169222E6,-1.5834834E6],"categories":[],"categories_nodes":[],"categories_segments":[],"categories_sizes":[],"default_left":[0,0,0,0,0,0,0,0,0,0,0,0,0,0,0,0,0,0,0,0,0,0,0,0,0,0,0,0,0,0,0],"id":30,"left_children":[1,3,5,7,-1,-1,9,11,-1,13,15,17,-1,19,-1,21,-1,23,25,-1,-1,-1,-1,-1,27,-1,29,-1,-1,-1,-1],"loss_changes":[7.2793607E18,1.0140246E15,5.247933E20,8.577565E14,0E0,0E0,1.9432356E16,6.8609526E14,0E0,5.9964615E14,5.048246E16,1.2891774E14,0E0,5.4418954E14,0E0,4.0408268E16,0E0,1.6015385E15,1.8375588E14,0E0,0E0,0E0,0E0,0E0,6.5027134E14,0E0,7.6132865E16,0E0,0E0,0E0,0E0],"parents":[2147483647,0,0,1,1,2,2,3,3,6,6,7,7,9,9,10,10,11,11,13,13,15,15,17,17,18,18,24,24,26,26],"right_children":[2,4,6,8,-1,-1,10,12,-1,14,16,18,-1,20,-1,22,-1,24,26,-1,-1,-1,-1,-1,28,-1,30,-1,-1,-1,-1],"split_conditions":[9.12E2,1E0,9.26E2,1E0,-1.2686788E6,3.2753283E8,1E0,1E0,-1.2690015E6,1E0,1.918E3,1.2E2,-1.1714719E6,1E0,-1.127764E6,1.678E3,-1.5361342E6,1.15E2,3.89E2,-1.5729151E6,-1.0952854E6,-1.01247206E6,9.189684E6,-1.4582551E6,2E0,-1.6355649E6,3.93E2,-1.0657192E6,-5.65011E4,3.169222E6,-1.5834834E6],"split_indices":[0,11,0,4,0,0,6,5,0,4,0,0,0,11,0,0,0,0,0,0,0,0,0,0,2,0,0,0,0,0,0],"split_type":[0,0,0,0,0,0,0,0,0,0,0,0,0,0,0,0,0,0,0,0,0,0,0,0,0,0,0,0,0,0,0],"sum_hessian":[1.849E3,1.32E3,5.29E2,1.266E3,5.4E1,9E0,5.2E2,1.219E3,4.7E1,5.12E2,8E0,1.196E3,2.3E1,4.93E2,1.9E1,2E0,6E0,1.7E1,1.179E3,4.78E2,1.5E1,1E0,1E0,1.2E1,5E0,5.11E2,6.68E2,1E0,4E0,6E0,6.62E2],"tree_param":{"num_deleted":"0","num_feature":"13","num_nodes":"31","size_leaf_vector":"1"}},{"base_weights":[5.311431E6,-3.2866914E7,9.9670856E7,-3.3098818E7,-1.212623E6,3.142703E8,-3.2173006E7,-3.3311096E7,-1.2105794E6,-3.288252E7,7.513333E6,-3.3452198E7,-1.1209619E6,-3.3175186E7,-1.0795614E6,7.6229256E7,-1.4768948E6,-2.534545E7,-3.3547916E7,-1.5042682E6,-1.0490869E6,-1.4157676E6,8.982956E6,-1.3976931E6,-8.726979E6,-1.5621124E6,-3.2593362E7,-1.0417452E6,-5.4467527E4,3.0470042E6,-1.5122036E6],"categories":[],"categories_nodes":[],"categories_segments":[],"categories_sizes":[],"default_left":[0,0,0,0,0,0,0,0,0,0,0,0,0,0,0,0,0,0,0,0,0,0,0,0,0,0,0,0,0,0,0],"id":31,"left_children":[1,3,5,7,-1,-1,9,11,-1,13,15,17,-1,19,-1,21,-1,23,25,-1,-1,-1,-1,-1,27,-1,29,-1,-1,-1,-1],"loss_changes":[6.6534665E18,9.116326E14,4.8317776E20,7.611369E14,0E0,0E0,1.4973699E16,6.058309E14,0E0,5.4092536E14,3.022203E16,7.462935E13,0E0,4.8649954E14,0E0,5.945519E16,0E0,1.440051E15,1.8334356E14,0E0,0E0,0E0,0E0,0E0,6.226175E14,0E0,7.006459E16,0E0,0E0,0E0,0E0],"parents":[2147483647,0,0,1,1,2,2,3,3,6,6,7,7,9,9,10,10,11,11,13,13,15,15,17,17,18,18,24,24,26,26],"right_children":[2,4,6,8,-1,-1,10,12,-1,14,16,18,-1,20,-1,22,-1,24,26,-1,-1,-1,-1,-1,28,-1,30,-1,-1,-1,-1],"split_conditions":[9.12E2,1E0,9.26E2,1E0,-1.212623E6,3.142703E8,1E0,1E0,-1.2105794E6,1E0,1.918E3,1.2E2,-1.1209619E6,1E0,-1.0795614E6,1.678E3,-1.4768948E6,1.15E2,3.89E2,-1.5042682E6,-1.0490869E6,-1.4157676E6,8.982956E6,-1.3976931E6,2E0,-1.5621124E6,3.93E2,-1.0417452E6,-5.4467527E4,3.0470042E6,-1.5122036E6],"split_indices":[0,11,0,4,0,0,6,5,0,4,0,0,0,11,0,0,0,0,0,0,0,0,0,0,2,0,0,0,0,0,0],"split_type":[0,0,0,0,0,0,0,0,0,0,0,0,0,0,0,0,0,0,0,0,0,0,0,0,0,0,0,0,0,0,0],"sum_hessian":[1.845E3,1.314E3,5.31E2,1.26E3,5.4E1,9E0,5.22E2,1.214E3,4.6E1,5.13E2,9E0,1.191E3,2.3E1,4.94E2,1.9E1,3E0,6E0,1.7E1,1.174E3,4.79E2,1.5E1,2E0,1E0,1.2E1,5E0,5.11E2,6.63E2,1E0,4E0,6E0,6.57E2],"tree_param":{"num_deleted":"0","num_feature":"13","num_nodes":"31","size_leaf_vector":"1"}},{"base_weights":[5.2330745E6,6.4554045E6,-1.1404045E6,7.6903575E6,-1.1510025E6,8.1730705E6,-1.0722874E6,8.307126E6,-9.410602E5,-1.103822E6,8.420144E6,8.519399E6,-9.235074E5,8.595556E6,-8.316131E5,3.9142797E5,-1.5543028E5],"categories":[],"categories_nodes":[],"categories_segments":[],"categories_sizes":[],"default_left":[0,0,0,0,0,0,0,0,0,0,0,0,0,0,0,0,0],"id":32,"left_children":[1,3,-1,5,-1,7,-1,9,-1,-1,11,13,-1,15,-1,-1,-1],"loss_changes":[6.901615E16,7.030712E16,0E0,2.6169932E16,0E0,6.732928E15,0E0,6.423613E15,0E0,0E0,4.9729107E15,3.582939E15,0E0,2.1222378E15,0E0,0E0,0E0],"parents":[2147483647,0,0,1,1,3,3,5,5,7,7,10,10,11,11,13,13],"right_children":[2,4,-1,6,-1,8,-1,10,-1,-1,12,14,-1,16,-1,-1,-1],"split_conditions":[1E0,1E0,-1.1404045E6,1E0,-1.1510025E6,3E0,-1.0722874E6,2E0,-9.410602E5,-1.103822E6,1E0,1E0,-9.235074E5,1E0,-8.316131E5,3.9142797E5,-1.5543028E5],"split_indices":[11,4,0,5,0,2,0,2,0,0,12,8,0,6,0,0,0],"split_type":[0,0,0,0,0,0,0,0,0,0,0,0,0,0,0,0,0],"sum_hessian":[1.841E3,1.771E3,7E1,1.706E3,6.5E1,1.681E3,2.5E1,1.674E3,7E0,5E0,1.669E3,1.664E3,5E0,1.66E3,4E0,1.646E3,1.4E1],"tree_param":{"num_deleted":"0","num_feature":"13","num_nodes":"17","size_leaf_vector":"1"}},{"base_weights":[5.1895695E6,-3.1644278E7,9.6984216E7,-3.1914456E7,-1.1081015E6,3.0152902E8,-3.0958854E7,-3.216999E7,-1.1086066E6,-3.1665286E7,8.023775E6,-3.2331664E7,-1.02639625E6,-3.2000872E7,-9.8427094E5,7.505686E7,-1.4139458E6,-2.4380738E7,-3.2419256E7,-1.4522844E6,-9.4718075E5,-1.3537101E6,8.784375E6,-1.360643E6,-3.8665622E5,-1.509757E6,-3.148262E7,2.914405E6,-1.4606324E6],"categories":[],"categories_nodes":[],"categories_segments":[],"categories_sizes":[],"default_left":[0,0,0,0,0,0,0,0,0,0,0,0,0,0,0,0,0,0,0,0,0,0,0,0,0,0,0,0,0],"id":33,"left_children":[1,3,5,7,-1,-1,9,11,-1,13,15,17,-1,19,-1,21,-1,23,25,-1,-1,-1,-1,-1,-1,-1,27,-1,-1],"loss_changes":[6.21086E18,1.6988829E15,4.4470833E20,1.5474252E15,0E0,0E0,1.4491529E16,1.0973126E15,0E0,9.68601E14,2.8803962E16,3.834547E13,0E0,8.10718E14,0E0,5.6423896E16,0E0,1.3132056E15,1.9433868E14,0E0,0E0,0E0,0E0,0E0,0E0,0E0,6.450127E16,0E0,0E0],"parents":[2147483647,0,0,1,1,2,2,3,3,6,6,7,7,9,9,10,10,11,11,13,13,15,15,17,17,18,18,26,26],"right_children":[2,4,6,8,-1,-1,10,12,-1,14,16,18,-1,20,-1,22,-1,24,26,-1,-1,-1,-1,-1,-1,-1,28,-1,-1],"split_conditions":[9.12E2,1E0,9.26E2,1E0,-1.1081015E6,3.0152902E8,1E0,1E0,-1.1086066E6,1E0,1.918E3,1.2E2,-1.02639625E6,1E0,-9.8427094E5,1.678E3,-1.4139458E6,1.15E2,3.89E2,-1.4522844E6,-9.4718075E5,-1.3537101E6,8.784375E6,-1.360643E6,-3.8665622E5,-1.509757E6,3.93E2,2.914405E6,-1.4606324E6],"split_indices":[0,11,0,4,0,0,6,5,0,4,0,0,0,11,0,0,0,0,0,0,0,0,0,0,0,0,0,0,0],"split_type":[0,0,0,0,0,0,0,0,0,0,0,0,0,0,0,0,0,0,0,0,0,0,0,0,0,0,0,0,0],"sum_hessian":[1.835E3,1.31E3,5.25E2,1.258E3,5.2E1,9E0,5.16E2,1.212E3,4.6E1,5.07E2,9E0,1.189E3,2.3E1,4.88E2,1.9E1,3E0,6E0,1.6E1,1.173E3,4.74E2,1.4E1,2E0,1E0,1.1E1,5E0,5.14E2,6.59E2,6E0,6.53E2],"tree_param":{"num_deleted":"0","num_feature":"13","num_nodes":"29","size_leaf_vector":"1"}},{"base_weights":[1.4561778E7,-3.0203882E7,1.2513674E8,-3.047136E7,-1.0600422E6,4.079402E8,-2.9571034E7,-3.070937E7,-1.0599308E6,-3.1685858E7,-2.8165642E7,-3.08633E7,-9.8214156E5,-1.4477556E6,-9.130836E5,-2.2708824E7,-2.9935436E7,-2.353272E7,-3.0949846E7,-2.7241004E7,7.910619E5,-3.0255478E7,-1.6872286E7,-1.2942196E6,-8.271812E6,-1.441369E6,-3.0073736E7,-9.753129E5,-1.3797858E6,-1.3733688E6,-8.482389E5,-2.940428E5,-8.651196E5,-9.847813E5,-5.267882E4,2.8020138E6,-1.3952666E6],"categories":[],"categories_nodes":[],"categories_segments":[],"categories_sizes":[],"default_left":[0,0,0,0,0,0,0,0,0,0,0,0,0,0,0,0,0,0,0,0,0,0,0,0,0,0,0,0,0,0,0,0,0,0,0,0,0],"id":34,"left_children":[1,3,5,7,-1,-1,9,11,-1,13,15,17,-1,-1,-1,19,21,23,25,27,-1,29,31,-1,33,-1,35,-1,-1,-1,-1,-1,-1,-1,-1,-1,-1],"loss_changes":[9.0869573E18,1.6043249E15,7.320815E20,1.3381057E15,0E0,0E0,6.560305E14,9.773971E14,0E0,4.6949147E14,2.4298863E15,2.350206E13,0E0,0E0,0E0,1.5635416E16,4.9290763E14,1.1996177E15,1.4857151E14,7.650024E14,0E0,1.4111545E14,6.91836E13,0E0,5.5450997E14,0E0,5.9377064E16,0E0,0E0,0E0,0E0,0E0,0E0,0E0,0E0,0E0,0E0],"parents":[2147483647,0,0,1,1,2,2,3,3,6,6,7,7,9,9,10,10,11,11,15,15,16,16,17,17,18,18,19,19,21,21,22,22,24,24,26,26],"right_children":[2,4,6,8,-1,-1,10,12,-1,14,16,18,-1,-1,-1,20,22,24,26,28,-1,30,32,-1,34,-1,36,-1,-1,-1,-1,-1,-1,-1,-1,-1,-1],"split_conditions":[9.12E2,1E0,9.26E2,1E0,-1.0600422E6,4.079402E8,1.45E3,1E0,-1.0599308E6,1E0,1.918E3,1.2E2,-9.8214156E5,-1.4477556E6,-9.130836E5,1.87E3,1E0,1.15E2,3.89E2,1.538E3,7.910619E5,1E0,2.25E3,-1.2942196E6,2E0,-1.441369E6,3.93E2,-9.753129E5,-1.3797858E6,-1.3733688E6,-8.482389E5,-2.940428E5,-8.651196E5,-9.847813E5,-5.267882E4,2.8020138E6,-1.3952666E6],"split_indices":[0,11,0,4,0,0,0,5,0,4,0,0,0,0,0,0,11,0,0,0,0,4,0,0,2,0,0,0,0,0,0,0,0,0,0,0,0],"split_type":[0,0,0,0,0,0,0,0,0,0,0,0,0,0,0,0,0,0,0,0,0,0,0,0,0,0,0,0,0,0,0,0,0,0,0,0,0],"sum_hessian":[1.834E3,1.306E3,5.28E2,1.252E3,5.4E1,8E0,5.2E2,1.207E3,4.5E1,1.99E2,3.21E2,1.184E3,2.3E1,1.89E2,1E1,8.2E1,2.39E2,1.7E1,1.167E3,7.4E1,8E0,2.32E2,7E0,1.2E1,5E0,5.05E2,6.62E2,3.1E1,4.3E1,2.25E2,7E0,2E0,5E0,1E0,4E0,6E0,6.56E2],"tree_param":{"num_deleted":"0","num_feature":"13","num_nodes":"37","size_leaf_vector":"1"}},{"base_weights":[1.3564141E7,-2.895093E7,1.1887102E8,-2.9206804E7,-1.01324044E6,3.9163427E8,-2.8260262E7,-2.9439762E7,-1.0133622E6,-2.8931952E7,9.292113E6,-2.9586258E7,-9.397949E5,-2.9218714E7,-8.943351E5,7.4046744E7,-1.3064559E6,-2.260349E7,-1.3347786E6,-2.9484436E7,-8.707813E5,-1.2707018E6,8.568969E6,-1.2404701E6,-8.0725635E6,-2.9564788E7,-7.141822E5,-9.6262806E5,-5.0782777E4,-1.3331418E6,-6.417803E5],"categories":[],"categories_nodes":[],"categories_segments":[],"categories_sizes":[],"default_left":[0,0,0,0,0,0,0,0,0,0,0,0,0,0,0,0,0,0,0,0,0,0,0,0,0,0,0,0,0,0,0],"id":35,"left_children":[1,3,5,7,-1,-1,9,11,-1,13,15,17,-1,19,-1,21,-1,23,-1,25,-1,-1,-1,-1,27,29,-1,-1,-1,-1,-1],"loss_changes":[8.3129935E18,1.519044E15,6.748159E20,1.3126794E15,0E0,0E0,1.3536431E16,9.1403776E14,0E0,7.614805E14,2.6970677E16,1.0170483E13,0E0,7.3729127E14,0E0,5.3010187E16,0E0,1.07680414E15,0E0,6.0026463E13,0E0,0E0,0E0,0E0,5.309396E14,6.442451E13,0E0,0E0,0E0,0E0,0E0],"parents":[2147483647,0,0,1,1,2,2,3,3,6,6,7,7,9,9,10,10,11,11,13,13,15,15,17,17,19,19,24,24,25,25],"right_children":[2,4,6,8,-1,-1,10,12,-1,14,16,18,-1,20,-1,22,-1,24,-1,26,-1,-1,-1,-1,28,30,-1,-1,-1,-1,-1],"split_conditions":[9.12E2,1E0,9.26E2,1E0,-1.01324044E6,3.9163427E8,1E0,1E0,-1.0133622E6,1E0,1.918E3,1.2E2,-9.397949E5,1E0,-8.943351E5,1.678E3,-1.3064559E6,1.15E2,-1.3347786E6,3E0,-8.707813E5,-1.2707018E6,8.568969E6,-1.2404701E6,2E0,1E0,-7.141822E5,-9.6262806E5,-5.0782777E4,-1.3331418E6,-6.417803E5],"split_indices":[0,11,0,4,0,0,6,5,0,4,0,0,0,11,0,0,0,0,0,2,0,0,0,0,2,8,0,0,0,0,0],"split_type":[0,0,0,0,0,0,0,0,0,0,0,0,0,0,0,0,0,0,0,0,0,0,0,0,0,0,0,0,0,0,0],"sum_hessian":[1.855E3,1.322E3,5.33E2,1.268E3,5.4E1,8E0,5.25E2,1.222E3,4.6E1,5.16E2,9E0,1.199E3,2.3E1,4.98E2,1.8E1,3E0,6E0,1.7E1,1.182E3,4.83E2,1.5E1,2E0,1E0,1.2E1,5E0,4.79E2,4E0,1E0,4E0,4.76E2,3E0],"tree_param":{"num_deleted":"0","num_feature":"13","num_nodes":"31","size_leaf_vector":"1"}},{"base_weights":[-1.06322344E8,-2.7601506E7,-3.0113395E8,-2.7837274E7,-9.6701875E5,-7.238138E8,-2.7322916E7,-2.8046568E7,-9.709873E5,-2.7989528E7,9.47323E6,-1.2678324E6,-8.975266E5,-2.8253058E7,-1.8669726E7,7.253986E7,-1.2560738E6,-2.8520742E7,-8.570249E5,-8.618554E5,-2.4494384E5,-1.2325881E6,8.3762045E6,-2.859984E7,-6.884766E5,-1.2896668E6,-6.2012444E5],"categories":[],"categories_nodes":[],"categories_segments":[],"categories_sizes":[],"default_left":[0,0,0,0,0,0,0,0,0,0,0,0,0,0,0,0,0,0,0,0,0,0,0,0,0,0,0],"id":36,"left_children":[1,3,5,7,-1,-1,9,11,-1,13,15,-1,-1,17,19,21,-1,23,-1,-1,-1,-1,-1,25,-1,-1,-1],"loss_changes":[2.8132762E19,1.2852604E15,2.2818836E21,1.0391072E15,0E0,0E0,1.3020073E16,7.426514E14,0E0,7.276018E14,2.5606666E16,0E0,0E0,6.763371E14,5.0519553E12,5.0525E16,0E0,6.31532E13,0E0,0E0,0E0,0E0,0E0,6.2156767E13,0E0,0E0,0E0],"parents":[2147483647,0,0,1,1,2,2,3,3,6,6,7,7,9,9,10,10,13,13,14,14,15,15,17,17,23,23],"right_children":[2,4,6,8,-1,-1,10,12,-1,14,16,-1,-1,18,20,22,-1,24,-1,-1,-1,-1,-1,26,-1,-1,-1],"split_conditions":[9.12E2,1E0,9.26E2,1E0,-9.6701875E5,-7.238138E8,1E0,1E0,-9.709873E5,1E0,1.918E3,-1.2678324E6,-8.975266E5,1E0,3E0,1.678E3,-1.2560738E6,3E0,-8.570249E5,-8.618554E5,-2.4494384E5,-1.2325881E6,8.3762045E6,1E0,-6.884766E5,-1.2896668E6,-6.2012444E5],"split_indices":[0,11,0,4,0,0,6,5,0,11,0,0,0,4,2,0,0,2,0,0,0,0,0,8,0,0,0],"split_type":[0,0,0,0,0,0,0,0,0,0,0,0,0,0,0,0,0,0,0,0,0,0,0,0,0,0,0],"sum_hessian":[1.834E3,1.307E3,5.27E2,1.255E3,5.2E1,8E0,5.19E2,1.211E3,4.4E1,5.1E2,9E0,1.189E3,2.2E1,4.94E2,1.6E1,3E0,6E0,4.78E2,1.6E1,1.5E1,1E0,2E0,1E0,4.74E2,4E0,4.71E2,3E0],"tree_param":{"num_deleted":"0","num_feature":"13","num_nodes":"27","size_leaf_vector":"1"}},{"base_weights":[1.794075E7,-2.6298442E7,1.28085816E8,-2.6527058E7,-9.258642E5,4.0491862E8,-2.571173E7,-2.6740182E7,-9.261088E5,-2.7660172E7,-2.4407514E7,-2.6859878E7,-8.563576E5,-1.2633146E6,-8.0406525E5,-1.9316606E7,-2.6052062E7,-2.7799676E7,-2.6077072E7,-2.3476902E7,7.664966E5,-2.632711E7,-1.481913E7,-2.0514346E7,-1.2598592E6,3.7255982E6,-2.7024546E7,-8.022733E5,-1.2111925E6,-1.1948205E6,-7.458995E5,-2.4250608E5,-7.6772256E5,-1.1362991E6,-6.8217415E6,-2.5892988E7,-1.262086E6,-9.124524E5,-3.3217244E3,-1.1865909E6,-2.6637647E5],"categories":[],"categories_nodes":[],"categories_segments":[],"categories_sizes":[],"default_left":[0,0,0,0,0,0,0,0,0,0,0,0,0,0,0,0,0,0,0,0,0,0,0,0,0,0,0,0,0,0,0,0,0,0,0,0,0,0,0,0,0],"id":37,"left_children":[1,3,5,7,-1,-1,9,11,-1,13,15,17,-1,-1,-1,19,21,23,25,27,-1,29,31,33,-1,-1,35,-1,-1,-1,-1,-1,-1,-1,37,39,-1,-1,-1,-1,-1],"loss_changes":[8.978935E18,1.1735912E15,7.206709E20,1.0467351E15,0E0,0E0,6.463067E14,6.086484E14,0E0,3.224146E14,2.175882E15,1.5269468E14,0E0,0E0,0E0,1.280164E16,3.4825313E14,2.0347837E14,7.1048895E16,9.585379E14,0E0,7.899304E13,7.734632E13,9.963664E14,0E0,0E0,4.315583E13,0E0,0E0,0E0,0E0,0E0,0E0,0E0,5.4341973E14,2.9935922E15,0E0,0E0,0E0,0E0,0E0],"parents":[2147483647,0,0,1,1,2,2,3,3,6,6,7,7,9,9,10,10,11,11,15,15,16,16,17,17,18,18,19,19,21,21,22,22,23,23,26,26,34,34,35,35],"right_children":[2,4,6,8,-1,-1,10,12,-1,14,16,18,-1,-1,-1,20,22,24,26,28,-1,30,32,34,-1,-1,36,-1,-1,-1,-1,-1,-1,-1,38,40,-1,-1,-1,-1,-1],"split_conditions":[9.12E2,1E0,9.26E2,1E0,-9.258642E5,4.0491862E8,1.45E3,1E0,-9.261088E5,1E0,1.918E3,3.89E2,-8.563576E5,-1.2633146E6,-8.0406525E5,1.87E3,1E0,1.2E2,3.93E2,1.538E3,7.664966E5,1E0,2.25E3,1.15E2,-1.2598592E6,3.7255982E6,5.28E2,-8.022733E5,-1.2111925E6,-1.1948205E6,-7.458995E5,-2.4250608E5,-7.6772256E5,-1.1362991E6,2E0,5.23E2,-1.262086E6,-9.124524E5,-3.3217244E3,-1.1865909E6,-2.6637647E5],"split_indices":[0,11,0,4,0,0,0,5,0,4,0,0,0,0,0,0,11,0,0,0,0,4,0,0,0,0,0,0,0,0,0,0,0,0,2,0,0,0,0,0,0],"split_type":[0,0,0,0,0,0,0,0,0,0,0,0,0,0,0,0,0,0,0,0,0,0,0,0,0,0,0,0,0,0,0,0,0,0,0,0,0,0,0,0,0],"sum_hessian":[1.841E3,1.314E3,5.27E2,1.26E3,5.4E1,8E0,5.19E2,1.213E3,4.7E1,2E2,3.19E2,1.192E3,2.1E1,1.9E2,1E1,8.1E1,2.38E2,5.26E2,6.66E2,7.3E1,8E0,2.31E2,7E0,1.7E1,5.09E2,5E0,6.61E2,3E1,4.3E1,2.24E2,7E0,2E0,5E0,1.2E1,5E0,3.27E2,3.34E2,1E0,4E0,3.19E2,8E0],"tree_param":{"num_deleted":"0","num_feature":"13","num_nodes":"41","size_leaf_vector":"1"}},{"base_weights":[1.7323612E7,-2.5147308E7,1.2334715E8,-2.533461E7,-8.850524E5,3.88716E8,-2.457478E7,-2.5461262E7,-8.35289E5,-2.5214794E7,1.0523466E7,-2.6359496E7,-2.471745E7,-2.5453428E7,-7.773619E5,7.14891E7,-1.1615576E6,-1.973859E7,-1.1943888E6,2.6506502E6,-2.553007E7,-2.5561882E7,-6.421109E5,-1.1585071E6,8.170534E6,-1.0766688E6,-6.6674515E6,-1.1503781E6,-5.613454E5,-5.7091994E5,-2.5642214E7,-8.919262E5,-3.2021555E3,-2.5699104E7,-5.581115E5,-1.1580565E6,-4.806971E5],"categories":[],"categories_nodes":[],"categories_segments":[],"categories_sizes":[],"default_left":[0,0,0,0,0,0,0,0,0,0,0,0,0,0,0,0,0,0,0,0,0,0,0,0,0,0,0,0,0,0,0,0,0,0,0,0,0],"id":38,"left_children":[1,3,5,7,-1,-1,9,11,-1,13,15,17,19,21,-1,23,-1,25,-1,-1,27,29,-1,-1,-1,-1,31,-1,-1,-1,33,-1,-1,35,-1,-1,-1],"loss_changes":[8.2974755E18,8.512969E14,6.641117E20,6.153142E14,0E0,0E0,1.1923894E16,1.7894552E14,0E0,5.2615067E14,2.4001098E16,1.5671477E14,4.8805053E16,2.3299339E14,0E0,4.750536E16,0E0,8.815383E14,0E0,0E0,3.0786326E13,1.781896E14,0E0,0E0,0E0,0E0,5.1931127E14,0E0,0E0,0E0,4.490818E13,0E0,0E0,1.6698833E13,0E0,0E0,0E0],"parents":[2147483647,0,0,1,1,2,2,3,3,6,6,7,7,9,9,10,10,11,11,12,12,13,13,15,15,17,17,20,20,21,21,26,26,30,30,33,33],"right_children":[2,4,6,8,-1,-1,10,12,-1,14,16,18,20,22,-1,24,-1,26,-1,-1,28,30,-1,-1,-1,-1,32,-1,-1,-1,34,-1,-1,36,-1,-1,-1],"split_conditions":[9.12E2,1E0,9.26E2,1E0,-8.850524E5,3.88716E8,1E0,3.89E2,-8.35289E5,1E0,1.918E3,1.2E2,3.93E2,3E0,-7.773619E5,1.678E3,-1.1615576E6,1.15E2,-1.1943888E6,2.6506502E6,3E0,2E0,-6.421109E5,-1.1585071E6,8.170534E6,-1.0766688E6,2E0,-1.1503781E6,-5.613454E5,-5.7091994E5,1E0,-8.919262E5,-3.2021555E3,1E0,-5.581115E5,-1.1580565E6,-4.806971E5],"split_indices":[0,4,0,5,0,0,6,0,0,4,0,0,0,2,0,0,0,0,0,0,2,2,0,0,0,0,2,0,0,0,8,0,0,5,0,0,0],"split_type":[0,0,0,0,0,0,0,0,0,0,0,0,0,0,0,0,0,0,0,0,0,0,0,0,0,0,0,0,0,0,0,0,0,0,0,0,0],"sum_hessian":[1.841E3,1.315E3,5.26E2,1.268E3,4.7E1,8E0,5.18E2,1.242E3,2.6E1,5.09E2,9E0,5.47E2,6.95E2,4.92E2,1.7E1,3E0,6E0,1.8E1,5.29E2,6E0,6.89E2,4.86E2,6E0,2E0,1E0,1.3E1,5E0,6.86E2,3E0,4E0,4.82E2,1E0,4E0,4.79E2,3E0,4.77E2,2E0],"tree_param":{"num_deleted":"0","num_feature":"13","num_nodes":"37","size_leaf_vector":"1"}},{"base_weights":[2.666585E7,-2.4094102E7,1.5433971E8,-2.4316298E7,-8.349323E5,5.220004E8,-2.344646E7,-2.4509396E7,-8.459721E5,-2.4092456E7,2.0585788E7,-2.4629732E7,-7.876377E5,-2.431812E7,-7.257526E5,7.002573E7,-1.03854825E6,-1.7471824E7,-2.4706046E7,-2.4558064E7,-7.478435E5,-1.1237586E6,7.9867325E6,-9.834654E5,-6.5166615E6,-1.1500044E6,-2.3998986E7,-2.4625808E7,-5.961996E5,-8.7186175E5,-3.0868699E3,2.5484302E6,-2.4824168E7,-1.1104344E6,-5.392789E5,-1.1186825E6,-5.424036E5],"categories":[],"categories_nodes":[],"categories_segments":[],"categories_sizes":[],"default_left":[0,0,0,0,0,0,0,0,0,0,0,0,0,0,0,0,0,0,0,0,0,0,0,0,0,0,0,0,0,0,0,0,0,0,0,0,0],"id":39,"left_children":[1,3,5,7,-1,-1,9,11,-1,13,15,17,-1,19,-1,21,-1,23,25,27,-1,-1,-1,-1,29,-1,31,33,-1,-1,-1,-1,35,-1,-1,-1,-1],"loss_changes":[1.191528E19,1.1676126E15,1.0647241E21,8.827017E14,0E0,0E0,1.5173398E16,5.935301E14,0E0,5.221993E14,1.888841E16,2.1997105E14,0E0,5.0220194E14,0E0,4.5281986E16,0E0,6.265509E14,9.833757E13,3.827675E13,0E0,0E0,0E0,0E0,4.962716E14,0E0,4.539169E16,3.401614E13,0E0,0E0,0E0,0E0,3.697108E13,0E0,0E0,0E0,0E0],"parents":[2147483647,0,0,1,1,2,2,3,3,6,6,7,7,9,9,10,10,11,11,13,13,15,15,17,17,18,18,19,19,24,24,26,26,27,27,32,32],"right_children":[2,4,6,8,-1,-1,10,12,-1,14,16,18,-1,20,-1,22,-1,24,26,28,-1,-1,-1,-1,30,-1,32,34,-1,-1,-1,-1,36,-1,-1,-1,-1],"split_conditions":[9.12E2,1E0,9.26E2,1E0,-8.349323E5,5.220004E8,1E0,1E0,-8.459721E5,1E0,1.918E3,1.2E2,-7.876377E5,1E0,-7.257526E5,1.678E3,-1.03854825E6,1.15E2,3.89E2,3E0,-7.478435E5,-1.1237586E6,7.9867325E6,-9.834654E5,2E0,-1.1500044E6,3.93E2,1E0,-5.961996E5,-8.7186175E5,-3.0868699E3,2.5484302E6,3E0,-1.1104344E6,-5.392789E5,-1.1186825E6,-5.424036E5],"split_indices":[0,11,0,4,0,0,6,5,0,11,0,0,0,4,0,0,0,0,0,2,0,0,0,0,2,0,0,8,0,0,0,0,2,0,0,0,0],"split_type":[0,0,0,0,0,0,0,0,0,0,0,0,0,0,0,0,0,0,0,0,0,0,0,0,0,0,0,0,0,0,0,0,0,0,0,0,0],"sum_hessian":[1.837E3,1.315E3,5.22E2,1.261E3,5.4E1,7E0,5.15E2,1.215E3,4.6E1,5.08E2,7E0,1.192E3,2.3E1,4.92E2,1.6E1,3E0,4E0,1.5E1,1.177E3,4.75E2,1.7E1,2E0,1E0,1E1,5E0,5.17E2,6.6E2,4.71E2,4E0,1E0,4E0,6E0,6.54E2,4.68E2,3E0,6.51E2,3E0],"tree_param":{"num_deleted":"0","num_feature":"13","num_nodes":"37","size_leaf_vector":"1"}},{"base_weights":[5.544726E6,-2.2948774E7,7.701303E7,-2.3118552E7,-8.0967575E5,2.329788E8,-2.2383806E7,-2.3227658E7,-7.660163E5,-2.2994296E7,1.0684259E7,-2.405252E7,-2.2546216E7,-2.3228426E7,-7.2684475E5,6.859093E7,-1.0767129E6,-1.8242686E7,-1.0895104E6,2.4501528E6,-2.3295832E7,-2.3326668E7,-5.926914E5,-1.0900524E6,7.807066E6,-9.910786E5,-6.3692925E6,-2.2309582E7,-2.4181994E7,-5.207873E5,-2.34011E7,-8.522487E5,-2.9757236E3,-2.275963E7,-3.7967695E4,-2.4310896E7,-6.4672375E5,-2.3438932E7,-4.329724E5,-1.0795089E6,-8.4440706E5,-3.14672E5,-1.0951285E6,-1.0568391E6,-5.2108178E5],"categories":[],"categories_nodes":[],"categories_segments":[],"categories_sizes":[],"default_left":[0,0,0,0,0,0,0,0,0,0,0,0,0,0,0,0,0,0,0,0,0,0,0,0,0,0,0,0,0,0,0,0,0,0,0,0,0,0,0,0,0,0,0,0,0],"id":40,"left_children":[1,3,5,7,-1,-1,9,11,-1,13,15,17,19,21,-1,23,-1,25,-1,-1,27,29,-1,-1,-1,-1,31,33,35,-1,37,-1,-1,39,-1,41,-1,43,-1,-1,-1,-1,-1,-1,-1],"loss_changes":[3.736492E18,6.870573E14,2.6530449E20,4.4543965E14,0E0,0E0,1.0622158E16,1.5468754E14,0E0,4.3334502E14,2.1686374E16,7.6897094E13,4.1386786E16,1.7279512E14,0E0,4.316328E16,0E0,7.136942E14,0E0,0E0,6.2672163E13,1.4896665E14,0E0,0E0,0E0,0E0,4.7425324E14,3.255757E15,9.428312E13,0E0,2.2539988E13,0E0,0E0,1.185033E15,0E0,9.053791E12,0E0,1.4207752E13,0E0,0E0,0E0,0E0,0E0,0E0,0E0],"parents":[2147483647,0,0,1,1,2,2,3,3,6,6,7,7,9,9,10,10,11,11,12,12,13,13,15,15,17,17,20,20,21,21,26,26,27,27,28,28,30,30,33,33,35,35,37,37],"right_children":[2,4,6,8,-1,-1,10,12,-1,14,16,18,20,22,-1,24,-1,26,-1,-1,28,30,-1,-1,-1,-1,32,34,36,-1,38,-1,-1,40,-1,42,-1,44,-1,-1,-1,-1,-1,-1,-1],"split_conditions":[9.12E2,1E0,9.26E2,1E0,-8.0967575E5,2.329788E8,1E0,3.89E2,-7.660163E5,1E0,1.918E3,1.2E2,3.93E2,3E0,-7.2684475E5,1.678E3,-1.0767129E6,1.15E2,-1.0895104E6,2.4501528E6,5.28E2,2E0,-5.926914E5,-1.0900524E6,7.807066E6,-9.910786E5,2E0,5.23E2,1E0,-5.207873E5,1E0,-8.522487E5,-2.9757236E3,5E2,-3.7967695E4,2E0,-6.4672375E5,1E0,-4.329724E5,-1.0795089E6,-8.4440706E5,-3.14672E5,-1.0951285E6,-1.0568391E6,-5.2108178E5],"split_indices":[0,4,0,5,0,0,6,0,0,4,0,0,0,2,0,0,0,0,0,0,0,2,0,0,0,0,2,0,12,0,5,0,0,0,0,2,0,8,0,0,0,0,0,0,0],"split_type":[0,0,0,0,0,0,0,0,0,0,0,0,0,0,0,0,0,0,0,0,0,0,0,0,0,0,0,0,0,0,0,0,0,0,0,0,0,0,0,0,0,0,0,0,0],"sum_hessian":[1.833E3,1.311E3,5.22E2,1.264E3,4.7E1,9E0,5.13E2,1.239E3,2.5E1,5.04E2,9E0,5.45E2,6.94E2,4.85E2,1.9E1,3E0,6E0,1.8E1,5.27E2,6E0,6.88E2,4.79E2,6E0,2E0,1E0,1.3E1,5E0,3.38E2,3.5E2,4E0,4.75E2,1E0,4E0,3.31E2,7E0,3.44E2,6E0,4.73E2,2E0,2.49E2,8.2E1,1E0,3.43E2,4.7E2,3E0],"tree_param":{"num_deleted":"0","num_feature":"13","num_nodes":"45","size_leaf_vector":"1"}},{"base_weights":[1.5765564E7,-2.1904902E7,1.0969503E8,-2.2115334E7,-7.5278256E5,3.429864E8,-2.2081246E7,-2.228546E7,-7.731939E5,-2.229936E7,-6.6731694E5,-2.2384556E7,-7.175333E5,-2.2481862E7,-7.1193844E5,-2.240641E7,-4.655403E5,-2.2541454E7,-5.534078E5,-2.3172044E7,-2.177558E7,-2.257741E7,-4.1998578E5,-1.7523848E7,-1.0496032E6,2.3556652E6,-2.2532294E7,-2.2626476E7,-5.0134544E5,-9.6239006E5,-2.8008278E5,-9.6752325E5,-1.0574559E6,-1.0196496E6,-4.193106E5],"categories":[],"categories_nodes":[],"categories_segments":[],"categories_sizes":[],"default_left":[0,0,0,0,0,0,0,0,0,0,0,0,0,0,0,0,0,0,0,0,0,0,0,0,0,0,0,0,0,0,0,0,0,0,0],"id":41,"left_children":[1,3,5,7,-1,-1,9,11,-1,13,-1,15,-1,17,-1,19,-1,21,-1,23,25,27,-1,29,-1,-1,31,33,-1,-1,-1,-1,-1,-1,-1],"loss_changes":[6.452846E18,1.0472848E15,5.1701493E20,6.636927E14,0E0,0E0,4.8194687E14,3.9850425E14,0E0,2.3160182E14,0E0,7.90274E13,0E0,1.4568529E13,0E0,6.4871186E13,0E0,1.575394E13,0E0,4.9598282E13,3.837282E16,1.4362371E13,0E0,6.532334E14,0E0,0E0,1.502895E14,1.9877109E13,0E0,0E0,0E0,0E0,0E0,0E0,0E0],"parents":[2147483647,0,0,1,1,2,2,3,3,6,6,7,7,9,9,11,11,13,13,15,15,17,17,19,19,20,20,21,21,23,23,26,26,27,27],"right_children":[2,4,6,8,-1,-1,10,12,-1,14,-1,16,-1,18,-1,20,-1,22,-1,24,26,28,-1,30,-1,-1,32,34,-1,-1,-1,-1,-1,-1,-1],"split_conditions":[9.12E2,1E0,9.26E2,1E0,-7.5278256E5,3.429864E8,1E0,1E0,-7.731939E5,1E0,-6.6731694E5,1E0,-7.175333E5,3E0,-7.1193844E5,3.89E2,-4.655403E5,1E0,-5.534078E5,1.2E2,3.93E2,1E0,-4.1998578E5,1.15E2,-1.0496032E6,2.3556652E6,5.28E2,1E0,-5.0134544E5,-9.6239006E5,-2.8008278E5,-9.6752325E5,-1.0574559E6,-1.0196496E6,-4.193106E5],"split_indices":[0,11,0,4,0,0,11,5,0,4,0,12,0,2,0,0,0,5,0,0,0,12,0,0,0,0,0,8,0,0,0,0,0,0,0],"split_type":[0,0,0,0,0,0,0,0,0,0,0,0,0,0,0,0,0,0,0,0,0,0,0,0,0,0,0,0,0,0,0,0,0,0,0],"sum_hessian":[1.822E3,1.301E3,5.21E2,1.247E3,5.4E1,8E0,5.13E2,1.202E3,4.5E1,4.96E2,1.7E1,1.181E3,2.1E1,4.8E2,1.6E1,1.178E3,3E0,4.76E2,4E0,5.16E2,6.62E2,4.74E2,2E0,1.7E1,4.99E2,6E0,6.56E2,4.71E2,3E0,1.2E1,5E0,3.3E2,3.26E2,4.69E2,2E0],"tree_param":{"num_deleted":"0","num_feature":"13","num_nodes":"35","size_leaf_vector":"1"}},{"base_weights":[4.638818E6,-2.094851E7,6.8210664E7,-2.1152072E7,-7.200943E5,2.0965672E8,-2.0393408E7,-2.1321814E7,-7.393199E5,-2.0992356E7,1.5879557E7,-2.1425002E7,-6.897117E5,-2.1190928E7,-1.3975615E7,6.787199E7,-9.641029E5,-2.2199864E7,-2.0774808E7,-2.1396414E7,-6.549299E5,-6.462218E5,-1.7486272E5,-1.0313884E6,7.654379E6,-1.6804452E7,-2.2346762E7,2.2648215E6,-2.1503086E7,-2.2658742E7,-2.0550826E7,-9.2242156E5,-5.9918645E6,-2.2365734E7,-2.8547516E5,-2.0469896E7,-2.2434774E7,-1.02408306E6,-4.0140216E5,-1.2496953E7,-9.6172E5,-8.267761E5,7.212427E3,-1.00710794E6,-2.885401E5,-9.4085494E5,-1.2476677E5,-1.01078956E6,-2.6821653E5,-3.612654E5,-6.1891956E5],"categories":[],"categories_nodes":[],"categories_segments":[],"categories_sizes":[],"default_left":[0,0,0,0,0,0,0,0,0,0,0,0,0,0,0,0,0,0,0,0,0,0,0,0,0,0,0,0,0,0,0,0,0,0,0,0,0,0,0,0,0,0,0,0,0,0,0,0,0,0,0],"id":42,"left_children":[1,3,5,7,-1,-1,9,11,-1,13,15,17,-1,19,21,23,-1,25,27,29,-1,-1,-1,-1,-1,31,33,-1,35,37,39,-1,41,43,-1,45,47,-1,-1,49,-1,-1,-1,-1,-1,-1,-1,-1,-1,-1,-1],"loss_changes":[2.9928083E18,9.816921E14,2.1490973E20,6.566146E14,0E0,0E0,1.160897E16,4.197042E14,0E0,4.1583873E14,1.8912111E16,1.3682048E14,0E0,3.6333705E14,1.0663598E13,4.103873E16,0E0,4.214222E13,3.5316159E16,4.456458E13,0E0,0E0,0E0,0E0,0E0,5.968383E14,1.2919262E13,0E0,1.7124894E14,5.4597624E13,1.705961E15,0E0,4.600953E14,8.916352E12,0E0,2.4609218E15,3.9737037E13,0E0,0E0,5.833317E13,0E0,0E0,0E0,0E0,0E0,0E0,0E0,0E0,0E0,0E0,0E0],"parents":[2147483647,0,0,1,1,2,2,3,3,6,6,7,7,9,9,10,10,11,11,13,13,14,14,15,15,17,17,18,18,19,19,25,25,26,26,28,28,29,29,30,30,32,32,33,33,35,35,36,36,39,39],"right_children":[2,4,6,8,-1,-1,10,12,-1,14,16,18,-1,20,22,24,-1,26,28,30,-1,-1,-1,-1,-1,32,34,-1,36,38,40,-1,42,44,-1,46,48,-1,-1,50,-1,-1,-1,-1,-1,-1,-1,-1,-1,-1,-1],"split_conditions":[9.12E2,1E0,9.26E2,1E0,-7.200943E5,2.0965672E8,1E0,1E0,-7.393199E5,1E0,1.918E3,3.89E2,-6.897117E5,1E0,3E0,1.678E3,-9.641029E5,1.2E2,3.93E2,1.45E3,-6.549299E5,-6.462218E5,-1.7486272E5,-1.0313884E6,7.654379E6,1.15E2,1E0,2.2648215E6,5.28E2,1E0,1.538E3,-9.2242156E5,2E0,1E0,-2.8547516E5,5.23E2,1E0,-1.02408306E6,-4.0140216E5,1.486E3,-9.6172E5,-8.267761E5,7.212427E3,-1.00710794E6,-2.885401E5,-9.4085494E5,-1.2476677E5,-1.01078956E6,-2.6821653E5,-3.612654E5,-6.1891956E5],"split_indices":[0,11,0,4,0,0,6,5,0,11,0,0,0,4,2,0,0,0,0,0,0,0,0,0,0,0,12,0,0,12,0,0,2,8,0,0,8,0,0,0,0,0,0,0,0,0,0,0,0,0,0],"split_type":[0,0,0,0,0,0,0,0,0,0,0,0,0,0,0,0,0,0,0,0,0,0,0,0,0,0,0,0,0,0,0,0,0,0,0,0,0,0,0,0,0,0,0,0,0,0,0,0,0,0,0],"sum_hessian":[1.838E3,1.311E3,5.27E2,1.256E3,5.5E1,9E0,5.18E2,1.209E3,4.7E1,5.1E2,8E0,1.186E3,2.3E1,4.94E2,1.6E1,3E0,5E0,5.26E2,6.6E2,4.77E2,1.7E1,1.5E1,1E0,2E0,1E0,1.7E1,5.09E2,6E0,6.54E2,1.81E2,2.96E2,1.2E1,5E0,5.08E2,1E0,3.21E2,3.33E2,1.79E2,2E0,2.9E1,2.67E2,1E0,4E0,5.07E2,1E0,3.13E2,8E0,3.32E2,1E0,8E0,2.1E1],"tree_param":{"num_deleted":"0","num_feature":"13","num_nodes":"51","size_leaf_vector":"1"}},{"base_weights":[1.5070598E7,-1.9994426E7,1.0237256E8,-2.0141196E7,-7.0639294E5,3.2087632E8,-1.9490354E7,-2.0238986E7,-6.7023294E5,-2.0062078E7,1.1673805E7,-2.096671E7,-1.9639878E7,-2.025456E7,-6.304089E5,6.6474092E7,-9.5868925E5,-1.613547E7,-9.4935444E5,2.1774808E6,-2.0300696E7,-2.0338212E7,-5.1925434E5,-1.00045275E6,7.482189E6,-8.7225456E5,-5.8588775E6,-3.4764697E5,-2.0325978E7,-4.4875503E5,-2.040339E7,-8.0817725E5,6.952809E3,-2.035958E7,-4.265943E5,-2.1592526E7,-1.95994E7,-8.773341E5,-9.504111E5,-9.757097E5,-3.8936244E5,-5.535605E5,-9.163512E5],"categories":[],"categories_nodes":[],"categories_segments":[],"categories_sizes":[],"default_left":[0,0,0,0,0,0,0,0,0,0,0,0,0,0,0,0,0,0,0,0,0,0,0,0,0,0,0,0,0,0,0,0,0,0,0,0,0,0,0,0,0,0,0],"id":43,"left_children":[1,3,5,7,-1,-1,9,11,-1,13,15,17,19,21,-1,23,-1,25,-1,-1,27,29,-1,-1,-1,-1,31,-1,33,-1,35,-1,-1,37,-1,39,41,-1,-1,-1,-1,-1,-1],"loss_changes":[5.640861E18,5.124755E14,4.5244847E20,3.4875134E14,0E0,0E0,9.499214E15,1.2974237E14,0E0,3.1128205E14,1.9490757E16,1.3365938E13,3.2319955E16,1.2463995E14,0E0,3.91216E16,0E0,5.213285E14,0E0,0E0,6.2637803E13,1.25447405E14,0E0,0E0,0E0,0E0,4.3949763E14,0E0,5.801642E13,0E0,3.8568806E13,0E0,0E0,3.8981123E13,0E0,3.7589554E13,1.424529E15,0E0,0E0,0E0,0E0,0E0,0E0],"parents":[2147483647,0,0,1,1,2,2,3,3,6,6,7,7,9,9,10,10,11,11,12,12,13,13,15,15,17,17,20,20,21,21,26,26,28,28,30,30,33,33,35,35,36,36],"right_children":[2,4,6,8,-1,-1,10,12,-1,14,16,18,20,22,-1,24,-1,26,-1,-1,28,30,-1,-1,-1,-1,32,-1,34,-1,36,-1,-1,38,-1,40,42,-1,-1,-1,-1,-1,-1],"split_conditions":[9.12E2,1E0,9.26E2,1E0,-7.0639294E5,3.2087632E8,1E0,3.89E2,-6.7023294E5,1E0,1.918E3,1.2E2,3.93E2,3E0,-6.304089E5,1.678E3,-9.5868925E5,1.15E2,-9.4935444E5,2.1774808E6,2E0,2E0,-5.1925434E5,-1.00045275E6,7.482189E6,-8.7225456E5,2E0,-3.4764697E5,3E0,-4.4875503E5,1.45E3,-8.0817725E5,6.952809E3,5.28E2,-4.265943E5,1E0,1.538E3,-8.773341E5,-9.504111E5,-9.757097E5,-3.8936244E5,-5.535605E5,-9.163512E5],"split_indices":[0,4,0,5,0,0,6,0,0,4,0,0,0,2,0,0,0,0,0,0,2,2,0,0,0,0,2,0,2,0,0,0,0,0,0,12,0,0,0,0,0,0,0],"split_type":[0,0,0,0,0,0,0,0,0,0,0,0,0,0,0,0,0,0,0,0,0,0,0,0,0,0,0,0,0,0,0,0,0,0,0,0,0,0,0,0,0,0,0],"sum_hessian":[1.841E3,1.314E3,5.27E2,1.267E3,4.7E1,8E0,5.19E2,1.241E3,2.6E1,5.1E2,9E0,5.45E2,6.96E2,4.92E2,1.8E1,3E0,6E0,1.8E1,5.27E2,6E0,6.9E2,4.86E2,6E0,2E0,1E0,1.3E1,5E0,2E0,6.88E2,4E0,4.82E2,1E0,4E0,6.85E2,3E0,1.84E2,2.98E2,3.35E2,3.5E2,1.82E2,2E0,3E1,2.68E2],"tree_param":{"num_deleted":"0","num_feature":"13","num_nodes":"43","size_leaf_vector":"1"}},{"base_weights":[3.8804645E6,-1.9107188E7,6.1826576E7,-1.9286132E7,-6.472714E5,1.8817427E8,-1.8618192E7,-1.9438542E7,-6.756305E5,-1.9191774E7,1.5634901E7,-1.952706E7,-6.294457E5,-1.9377652E7,-6.036643E5,6.5103776E7,-8.975835E5,-2.0194224E7,-1.8971322E7,-1.9537628E7,-5.6586306E5,-9.70445E5,7.3138725E6,-9.092987E5,-2.6069286E5,2.0935088E6,-1.963429E7,-9.313445E5,-1.8735168E7,-1.8729096E7,-2.0454364E7,-1.1381208E7,-1.9505716E7,-9.203265E5,-6.2121475E5,-9.2157356E5,-2.4080272E5,-2.2581288E5,-5.893545E5,-9.32465E5,-8.1285225E5],"categories":[],"categories_nodes":[],"categories_segments":[],"categories_sizes":[],"default_left":[0,0,0,0,0,0,0,0,0,0,0,0,0,0,0,0,0,0,0,0,0,0,0,0,0,0,0,0,0,0,0,0,0,0,0,0,0,0,0,0,0],"id":44,"left_children":[1,3,5,7,-1,-1,9,11,-1,13,15,17,-1,19,-1,21,-1,23,25,27,-1,-1,-1,-1,-1,-1,29,-1,31,33,35,37,39,-1,-1,-1,-1,-1,-1,-1,-1],"loss_changes":[2.448148E18,8.341514E14,1.7311221E20,5.3120156E14,0E0,0E0,1.0378977E16,3.142198E14,0E0,2.8202473E14,1.714201E16,6.03357E13,0E0,2.8408632E14,0E0,3.7294537E16,0E0,7.0437464E12,2.9965746E16,5.4511725E13,0E0,0E0,0E0,0E0,0E0,0E0,1.0907499E14,0E0,1.4269771E15,2.4962694E15,3.8062E13,2.6217823E14,8.536677E13,0E0,0E0,0E0,0E0,0E0,0E0,0E0,0E0],"parents":[2147483647,0,0,1,1,2,2,3,3,6,6,7,7,9,9,10,10,11,11,13,13,15,15,17,17,18,18,19,19,26,26,28,28,29,29,30,30,31,31,32,32],"right_children":[2,4,6,8,-1,-1,10,12,-1,14,16,18,-1,20,-1,22,-1,24,26,28,-1,-1,-1,-1,-1,-1,30,-1,32,34,36,38,40,-1,-1,-1,-1,-1,-1,-1,-1],"split_conditions":[9.12E2,1E0,9.26E2,1E0,-6.472714E5,1.8817427E8,1E0,1E0,-6.756305E5,1E0,1.918E3,3.89E2,-6.294457E5,1E0,-6.036643E5,1.678E3,-8.975835E5,1E0,3.93E2,1.45E3,-5.6586306E5,-9.70445E5,7.3138725E6,-9.092987E5,-2.6069286E5,2.0935088E6,5.28E2,-9.313445E5,1.538E3,5E2,1E0,1.486E3,3.014E3,-9.203265E5,-6.2121475E5,-9.2157356E5,-2.4080272E5,-2.2581288E5,-5.893545E5,-9.32465E5,-8.1285225E5],"split_indices":[0,11,0,4,0,0,6,5,0,4,0,0,0,11,0,0,0,8,0,0,0,0,0,0,0,0,0,0,0,0,8,0,0,0,0,0,0,0,0,0,0],"split_type":[0,0,0,0,0,0,0,0,0,0,0,0,0,0,0,0,0,0,0,0,0,0,0,0,0,0,0,0,0,0,0,0,0,0,0,0,0,0,0,0,0],"sum_hessian":[1.836E3,1.315E3,5.21E2,1.264E3,5.1E1,9E0,5.12E2,1.217E3,4.7E1,5.04E2,8E0,1.195E3,2.2E1,4.86E2,1.8E1,3E0,5E0,5.27E2,6.68E2,4.73E2,1.3E1,2E0,1E0,5.26E2,1E0,6E0,6.62E2,1.83E2,2.9E2,3.26E2,3.36E2,2.9E1,2.61E2,2.39E2,8.7E1,3.35E2,1E0,7E0,2.2E1,1.34E2,1.27E2],"tree_param":{"num_deleted":"0","num_feature":"13","num_nodes":"41","size_leaf_vector":"1"}},{"base_weights":[3.7414825E6,-1.8239978E7,5.866718E7,-1.84236E7,-6.198089E5,1.805547E8,-1.7786556E7,-1.8569158E7,-6.4586625E5,-1.8330956E7,1.1702142E7,-1.8653476E7,-6.023574E5,-1.850329E7,-5.5136925E5,6.376053E7,-8.8710394E5,-1.9309168E7,-1.8098366E7,-1.8681118E7,-5.746628E5,-9.4133725E5,7.149342E6,-1.4049538E7,-1.9445028E7,2.0127745E6,-1.8741276E7,-1.8714238E7,-3.2488272E5,-7.836573E5,-4.9710655E6,-8.7556594E5,-2.548284E5,-1.788665E7,-1.9526374E7,-1.8758892E7,-3.94924E5,-7.6954156E5,3.9431082E4,-8.232947E5,-5.98468E4,-2.325148E5,-8.797697E5,-8.464456E5,-4.4551984E5],"categories":[],"categories_nodes":[],"categories_segments":[],"categories_sizes":[],"default_left":[0,0,0,0,0,0,0,0,0,0,0,0,0,0,0,0,0,0,0,0,0,0,0,0,0,0,0,0,0,0,0,0,0,0,0,0,0,0,0,0,0,0,0,0,0],"id":45,"left_children":[1,3,5,7,-1,-1,9,11,-1,13,15,17,-1,19,-1,21,-1,23,25,27,-1,-1,-1,29,31,-1,33,35,-1,-1,37,-1,-1,39,41,43,-1,-1,-1,-1,-1,-1,-1,-1,-1],"loss_changes":[2.2262107E18,8.256645E14,1.5940005E20,4.807271E14,0E0,0E0,8.530355E15,2.8106266E14,0E0,3.0617963E14,1.7613605E16,8.4765475E13,0E0,2.6377971E14,0E0,3.5553275E16,0E0,1.06961866E14,2.7581576E16,4.5543833E13,0E0,0E0,0E0,4.3327952E14,1.8726057E12,0E0,9.088151E13,4.5646912E13,0E0,0E0,4.4068133E14,0E0,0E0,2.2011879E15,3.1310312E13,4.1695543E13,0E0,0E0,0E0,0E0,0E0,0E0,0E0,0E0,0E0],"parents":[2147483647,0,0,1,1,2,2,3,3,6,6,7,7,9,9,10,10,11,11,13,13,15,15,17,17,18,18,19,19,23,23,24,24,26,26,27,27,30,30,33,33,34,34,35,35],"right_children":[2,4,6,8,-1,-1,10,12,-1,14,16,18,-1,20,-1,22,-1,24,26,28,-1,-1,-1,30,32,-1,34,36,-1,-1,38,-1,-1,40,42,44,-1,-1,-1,-1,-1,-1,-1,-1,-1],"split_conditions":[9.12E2,1E0,9.26E2,1E0,-6.198089E5,1.805547E8,1E0,1E0,-6.4586625E5,1E0,1.918E3,3.89E2,-6.023574E5,1E0,-5.5136925E5,1.678E3,-8.8710394E5,1.2E2,3.93E2,1E0,-5.746628E5,-9.4133725E5,7.149342E6,1.15E2,1E0,2.0127745E6,5.28E2,1E0,-3.2488272E5,-7.836573E5,2E0,-8.7556594E5,-2.548284E5,5.23E2,2E0,3E0,-3.94924E5,-7.6954156E5,3.9431082E4,-8.232947E5,-5.98468E4,-2.325148E5,-8.797697E5,-8.464456E5,-4.4551984E5],"split_indices":[0,11,0,4,0,0,6,5,0,11,0,0,0,4,0,0,0,0,0,5,0,0,0,0,8,0,0,8,0,0,2,0,0,0,2,2,0,0,0,0,0,0,0,0,0],"split_type":[0,0,0,0,0,0,0,0,0,0,0,0,0,0,0,0,0,0,0,0,0,0,0,0,0,0,0,0,0,0,0,0,0,0,0,0,0,0,0,0,0,0,0,0,0],"sum_hessian":[1.842E3,1.316E3,5.26E2,1.261E3,5.5E1,9E0,5.17E2,1.214E3,4.7E1,5.08E2,9E0,1.192E3,2.2E1,4.92E2,1.6E1,3E0,6E0,5.31E2,6.61E2,4.75E2,1.7E1,2E0,1E0,1.6E1,5.15E2,6E0,6.55E2,4.73E2,2E0,1.1E1,5E0,5.14E2,1E0,3.25E2,3.3E2,4.7E2,3E0,1E0,4E0,3.17E2,8E0,1E0,3.29E2,4.66E2,4E0],"tree_param":{"num_deleted":"0","num_feature":"13","num_nodes":"45","size_leaf_vector":"1"}},{"base_weights":[3.4935308E6,-1.7586724E7,5.581045E7,-2.556707E7,-1.745656E7,1.732437E8,-1.6993698E7,-7.395065E5,-1.9170868E6,-1.7632402E7,-5.918859E5,-1.7520054E7,1.1707737E7,-1.7773624E7,-5.9694844E5,-1.7678306E7,-5.173772E5,6.244386E7,-8.5289375E5,-1.7854994E7,-5.7675175E5,-1.7845438E7,-5.502444E5,-9.131026E5,6.988513E6,-1.8544612E7,-1.7296598E7,-1.8928872E7,-1.712867E7,-8.3512275E5,-2.1754522E5,1.9351544E6,-1.7908172E7,-1.9019036E7,-3.2436047E5,-4.883209E5,-1.7811462E7,-7.6804044E5,-8.395501E5,-8.5770944E5,-2.4718019E5,-8.513246E5,-7.413888E5],"categories":[],"categories_nodes":[],"categories_segments":[],"categories_sizes":[],"default_left":[0,0,0,0,0,0,0,0,0,0,0,0,0,0,0,0,0,0,0,0,0,0,0,0,0,0,0,0,0,0,0,0,0,0,0,0,0,0,0,0,0,0,0],"id":46,"left_children":[1,3,5,7,9,-1,11,-1,-1,13,-1,15,17,19,-1,21,-1,23,-1,25,-1,27,-1,-1,-1,29,31,33,35,-1,-1,-1,37,39,-1,-1,41,-1,-1,-1,-1,-1,-1],"loss_changes":[2.0390554E18,9.227995E14,1.4676842E20,2.2562311E15,7.511726E14,0E0,8.0910827E15,0E0,0E0,5.32198E14,0E0,2.854779E14,1.674177E16,2.5646109E14,0E0,2.3522677E14,0E0,3.3893782E16,0E0,1.3444966E14,0E0,4.9306225E13,0E0,0E0,0E0,3.2143535E13,2.5408116E16,5.519892E13,1.0920384E15,0E0,0E0,0E0,9.835475E13,4.492536E12,0E0,0E0,8.639756E13,0E0,0E0,0E0,0E0,0E0,0E0],"parents":[2147483647,0,0,1,1,2,2,3,3,4,4,6,6,9,9,11,11,12,12,13,13,15,15,17,17,19,19,21,21,25,25,26,26,27,27,28,28,32,32,33,33,36,36],"right_children":[2,4,6,8,10,-1,12,-1,-1,14,-1,16,18,20,-1,22,-1,24,-1,26,-1,28,-1,-1,-1,30,32,34,36,-1,-1,-1,38,40,-1,-1,42,-1,-1,-1,-1,-1,-1],"split_conditions":[9.12E2,1.2E2,9.26E2,1.15E2,1E0,1.732437E8,1E0,-7.395065E5,-1.9170868E6,1E0,-5.918859E5,1E0,1.918E3,1E0,-5.9694844E5,1E0,-5.173772E5,1.678E3,-8.5289375E5,3.89E2,-5.7675175E5,1.45E3,-5.502444E5,-9.131026E5,6.988513E6,1E0,3.93E2,1E0,1.538E3,-8.3512275E5,-2.1754522E5,1.9351544E6,5.28E2,1E0,-3.2436047E5,-4.883209E5,3.014E3,-7.6804044E5,-8.395501E5,-8.5770944E5,-2.4718019E5,-8.513246E5,-7.413888E5],"split_indices":[0,0,0,0,11,0,6,0,0,4,0,11,0,5,0,4,0,0,0,0,0,0,0,0,0,12,0,12,0,0,0,0,0,8,0,0,0,0,0,0,0,0,0],"split_type":[0,0,0,0,0,0,0,0,0,0,0,0,0,0,0,0,0,0,0,0,0,0,0,0,0,0,0,0,0,0,0,0,0,0,0,0,0,0,0,0,0,0,0],"sum_hessian":[1.847E3,1.317E3,5.3E2,1.8E1,1.299E3,9E0,5.21E2,1.3E1,5E0,1.245E3,5.4E1,5.12E2,9E0,1.203E3,4.2E1,4.97E2,1.5E1,3E0,6E0,1.181E3,2.2E1,4.8E2,1.7E1,2E0,1E0,5.14E2,6.67E2,1.81E2,2.99E2,5.13E2,1E0,6E0,6.61E2,1.79E2,2E0,3.1E1,2.68E2,3.24E2,3.37E2,1.78E2,1E0,1.39E2,1.29E2],"tree_param":{"num_deleted":"0","num_feature":"13","num_nodes":"43","size_leaf_vector":"1"}},{"base_weights":[1.4571337E7,1.5638986E7,-5.923827E5,1.6725159E7,-5.5630894E5,1.715916E7,-5.4415675E5,1.727457E7,-4.15566E5,-5.4253994E5,1.7369276E7,1.7468212E7,-3.9211125E5,1.7533382E7,-3.4825594E5,7.9270325E5,2.7747975E5],"categories":[],"categories_nodes":[],"categories_segments":[],"categories_sizes":[],"default_left":[0,0,0,0,0,0,0,0,0,0,0,0,0,0,0,0,0],"id":47,"left_children":[1,3,-1,5,-1,7,-1,9,-1,-1,11,13,-1,15,-1,-1,-1],"loss_changes":[5.49037E16,5.4318658E16,0E0,2.1633407E16,0E0,5.301845E15,0E0,4.8793234E15,0E0,0E0,4.4774175E15,2.8793804E15,0E0,1.513306E15,0E0,0E0,0E0],"parents":[2147483647,0,0,1,1,3,3,5,5,7,7,10,10,11,11,13,13],"right_children":[2,4,-1,6,-1,8,-1,10,-1,-1,12,14,-1,16,-1,-1,-1],"split_conditions":[1E0,1E0,-5.923827E5,1E0,-5.5630894E5,3E0,-5.4415675E5,2E0,-4.15566E5,-5.4253994E5,1E0,1E0,-3.9211125E5,1E0,-3.4825594E5,7.9270325E5,2.7747975E5],"split_indices":[4,11,0,5,0,2,0,2,0,0,12,8,0,6,0,0,0],"split_type":[0,0,0,0,0,0,0,0,0,0,0,0,0,0,0,0,0],"sum_hessian":[1.846E3,1.778E3,6.8E1,1.712E3,6.6E1,1.687E3,2.5E1,1.68E3,7E0,5E0,1.675E3,1.669E3,6E0,1.665E3,4E0,1.652E3,1.3E1],"tree_param":{"num_deleted":"0","num_feature":"13","num_nodes":"17","size_leaf_vector":"1"}},{"base_weights":[3.0282625E6,-1.7288444E7,5.2991708E7,-1.750538E7,-5.415081E5,1.6619659E8,-1.686041E7,-1.7679472E7,-5.6494675E5,-1.7381168E7,1.1540492E7,-1.7775108E7,-5.273086E5,-1.7583444E7,-4.877834E5,6.1162624E7,-8.307035E5,-1.7797888E7,-2.966612E5,-1.778846E7,-5.0169216E5,-8.8099225E5,6.8250585E6,-1.7819126E7,-3.1869988E5,-1.784847E7,-3.837701E5,-1.7833856E7,-2.7423284E5,-1.7885182E7,-2.7493047E5,-5.880172E5,-8.0481356E5,-8.0683575E5,-3.4989503E5],"categories":[],"categories_nodes":[],"categories_segments":[],"categories_sizes":[],"default_left":[0,0,0,0,0,0,0,0,0,0,0,0,0,0,0,0,0,0,0,0,0,0,0,0,0,0,0,0,0,0,0,0,0,0,0],"id":48,"left_children":[1,3,5,7,-1,-1,9,11,-1,13,15,17,-1,19,-1,21,-1,23,-1,25,-1,-1,-1,27,-1,29,-1,31,-1,33,-1,-1,-1,-1,-1],"loss_changes":[1.864626E18,1.2774264E15,1.3511165E20,8.5662264E14,0E0,0E0,7.9209677E15,4.795245E14,0E0,4.8794264E14,1.6017983E16,1.8475231E14,0E0,4.5574757E14,0E0,3.2210998E16,0E0,1.4293651E14,0E0,1.1390253E14,0E0,0E0,0E0,9.50734E13,0E0,9.539981E13,0E0,7.12621E13,0E0,8.9902255E13,0E0,0E0,0E0,0E0,0E0],"parents":[2147483647,0,0,1,1,2,2,3,3,6,6,7,7,9,9,10,10,11,11,13,13,15,15,17,17,19,19,23,23,25,25,27,27,29,29],"right_children":[2,4,6,8,-1,-1,10,12,-1,14,16,18,-1,20,-1,22,-1,24,-1,26,-1,-1,-1,28,-1,30,-1,32,-1,34,-1,-1,-1,-1,-1],"split_conditions":[9.12E2,1E0,9.26E2,1E0,-5.415081E5,1.6619659E8,1E0,1E0,-5.6494675E5,1E0,1.918E3,1E0,-5.273086E5,1E0,-4.877834E5,1.678E3,-8.307035E5,3E0,-2.966612E5,3E0,-5.0169216E5,-8.8099225E5,6.8250585E6,1E0,-3.1869988E5,1E0,-3.837701E5,1.2E2,-2.7423284E5,1E0,-2.7493047E5,-5.880172E5,-8.0481356E5,-8.0683575E5,-3.4989503E5],"split_indices":[0,11,0,4,0,0,6,5,0,11,0,12,0,4,0,0,0,2,0,2,0,0,0,8,0,5,0,0,0,8,0,0,0,0,0],"split_type":[0,0,0,0,0,0,0,0,0,0,0,0,0,0,0,0,0,0,0,0,0,0,0,0,0,0,0,0,0,0,0,0,0,0,0],"sum_hessian":[1.835E3,1.305E3,5.3E2,1.251E3,5.4E1,9E0,5.21E2,1.206E3,4.5E1,5.12E2,9E0,1.185E3,2.1E1,4.95E2,1.7E1,3E0,6E0,1.182E3,3E0,4.78E2,1.7E1,2E0,1E0,1.179E3,3E0,4.74E2,4E0,1.177E3,2E0,4.72E2,2E0,1.6E1,1.161E3,4.69E2,3E0],"tree_param":{"num_deleted":"0","num_feature":"13","num_nodes":"35","size_leaf_vector":"1"}},{"base_weights":[2.9746515E6,-1.6487182E7,5.1809264E7,-1.6656771E7,-5.247661E5,1.594669E8,-1.6108544E7,-1.6760244E7,-5.163103E5,-1.6622977E7,1.1532604E7,-1.680463E7,-4.326348E5,-1.682395E7,-4.903216E5,5.989685E7,-7.9866825E5,-1.6832218E7,-3.7621338E5,-1.6908676E7,-8.598644E6,-8.545676E5,6.6715235E6,-1.7437802E7,-1.63276E7,-3.2654797E5,-1.6974388E7,-4.1834503E5,-9.898897E4,-1.2461372E7,-1.7574946E7,1.8609941E6,-1.6898306E7,-1.7008422E7,-2.666842E5,-7.094342E5,-1.44852E5,-7.9140144E5,-2.1630597E5,-2.292404E5,-7.615066E5,-7.667234E5,-2.7480756E5],"categories":[],"categories_nodes":[],"categories_segments":[],"categories_sizes":[],"default_left":[0,0,0,0,0,0,0,0,0,0,0,0,0,0,0,0,0,0,0,0,0,0,0,0,0,0,0,0,0,0,0,0,0,0,0,0,0,0,0,0,0,0,0],"id":49,"left_children":[1,3,5,7,-1,-1,9,11,-1,13,15,17,-1,19,-1,21,-1,23,-1,25,27,-1,-1,29,31,-1,33,-1,-1,35,37,-1,39,41,-1,-1,-1,-1,-1,-1,-1,-1,-1],"loss_changes":[1.7477097E18,8.8136165E14,1.2435451E20,4.8742725E14,0E0,0E0,7.5147497E15,2.3189387E14,0E0,3.9882207E14,1.522636E16,1.4623505E14,0E0,1.9400367E14,0E0,3.0708557E16,0E0,9.022867E13,0E0,1.8182315E14,1.0881535E13,0E0,0E0,1.5159517E14,2.3252352E16,0E0,7.852918E13,0E0,0E0,4.993423E14,1.7231409E13,0E0,1.3288629E14,6.7688685E13,0E0,0E0,0E0,0E0,0E0,0E0,0E0,0E0,0E0],"parents":[2147483647,0,0,1,1,2,2,3,3,6,6,7,7,9,9,10,10,11,11,13,13,15,15,17,17,19,19,20,20,23,23,24,24,26,26,29,29,30,30,32,32,33,33],"right_children":[2,4,6,8,-1,-1,10,12,-1,14,16,18,-1,20,-1,22,-1,24,-1,26,28,-1,-1,30,32,-1,34,-1,-1,36,38,-1,40,42,-1,-1,-1,-1,-1,-1,-1,-1,-1],"split_conditions":[9.12E2,1E0,9.26E2,1E0,-5.247661E5,1.594669E8,1E0,1E0,-5.163103E5,1E0,1.918E3,3E0,-4.326348E5,3E0,-4.903216E5,1.678E3,-7.9866825E5,3.89E2,-3.7621338E5,2E0,1E0,-8.545676E5,6.6715235E6,1.2E2,3.93E2,-3.2654797E5,1E0,-4.1834503E5,-9.898897E4,1.15E2,1E0,1.8609941E6,2E0,1E0,-2.666842E5,-7.094342E5,-1.44852E5,-7.9140144E5,-2.1630597E5,-2.292404E5,-7.615066E5,-7.667234E5,-2.7480756E5],"split_indices":[0,4,0,5,0,0,6,12,0,4,0,2,0,2,0,0,0,0,0,2,8,0,0,0,0,0,5,0,0,0,8,0,2,8,0,0,0,0,0,0,0,0,0],"split_type":[0,0,0,0,0,0,0,0,0,0,0,0,0,0,0,0,0,0,0,0,0,0,0,0,0,0,0,0,0,0,0,0,0,0,0,0,0,0,0,0,0,0,0],"sum_hessian":[1.837E3,1.314E3,5.23E2,1.267E3,4.7E1,9E0,5.14E2,1.24E3,2.7E1,5.05E2,9E0,1.231E3,9E0,4.86E2,1.9E1,3E0,6E0,1.226E3,5E0,4.8E2,6E0,2E0,1E0,5.42E2,6.84E2,4E0,4.76E2,5E0,1E0,1.7E1,5.25E2,6E0,6.78E2,4.74E2,2E0,1.2E1,5E0,5.24E2,1E0,2E0,6.76E2,4.72E2,2E0],"tree_param":{"num_deleted":"0","num_feature":"13","num_nodes":"43","size_leaf_vector":"1"}},{"base_weights":[2.7871278E6,-1.5785272E7,4.891558E7,-1.5980296E7,-4.870424E5,1.5300973E8,-1.5391905E7,-1.6137453E7,-5.1551006E5,-1.5886413E7,1.1515563E7,-1.6231397E7,-4.8463703E5,-1.6074629E7,-4.416994E5,5.8656244E7,-7.678685E5,-1.6251887E7,-2.7205222E5,-1.6261304E7,-4.5953972E5,-8.2893556E5,6.521443E6,-1.6270752E7,-2.9525112E5,-1.6315208E7,-3.5489956E5,-1.5923755E7,-1.7122684E7,-1.7376308E7,-1.5620756E7,-7.234611E5,1.24553016E5,-7.7169844E5,-1.6557461E5,-7.862827E5,-2.5567288E5,-4.330035E5,-7.3261225E5],"categories":[],"categories_nodes":[],"categories_segments":[],"categories_sizes":[],"default_left":[0,0,0,0,0,0,0,0,0,0,0,0,0,0,0,0,0,0,0,0,0,0,0,0,0,0,0,0,0,0,0,0,0,0,0,0,0,0,0],"id":50,"left_children":[1,3,5,7,-1,-1,9,11,-1,13,15,17,-1,19,-1,21,-1,23,-1,25,-1,-1,-1,27,-1,29,-1,31,33,35,37,-1,-1,-1,-1,-1,-1,-1,-1],"loss_changes":[1.5848402E18,1.10291324E15,1.1451261E20,7.155759E14,0E0,0E0,7.128658E15,4.4107596E14,0E0,4.2817388E14,1.4475127E16,1.5200748E14,0E0,3.7655696E14,0E0,2.927659E16,0E0,1.1180659E14,0E0,8.749707E13,0E0,0E0,0E0,8.002383E13,0E0,7.858931E13,0E0,2.5624806E15,6.851332E13,1.1005854E14,1.0234821E15,0E0,0E0,0E0,0E0,0E0,0E0,0E0,0E0],"parents":[2147483647,0,0,1,1,2,2,3,3,6,6,7,7,9,9,10,10,11,11,13,13,15,15,17,17,19,19,23,23,25,25,27,27,28,28,29,29,30,30],"right_children":[2,4,6,8,-1,-1,10,12,-1,14,16,18,-1,20,-1,22,-1,24,-1,26,-1,-1,-1,28,-1,30,-1,32,34,36,38,-1,-1,-1,-1,-1,-1,-1,-1],"split_conditions":[9.12E2,1E0,9.26E2,1E0,-4.870424E5,1.5300973E8,1E0,1E0,-5.1551006E5,1E0,1.918E3,1E0,-4.8463703E5,1E0,-4.416994E5,1.678E3,-7.678685E5,3E0,-2.7205222E5,3E0,-4.5953972E5,-8.2893556E5,6.521443E6,5.28E2,-2.9525112E5,1.45E3,-3.5489956E5,5.23E2,1E0,1E0,1.538E3,-7.234611E5,1.24553016E5,-7.7169844E5,-1.6557461E5,-7.862827E5,-2.5567288E5,-4.330035E5,-7.3261225E5],"split_indices":[0,11,0,4,0,0,6,5,0,11,0,12,0,4,0,0,0,2,0,2,0,0,0,0,0,0,0,0,8,12,0,0,0,0,0,0,0,0,0],"split_type":[0,0,0,0,0,0,0,0,0,0,0,0,0,0,0,0,0,0,0,0,0,0,0,0,0,0,0,0,0,0,0,0,0,0,0,0,0,0,0],"sum_hessian":[1.848E3,1.318E3,5.3E2,1.266E3,5.2E1,9E0,5.21E2,1.221E3,4.5E1,5.12E2,9E0,1.198E3,2.3E1,4.95E2,1.7E1,3E0,6E0,1.195E3,3E0,4.78E2,1.7E1,2E0,1E0,1.192E3,3E0,4.74E2,4E0,8.61E2,3.31E2,1.78E2,2.96E2,8.54E2,7E0,3.3E2,1E0,1.76E2,2E0,3.1E1,2.65E2],"tree_param":{"num_deleted":"0","num_feature":"13","num_nodes":"39","size_leaf_vector":"1"}},{"base_weights":[2.7511215E6,-1.505902E7,4.6986196E7,-1.5255856E7,-4.6553556E5,1.4681402E8,-1.4716447E7,-1.5409409E7,-4.9274216E5,-1.5198606E7,1.1489924E7,-1.5498983E7,-4.637411E5,-1.5378408E7,-4.4980312E5,5.7440344E7,-7.3825644E5,-1.5518384E7,-2.6287225E5,-1.552062E7,-4.410219E5,-8.0407225E5,6.374738E6,-1.5536206E7,-2.852883E5,-1.651817E7,-1.4850351E7,-1.520158E7,-1.6354199E7,-1.6608827E7,-2.4800417E5,-9.204691E6,-1.54737E7,-7.0721356E5,-4.7488638E5,-1.5557166E5,-7.370794E5,-7.505293E5,-3.015574E5,-2.803034E5,-4.54311E5,-7.453149E5,-6.3653725E5],"categories":[],"categories_nodes":[],"categories_segments":[],"categories_sizes":[],"default_left":[0,0,0,0,0,0,0,0,0,0,0,0,0,0,0,0,0,0,0,0,0,0,0,0,0,0,0,0,0,0,0,0,0,0,0,0,0,0,0,0,0,0,0],"id":51,"left_children":[1,3,5,7,-1,-1,9,11,-1,13,15,17,-1,19,-1,21,-1,23,-1,25,-1,-1,-1,27,-1,29,31,33,35,37,-1,39,41,-1,-1,-1,-1,-1,-1,-1,-1,-1,-1],"loss_changes":[1.4574106E18,1.0654611E15,1.0542325E20,6.666133E14,0E0,0E0,6.770423E15,3.9685498E14,0E0,3.2598802E14,1.3762147E16,1.33212706E14,0E0,2.3959905E14,0E0,2.7911768E16,0E0,9.6447786E13,0E0,7.564296E13,0E0,0E0,0E0,7.6845555E13,0E0,9.203685E13,9.0277206E14,1.896503E15,6.544671E13,1.9503446E13,0E0,2.209546E13,1.5072329E14,0E0,0E0,0E0,0E0,0E0,0E0,0E0,0E0,0E0,0E0],"parents":[2147483647,0,0,1,1,2,2,3,3,6,6,7,7,9,9,10,10,11,11,13,13,15,15,17,17,19,19,23,23,25,25,26,26,27,27,28,28,29,29,31,31,32,32],"right_children":[2,4,6,8,-1,-1,10,12,-1,14,16,18,-1,20,-1,22,-1,24,-1,26,-1,-1,-1,28,-1,30,32,34,36,38,-1,40,42,-1,-1,-1,-1,-1,-1,-1,-1,-1,-1],"split_conditions":[9.12E2,1E0,9.26E2,1E0,-4.6553556E5,1.4681402E8,1E0,1E0,-4.9274216E5,1E0,1.918E3,1E0,-4.637411E5,1E0,-4.4980312E5,1.678E3,-7.3825644E5,3E0,-2.6287225E5,1.45E3,-4.410219E5,-8.0407225E5,6.374738E6,5.28E2,-2.852883E5,1E0,1.538E3,5E2,2E0,3E0,-2.4800417E5,1.486E3,3.014E3,-7.0721356E5,-4.7488638E5,-1.5557166E5,-7.370794E5,-7.505293E5,-3.015574E5,-2.803034E5,-4.54311E5,-7.453149E5,-6.3653725E5],"split_indices":[0,11,0,4,0,0,6,5,0,4,0,12,0,11,0,0,0,2,0,0,0,0,0,0,0,12,0,0,2,2,0,0,0,0,0,0,0,0,0,0,0,0,0],"split_type":[0,0,0,0,0,0,0,0,0,0,0,0,0,0,0,0,0,0,0,0,0,0,0,0,0,0,0,0,0,0,0,0,0,0,0,0,0,0,0,0,0,0,0],"sum_hessian":[1.848E3,1.318E3,5.3E2,1.263E3,5.5E1,9E0,5.21E2,1.217E3,4.6E1,5.12E2,9E0,1.194E3,2.3E1,4.93E2,1.9E1,3E0,6E0,1.191E3,3E0,4.79E2,1.4E1,2E0,1E0,1.188E3,3E0,1.83E2,2.96E2,8.57E2,3.31E2,1.81E2,2E0,3.1E1,2.65E2,7.69E2,8.8E1,1E0,3.3E2,1.79E2,2E0,9E0,2.2E1,1.39E2,1.26E2],"tree_param":{"num_deleted":"0","num_feature":"13","num_nodes":"43","size_leaf_vector":"1"}},{"base_weights":[2.6870185E6,-1.439602E7,4.5068456E7,-1.4577966E7,-4.436339E5,1.4086915E8,-1.4022757E7,-1.4727497E7,-4.7122388E5,-1.5439235E7,-1.3119427E7,-1.4812729E7,-4.4374612E5,-1.5706445E7,-4.260142E5,-9.662229E6,-1.4241673E7,-1.4831033E7,-2.5400203E5,-1.578909E7,-2.405655E5,-1.2543243E7,6.937566E5,-1.4433128E7,-6.789605E6,-1.5395559E7,-1.435411E7,-1.5940232E7,-4.3403078E5,-8.455909E6,-1.5080223E7,-1.4576279E7,-3.8302922E5,-4.1168866E5,-3.9803622E5,-1.1359774E7,-1.5498485E7,1.8443994E6,-1.492284E7,-1.5983301E7,-1.851608E5,-2.6895328E5,-4.1382616E5,-6.9242425E5,-2.5243195E5,-1.4640974E7,-2.1598734E5,4.9121168E4,-7.690477E4,-6.8115475E5,-8.578118E4,-6.979533E5,-1.792561E5,-1.870022E5,-6.725932E5,-7.2227694E5,-2.9251247E5,-6.6029256E5,-1.5044816E5],"categories":[],"categories_nodes":[],"categories_segments":[],"categories_sizes":[],"default_left":[0,0,0,0,0,0,0,0,0,0,0,0,0,0,0,0,0,0,0,0,0,0,0,0,0,0,0,0,0,0,0,0,0,0,0,0,0,0,0,0,0,0,0,0,0,0,0,0,0,0,0,0,0,0,0,0,0,0,0],"id":52,"left_children":[1,3,5,7,-1,-1,9,11,-1,13,15,17,-1,19,-1,21,23,25,-1,27,-1,29,-1,31,33,35,37,39,-1,41,43,45,-1,47,-1,49,51,-1,53,55,-1,-1,-1,-1,-1,57,-1,-1,-1,-1,-1,-1,-1,-1,-1,-1,-1,-1,-1],"loss_changes":[1.3407798E18,9.4552846E14,9.705587E19,6.233372E14,0E0,0E0,4.666482E14,3.597121E14,0E0,1.6716013E14,1.1272185E15,1.1716671E14,0E0,7.653632E13,0E0,6.191133E15,2.5012601E14,1.00450695E14,0E0,1.8893561E13,0E0,6.501947E14,0E0,7.674677E13,1.0133103E14,4.5346265E13,2.145051E16,2.5890063E13,0E0,2.0156818E12,4.5736033E13,7.517481E13,0E0,7.719152E12,0E0,5.785832E14,2.507402E13,0E0,1.25516124E14,1.512258E13,0E0,0E0,0E0,0E0,0E0,4.1162967E13,0E0,0E0,0E0,0E0,0E0,0E0,0E0,0E0,0E0,0E0,0E0,0E0,0E0],"parents":[2147483647,0,0,1,1,2,2,3,3,6,6,7,7,9,9,10,10,11,11,13,13,15,15,16,16,17,17,19,19,21,21,23,23,24,24,25,25,26,26,27,27,29,29,30,30,31,31,33,33,35,35,36,36,38,38,39,39,45,45],"right_children":[2,4,6,8,-1,-1,10,12,-1,14,16,18,-1,20,-1,22,24,26,-1,28,-1,30,-1,32,34,36,38,40,-1,42,44,46,-1,48,-1,50,52,-1,54,56,-1,-1,-1,-1,-1,58,-1,-1,-1,-1,-1,-1,-1,-1,-1,-1,-1,-1,-1],"split_conditions":[9.12E2,1E0,9.26E2,1E0,-4.436339E5,1.4086915E8,1.45E3,1E0,-4.7122388E5,1E0,1.918E3,1E0,-4.4374612E5,1E0,-4.260142E5,1.87E3,1E0,3.89E2,-2.5400203E5,1E0,-2.405655E5,1.538E3,6.937566E5,1E0,2.25E3,1.2E2,3.93E2,1E0,-4.3403078E5,1.486E3,1E0,1E0,-3.8302922E5,2E0,-3.9803622E5,1.15E2,1E0,1.8443994E6,2E0,3E0,-1.851608E5,-2.6895328E5,-4.1382616E5,-6.9242425E5,-2.5243195E5,3E0,-2.1598734E5,4.9121168E4,-7.690477E4,-6.8115475E5,-8.578118E4,-6.979533E5,-1.792561E5,-1.870022E5,-6.725932E5,-7.2227694E5,-2.9251247E5,-6.6029256E5,-1.5044816E5],"split_indices":[0,11,0,4,0,0,0,5,0,4,0,12,0,12,0,0,11,0,0,11,0,0,0,4,0,0,0,8,0,0,11,5,0,2,0,0,8,0,2,2,0,0,0,0,0,2,0,0,0,0,0,0,0,0,0,0,0,0,0],"split_type":[0,0,0,0,0,0,0,0,0,0,0,0,0,0,0,0,0,0,0,0,0,0,0,0,0,0,0,0,0,0,0,0,0,0,0,0,0,0,0,0,0,0,0,0,0,0,0,0,0,0,0,0,0,0,0,0,0,0,0],"sum_hessian":[1.85E3,1.319E3,5.31E2,1.266E3,5.3E1,9E0,5.22E2,1.219E3,4.7E1,1.97E2,3.25E2,1.196E3,2.3E1,1.87E2,1E1,8.2E1,2.43E2,1.193E3,3E0,1.85E2,2E0,7.4E1,8E0,2.36E2,7E0,5.32E2,6.61E2,1.79E2,6E0,3E1,4.4E1,2.29E2,7E0,2E0,5E0,1.6E1,5.16E2,6E0,6.55E2,1.78E2,1E0,9E0,2.1E1,4.2E1,2E0,2.27E2,2E0,1E0,1E0,1.1E1,5E0,5.15E2,1E0,2E0,6.53E2,1.76E2,2E0,2.26E2,1E0],"tree_param":{"num_deleted":"0","num_feature":"13","num_nodes":"59","size_leaf_vector":"1"}},{"base_weights":[1.4117131E7,-1.3732046E7,8.274697E7,-1.3911412E7,-4.2536128E5,2.5569755E8,-1.3419589E7,-1.4051105E7,-4.5036966E5,-1.3884747E7,1.1924489E7,-1.4132341E7,-4.246133E5,-1.4043518E7,-8.398258E6,5.6428936E7,-6.843229E5,-1.416191E7,-3.5963403E5,-1.4204639E7,-4.022183E5,-3.920671E5,-7.517474E4,-7.5873844E5,6.215728E6,-1.4179423E7,-2.4543114E5,-1.4637898E7,-1.2888662E7,-1.3851784E7,-1.497456E7,-1.4706227E7,-3.10437E5,-1.0834011E7,-1.4774032E7,-6.299632E5,1.6550906E5,-6.749738E5,-1.3013841E5,-6.634328E5,-2.3334992E5,-6.0119825E5,1.25687125E5,-1.4190056E5,-6.7074875E5],"categories":[],"categories_nodes":[],"categories_segments":[],"categories_sizes":[],"default_left":[0,0,0,0,0,0,0,0,0,0,0,0,0,0,0,0,0,0,0,0,0,0,0,0,0,0,0,0,0,0,0,0,0,0,0,0,0,0,0,0,0,0,0,0,0],"id":53,"left_children":[1,3,5,7,-1,-1,9,11,-1,13,15,17,-1,19,21,23,-1,25,-1,27,-1,-1,-1,-1,-1,29,-1,31,33,35,37,39,-1,41,43,-1,-1,-1,-1,-1,-1,-1,-1,-1,-1],"loss_changes":[3.5293675E18,8.766887E14,2.8714094E20,5.4547803E14,0E0,0E0,6.3547907E15,3.212292E14,0E0,3.315371E14,1.2934399E16,1.0278716E14,0E0,2.8416363E14,2.1582613E13,2.6289379E16,0E0,1.03062035E14,0E0,8.672398E13,0E0,0E0,0E0,0E0,0E0,9.998684E13,0E0,8.674975E13,3.357827E14,2.285627E15,6.7972152E13,5.6152402E13,0E0,2.2770934E15,5.291829E13,0E0,0E0,0E0,0E0,0E0,0E0,0E0,0E0,0E0,0E0],"parents":[2147483647,0,0,1,1,2,2,3,3,6,6,7,7,9,9,10,10,11,11,13,13,14,14,15,15,17,17,19,19,25,25,27,27,28,28,29,29,30,30,31,31,33,33,34,34],"right_children":[2,4,6,8,-1,-1,10,12,-1,14,16,18,-1,20,22,24,-1,26,-1,28,-1,-1,-1,-1,-1,30,-1,32,34,36,38,40,-1,42,44,-1,-1,-1,-1,-1,-1,-1,-1,-1,-1],"split_conditions":[9.12E2,1E0,9.26E2,1E0,-4.2536128E5,2.5569755E8,1E0,1E0,-4.5036966E5,1E0,1.918E3,1E0,-4.246133E5,1E0,3E0,1.678E3,-6.843229E5,1E0,-3.5963403E5,3.014E3,-4.022183E5,-3.920671E5,-7.517474E4,-7.5873844E5,6.215728E6,5.28E2,-2.4543114E5,3E0,5.38E3,5.23E2,1E0,1E0,-3.10437E5,5E3,2E0,-6.299632E5,1.6550906E5,-6.749738E5,-1.3013841E5,-6.634328E5,-2.3334992E5,-6.0119825E5,1.25687125E5,-1.4190056E5,-6.7074875E5],"split_indices":[0,11,0,4,0,0,6,5,0,11,0,6,0,4,2,0,0,12,0,0,0,0,0,0,0,0,0,2,0,0,8,12,0,0,2,0,0,0,0,0,0,0,0,0,0],"split_type":[0,0,0,0,0,0,0,0,0,0,0,0,0,0,0,0,0,0,0,0,0,0,0,0,0,0,0,0,0,0,0,0,0,0,0,0,0,0,0,0,0,0,0,0,0],"sum_hessian":[1.845E3,1.313E3,5.32E2,1.258E3,5.5E1,8E0,5.24E2,1.212E3,4.6E1,5.15E2,9E0,1.189E3,2.3E1,4.99E2,1.6E1,3E0,6E0,1.182E3,7E0,4.82E2,1.7E1,1.5E1,1E0,2E0,1E0,1.179E3,3E0,3.55E2,1.27E2,8.48E2,3.31E2,3.51E2,4E0,6.4E1,6.3E1,8.41E2,7E0,3.3E2,1E0,3.49E2,2E0,5.4E1,1E1,1E0,6.2E1],"tree_param":{"num_deleted":"0","num_feature":"13","num_nodes":"45","size_leaf_vector":"1"}},{"base_weights":[2.0435805E6,-1.3129483E7,4.0030252E7,-1.330138E7,-4.065655E5,1.2481128E8,-1.3136624E7,-1.3434602E7,-4.312769E5,-1.360477E7,1.1865255E7,-1.351226E7,-4.063054E5,-1.3771644E7,-3.7412697E5,5.525437E7,-6.579327E5,-1.406442E7,-1.3046136E7,-1.3941215E7,-3.8512738E5,-7.359807E5,6.075901E6,-1.0300891E7,-1.4161344E7,1.797566E6,-1.3595143E7,-1.3973506E7,-1.9054317E5,-6.270816E5,-1.310164E6,-6.377379E5,-1.641561E5,-1.4887663E7,-1.3133857E7,-1.4022082E7,-2.9926344E5,-6.321278E5,1.8211597E5,-1.1005317E5,-6.7257406E5,-5.389426E4,-5.997287E5,-6.3212725E5,-2.2635077E5],"categories":[],"categories_nodes":[],"categories_segments":[],"categories_sizes":[],"default_left":[0,0,0,0,0,0,0,0,0,0,0,0,0,0,0,0,0,0,0,0,0,0,0,0,0,0,0,0,0,0,0,0,0,0,0,0,0,0,0,0,0,0,0,0,0],"id":54,"left_children":[1,3,5,7,-1,-1,9,11,-1,13,15,17,-1,19,-1,21,-1,23,25,27,-1,-1,-1,29,31,-1,33,35,-1,-1,37,-1,-1,39,41,43,-1,-1,-1,-1,-1,-1,-1,-1,-1],"loss_changes":[1.0581721E18,8.028668E14,7.62067E19,4.934402E14,0E0,0E0,6.1892626E15,2.921265E14,0E0,3.3210405E14,1.2301276E16,1.2225195E14,0E0,3.1281106E14,0E0,2.506554E16,0E0,4.7828756E13,1.968917E16,8.8742614E13,0E0,0E0,0E0,5.3761985E14,2.0581483E13,0E0,1.9320481E14,7.389921E13,0E0,0E0,4.6642982E14,0E0,0E0,8.8553636E13,1.1281848E15,4.6256798E13,0E0,0E0,0E0,0E0,0E0,0E0,0E0,0E0,0E0],"parents":[2147483647,0,0,1,1,2,2,3,3,6,6,7,7,9,9,10,10,11,11,13,13,15,15,17,17,18,18,19,19,23,23,24,24,26,26,27,27,30,30,33,33,34,34,35,35],"right_children":[2,4,6,8,-1,-1,10,12,-1,14,16,18,-1,20,-1,22,-1,24,26,28,-1,-1,-1,30,32,-1,34,36,-1,-1,38,-1,-1,40,42,44,-1,-1,-1,-1,-1,-1,-1,-1,-1],"split_conditions":[9.12E2,1E0,9.26E2,1E0,-4.065655E5,1.2481128E8,1E0,1E0,-4.312769E5,1E0,1.918E3,3.89E2,-4.063054E5,1E0,-3.7412697E5,1.678E3,-6.579327E5,1.2E2,3.93E2,1E0,-3.8512738E5,-7.359807E5,6.075901E6,1.15E2,1E0,1.797566E6,4.6E2,3E0,-1.9054317E5,-6.270816E5,2E0,-6.377379E5,-1.641561E5,2E0,4.67E2,1E0,-2.9926344E5,-6.321278E5,1.8211597E5,-1.1005317E5,-6.7257406E5,-5.389426E4,-5.997287E5,-6.3212725E5,-2.2635077E5],"split_indices":[0,11,0,4,0,0,6,5,0,11,0,0,0,4,0,0,0,0,0,5,0,0,0,0,12,0,0,2,0,0,2,0,0,2,0,12,0,0,0,0,0,0,0,0,0],"split_type":[0,0,0,0,0,0,0,0,0,0,0,0,0,0,0,0,0,0,0,0,0,0,0,0,0,0,0,0,0,0,0,0,0,0,0,0,0,0,0,0,0,0,0,0,0],"sum_hessian":[1.834E3,1.311E3,5.23E2,1.256E3,5.5E1,9E0,5.14E2,1.21E3,4.6E1,5.05E2,9E0,1.187E3,2.3E1,4.88E2,1.7E1,3E0,6E0,5.3E2,6.57E2,4.71E2,1.7E1,2E0,1E0,1.6E1,5.14E2,6E0,6.51E2,4.69E2,2E0,1.1E1,5E0,5.13E2,1E0,1.63E2,4.88E2,4.65E2,4E0,1E0,4E0,1E0,1.62E2,8E0,4.8E2,4.63E2,2E0],"tree_param":{"num_deleted":"0","num_feature":"13","num_nodes":"45","size_leaf_vector":"1"}},{"base_weights":[2.1784135E6,-1.2527512E7,3.8953124E7,-1.2691382E7,-3.8860022E5,1.19757464E8,-1.2150667E7,-1.2818399E7,-4.1209462E5,-1.2600869E7,1.179962E7,-1.2892242E7,-3.8878688E5,-1.2746146E7,-3.582297E5,5.410338E7,-6.3256025E5,-1.3420317E7,-1.2449708E7,-1.2884412E7,-3.5372312E5,-7.1390556E5,5.9392195E6,-9.774551E6,-1.3522677E7,1.7282446E6,-1.2976684E7,-1.3802628E7,-1.2252044E7,-1.2921891E7,-1.326222E6,-1.3536431E7,-1.4670586E5,-1.4180549E7,-1.2553053E7,-1.3873475E7,-2.1956156E5,-6.485491E6,-1.2870292E7,-1.7160411E5,-6.012195E5,-6.179077E5,1.7556097E5,-6.0958856E5,-1.6046331E5,-1.0757746E5,-6.406275E5,2.8577305E4,-5.734186E5,-6.259464E5,-1.5185103E5,-2.0560275E5,-3.189376E5,-6.2687875E5,-5.2238197E5],"categories":[],"categories_nodes":[],"categories_segments":[],"categories_sizes":[],"default_left":[0,0,0,0,0,0,0,0,0,0,0,0,0,0,0,0,0,0,0,0,0,0,0,0,0,0,0,0,0,0,0,0,0,0,0,0,0,0,0,0,0,0,0,0,0,0,0,0,0,0,0,0,0,0,0],"id":55,"left_children":[1,3,5,7,-1,-1,9,11,-1,13,15,17,-1,19,-1,21,-1,23,25,27,-1,-1,-1,29,31,-1,33,35,37,39,41,43,-1,45,47,49,-1,51,53,-1,-1,-1,-1,-1,-1,-1,-1,-1,-1,-1,-1,-1,-1,-1,-1],"loss_changes":[9.901633E17,7.2423457E14,7.0133713E19,4.447009E14,0E0,0E0,5.690866E15,2.608935E14,0E0,2.3882595E14,1.1700103E16,1.09607565E14,0E0,2.2826033E14,0E0,2.3898985E16,0E0,6.450182E13,1.8135087E16,1.0552735E14,0E0,0E0,0E0,4.614784E14,2.7839978E13,0E0,1.5450715E14,4.92418E13,9.468642E14,1.2613782E12,4.4282143E14,1.5650861E13,0E0,7.744685E13,1.2517081E15,2.8237262E13,0E0,2.2812987E12,1.8635434E14,0E0,0E0,0E0,0E0,0E0,0E0,0E0,0E0,0E0,0E0,0E0,0E0,0E0,0E0,0E0,0E0],"parents":[2147483647,0,0,1,1,2,2,3,3,6,6,7,7,9,9,10,10,11,11,13,13,15,15,17,17,18,18,19,19,23,23,24,24,26,26,27,27,28,28,29,29,30,30,31,31,33,33,34,34,35,35,37,37,38,38],"right_children":[2,4,6,8,-1,-1,10,12,-1,14,16,18,-1,20,-1,22,-1,24,26,28,-1,-1,-1,30,32,-1,34,36,38,40,42,44,-1,46,48,50,-1,52,54,-1,-1,-1,-1,-1,-1,-1,-1,-1,-1,-1,-1,-1,-1,-1,-1],"split_conditions":[9.12E2,1E0,9.26E2,1E0,-3.8860022E5,1.19757464E8,1E0,1E0,-4.1209462E5,1E0,1.918E3,3.89E2,-3.8878688E5,1E0,-3.582297E5,1.678E3,-6.3256025E5,1.2E2,3.93E2,1.45E3,-3.5372312E5,-7.1390556E5,5.9392195E6,1.15E2,1E0,1.7282446E6,4.6E2,1E0,1.538E3,2E0,2E0,1E0,-1.4670586E5,2E0,4.67E2,1E0,-2.1956156E5,1.486E3,3.014E3,-1.7160411E5,-6.012195E5,-6.179077E5,1.7556097E5,-6.0958856E5,-1.6046331E5,-1.0757746E5,-6.406275E5,2.8577305E4,-5.734186E5,-6.259464E5,-1.5185103E5,-2.0560275E5,-3.189376E5,-6.2687875E5,-5.2238197E5],"split_indices":[0,11,0,4,0,0,6,5,0,11,0,0,0,4,0,0,0,0,0,0,0,0,0,0,8,0,0,12,0,2,2,12,0,2,0,8,0,0,0,0,0,0,0,0,0,0,0,0,0,0,0,0,0,0,0],"split_type":[0,0,0,0,0,0,0,0,0,0,0,0,0,0,0,0,0,0,0,0,0,0,0,0,0,0,0,0,0,0,0,0,0,0,0,0,0,0,0,0,0,0,0,0,0,0,0,0,0,0,0,0,0,0,0],"sum_hessian":[1.829E3,1.307E3,5.22E2,1.252E3,5.5E1,9E0,5.13E2,1.206E3,4.6E1,5.04E2,9E0,1.183E3,2.3E1,4.87E2,1.7E1,3E0,6E0,5.26E2,6.57E2,4.72E2,1.5E1,2E0,1E0,1.7E1,5.09E2,6E0,6.51E2,1.84E2,2.88E2,1.2E1,5E0,5.08E2,1E0,1.61E2,4.9E2,1.82E2,2E0,2.9E1,2.59E2,1E0,1.1E1,1E0,4E0,5.07E2,1E0,1E0,1.6E2,7E0,4.83E2,1.81E2,1E0,9E0,2E1,1.35E2,1.24E2],"tree_param":{"num_deleted":"0","num_feature":"13","num_nodes":"55","size_leaf_vector":"1"}},{"base_weights":[1.3690423E7,-1.1974285E7,7.816771E7,-1.2129197E7,-3.714288E5,2.3568144E8,-1.1639389E7,-1.2252385E7,-3.9347012E5,-1.2075606E7,1.1728017E7,-1.2322021E7,-3.7202372E5,-1.221393E7,-3.4300784E5,5.2975536E7,-6.0816625E5,-1.2350025E7,-2.9767044E5,-1.2337704E7,-3.6127084E5,-6.9249256E5,5.8056135E6,-1.205073E7,-1.3087205E7,-1.3194951E7,-1.1747375E7,-1.2554599E7,-7.605955E6,-1.3131854E7,-1.7157427E5,-1.3261195E7,-2.1297598E5,-6.2540185E6,-1.2331548E7,-3.969785E5,-5.6788325E5,-3.8496122E5,8.5407625E4,-5.920019E5,-1.0082016E5,-5.9827625E5,-1.4843505E5,-1.972775E5,-3.0802453E5,-5.993063E5,-5.0429266E5],"categories":[],"categories_nodes":[],"categories_segments":[],"categories_sizes":[],"default_left":[0,0,0,0,0,0,0,0,0,0,0,0,0,0,0,0,0,0,0,0,0,0,0,0,0,0,0,0,0,0,0,0,0,0,0,0,0,0,0,0,0,0,0,0,0,0,0],"id":56,"left_children":[1,3,5,7,-1,-1,9,11,-1,13,15,17,-1,19,-1,21,-1,23,-1,25,-1,-1,-1,27,29,31,33,35,37,39,-1,41,-1,43,45,-1,-1,-1,-1,-1,-1,-1,-1,-1,-1,-1,-1],"loss_changes":[3.0573345E18,6.6144214E14,2.4382182E20,4.2095833E14,0E0,0E0,5.421739E15,2.3654962E14,0E0,2.2031464E14,1.112921E16,1.09556026E14,0E0,1.5572692E14,0E0,2.2787018E16,0E0,1.0484874E14,0E0,8.587358E13,0E0,0E0,0E0,1.828316E15,8.73897E13,4.1478647E13,8.567171E14,8.247196E13,8.291966E14,6.500433E13,0E0,2.2866406E13,0E0,3.194382E12,1.4163514E14,0E0,0E0,0E0,0E0,0E0,0E0,0E0,0E0,0E0,0E0,0E0,0E0],"parents":[2147483647,0,0,1,1,2,2,3,3,6,6,7,7,9,9,10,10,11,11,13,13,15,15,17,17,19,19,23,23,24,24,25,25,26,26,27,27,28,28,29,29,31,31,33,33,34,34],"right_children":[2,4,6,8,-1,-1,10,12,-1,14,16,18,-1,20,-1,22,-1,24,-1,26,-1,-1,-1,28,30,32,34,36,38,40,-1,42,-1,44,46,-1,-1,-1,-1,-1,-1,-1,-1,-1,-1,-1,-1],"split_conditions":[9.12E2,1E0,9.26E2,1E0,-3.714288E5,2.3568144E8,1E0,1E0,-3.9347012E5,1E0,1.918E3,1E0,-3.7202372E5,1E0,-3.4300784E5,1.678E3,-6.0816625E5,5.28E2,-2.9767044E5,1.45E3,-3.6127084E5,-6.9249256E5,5.8056135E6,5E2,1E0,1E0,1.538E3,1.2E2,5.23E2,1E0,-1.7157427E5,1E0,-2.1297598E5,1.486E3,3.014E3,-3.969785E5,-5.6788325E5,-3.8496122E5,8.5407625E4,-5.920019E5,-1.0082016E5,-5.9827625E5,-1.4843505E5,-1.972775E5,-3.0802453E5,-5.993063E5,-5.0429266E5],"split_indices":[0,11,0,4,0,0,6,5,0,11,0,6,0,4,0,0,0,0,0,0,0,0,0,0,12,12,0,0,0,8,0,8,0,0,0,0,0,0,0,0,0,0,0,0,0,0,0],"split_type":[0,0,0,0,0,0,0,0,0,0,0,0,0,0,0,0,0,0,0,0,0,0,0,0,0,0,0,0,0,0,0,0,0,0,0,0,0,0,0,0,0,0,0,0,0,0,0],"sum_hessian":[1.846E3,1.321E3,5.25E2,1.266E3,5.5E1,8E0,5.17E2,1.219E3,4.7E1,5.08E2,9E0,1.196E3,2.3E1,4.91E2,1.7E1,3E0,6E0,1.189E3,7E0,4.75E2,1.6E1,2E0,1E0,8.58E2,3.31E2,1.85E2,2.9E2,7.69E2,8.9E1,3.29E2,2E0,1.83E2,2E0,2.9E1,2.61E2,1.6E1,7.53E2,8.1E1,8E0,3.28E2,1E0,1.82E2,1E0,9E0,2E1,1.33E2,1.28E2],"tree_param":{"num_deleted":"0","num_feature":"13","num_nodes":"47","size_leaf_vector":"1"}},